~o
<STREAMINFO> 1 25
<VECSIZE> 25<NULLD><MFCC_D_N_Z_0><DIAGC>
~s "silst"
<MEAN> 25
 -8.595180e+00 6.073806e+00 -3.229494e+00 5.727699e+00 1.481566e+00 5.931790e+00 2.403407e+00 2.071420e+00 2.219458e+00 -7.143516e-01 3.440877e+00 2.342900e+00 1.797142e-01 -1.486535e-01 1.048510e-01 -1.456009e-01 2.351594e-02 -1.497637e-01 -2.597073e-02 -3.890410e-02 2.316643e-02 -1.532567e-03 -3.531182e-02 -8.770905e-02 9.845256e-01
<VARIANCE> 25
 1.190172e+02 4.929516e+01 4.522494e+01 4.030532e+01 5.367471e+01 4.988773e+01 3.483482e+01 2.872931e+01 3.125401e+01 2.165619e+01 3.443728e+01 1.790946e+01 4.196652e+00 2.982913e+00 2.725456e+00 2.389108e+00 2.699639e+00 2.908924e+00 2.221737e+00 2.418921e+00 2.216214e+00 1.906944e+00 2.005163e+00 1.611076e+00 8.263446e+00
<GCONST> 1.027443e+02
~h "@"
<BEGINHMM>
<NUMSTATES> 5
<STATE> 2
<MEAN> 25
 4.280220e+00 -1.317956e+00 -1.575080e+00 -2.785068e+00 -9.255809e-01 -5.740768e-01 -4.435403e+00 -2.116513e+00 2.323009e+00 1.712930e+00 6.666159e-01 -2.265877e+00 1.756929e+00 -8.257745e-01 1.355810e-01 -6.639811e-01 -8.621986e-01 4.860702e-01 -1.211553e+00 9.194669e-02 5.981144e-01 3.270338e-01 -7.770910e-02 -7.708622e-01 1.334978e+00
<VARIANCE> 25
 3.694202e+01 4.372605e+01 5.082509e+01 5.351047e+01 5.022981e+01 8.020261e+01 6.146685e+01 5.655005e+01 5.672272e+01 4.437569e+01 4.866462e+01 3.782920e+01 5.269312e+00 4.370079e+00 4.441633e+00 5.147028e+00 5.875603e+00 7.882306e+00 6.501866e+00 7.073486e+00 6.231469e+00 4.855802e+00 4.715907e+00 3.804532e+00 3.941321e+00
<GCONST> 1.146446e+02
<STATE> 3
<MEAN> 25
 5.636136e+00 -2.640762e+00 -1.442149e+00 -3.145856e+00 -1.539428e+00 -2.058110e-01 -5.389840e+00 -1.436798e+00 2.884348e+00 2.124727e+00 8.453647e-01 -2.844078e+00 8.542174e-01 -3.852079e-02 4.006138e-01 4.026645e-01 -2.607744e-01 3.731673e-01 -2.936927e-01 3.541473e-02 5.215028e-02 2.278320e-01 -1.853026e-01 -1.135628e-01 -1.468742e-01
<VARIANCE> 25
 2.745424e+01 4.437310e+01 5.273503e+01 5.543102e+01 5.298716e+01 8.309851e+01 6.635534e+01 6.025347e+01 6.486085e+01 4.763992e+01 5.160919e+01 4.082595e+01 2.590093e+00 2.755865e+00 3.162129e+00 3.931580e+00 4.140965e+00 5.424567e+00 4.087479e+00 5.237965e+00 4.369258e+00 3.913477e+00 3.855674e+00 2.882377e+00 2.424756e+00
<GCONST> 1.101994e+02
<STATE> 4
<MEAN> 25
 5.527110e+00 -1.257016e+00 -1.386424e-01 -2.036231e+00 -1.051543e+00 -1.187418e+00 -5.286922e+00 -1.865648e+00 1.742192e+00 2.431851e+00 1.674176e-01 -2.142841e+00 2.235523e-03 7.295318e-01 3.029089e-01 9.389164e-01 2.652552e-01 1.426692e-01 4.587776e-01 -2.119559e-01 -2.798191e-01 -2.303614e-02 -2.000219e-01 4.413968e-01 -1.139687e+00
<VARIANCE> 25
 2.457339e+01 4.295644e+01 5.778150e+01 5.659426e+01 5.939378e+01 7.694465e+01 6.187723e+01 6.015386e+01 6.297759e+01 5.155636e+01 5.115380e+01 3.784036e+01 1.331474e+00 2.588356e+00 2.779785e+00 3.448248e+00 3.385051e+00 3.715955e+00 3.548444e+00 3.841592e+00 3.596898e+00 3.167043e+00 3.104423e+00 2.561575e+00 2.367975e+00
<GCONST> 1.073147e+02
<TRANSP> 5
 0.000000e+00 1.000000e+00 0.000000e+00 0.000000e+00 0.000000e+00
 0.000000e+00 1.705351e-01 8.294649e-01 0.000000e+00 0.000000e+00
 0.000000e+00 0.000000e+00 4.570901e-02 9.542910e-01 0.000000e+00
 0.000000e+00 0.000000e+00 0.000000e+00 5.007755e-01 4.992246e-01
 0.000000e+00 0.000000e+00 0.000000e+00 0.000000e+00 0.000000e+00
<ENDHMM>
~h "a"
<BEGINHMM>
<NUMSTATES> 5
<STATE> 2
<MEAN> 25
 4.213326e+00 -6.682440e+00 -3.709747e+00 -4.036352e+00 -1.679810e-01 -1.843931e-01 -8.431558e-01 2.861927e+00 3.809361e+00 -2.186762e-01 -2.460092e+00 -3.973852e+00 3.411854e-01 -1.254221e+00 -6.456126e-01 -5.281921e-01 5.792402e-01 4.171933e-01 2.348886e-01 8.374153e-01 3.869657e-01 -5.283810e-01 -7.892053e-01 -8.649535e-01 1.070293e+00
<VARIANCE> 25
 1.997051e+01 3.840570e+01 5.414612e+01 4.902529e+01 6.257789e+01 8.099123e+01 6.410583e+01 6.310611e+01 5.205326e+01 4.627228e+01 5.100014e+01 4.570285e+01 2.214679e+00 2.776580e+00 3.424639e+00 3.330147e+00 4.712913e+00 4.902130e+00 4.766889e+00 5.024008e+00 3.860333e+00 3.904581e+00 3.815056e+00 3.266948e+00 2.474804e+00
<GCONST> 1.095584e+02
<STATE> 3
<MEAN> 25
 4.719688e+00 -9.212939e+00 -4.931722e+00 -5.380369e+00 1.478522e+00 8.244439e-01 -6.960350e-01 3.788239e+00 3.399185e+00 -1.489061e+00 -4.133954e+00 -5.840650e+00 6.076979e-02 2.828908e-01 4.147122e-02 3.811973e-01 1.679560e-01 -4.126455e-02 8.081783e-02 -1.109919e-01 -9.745193e-02 6.723269e-02 -1.590149e-01 2.711391e-01 -4.751112e-01
<VARIANCE> 25
 1.035171e+01 2.722146e+01 3.942246e+01 3.380732e+01 5.006870e+01 7.595632e+01 6.065317e+01 5.236016e+01 4.585100e+01 4.244730e+01 4.631425e+01 3.800239e+01 4.639104e-01 1.280050e+00 1.329547e+00 1.519928e+00 2.097371e+00 2.537110e+00 2.274351e+00 2.470686e+00 1.999346e+00 2.215014e+00 2.124893e+00 1.964742e+00 9.586571e-01
<GCONST> 9.659188e+01
<STATE> 4
<MEAN> 25
 1.857801e+00 -3.265398e+00 -4.110350e+00 -4.692995e-01 2.397911e+00 -5.935909e-03 1.603879e+00 2.927174e+00 2.662355e+00 -5.398579e-01 -2.723112e+00 -5.739180e-01 -2.297881e-01 8.212334e-01 3.266258e-01 7.404988e-01 2.790911e-02 9.610239e-02 -7.167586e-03 -2.689992e-01 -1.687380e-01 1.471102e-01 2.326119e-01 4.419686e-01 -1.191366e+00
<VARIANCE> 25
 3.088026e+01 3.055188e+01 4.183551e+01 4.320008e+01 4.717606e+01 5.799084e+01 5.202686e+01 4.511349e+01 4.722886e+01 3.955243e+01 4.362658e+01 3.434974e+01 1.000273e+00 1.765946e+00 1.848032e+00 2.223843e+00 2.524224e+00 2.822120e+00 2.953696e+00 2.968782e+00 2.650042e+00 2.454433e+00 2.469644e+00 2.181819e+00 1.413901e+00
<GCONST> 1.008361e+02
<TRANSP> 5
 0.000000e+00 1.000000e+00 0.000000e+00 0.000000e+00 0.000000e+00
 0.000000e+00 4.784909e-01 5.215091e-01 0.000000e+00 0.000000e+00
 0.000000e+00 0.000000e+00 7.150398e-01 2.849602e-01 0.000000e+00
 0.000000e+00 0.000000e+00 0.000000e+00 6.722376e-01 3.277624e-01
 0.000000e+00 0.000000e+00 0.000000e+00 0.000000e+00 0.000000e+00
<ENDHMM>
~h "b"
<BEGINHMM>
<NUMSTATES> 5
<STATE> 2
<MEAN> 25
 6.542849e+00 8.408020e+00 1.654596e+00 5.182969e+00 2.003616e+00 2.074327e+00 -8.535022e-01 -3.637754e+00 -3.716591e+00 -5.531731e-01 -4.424939e-01 -5.290039e-01 1.766897e-01 1.037968e+00 2.227194e-02 4.922072e-01 5.894718e-01 -1.306660e-01 3.650375e-01 -2.288990e-02 -3.654170e-01 -2.269958e-01 -5.693228e-02 1.003094e-01 -5.421702e-01
<VARIANCE> 25
 3.019638e+01 4.445145e+01 4.342131e+01 3.293480e+01 3.754525e+01 4.385764e+01 4.195201e+01 4.025702e+01 3.921708e+01 3.777702e+01 3.513268e+01 2.747108e+01 1.612577e+00 3.215850e+00 2.935509e+00 3.474170e+00 3.060493e+00 3.116108e+00 3.459858e+00 3.320236e+00 3.029808e+00 3.040576e+00 2.994922e+00 2.133516e+00 2.770152e+00
<GCONST> 1.031846e+02
<STATE> 3
<MEAN> 25
 6.301317e+00 8.877151e+00 1.293092e+00 4.666668e+00 2.711011e+00 1.596886e+00 -7.800286e-02 -4.522284e+00 -4.843499e+00 -4.328271e-01 7.989963e-01 1.980047e-01 1.555506e-01 -2.116390e+00 -1.219674e+00 -2.034792e+00 -7.654734e-01 -7.962162e-01 -1.538344e+00 -6.451091e-01 1.009660e+00 1.099941e+00 1.631296e+00 -2.136231e-01 2.897450e+00
<VARIANCE> 25
 2.916079e+01 4.910334e+01 4.022919e+01 3.931369e+01 3.609182e+01 4.967173e+01 4.263401e+01 4.568780e+01 4.348008e+01 4.078958e+01 3.452854e+01 2.928001e+01 4.202235e+00 5.235367e+00 5.964675e+00 6.597048e+00 5.921925e+00 6.523024e+00 6.816488e+00 5.942031e+00 7.117606e+00 7.255336e+00 5.577632e+00 4.229322e+00 3.918656e+00
<GCONST> 1.126350e+02
<STATE> 4
<MEAN> 25
 7.408366e+00 1.096003e+00 -2.710605e+00 -3.257411e+00 -3.022250e-01 9.985224e-01 -6.314350e+00 -5.719476e+00 4.151598e-01 5.267029e+00 4.747735e+00 -2.514690e+00 -2.251782e-01 -2.777579e+00 -4.977565e-01 -2.174899e+00 -1.157160e+00 -4.520081e-01 -1.404616e+00 1.083048e+00 2.234572e+00 8.078226e-01 1.319004e-01 -1.331812e+00 2.888604e+00
<VARIANCE> 25
 2.275550e+01 3.839081e+01 4.291715e+01 7.836181e+01 4.422629e+01 6.639199e+01 6.501457e+01 4.867409e+01 5.894286e+01 7.496769e+01 5.090145e+01 4.011395e+01 2.303523e+00 5.287630e+00 5.885039e+00 6.543544e+00 6.816235e+00 7.201711e+00 8.273759e+00 8.430756e+00 8.828773e+00 7.453492e+00 7.170554e+00 5.607062e+00 3.064634e+00
<GCONST> 1.161900e+02
<TRANSP> 5
 0.000000e+00 1.000000e+00 0.000000e+00 0.000000e+00 0.000000e+00
 0.000000e+00 6.876435e-01 3.123565e-01 0.000000e+00 0.000000e+00
 0.000000e+00 0.000000e+00 3.945518e-01 6.054481e-01 0.000000e+00
 0.000000e+00 0.000000e+00 0.000000e+00 3.597661e-01 6.402339e-01
 0.000000e+00 0.000000e+00 0.000000e+00 0.000000e+00 0.000000e+00
<ENDHMM>
~h "c"
<BEGINHMM>
<NUMSTATES> 5
<STATE> 2
<MEAN> 25
 -6.608811e+00 4.553178e+00 2.364376e+00 3.028704e-01 2.421112e+00 -1.506639e+00 1.895104e+00 3.625233e-01 1.012793e+00 9.993347e-02 2.064573e+00 1.680785e+00 -3.452287e+00 -2.534694e-02 2.395500e-01 -1.603600e+00 5.415347e-01 1.687228e-01 7.202941e-01 -5.689902e-01 4.109770e-01 -7.552223e-02 6.987566e-01 3.351928e-02 1.503403e+00
<VARIANCE> 25
 8.230059e+01 4.893294e+01 5.636048e+01 5.076450e+01 5.062101e+01 5.375891e+01 4.684930e+01 5.653615e+01 3.874996e+01 3.114384e+01 3.086686e+01 2.538007e+01 5.121039e+00 4.145777e+00 5.537064e+00 5.474185e+00 5.351274e+00 5.427945e+00 4.596726e+00 5.237939e+00 3.849382e+00 3.659885e+00 3.603555e+00 2.698088e+00 7.650362e+00
<GCONST> 1.117285e+02
<STATE> 3
<MEAN> 25
 -1.791024e+01 2.105278e+00 6.301337e+00 -5.940024e+00 2.490899e-01 -9.249817e-01 3.448003e+00 -2.366955e+00 2.415911e+00 -7.653095e-01 4.459191e+00 1.952795e+00 2.502609e+00 -8.315319e-01 3.417758e-01 4.772331e-01 -1.713865e+00 -1.288716e+00 -6.566703e-01 5.104290e-01 -6.664993e-02 -4.686408e-01 -4.976455e-01 -6.461214e-02 1.227885e+00
<VARIANCE> 25
 4.246184e+01 3.236620e+01 5.823984e+01 3.840948e+01 5.428795e+01 6.153749e+01 4.408095e+01 4.565134e+01 3.292892e+01 3.120461e+01 2.907469e+01 2.685703e+01 1.005944e+01 3.360746e+00 3.609728e+00 4.248569e+00 5.880768e+00 3.946275e+00 3.545384e+00 3.975428e+00 3.668865e+00 2.784561e+00 3.072670e+00 2.702324e+00 2.333364e+00
<GCONST> 1.075309e+02
<STATE> 4
<MEAN> 25
 -1.655986e+00 -1.373385e+00 4.076049e+00 -3.133531e+00 -4.653758e+00 -7.021444e+00 6.895205e-02 1.261595e+00 1.760890e+00 -2.449968e+00 -5.887216e-02 1.260825e+00 4.712500e+00 -2.169746e+00 -1.370424e+00 1.481777e-02 -7.604776e-01 -2.841884e-01 -9.367636e-01 8.889057e-01 3.364301e-01 -1.944343e-01 -1.336141e+00 -8.707080e-01 1.314076e+00
<VARIANCE> 25
 2.363084e+01 2.845707e+01 3.211077e+01 3.200781e+01 2.936827e+01 3.802507e+01 4.759279e+01 5.502626e+01 3.287476e+01 2.363127e+01 3.025062e+01 2.279817e+01 4.056790e+00 4.482037e+00 4.364866e+00 3.774177e+00 5.531931e+00 5.239538e+00 4.918112e+00 5.068845e+00 3.791739e+00 3.907794e+00 4.174916e+00 3.197307e+00 1.262240e+00
<GCONST> 1.052783e+02
<TRANSP> 5
 0.000000e+00 1.000000e+00 0.000000e+00 0.000000e+00 0.000000e+00
 0.000000e+00 7.696668e-01 2.303332e-01 0.000000e+00 0.000000e+00
 0.000000e+00 0.000000e+00 6.389811e-01 3.610189e-01 0.000000e+00
 0.000000e+00 0.000000e+00 0.000000e+00 4.747463e-01 5.252538e-01
 0.000000e+00 0.000000e+00 0.000000e+00 0.000000e+00 0.000000e+00
<ENDHMM>
~h "d"
<BEGINHMM>
<NUMSTATES> 5
<STATE> 2
<MEAN> 25
 5.759048e+00 4.286746e+00 3.750827e+00 6.730423e+00 -7.352646e-01 -2.114922e+00 -3.010756e+00 -5.117220e-01 1.133967e+00 -1.577556e+00 -3.436453e+00 -2.789662e-01 2.595537e-01 1.018025e+00 4.122940e-01 6.831492e-01 4.694076e-01 -6.474649e-02 1.697839e-01 -4.570337e-02 -2.919829e-01 -2.217175e-01 -1.799788e-01 7.444573e-02 -7.523545e-01
<VARIANCE> 25
 3.329034e+01 5.054053e+01 4.682985e+01 4.036108e+01 5.750629e+01 5.172584e+01 4.883415e+01 5.293985e+01 4.982084e+01 3.670226e+01 4.074589e+01 2.993733e+01 2.304770e+00 4.182829e+00 3.005479e+00 4.170292e+00 4.017636e+00 4.469153e+00 4.181322e+00 4.433807e+00 3.799417e+00 3.275242e+00 3.379469e+00 2.705099e+00 4.355917e+00
<GCONST> 1.082003e+02
<STATE> 3
<MEAN> 25
 3.742330e+00 4.457360e+00 5.168677e+00 5.552815e+00 -1.093505e-01 -3.585765e+00 -1.510683e+00 -2.356488e-01 -7.357195e-01 -2.354016e+00 -1.953419e+00 1.448352e+00 -1.125092e+00 -2.501751e+00 9.962426e-01 -2.142416e+00 -1.582896e+00 -1.562126e+00 -7.842460e-01 5.986628e-01 -1.128584e-01 -5.025925e-01 1.620807e+00 9.381119e-01 3.368570e+00
<VARIANCE> 25
 3.643732e+01 5.116207e+01 4.750916e+01 4.930586e+01 6.354672e+01 6.842985e+01 5.267018e+01 5.147800e+01 4.893774e+01 3.754743e+01 3.928798e+01 3.402949e+01 4.429861e+00 4.857458e+00 6.531551e+00 5.236723e+00 7.843528e+00 7.765379e+00 7.430682e+00 8.509186e+00 7.654751e+00 5.187103e+00 4.765206e+00 3.673747e+00 3.807485e+00
<GCONST> 1.149719e+02
<STATE> 4
<MEAN> 25
 2.844241e+00 -3.112846e+00 7.748474e+00 -5.158531e-01 -7.371193e+00 -6.942758e+00 -5.460779e+00 2.878291e+00 7.289099e-01 -2.812898e+00 2.678788e+00 2.963076e+00 -2.265956e-01 -1.768828e+00 1.499587e-01 -2.049198e+00 -1.503941e+00 -4.169695e-01 -3.909642e-01 1.185102e+00 4.574595e-01 4.099657e-01 9.028521e-01 -7.366296e-01 2.307415e+00
<VARIANCE> 25
 1.874378e+01 2.797317e+01 5.064405e+01 4.232323e+01 5.967858e+01 5.822597e+01 6.991852e+01 7.045087e+01 7.848351e+01 3.756600e+01 4.170348e+01 3.340801e+01 2.205694e+00 3.676308e+00 6.617821e+00 4.882708e+00 6.961861e+00 6.258127e+00 6.595792e+00 7.738253e+00 7.010897e+00 4.539053e+00 5.560680e+00 4.019326e+00 2.587012e+00
<GCONST> 1.125560e+02
<TRANSP> 5
 0.000000e+00 1.000000e+00 0.000000e+00 0.000000e+00 0.000000e+00
 0.000000e+00 6.665862e-01 3.334138e-01 0.000000e+00 0.000000e+00
 0.000000e+00 0.000000e+00 4.410611e-01 5.589389e-01 0.000000e+00
 0.000000e+00 0.000000e+00 0.000000e+00 3.700239e-01 6.299761e-01
 0.000000e+00 0.000000e+00 0.000000e+00 0.000000e+00 0.000000e+00
<ENDHMM>
~h "e"
<BEGINHMM>
<NUMSTATES> 5
<STATE> 2
<MEAN> 25
 2.590306e+00 -6.043663e+00 2.187534e+00 1.711213e-01 -7.488361e+00 -6.048674e+00 1.236082e+00 4.822633e+00 1.412976e+00 -8.660011e-01 6.670063e-01 -2.009408e+00 2.743916e-01 -9.705136e-01 8.233296e-01 -4.101305e-01 -1.208291e+00 -5.736250e-01 4.820852e-01 1.379448e+00 -4.422958e-01 -3.745627e-01 3.785710e-01 -3.201616e-01 1.106485e+00
<VARIANCE> 25
 2.625021e+01 5.319400e+01 5.347698e+01 3.536572e+01 5.860830e+01 6.201208e+01 7.365268e+01 5.404982e+01 5.140211e+01 4.064997e+01 4.733201e+01 3.781577e+01 3.437374e+00 3.787771e+00 3.602222e+00 3.115608e+00 5.118635e+00 4.623149e+00 5.082962e+00 5.385067e+00 4.848213e+00 3.938609e+00 4.014130e+00 3.046142e+00 2.923168e+00
<GCONST> 1.103394e+02
<STATE> 3
<MEAN> 25
 2.219886e+00 -4.697628e+00 5.835836e+00 4.762032e-01 -9.910431e+00 -6.878803e+00 2.104849e+00 4.679352e+00 -2.693219e+00 8.545799e-01 2.686651e+00 -1.742185e+00 -1.010916e-01 5.505420e-01 -2.800053e-01 4.771743e-01 5.689710e-01 3.052586e-01 2.001058e-01 -1.893046e-01 5.279756e-02 1.309412e-01 -1.906218e-01 2.527058e-01 -1.002151e+00
<VARIANCE> 25
 1.375953e+01 4.047013e+01 6.352766e+01 4.428008e+01 6.477025e+01 5.389577e+01 7.518394e+01 6.233118e+01 4.999080e+01 4.628512e+01 4.505485e+01 3.221884e+01 7.733070e-01 1.616773e+00 1.829990e+00 2.079030e+00 2.333258e+00 2.471835e+00 2.793506e+00 2.890160e+00 2.693295e+00 2.237095e+00 2.345181e+00 1.799002e+00 1.741469e+00
<GCONST> 1.010393e+02
<STATE> 4
<MEAN> 25
 -3.366047e+00 -2.340553e-01 -1.012039e+00 3.017114e+00 2.065194e+00 2.491226e+00 2.145633e+00 3.998060e+00 1.506909e+00 9.116308e-01 1.286001e+00 3.057691e+00 -9.578587e-02 1.042651e-01 -8.856295e-02 5.920589e-02 1.814960e-01 1.115868e-01 -1.302768e-02 -5.445039e-02 2.786421e-02 1.231762e-02 -6.148147e-03 6.728598e-02 -2.308543e-01
<VARIANCE> 25
 2.164917e+01 2.650443e+01 2.628742e+01 2.584453e+01 4.119818e+01 4.329264e+01 3.021247e+01 2.495887e+01 2.746477e+01 2.694879e+01 2.696535e+01 2.258984e+01 3.348691e-01 6.065300e-01 7.388993e-01 8.866876e-01 1.351277e+00 1.367629e+00 1.501705e+00 1.601876e+00 1.571209e+00 1.595245e+00 1.477145e+00 1.345444e+00 3.039503e-01
<GCONST> 8.584100e+01
<TRANSP> 5
 0.000000e+00 1.000000e+00 0.000000e+00 0.000000e+00 0.000000e+00
 0.000000e+00 6.169344e-01 3.830657e-01 0.000000e+00 0.000000e+00
 0.000000e+00 0.000000e+00 8.203402e-01 1.796599e-01 0.000000e+00
 0.000000e+00 0.000000e+00 0.000000e+00 8.685474e-01 1.314526e-01
 0.000000e+00 0.000000e+00 0.000000e+00 0.000000e+00 0.000000e+00
<ENDHMM>
~h "f"
<BEGINHMM>
<NUMSTATES> 5
<STATE> 2
<MEAN> 25
 -2.917576e+00 2.967749e+00 4.233376e+00 9.343606e+00 1.339196e+00 -2.892262e+00 1.195847e+00 -6.917849e-01 1.558354e-01 3.304930e-02 2.264390e+00 9.564325e-01 -2.585331e+00 -2.450556e-01 -1.299634e+00 4.747150e-01 1.450063e+00 1.928372e-01 2.591145e-01 1.735795e-01 1.170156e+00 1.579939e-01 -4.340486e-02 2.599214e-01 -4.736474e-01
<VARIANCE> 25
 3.991468e+01 3.147660e+01 6.914530e+01 5.773526e+01 5.839497e+01 6.023507e+01 4.149190e+01 5.027628e+01 3.511293e+01 3.492919e+01 2.669136e+01 3.137013e+01 2.191301e+00 3.876019e+00 4.235137e+00 4.129826e+00 6.656291e+00 5.327001e+00 4.496813e+00 4.342998e+00 4.037671e+00 3.508955e+00 3.017856e+00 2.684151e+00 1.896092e+00
<GCONST> 1.079495e+02
<STATE> 3
<MEAN> 25
 -8.557828e+00 5.832824e-01 6.625975e-01 5.112142e+00 4.075498e+00 -3.287363e-01 3.748154e+00 4.812963e-01 2.001637e+00 2.427307e-01 2.732261e+00 3.248368e+00 -2.647980e-01 -3.410025e-01 -1.125564e-01 -8.108852e-02 -2.785258e-02 -6.211310e-02 1.132006e-01 1.119877e-01 -6.684963e-02 -2.015486e-03 -4.262551e-02 2.101273e-02 -1.436833e-01
<VARIANCE> 25
 2.486287e+01 3.853260e+01 5.034609e+01 5.705984e+01 4.069961e+01 4.814034e+01 4.149141e+01 3.745874e+01 3.126433e+01 3.171918e+01 2.623901e+01 3.070089e+01 1.378969e+00 1.525430e+00 1.427214e+00 1.642312e+00 1.695372e+00 2.219948e+00 2.242869e+00 2.160864e+00 2.151652e+00 1.917262e+00 1.635139e+00 1.498499e+00 7.211097e-01
<GCONST> 9.578029e+01
<STATE> 4
<MEAN> 25
 -6.941268e+00 -1.494694e+00 1.031821e+00 6.404091e+00 1.861290e+00 -3.815037e+00 1.732624e+00 -2.076358e-01 2.533518e-01 3.510360e-01 1.876322e+00 1.554895e+00 3.141137e+00 3.349645e-01 1.287958e+00 -1.259835e+00 -2.038635e+00 -5.217174e-01 -9.744417e-01 -6.664613e-01 -1.594901e+00 -3.539101e-01 -3.865926e-02 -7.853899e-01 1.247651e+00
<VARIANCE> 25
 4.455930e+01 4.272292e+01 6.661659e+01 7.269465e+01 4.812376e+01 6.883949e+01 4.634503e+01 3.893174e+01 3.494399e+01 2.817804e+01 2.507546e+01 2.624607e+01 4.463791e+00 4.636689e+00 8.132414e+00 5.354904e+00 6.055469e+00 8.741857e+00 5.057218e+00 4.976405e+00 5.447268e+00 4.076929e+00 3.852575e+00 3.872548e+00 4.052623e+00
<GCONST> 1.121698e+02
<TRANSP> 5
 0.000000e+00 1.000000e+00 0.000000e+00 0.000000e+00 0.000000e+00
 0.000000e+00 6.579287e-01 3.420713e-01 0.000000e+00 0.000000e+00
 0.000000e+00 0.000000e+00 8.440292e-01 1.559708e-01 0.000000e+00
 0.000000e+00 0.000000e+00 0.000000e+00 5.206285e-01 4.793716e-01
 0.000000e+00 0.000000e+00 0.000000e+00 0.000000e+00 0.000000e+00
<ENDHMM>
~h "g"
<BEGINHMM>
<NUMSTATES> 5
<STATE> 2
<MEAN> 25
 5.541070e+00 6.236758e+00 3.395875e+00 4.961198e+00 2.014362e-01 -2.461099e+00 -3.942571e+00 -1.838416e+00 -1.694315e+00 1.067294e+00 -1.186393e+00 -1.766134e+00 -3.900566e-01 7.095349e-01 -1.707422e-01 5.986049e-01 7.915325e-01 -1.955905e-01 3.518637e-01 9.516082e-02 -3.351336e-01 -3.617587e-02 -3.332182e-01 2.964738e-01 -7.891644e-01
<VARIANCE> 25
 1.583077e+01 4.238650e+01 3.918558e+01 3.419315e+01 4.804424e+01 5.042937e+01 5.224725e+01 4.595034e+01 4.360931e+01 3.956670e+01 3.806670e+01 2.938029e+01 2.038149e+00 4.473743e+00 4.600870e+00 4.443779e+00 4.903142e+00 4.983162e+00 5.375227e+00 4.754702e+00 4.256718e+00 3.961927e+00 3.682359e+00 2.516032e+00 3.692181e+00
<GCONST> 1.077278e+02
<STATE> 3
<MEAN> 25
 1.199560e-01 3.429379e+00 2.916022e+00 2.474617e+00 3.794083e+00 -2.487140e+00 -3.021917e+00 -1.186092e+00 -2.768104e+00 1.970116e+00 -7.832044e-01 -2.053261e-01 -1.403193e+00 -1.685680e+00 8.300865e-01 -1.864800e+00 -5.493411e-01 -1.044252e+00 -7.338417e-01 3.413149e-01 -2.837617e-01 2.707084e-01 7.873991e-01 -6.978170e-02 2.625507e+00
<VARIANCE> 25
 5.068346e+01 4.837082e+01 7.583092e+01 5.354210e+01 7.087311e+01 7.585452e+01 8.134019e+01 5.846764e+01 5.337122e+01 4.484037e+01 4.290837e+01 3.547195e+01 5.681171e+00 5.427285e+00 9.946167e+00 5.726653e+00 1.014339e+01 8.186688e+00 7.652948e+00 8.342327e+00 6.729465e+00 5.544322e+00 4.817623e+00 4.269493e+00 3.096635e+00
<GCONST> 1.180455e+02
<STATE> 4
<MEAN> 25
 1.450404e+00 -4.116848e-02 6.470212e+00 -2.048713e+00 -3.891156e+00 -5.875795e+00 -5.927275e+00 6.425137e-01 -2.913027e+00 1.934965e+00 2.680622e+00 -1.902000e+00 4.137312e-01 -9.435171e-01 4.208755e-01 -1.532243e+00 -1.757386e+00 -1.010566e-01 -1.924726e-01 7.121689e-01 4.985397e-01 -1.519292e-01 7.229621e-01 -5.873210e-01 1.507298e+00
<VARIANCE> 25
 3.018391e+01 3.633884e+01 6.735938e+01 4.495755e+01 7.559625e+01 6.432949e+01 7.632802e+01 6.537773e+01 5.990972e+01 5.927942e+01 4.979038e+01 4.061410e+01 1.617628e+00 2.877480e+00 5.356067e+00 3.982898e+00 6.177658e+00 4.165544e+00 4.580702e+00 5.925275e+00 6.343623e+00 4.271112e+00 4.307799e+00 3.198670e+00 1.601296e+00
<GCONST> 1.112949e+02
<TRANSP> 5
 0.000000e+00 1.000000e+00 0.000000e+00 0.000000e+00 0.000000e+00
 0.000000e+00 6.348968e-01 3.651032e-01 0.000000e+00 0.000000e+00
 0.000000e+00 0.000000e+00 5.219116e-01 4.780884e-01 0.000000e+00
 0.000000e+00 0.000000e+00 0.000000e+00 4.526085e-01 5.473915e-01
 0.000000e+00 0.000000e+00 0.000000e+00 0.000000e+00 0.000000e+00
<ENDHMM>
~h "h"
<BEGINHMM>
<NUMSTATES> 5
<STATE> 2
<MEAN> 25
 1.403625e+00 -2.543623e+00 -4.862774e-01 4.842605e-02 3.206187e+00 6.749214e-01 2.708076e+00 1.785104e+00 7.320923e-01 -3.284228e-01 -2.652554e+00 -4.185895e-02 -6.427788e-01 2.611656e-01 -4.327478e-01 7.644730e-01 1.382445e+00 1.983272e-01 7.016573e-01 2.777137e-01 9.631055e-02 -6.814236e-02 -2.448887e-01 5.252166e-01 -8.851890e-01
<VARIANCE> 25
 2.605367e+01 4.410506e+01 7.396774e+01 5.021140e+01 8.995104e+01 7.765607e+01 7.302924e+01 6.495408e+01 4.849259e+01 4.636715e+01 5.088648e+01 4.074824e+01 1.937641e+00 3.405529e+00 4.039548e+00 3.696350e+00 4.831411e+00 4.646278e+00 4.263206e+00 4.570107e+00 3.905206e+00 3.893908e+00 3.831349e+00 2.931371e+00 2.044130e+00
<GCONST> 1.104111e+02
<STATE> 3
<MEAN> 25
 -1.774394e+00 -3.132591e+00 -3.903122e+00 7.529518e-01 6.542410e+00 1.049824e+00 3.789878e+00 1.873826e+00 1.690706e+00 -6.520773e-01 -2.601434e+00 1.873367e-01 -1.503286e-01 1.786145e-01 -3.830895e-01 1.200374e-01 5.037761e-03 1.405513e-01 -2.836098e-02 -2.419285e-02 -3.499778e-02 8.130784e-02 1.056615e-01 8.416457e-02 -5.227076e-01
<VARIANCE> 25
 4.980347e+01 5.625541e+01 7.844083e+01 6.043203e+01 8.610008e+01 7.591524e+01 7.729282e+01 6.520345e+01 4.911563e+01 4.782033e+01 5.038949e+01 4.439835e+01 2.684640e+00 3.211430e+00 3.403935e+00 3.568706e+00 4.192917e+00 4.337254e+00 4.208948e+00 3.809693e+00 3.603388e+00 3.318251e+00 3.145916e+00 2.935869e+00 4.200325e+00
<GCONST> 1.116000e+02
<STATE> 4
<MEAN> 25
 -4.143589e+00 -8.074348e-01 -2.691842e+00 2.715445e+00 4.354542e+00 2.555997e+00 1.985798e+00 2.888508e+00 7.518625e-01 1.105377e-01 4.438226e-01 2.779354e+00 -3.311528e-02 6.893276e-02 -3.196317e-02 3.536216e-03 -6.094702e-02 -7.959156e-04 -2.805773e-02 -2.903009e-02 -3.722878e-02 5.766474e-03 2.603829e-02 -2.107753e-02 -1.589723e-01
<VARIANCE> 25
 2.970481e+01 3.645473e+01 3.666344e+01 3.410275e+01 3.830233e+01 3.995259e+01 3.369196e+01 3.239036e+01 3.454919e+01 2.602269e+01 3.270041e+01 2.440389e+01 5.750199e-01 7.905818e-01 1.005047e+00 1.162010e+00 1.449515e+00 1.648466e+00 1.683209e+00 1.728773e+00 1.781037e+00 1.652729e+00 1.573900e+00 1.396434e+00 4.899794e-01
<GCONST> 9.033701e+01
<TRANSP> 5
 0.000000e+00 1.000000e+00 0.000000e+00 0.000000e+00 0.000000e+00
 0.000000e+00 3.398951e-01 6.601049e-01 0.000000e+00 0.000000e+00
 0.000000e+00 0.000000e+00 5.422931e-01 4.577069e-01 0.000000e+00
 0.000000e+00 0.000000e+00 0.000000e+00 8.520598e-01 1.479402e-01
 0.000000e+00 0.000000e+00 0.000000e+00 0.000000e+00 0.000000e+00
<ENDHMM>
~h "i"
<BEGINHMM>
<NUMSTATES> 5
<STATE> 2
<MEAN> 25
 1.758346e-01 1.576962e+00 1.395488e+01 5.803449e-01 -9.993364e+00 -5.051147e+00 -1.616489e+00 -3.165130e+00 -6.092835e+00 -5.427405e-01 3.355456e+00 -4.705140e-01 4.822645e-01 -1.572742e-01 2.772155e+00 -9.388541e-01 -2.569730e+00 1.199036e-01 -1.067057e+00 -4.851740e-01 -1.558582e+00 1.432627e-01 1.155763e+00 -6.637306e-01 1.324700e+00
<VARIANCE> 25
 2.834293e+01 4.311216e+01 6.555337e+01 5.216947e+01 6.703727e+01 6.175951e+01 5.727911e+01 6.516629e+01 5.211803e+01 4.189843e+01 4.338728e+01 3.245091e+01 4.773345e+00 3.616617e+00 5.542922e+00 5.260874e+00 6.015926e+00 6.469990e+00 6.061720e+00 6.454633e+00 5.359365e+00 4.842170e+00 4.441310e+00 3.287927e+00 2.120466e+00
<GCONST> 1.129233e+02
<STATE> 3
<MEAN> 25
 -3.185378e-01 2.751300e+00 1.848526e+01 -3.266309e+00 -1.335620e+01 -1.845021e+00 -4.381668e+00 -5.540032e+00 -7.364549e+00 -1.783198e-01 4.157887e+00 -2.600160e+00 7.918874e-02 1.656739e-01 -1.275960e-01 8.292602e-02 3.601137e-02 5.380256e-02 1.053731e-01 3.554329e-02 4.094452e-02 1.168116e-01 -8.913618e-02 -9.647311e-03 -2.888115e-01
<VARIANCE> 25
 1.185862e+01 4.063315e+01 4.844374e+01 5.727732e+01 5.046949e+01 6.588618e+01 5.104876e+01 5.915207e+01 4.826609e+01 6.053573e+01 5.371814e+01 3.458122e+01 6.134747e-01 1.311534e+00 1.802256e+00 2.005119e+00 1.957998e+00 2.289734e+00 2.264942e+00 2.596070e+00 2.127883e+00 1.978289e+00 1.892029e+00 1.552774e+00 8.248005e-01
<GCONST> 9.834377e+01
<STATE> 4
<MEAN> 25
 3.743407e-01 3.968583e+00 1.185246e+01 2.683079e+00 -8.239609e+00 -4.017990e+00 -1.585076e-01 -3.075817e+00 -5.289867e+00 2.263902e-01 2.491073e+00 7.065101e-01 -1.122866e-02 4.137675e-01 -1.832749e+00 8.167254e-01 1.540318e+00 1.814753e-01 6.375834e-01 4.272012e-01 8.827433e-01 -2.541502e-02 -6.036583e-01 5.146429e-01 -1.454382e+00
<VARIANCE> 25
 2.416533e+01 4.009563e+01 5.592852e+01 4.706000e+01 6.005899e+01 6.926974e+01 5.836530e+01 5.567426e+01 4.846274e+01 3.982573e+01 4.258601e+01 3.513083e+01 1.781275e+00 2.853602e+00 3.230199e+00 3.393223e+00 4.110617e+00 4.309952e+00 4.348752e+00 4.286749e+00 3.643629e+00 3.542513e+00 3.290413e+00 2.604928e+00 2.195593e+00
<GCONST> 1.073069e+02
<TRANSP> 5
 0.000000e+00 1.000000e+00 0.000000e+00 0.000000e+00 0.000000e+00
 0.000000e+00 5.739036e-01 4.260964e-01 0.000000e+00 0.000000e+00
 0.000000e+00 0.000000e+00 7.665303e-01 2.334697e-01 0.000000e+00
 0.000000e+00 0.000000e+00 0.000000e+00 7.260778e-01 2.739222e-01
 0.000000e+00 0.000000e+00 0.000000e+00 0.000000e+00 0.000000e+00
<ENDHMM>
~h "j"
<BEGINHMM>
<NUMSTATES> 5
<STATE> 2
<MEAN> 25
 -7.091218e-01 8.577144e+00 6.758045e+00 4.882232e+00 1.435771e+00 -2.827798e+00 2.561361e-01 6.688285e-01 -1.312965e+00 -2.190343e+00 -4.473004e-01 1.690947e+00 -1.574488e+00 6.759424e-01 7.778088e-01 -4.239154e-01 5.886125e-01 1.035404e-01 3.979164e-01 -3.582264e-01 -1.987847e-01 -7.270762e-02 2.366820e-01 5.774660e-02 5.276523e-01
<VARIANCE> 25
 7.746920e+01 4.921889e+01 4.612662e+01 4.938961e+01 6.360944e+01 6.203419e+01 5.116106e+01 4.364759e+01 4.114558e+01 3.115149e+01 3.364731e+01 2.810481e+01 6.750348e+00 5.110640e+00 4.847244e+00 5.578856e+00 5.642833e+00 5.745992e+00 5.077460e+00 4.703424e+00 3.890554e+00 3.700650e+00 3.781354e+00 2.896376e+00 5.950279e+00
<GCONST> 1.122580e+02
<STATE> 3
<MEAN> 25
 -6.157641e+00 7.092345e+00 1.417090e+01 1.419820e+00 -3.827394e+00 -4.664185e+00 -8.538612e-01 -3.911095e+00 -3.730159e+00 -3.114419e+00 3.379112e+00 3.240692e+00 1.016071e+00 -1.868858e+00 1.553028e+00 -1.261447e-01 -3.357627e+00 -1.864557e+00 -1.318083e+00 -1.627028e-01 -6.536825e-01 -2.613341e-01 1.261839e+00 5.305250e-01 2.035791e+00
<VARIANCE> 25
 4.112601e+01 4.212533e+01 4.868395e+01 5.840200e+01 8.151611e+01 8.133213e+01 5.759898e+01 4.129686e+01 3.980626e+01 3.781564e+01 3.105482e+01 3.155177e+01 6.524914e+00 4.816165e+00 5.525013e+00 5.179641e+00 6.418361e+00 6.060885e+00 6.109914e+00 5.428538e+00 4.957209e+00 4.391758e+00 3.123623e+00 3.040327e+00 1.993991e+00
<GCONST> 1.121206e+02
<STATE> 4
<MEAN> 25
 1.274800e+00 -1.098861e+00 1.227408e+01 5.835994e-01 -1.104806e+01 -8.574828e+00 -5.553051e+00 1.696299e+00 -2.032519e+00 -2.584772e+00 4.914705e+00 2.626646e+00 1.269595e+00 -1.438129e+00 -1.867601e+00 -4.550409e-01 4.128726e-01 2.867422e-01 -7.123758e-01 1.113773e+00 1.181187e+00 4.754298e-01 -5.497623e-01 -9.922397e-01 4.635366e-01
<VARIANCE> 25
 1.243916e+01 3.032325e+01 4.390816e+01 6.375983e+01 4.618825e+01 4.057555e+01 6.375194e+01 6.389692e+01 5.432450e+01 4.727633e+01 3.086925e+01 3.404407e+01 1.724228e+00 3.034391e+00 3.172681e+00 2.540605e+00 4.976334e+00 4.017078e+00 6.037195e+00 5.304253e+00 3.795404e+00 3.068602e+00 3.288941e+00 2.840578e+00 1.273395e+00
<GCONST> 1.056082e+02
<TRANSP> 5
 0.000000e+00 1.000000e+00 0.000000e+00 0.000000e+00 0.000000e+00
 0.000000e+00 7.850646e-01 2.149354e-01 0.000000e+00 0.000000e+00
 0.000000e+00 0.000000e+00 6.465192e-01 3.534808e-01 0.000000e+00
 0.000000e+00 0.000000e+00 0.000000e+00 6.630191e-01 3.369810e-01
 0.000000e+00 0.000000e+00 0.000000e+00 0.000000e+00 0.000000e+00
<ENDHMM>
~h "k"
<BEGINHMM>
<NUMSTATES> 5
<STATE> 2
<MEAN> 25
 -2.742623e+00 2.433533e+00 -3.011044e+00 2.560390e+00 2.929562e+00 6.290784e-01 1.779469e+00 9.721626e-01 5.368494e-02 1.664609e+00 1.268429e+00 8.924169e-01 -9.876537e-01 -2.198718e-01 -6.542442e-01 1.604559e-01 6.735807e-01 -2.187734e-01 -1.480008e-02 3.867538e-01 6.626878e-02 1.056605e-01 -2.165777e-02 2.639572e-01 -3.167090e-01
<VARIANCE> 25
 5.568092e+01 4.117435e+01 6.352507e+01 4.490559e+01 5.614513e+01 6.078857e+01 4.741885e+01 4.825047e+01 4.839783e+01 3.737140e+01 3.802197e+01 3.327810e+01 2.573182e+00 3.694081e+00 4.069894e+00 3.628646e+00 4.404318e+00 4.656720e+00 4.084044e+00 4.078426e+00 3.598324e+00 3.207813e+00 3.052923e+00 2.716995e+00 4.150019e+00
<GCONST> 1.089174e+02
<STATE> 3
<MEAN> 25
 -4.778071e+00 -1.389284e+00 -6.871683e+00 -1.595738e-01 6.446781e+00 -1.114264e+00 -3.860705e-01 1.779536e+00 1.628801e-01 2.825071e+00 7.258747e-01 8.530717e-01 -5.539546e-01 -1.365170e+00 -7.295568e-01 -1.408984e+00 6.182636e-01 -1.058874e+00 -4.790477e-01 6.963590e-02 2.235787e-01 3.009322e-01 -3.493551e-01 -4.751493e-01 2.754453e+00
<VARIANCE> 25
 5.081002e+01 5.567382e+01 9.633723e+01 7.332513e+01 8.284589e+01 9.799726e+01 7.388842e+01 6.739795e+01 6.908994e+01 5.258067e+01 4.901603e+01 4.896843e+01 6.673532e+00 6.177111e+00 8.634544e+00 7.056826e+00 8.273790e+00 9.224821e+00 7.408736e+00 7.050147e+00 6.925064e+00 6.025092e+00 5.719830e+00 5.006742e+00 7.057124e+00
<GCONST> 1.214128e+02
<STATE> 4
<MEAN> 25
 -2.867530e+00 -2.372569e+00 -4.416674e+00 -2.579407e+00 3.285390e+00 -3.519388e+00 1.264106e-01 1.161864e+00 8.697957e-01 2.286889e+00 -7.249175e-01 -1.550185e+00 2.211472e+00 -2.301988e-01 1.322039e+00 -7.536501e-01 -2.149822e+00 3.709278e-02 2.448251e-01 -3.191492e-01 -2.219582e-01 -8.117689e-01 -2.684372e-01 -1.433201e+00 2.085727e+00
<VARIANCE> 25
 5.026663e+01 4.221933e+01 7.431514e+01 4.960304e+01 6.800329e+01 7.634509e+01 5.421468e+01 5.383040e+01 5.210215e+01 4.422604e+01 4.322726e+01 4.738681e+01 4.874318e+00 4.829202e+00 5.333697e+00 5.417831e+00 6.305202e+00 7.470927e+00 6.128518e+00 5.615108e+00 5.990744e+00 4.814380e+00 4.888045e+00 4.618174e+00 3.413465e+00
<GCONST> 1.153400e+02
<TRANSP> 5
 0.000000e+00 1.000000e+00 0.000000e+00 0.000000e+00 0.000000e+00
 0.000000e+00 6.689751e-01 3.310248e-01 0.000000e+00 0.000000e+00
 0.000000e+00 0.000000e+00 5.205057e-01 4.794943e-01 0.000000e+00
 0.000000e+00 0.000000e+00 0.000000e+00 4.354550e-01 5.645450e-01
 0.000000e+00 0.000000e+00 0.000000e+00 0.000000e+00 0.000000e+00
<ENDHMM>
~h "l"
<BEGINHMM>
<NUMSTATES> 5
<STATE> 2
<MEAN> 25
 6.710317e+00 -3.074551e+00 -7.587907e-01 -2.552382e+00 -2.016614e+00 4.847323e-01 -5.454287e+00 -6.095193e+00 2.857474e+00 4.935887e+00 4.022180e-02 -2.373446e+00 4.920509e-01 5.225850e-02 4.060477e-02 -1.173778e-01 -1.343548e-01 7.455281e-02 -5.769806e-01 -8.219712e-01 -2.194279e-02 9.300547e-01 8.497342e-02 1.997580e-03 -1.880540e-01
<VARIANCE> 25
 1.617341e+01 2.955105e+01 4.817166e+01 6.054135e+01 4.603735e+01 7.639241e+01 6.691359e+01 6.529352e+01 7.097678e+01 5.652060e+01 4.802696e+01 3.783022e+01 9.329166e-01 1.781935e+00 3.058281e+00 3.611007e+00 3.797631e+00 4.338730e+00 4.418837e+00 4.763949e+00 4.429288e+00 3.784414e+00 3.409606e+00 3.015555e+00 1.269150e+00
<GCONST> 1.065908e+02
<STATE> 3
<MEAN> 25
 7.332519e+00 -3.224292e+00 -1.560301e+00 -4.389709e+00 -2.254899e+00 1.743674e+00 -6.118576e+00 -6.969884e+00 3.136720e+00 6.700057e+00 2.373958e-01 -2.605742e+00 -2.144533e-01 -3.085856e-01 -2.706251e-01 -7.500222e-01 5.639322e-01 1.387896e-01 9.336364e-02 9.988071e-01 4.066615e-01 -4.786851e-01 -2.619560e-01 -3.967631e-01 3.436153e-01
<VARIANCE> 25
 1.438607e+01 2.802177e+01 4.203493e+01 6.177019e+01 4.518647e+01 7.448211e+01 7.496664e+01 6.400550e+01 6.313981e+01 5.043935e+01 4.728205e+01 3.433096e+01 4.986356e-01 1.444059e+00 2.070287e+00 2.976782e+00 2.625519e+00 3.385595e+00 3.631393e+00 4.468033e+00 3.579463e+00 3.356217e+00 3.016587e+00 2.286965e+00 7.889125e-01
<GCONST> 1.025055e+02
<STATE> 4
<MEAN> 25
 5.952230e+00 -2.777603e+00 -3.388279e+00 -5.583119e+00 1.099214e+00 6.502847e-01 -3.473480e+00 -3.232708e+00 2.773443e+00 2.675596e+00 -1.374352e-01 -2.959735e+00 -3.884478e-01 -3.143836e-01 -1.141243e-01 -1.005384e-01 3.235007e-01 -4.755979e-02 6.658674e-01 1.057406e+00 -8.995486e-02 -8.830360e-01 -2.896388e-01 -7.308277e-02 2.210780e-01
<VARIANCE> 25
 1.804509e+01 3.282526e+01 5.754405e+01 7.020306e+01 4.962038e+01 9.085582e+01 9.114772e+01 6.568605e+01 6.955701e+01 5.310920e+01 6.266324e+01 4.647758e+01 6.362557e-01 1.779138e+00 2.315931e+00 2.682385e+00 2.942056e+00 3.492216e+00 3.537671e+00 4.068563e+00 3.444079e+00 3.154907e+00 3.151724e+00 2.493082e+00 1.069421e+00
<GCONST> 1.053983e+02
<TRANSP> 5
 0.000000e+00 1.000000e+00 0.000000e+00 0.000000e+00 0.000000e+00
 0.000000e+00 4.652091e-01 5.347910e-01 0.000000e+00 0.000000e+00
 0.000000e+00 0.000000e+00 4.409567e-01 5.590433e-01 0.000000e+00
 0.000000e+00 0.000000e+00 0.000000e+00 4.336745e-01 5.663255e-01
 0.000000e+00 0.000000e+00 0.000000e+00 0.000000e+00 0.000000e+00
<ENDHMM>
~h "m"
<BEGINHMM>
<NUMSTATES> 5
<STATE> 2
<MEAN> 25
 7.489729e+00 1.020989e+00 -1.542368e-01 9.622523e-01 -1.834735e-01 4.807971e+00 -1.348659e+00 -6.022474e+00 -3.919671e+00 4.610126e-01 9.036501e-02 -1.271253e+00 8.270644e-02 9.736894e-01 1.030751e+00 1.520732e+00 1.782883e-01 2.462937e-01 3.797666e-01 -1.525727e+00 -1.468726e+00 -1.674094e-01 -4.539339e-01 1.945451e-01 -9.556194e-01
<VARIANCE> 25
 1.932906e+01 3.837243e+01 4.490043e+01 4.722588e+01 4.166401e+01 5.371350e+01 4.218734e+01 4.460854e+01 4.771806e+01 4.061480e+01 3.848687e+01 2.939805e+01 9.423544e-01 2.254772e+00 3.026625e+00 3.095298e+00 2.964364e+00 3.293436e+00 3.664845e+00 3.823294e+00 3.531055e+00 3.241494e+00 3.718417e+00 2.644185e+00 1.348373e+00
<GCONST> 1.030010e+02
<STATE> 3
<MEAN> 25
 6.743186e+00 3.416306e+00 2.486585e+00 3.744991e+00 -2.409764e-01 4.430326e+00 -9.553854e-01 -7.533814e+00 -5.979396e+00 -4.706889e-01 -1.241461e+00 -1.162426e+00 6.483327e-02 1.531553e-01 2.234641e-02 -2.162180e-02 -9.563156e-02 8.795401e-02 1.083588e-01 3.776520e-02 -8.926105e-02 -8.040753e-03 2.963880e-02 3.145720e-02 -9.514271e-02
<VARIANCE> 25
 1.517298e+01 3.694741e+01 3.892397e+01 3.412887e+01 4.013422e+01 4.909856e+01 4.594979e+01 5.394887e+01 5.784234e+01 5.157190e+01 4.421278e+01 3.360885e+01 3.525811e-01 9.116817e-01 1.149277e+00 1.419682e+00 1.498077e+00 1.743079e+00 1.626555e+00 1.975062e+00 1.996849e+00 1.744545e+00 1.723746e+00 1.428097e+00 5.265028e-01
<GCONST> 9.316281e+01
<STATE> 4
<MEAN> 25
 7.704844e+00 1.440718e+00 -2.539747e-01 1.315951e-01 -4.310472e-01 6.079000e+00 -4.406868e-01 -6.483616e+00 -4.646495e+00 1.135344e-01 5.191281e-01 -7.889428e-01 1.581221e-01 -1.257374e+00 -1.370027e+00 -1.650222e+00 2.368077e-02 4.808951e-01 -3.079405e-01 1.211477e+00 1.673384e+00 4.683279e-02 3.507920e-01 -3.404566e-01 1.272938e+00
<VARIANCE> 25
 1.919359e+01 4.343602e+01 5.389970e+01 5.845679e+01 4.615527e+01 6.004600e+01 4.912885e+01 4.946199e+01 5.661369e+01 4.546583e+01 4.330402e+01 3.291918e+01 1.394796e+00 3.782292e+00 4.910136e+00 4.555890e+00 4.779820e+00 4.710042e+00 5.557639e+00 5.310848e+00 6.199354e+00 4.796584e+00 4.266712e+00 3.818676e+00 2.099430e+00
<GCONST> 1.097611e+02
<TRANSP> 5
 0.000000e+00 1.000000e+00 0.000000e+00 0.000000e+00 0.000000e+00
 0.000000e+00 5.415299e-01 4.584701e-01 0.000000e+00 0.000000e+00
 0.000000e+00 0.000000e+00 6.993926e-01 3.006074e-01 0.000000e+00
 0.000000e+00 0.000000e+00 0.000000e+00 5.249363e-01 4.750637e-01
 0.000000e+00 0.000000e+00 0.000000e+00 0.000000e+00 0.000000e+00
<ENDHMM>
~h "n"
<BEGINHMM>
<NUMSTATES> 5
<STATE> 2
<MEAN> 25
 6.516894e+00 -2.321259e+00 1.927459e+00 2.948135e+00 -1.976581e+00 -3.003875e-01 -3.068829e+00 -4.674712e-01 2.006536e+00 -3.478814e-01 -4.774603e+00 -9.496529e-01 5.080894e-01 1.805664e+00 8.678536e-01 1.749774e+00 -5.838802e-01 9.632205e-02 -4.887379e-02 -2.048911e+00 -3.104317e-01 5.444604e-01 -3.874469e-01 5.486786e-01 -1.952067e+00
<VARIANCE> 25
 1.581466e+01 4.311624e+01 4.554948e+01 3.636281e+01 5.219041e+01 5.508157e+01 4.951601e+01 6.385282e+01 5.397194e+01 4.540965e+01 4.247338e+01 3.634304e+01 1.268835e+00 2.411159e+00 4.099574e+00 2.899219e+00 4.585082e+00 4.351668e+00 4.279325e+00 4.787144e+00 4.021189e+00 3.792565e+00 3.877025e+00 3.051162e+00 9.494507e-01
<GCONST> 1.058027e+02
<STATE> 3
<MEAN> 25
 6.173807e+00 3.492409e+00 3.096658e+00 5.721370e+00 -1.965456e+00 -9.694146e-01 -1.728691e+00 -4.303039e+00 -1.090598e+00 3.308844e-01 -5.008044e+00 -7.017409e-01 -2.334742e-01 7.027062e-01 4.436475e-02 2.209519e-01 3.040867e-01 1.848350e-01 1.851089e-01 2.662134e-03 -1.853764e-01 -4.008389e-02 2.417499e-01 1.837412e-01 -8.308436e-01
<VARIANCE> 25
 1.401384e+01 3.763638e+01 3.745120e+01 2.838588e+01 4.807788e+01 5.013969e+01 3.971145e+01 4.734717e+01 4.461958e+01 4.683540e+01 4.181008e+01 3.531721e+01 7.078391e-01 1.328902e+00 1.435996e+00 1.426503e+00 2.078287e+00 2.142174e+00 2.069176e+00 2.709994e+00 2.292230e+00 2.030101e+00 2.149364e+00 1.684754e+00 4.891185e-01
<GCONST> 9.543561e+01
<STATE> 4
<MEAN> 25
 -3.301111e+00 1.763528e+00 -9.485787e-01 4.691895e+00 2.633487e+00 2.790599e+00 1.791829e+00 2.476811e+00 8.891727e-01 6.935196e-01 7.037227e-01 3.432966e+00 -1.560175e-01 1.220032e-02 -5.412039e-02 -2.330365e-02 5.131437e-02 3.773961e-02 4.433904e-02 7.785506e-02 -1.121897e-02 5.524982e-03 1.067483e-01 3.404782e-02 -1.474366e-01
<VARIANCE> 25
 3.090761e+01 2.786170e+01 2.928542e+01 2.481457e+01 3.415170e+01 3.093731e+01 2.963470e+01 3.402820e+01 3.029684e+01 2.541288e+01 2.968925e+01 2.225006e+01 3.841718e-01 6.532083e-01 7.704440e-01 9.638014e-01 1.234638e+00 1.420093e+00 1.511607e+00 1.676459e+00 1.676678e+00 1.553073e+00 1.499322e+00 1.340827e+00 2.636254e-01
<GCONST> 8.644534e+01
<TRANSP> 5
 0.000000e+00 1.000000e+00 0.000000e+00 0.000000e+00 0.000000e+00
 0.000000e+00 5.811207e-01 4.188793e-01 0.000000e+00 0.000000e+00
 0.000000e+00 0.000000e+00 7.495451e-01 2.504549e-01 0.000000e+00
 0.000000e+00 0.000000e+00 0.000000e+00 8.711957e-01 1.288042e-01
 0.000000e+00 0.000000e+00 0.000000e+00 0.000000e+00 0.000000e+00
<ENDHMM>
~h "o"
<BEGINHMM>
<NUMSTATES> 5
<STATE> 2
<MEAN> 25
 5.510697e+00 6.494808e-01 -7.202932e+00 -7.319237e+00 -5.846110e-01 4.459352e+00 -1.384768e+00 -2.780941e+00 -1.423490e-01 1.360434e+00 3.570162e+00 -8.557168e-01 1.699228e+00 -1.566702e-01 -6.478895e-01 -2.275396e+00 -6.426785e-01 1.726874e+00 -1.400378e-01 -5.153965e-01 -1.783466e-01 1.554942e-01 7.787868e-01 -5.936047e-01 1.798886e+00
<VARIANCE> 25
 3.783449e+01 3.697497e+01 5.411160e+01 8.126428e+01 5.672523e+01 8.050224e+01 6.625064e+01 4.782057e+01 5.279433e+01 5.082683e+01 4.908502e+01 3.542856e+01 4.863131e+00 3.811212e+00 4.733088e+00 7.000462e+00 6.462964e+00 7.613214e+00 6.524398e+00 5.620265e+00 5.793236e+00 5.263036e+00 4.992804e+00 3.719845e+00 4.892994e+00
<GCONST> 1.152674e+02
<STATE> 3
<MEAN> 25
 8.162367e+00 -1.384395e+00 -8.291756e+00 -1.200822e+01 -2.480518e+00 9.826187e+00 -1.296500e+00 -3.806964e+00 9.397759e-01 8.763561e-02 6.809431e+00 -1.746408e+00 9.174728e-02 -3.169895e-01 4.142985e-02 1.595469e-02 2.294683e-01 3.991458e-01 -1.862808e-02 -1.891119e-01 1.299803e-01 3.974222e-01 -2.702557e-01 -2.171015e-01 5.334478e-02
<VARIANCE> 25
 1.615081e+01 3.415514e+01 4.040822e+01 7.092147e+01 4.793840e+01 8.088489e+01 7.667258e+01 5.904471e+01 5.970696e+01 6.426152e+01 5.785656e+01 5.175893e+01 7.805074e-01 2.239443e+00 1.906041e+00 4.119131e+00 3.425939e+00 4.274386e+00 4.105370e+00 3.552907e+00 4.008870e+00 4.083781e+00 3.450557e+00 3.162382e+00 1.767984e+00
<GCONST> 1.068966e+02
<STATE> 4
<MEAN> 25
 7.680050e+00 2.800169e-02 -6.811975e+00 -9.921501e+00 -2.234577e-01 6.794123e+00 -4.479197e-01 -4.261557e+00 -7.210334e-01 2.945713e+00 2.884149e+00 -1.203077e+00 -2.305407e-01 3.037916e-01 4.006639e-01 1.192163e+00 3.764178e-01 -7.374855e-01 -2.729973e-02 1.521693e-01 1.182141e-01 -4.601936e-02 -5.612295e-01 1.933990e-01 -7.736834e-01
<VARIANCE> 25
 1.427158e+01 4.283747e+01 4.140877e+01 6.202890e+01 5.237774e+01 7.788342e+01 6.582462e+01 4.895691e+01 5.204503e+01 4.086189e+01 3.789999e+01 4.925816e+01 6.210933e-01 1.380745e+00 1.873392e+00 3.094356e+00 2.439564e+00 3.521929e+00 2.591630e+00 2.652725e+00 2.651721e+00 2.328081e+00 2.415927e+00 1.983188e+00 1.084900e+00
<GCONST> 1.009506e+02
<TRANSP> 5
 0.000000e+00 1.000000e+00 0.000000e+00 0.000000e+00 0.000000e+00
 0.000000e+00 5.351034e-01 4.648967e-01 0.000000e+00 0.000000e+00
 0.000000e+00 0.000000e+00 6.805027e-01 3.194973e-01 0.000000e+00
 0.000000e+00 0.000000e+00 0.000000e+00 7.659841e-01 2.340159e-01
 0.000000e+00 0.000000e+00 0.000000e+00 0.000000e+00 0.000000e+00
<ENDHMM>
~h "p"
<BEGINHMM>
<NUMSTATES> 5
<STATE> 2
<MEAN> 25
 -2.116093e+00 3.437028e+00 -4.148558e+00 3.299992e+00 3.014870e+00 8.132114e-01 1.602691e+00 1.180805e+00 4.222142e-01 1.812604e+00 1.091793e+00 1.312830e+00 -7.325853e-01 -1.372445e-02 -3.305514e-01 1.700599e-01 1.360126e-01 -2.278911e-01 3.735614e-01 2.270963e-01 4.092820e-02 -3.063092e-03 1.539711e-01 2.590726e-01 -5.391656e-01
<VARIANCE> 25
 5.717365e+01 4.063504e+01 4.990614e+01 3.597165e+01 3.087633e+01 4.819127e+01 3.704707e+01 3.823181e+01 4.391636e+01 3.222290e+01 3.044336e+01 2.494903e+01 2.001089e+00 2.368844e+00 2.514165e+00 2.657036e+00 2.673436e+00 3.119781e+00 2.790154e+00 2.968429e+00 2.863426e+00 2.404458e+00 2.299432e+00 1.911381e+00 3.548985e+00
<GCONST> 1.020062e+02
<STATE> 3
<MEAN> 25
 -1.890603e+00 1.484829e+00 -4.122222e+00 1.949619e+00 1.981705e+00 -1.065992e+00 2.231334e+00 -3.539867e-01 1.819849e-01 1.174464e+00 1.883571e+00 1.387218e+00 1.407679e+00 -1.984062e+00 -7.851429e-01 -2.180978e+00 -7.885668e-01 3.133081e-01 -4.921088e-01 -1.157717e+00 3.034944e-01 5.310008e-02 4.929749e-01 -1.064423e+00 4.093832e+00
<VARIANCE> 25
 3.795332e+01 3.584068e+01 4.078338e+01 4.502060e+01 3.662601e+01 5.613224e+01 3.912950e+01 3.893538e+01 3.851851e+01 3.288873e+01 3.101878e+01 2.458404e+01 6.900472e+00 5.042228e+00 6.794023e+00 6.490377e+00 5.634045e+00 9.324540e+00 6.139129e+00 5.129371e+00 5.748478e+00 4.695763e+00 4.947084e+00 4.190847e+00 6.527673e+00
<GCONST> 1.123663e+02
<STATE> 4
<MEAN> 25
 4.798405e+00 -3.636100e+00 -6.681759e+00 -5.021858e+00 3.732541e-01 3.737378e+00 2.307711e-01 -3.854787e+00 2.100007e+00 1.929323e+00 2.929355e+00 -3.217116e+00 1.556347e+00 -1.312701e+00 -2.413062e-01 -1.453464e+00 -6.161173e-01 7.154465e-01 -8.274743e-01 -1.681577e-01 4.101301e-01 1.479460e-01 -5.091193e-02 -1.260714e+00 2.601681e+00
<VARIANCE> 25
 4.338901e+01 3.408231e+01 4.296333e+01 5.437259e+01 4.238232e+01 8.122781e+01 5.791063e+01 4.665189e+01 4.321138e+01 4.222229e+01 4.442927e+01 4.464244e+01 5.454665e+00 5.664752e+00 6.105711e+00 7.237735e+00 6.483780e+00 1.156440e+01 6.559107e+00 5.704956e+00 6.258843e+00 5.095893e+00 5.420809e+00 5.566226e+00 9.827734e+00
<GCONST> 1.164626e+02
<TRANSP> 5
 0.000000e+00 1.000000e+00 0.000000e+00 0.000000e+00 0.000000e+00
 0.000000e+00 7.543485e-01 2.456515e-01 0.000000e+00 0.000000e+00
 0.000000e+00 0.000000e+00 4.448385e-01 5.551615e-01 0.000000e+00
 0.000000e+00 0.000000e+00 0.000000e+00 4.328605e-01 5.671395e-01
 0.000000e+00 0.000000e+00 0.000000e+00 0.000000e+00 0.000000e+00
<ENDHMM>
~h "q"
<BEGINHMM>
<NUMSTATES> 5
<STATE> 2
<MEAN> 25
 2.775400e+00 -8.608573e+00 -8.929111e+00 -4.469226e+00 6.068197e+00 3.924059e-01 5.807103e+00 1.260782e+00 3.488719e+00 -7.431228e-01 -5.134270e+00 -4.300429e+00 6.134723e-02 -5.039560e-01 1.268283e-01 6.297826e-02 7.268436e-02 3.980767e-01 -1.666524e-01 -7.959850e-02 -4.980635e-02 -3.251337e-01 -2.452501e-01 1.485052e-01 6.876937e-02
<VARIANCE> 25
 1.705441e+01 3.984017e+01 7.588630e+01 4.167740e+01 7.570132e+01 8.028481e+01 6.207875e+01 4.847532e+01 3.878252e+01 3.935501e+01 4.454064e+01 5.192211e+01 9.422813e-01 1.664786e+00 1.957969e+00 1.639628e+00 2.007938e+00 2.218745e+00 1.942011e+00 2.174680e+00 1.816007e+00 1.784843e+00 1.958284e+00 2.023830e+00 1.269005e+00
<GCONST> 9.966853e+01
<STATE> 3
<MEAN> 25
 3.911420e+00 -9.987726e+00 -5.136366e+00 -4.660917e+00 4.918745e+00 2.739092e+00 1.667757e+00 2.241434e+00 2.206911e+00 -2.917483e+00 -5.917964e+00 -1.839503e+00 -4.973430e-03 -4.647407e-02 1.103346e-01 1.482974e-01 -2.928838e-03 -5.744982e-03 -9.554853e-02 5.545631e-02 -4.912089e-02 -8.682437e-02 -1.850657e-02 1.418793e-01 5.336024e-04
<VARIANCE> 25
 1.035456e+01 3.560021e+01 3.446124e+01 4.115967e+01 4.453643e+01 6.000640e+01 3.857729e+01 3.498022e+01 3.644865e+01 3.551485e+01 3.255939e+01 3.102581e+01 2.537657e-01 5.580829e-01 7.851844e-01 8.699154e-01 9.310253e-01 1.192852e+00 1.075801e+00 1.056905e+00 9.902001e-01 1.102828e+00 8.961380e-01 1.004373e+00 3.875013e-01
<GCONST> 8.522814e+01
<STATE> 4
<MEAN> 25
 -3.341855e+00 -1.707397e+00 -2.837612e+00 1.818367e+00 1.983044e+00 4.201141e+00 -3.476495e-01 4.160076e+00 1.928048e+00 7.608494e-01 3.914941e-01 3.162126e+00 -1.022771e-02 4.499867e-02 2.093528e-02 7.268548e-02 -3.978153e-02 -5.623313e-02 -6.733048e-02 3.046636e-02 -1.936426e-02 -1.433652e-02 -2.665012e-03 4.273439e-02 -6.659567e-02
<VARIANCE> 25
 1.984950e+01 2.728818e+01 2.517350e+01 2.174275e+01 2.042223e+01 2.640901e+01 2.356941e+01 2.177267e+01 2.393737e+01 2.041961e+01 2.546944e+01 1.886732e+01 2.020912e-01 3.914022e-01 5.618894e-01 7.419802e-01 9.416434e-01 1.140993e+00 1.190068e+00 1.287433e+00 1.367980e+00 1.287968e+00 1.271617e+00 1.163370e+00 1.424934e-01
<GCONST> 7.954045e+01
<TRANSP> 5
 0.000000e+00 1.000000e+00 0.000000e+00 0.000000e+00 0.000000e+00
 0.000000e+00 5.828092e-01 4.171908e-01 0.000000e+00 0.000000e+00
 0.000000e+00 0.000000e+00 7.481765e-01 2.518235e-01 0.000000e+00
 0.000000e+00 0.000000e+00 0.000000e+00 8.486131e-01 1.513869e-01
 0.000000e+00 0.000000e+00 0.000000e+00 0.000000e+00 0.000000e+00
<ENDHMM>
~h "r"
<BEGINHMM>
<NUMSTATES> 5
<STATE> 2
<MEAN> 25
 5.306004e+00 -4.546026e+00 -2.715265e+00 1.094664e+00 -2.887296e+00 -2.072438e+00 -3.187874e+00 4.511462e-01 5.319111e+00 6.466169e-01 -6.278243e-01 -1.915939e+00 2.941709e-02 6.130920e-02 4.700609e-01 1.255294e+00 -4.301356e-01 -9.140029e-02 -3.368443e-01 4.195328e-02 1.637411e-02 -2.918122e-01 3.810108e-01 6.442467e-01 -8.152316e-01
<VARIANCE> 25
 2.248839e+01 3.372076e+01 4.999815e+01 4.893922e+01 5.719279e+01 6.098084e+01 6.293137e+01 5.920715e+01 5.590302e+01 4.645376e+01 4.754299e+01 3.780533e+01 2.596059e+00 2.902966e+00 3.761572e+00 4.456713e+00 5.193592e+00 5.415132e+00 4.752858e+00 4.843136e+00 4.942647e+00 4.329981e+00 4.097629e+00 3.980025e+00 3.439946e+00
<GCONST> 1.105194e+02
<STATE> 3
<MEAN> 25
 5.024153e+00 -3.607450e+00 -1.045979e+00 2.951076e+00 -3.018900e+00 -2.206616e+00 -3.720294e+00 5.909035e-01 4.519647e+00 8.866944e-02 9.331819e-01 -3.845825e-01 -3.012367e-01 2.962031e-01 6.754221e-01 5.162115e-01 -7.525808e-03 -1.113543e-01 1.194269e-01 9.147793e-02 -7.081319e-01 -1.855420e-01 5.548607e-01 6.254086e-01 -6.785005e-01
<VARIANCE> 25
 2.524656e+01 3.304109e+01 5.568136e+01 4.465784e+01 5.734030e+01 5.617986e+01 6.024544e+01 5.465738e+01 5.115215e+01 4.269908e+01 4.443274e+01 3.648826e+01 2.272056e+00 2.777399e+00 3.843449e+00 3.515771e+00 4.560508e+00 4.612900e+00 4.091708e+00 4.205956e+00 4.237954e+00 3.623282e+00 3.750741e+00 3.257775e+00 2.458558e+00
<GCONST> 1.082207e+02
<STATE> 4
<MEAN> 25
 2.834139e+00 -2.721665e+00 -2.192454e-01 2.910955e+00 -1.787720e+00 -2.304986e+00 -2.108525e+00 1.202780e+00 2.481715e+00 -5.877320e-01 1.241005e+00 5.692854e-01 -2.624423e-01 3.500271e-01 3.780299e-01 -8.640908e-02 3.286534e-02 5.481384e-02 2.959796e-01 -6.937943e-02 -6.447816e-01 7.908483e-03 2.296993e-01 1.071580e-01 -3.747279e-01
<VARIANCE> 25
 4.071824e+01 3.913364e+01 6.416090e+01 4.384121e+01 5.285134e+01 6.017862e+01 4.864899e+01 5.349889e+01 4.839542e+01 4.118296e+01 4.373089e+01 3.442555e+01 1.591205e+00 2.212147e+00 2.784989e+00 2.327346e+00 3.365499e+00 3.012476e+00 2.914051e+00 3.090524e+00 3.281907e+00 2.621972e+00 2.726115e+00 2.235669e+00 1.826448e+00
<GCONST> 1.043097e+02
<TRANSP> 5
 0.000000e+00 1.000000e+00 0.000000e+00 0.000000e+00 0.000000e+00
 0.000000e+00 3.503262e-01 6.496738e-01 0.000000e+00 0.000000e+00
 0.000000e+00 0.000000e+00 1.025245e-01 8.974756e-01 0.000000e+00
 0.000000e+00 0.000000e+00 0.000000e+00 5.224921e-01 4.775079e-01
 0.000000e+00 0.000000e+00 0.000000e+00 0.000000e+00 0.000000e+00
<ENDHMM>
~h "s"
<BEGINHMM>
<NUMSTATES> 5
<STATE> 2
<MEAN> 25
 -7.388622e+00 5.122699e+00 4.488106e-01 7.430655e-01 6.423223e+00 -3.873139e+00 3.799484e+00 1.486124e+00 1.992472e+00 -4.097831e-01 -3.142310e-01 1.368023e+00 -4.190295e+00 1.895195e+00 -4.370596e-01 -1.248492e-01 1.672167e+00 -8.058366e-01 1.493869e+00 3.279969e-01 3.702565e-01 -4.243319e-01 8.365064e-01 6.357896e-01 2.792349e-01
<VARIANCE> 25
 7.562891e+01 5.132591e+01 7.522058e+01 4.956901e+01 7.556034e+01 7.624017e+01 8.196017e+01 6.207114e+01 5.182315e+01 4.370144e+01 4.825249e+01 3.454182e+01 3.267637e+00 4.194969e+00 4.668854e+00 4.576632e+00 6.135478e+00 6.772310e+00 6.554472e+00 5.338568e+00 4.405827e+00 3.964953e+00 4.162013e+00 3.080419e+00 2.037254e+00
<GCONST> 1.138569e+02
<STATE> 3
<MEAN> 25
 -1.905971e+01 7.063664e+00 -1.820160e+00 -2.414913e-01 7.714520e+00 -5.177426e+00 6.562446e+00 1.434236e+00 1.959535e+00 -1.298684e+00 2.565406e+00 3.257217e+00 -4.258268e-01 -4.059161e-01 -1.405553e-01 -1.503665e-01 -1.792974e-01 -2.473323e-02 2.743070e-02 7.913230e-02 4.079801e-02 -3.826546e-03 5.165733e-02 6.565616e-02 -3.318515e-01
<VARIANCE> 25
 3.741633e+01 4.156867e+01 5.776742e+01 5.434971e+01 6.089908e+01 7.179069e+01 6.031273e+01 5.379725e+01 3.867304e+01 2.982543e+01 2.958012e+01 2.875063e+01 2.594477e+00 1.707355e+00 1.763242e+00 1.615433e+00 2.021011e+00 2.139366e+00 2.295857e+00 2.316850e+00 2.240905e+00 1.982442e+00 1.915473e+00 1.678370e+00 8.680513e-01
<GCONST> 9.980025e+01
<STATE> 4
<MEAN> 25
 -1.270001e+01 4.056458e+00 -7.882346e-01 -1.144082e+00 5.382331e+00 -5.839784e+00 4.018692e+00 1.320629e+00 2.415280e+00 -9.644682e-01 2.942288e-01 1.959963e+00 4.256048e+00 -8.658243e-01 5.456356e-01 -1.333019e-01 -1.690675e+00 1.262033e-01 -1.678778e+00 -8.905017e-01 -2.248816e-01 2.099202e-01 -1.004036e+00 -8.576149e-01 5.610046e-01
<VARIANCE> 25
 7.770306e+01 4.260248e+01 6.257051e+01 5.136122e+01 5.847407e+01 6.852724e+01 6.966542e+01 5.666469e+01 4.156610e+01 3.313319e+01 4.015839e+01 3.145821e+01 5.248615e+00 4.687512e+00 6.035994e+00 4.920199e+00 5.552975e+00 6.508216e+00 5.999614e+00 5.991353e+00 5.151107e+00 3.629332e+00 3.981159e+00 3.249869e+00 3.506829e+00
<GCONST> 1.135794e+02
<TRANSP> 5
 0.000000e+00 1.000000e+00 0.000000e+00 0.000000e+00 0.000000e+00
 0.000000e+00 7.033909e-01 2.966091e-01 0.000000e+00 0.000000e+00
 0.000000e+00 0.000000e+00 8.190320e-01 1.809681e-01 0.000000e+00
 0.000000e+00 0.000000e+00 0.000000e+00 6.631700e-01 3.368300e-01
 0.000000e+00 0.000000e+00 0.000000e+00 0.000000e+00 0.000000e+00
<ENDHMM>
~h "t"
<BEGINHMM>
<NUMSTATES> 5
<STATE> 2
<MEAN> 25
 -8.871610e-01 4.539614e+00 -2.377901e+00 3.428730e+00 2.316622e+00 -1.102416e+00 4.712160e-01 6.572403e-02 1.976586e+00 2.094382e+00 -1.296437e-01 1.401510e+00 -1.163317e+00 -9.123415e-02 -4.807460e-01 -9.499986e-02 4.001535e-01 -3.417900e-01 6.566922e-01 3.479043e-01 -1.490773e-01 -2.292301e-01 3.351143e-01 2.363027e-01 -3.160565e-01
<VARIANCE> 25
 4.846002e+01 4.280907e+01 5.980944e+01 3.654049e+01 4.660351e+01 5.555954e+01 4.808123e+01 4.938870e+01 5.050982e+01 3.995364e+01 3.793593e+01 2.990548e+01 2.969185e+00 3.789120e+00 3.920684e+00 4.250480e+00 4.526239e+00 5.105548e+00 4.262729e+00 4.345201e+00 4.004464e+00 3.332718e+00 3.327064e+00 2.601860e+00 5.918962e+00
<GCONST> 1.093702e+02
<STATE> 3
<MEAN> 25
 -6.023001e+00 8.578385e-01 -2.295641e+00 -4.128439e-01 3.347750e+00 -4.375325e+00 3.048171e+00 4.056897e-01 6.669960e-01 2.348581e-01 1.565244e+00 2.232633e+00 -4.449530e-01 -1.686285e+00 5.643430e-02 -2.273468e+00 -4.990820e-02 -1.648906e+00 -1.371319e-01 -4.332362e-01 3.533327e-01 -5.309182e-01 -6.006177e-02 -4.209800e-01 4.031151e+00
<VARIANCE> 25
 3.964057e+01 4.706839e+01 5.273551e+01 5.973559e+01 5.121526e+01 7.358013e+01 5.328006e+01 4.505053e+01 4.323965e+01 3.785644e+01 3.327840e+01 2.989201e+01 6.383327e+00 5.389668e+00 8.020126e+00 6.612875e+00 6.846670e+00 7.457734e+00 7.146936e+00 6.748044e+00 7.224471e+00 5.325676e+00 5.946740e+00 4.489428e+00 6.499457e+00
<GCONST> 1.159788e+02
<STATE> 4
<MEAN> 25
 -2.939205e+00 -7.395316e-01 -1.560967e+00 -3.429085e+00 1.921805e+00 -6.174623e+00 1.107845e-01 -9.528085e-01 2.574347e+00 -2.436918e-01 -1.936644e-01 -6.020350e-02 2.193708e+00 -8.055617e-01 6.012791e-01 -1.170252e+00 -1.170511e+00 3.874248e-01 -1.848529e+00 -3.627682e-01 1.204375e-01 1.650824e-01 -3.148772e-01 -1.366637e+00 3.046389e+00
<VARIANCE> 25
 3.853506e+01 3.520010e+01 5.077645e+01 4.909213e+01 5.190783e+01 6.638358e+01 6.768446e+01 4.968979e+01 4.833867e+01 4.006593e+01 4.071666e+01 3.821872e+01 5.195268e+00 5.650128e+00 9.138688e+00 6.700025e+00 7.077123e+00 9.374333e+00 8.128267e+00 7.825401e+00 7.956327e+00 5.212298e+00 6.680853e+00 4.890690e+00 5.562775e+00
<GCONST> 1.169343e+02
<TRANSP> 5
 0.000000e+00 1.000000e+00 0.000000e+00 0.000000e+00 0.000000e+00
 0.000000e+00 6.432621e-01 3.567379e-01 0.000000e+00 0.000000e+00
 0.000000e+00 0.000000e+00 3.982475e-01 6.017525e-01 0.000000e+00
 0.000000e+00 0.000000e+00 0.000000e+00 2.404849e-01 7.595151e-01
 0.000000e+00 0.000000e+00 0.000000e+00 0.000000e+00 0.000000e+00
<ENDHMM>
~h "u"
<BEGINHMM>
<NUMSTATES> 5
<STATE> 2
<MEAN> 25
 5.542191e+00 3.626467e+00 -1.732749e+00 -4.022816e+00 -1.587518e+00 1.721485e+00 -6.146542e+00 -5.505151e+00 -2.396632e+00 3.560901e-02 3.280670e+00 9.784310e-02 1.781615e+00 6.688007e-01 -2.315775e-01 -1.596290e+00 -1.121488e+00 1.626161e+00 -9.601523e-01 -1.363918e+00 -8.064981e-01 5.457922e-02 9.863407e-01 1.287268e-01 8.151611e-01
<VARIANCE> 25
 3.079182e+01 4.413340e+01 5.559919e+01 8.218855e+01 5.589866e+01 6.899682e+01 8.419041e+01 6.638864e+01 6.302272e+01 5.482027e+01 5.188056e+01 3.689075e+01 3.989382e+00 3.796405e+00 5.314754e+00 5.858738e+00 6.231195e+00 7.634059e+00 7.013364e+00 6.416628e+00 6.019853e+00 5.307821e+00 4.835981e+00 3.729701e+00 3.434206e+00
<GCONST> 1.155947e+02
<STATE> 3
<MEAN> 25
 8.679317e+00 4.073838e+00 -2.001590e+00 -8.011788e+00 -4.538217e+00 8.218234e+00 -6.650032e+00 -9.423674e+00 -3.561473e+00 -3.431967e-01 5.869098e+00 1.168264e+00 1.193769e-01 -7.476797e-02 3.865145e-02 2.508900e-02 2.520809e-01 2.891770e-01 -7.019921e-02 -4.880073e-02 1.667449e-01 3.846367e-01 -1.441937e-01 -1.223603e-01 -1.994810e-01
<VARIANCE> 25
 1.588529e+01 3.760866e+01 4.197303e+01 7.694462e+01 5.595161e+01 7.843947e+01 9.392953e+01 7.634753e+01 7.446902e+01 6.880112e+01 5.800761e+01 4.450611e+01 8.723471e-01 3.276289e+00 2.640348e+00 4.992657e+00 4.160216e+00 4.985610e+00 5.357617e+00 5.181961e+00 5.088298e+00 5.176449e+00 4.409108e+00 3.556738e+00 2.236220e+00
<GCONST> 1.108953e+02
<STATE> 4
<MEAN> 25
 6.479282e+00 5.698545e+00 -1.604572e+00 -5.529012e+00 -9.528022e-01 2.221836e+00 -5.628383e+00 -5.168026e+00 -4.067997e+00 5.669034e-01 2.986588e+00 9.058986e-01 -5.320897e-01 6.408819e-02 3.114328e-01 1.082820e+00 4.154404e-01 -5.651088e-01 5.531377e-01 5.305632e-01 3.821559e-01 -1.254935e-03 -5.169313e-01 1.369863e-02 -9.192079e-01
<VARIANCE> 25
 1.943685e+01 4.203291e+01 5.366770e+01 7.345899e+01 4.732105e+01 5.853513e+01 6.493214e+01 4.734417e+01 5.651227e+01 5.110364e+01 3.935968e+01 3.891396e+01 9.822667e-01 1.679609e+00 2.227026e+00 3.160736e+00 2.804702e+00 3.402222e+00 3.225532e+00 3.116148e+00 3.042440e+00 2.688450e+00 2.849348e+00 2.346796e+00 1.585809e+00
<GCONST> 1.036703e+02
<TRANSP> 5
 0.000000e+00 1.000000e+00 0.000000e+00 0.000000e+00 0.000000e+00
 0.000000e+00 4.626183e-01 5.373816e-01 0.000000e+00 0.000000e+00
 0.000000e+00 0.000000e+00 6.461025e-01 3.538975e-01 0.000000e+00
 0.000000e+00 0.000000e+00 0.000000e+00 7.071474e-01 2.928526e-01
 0.000000e+00 0.000000e+00 0.000000e+00 0.000000e+00 0.000000e+00
<ENDHMM>
~h "w"
<BEGINHMM>
<NUMSTATES> 5
<STATE> 2
<MEAN> 25
 9.078967e+00 3.848664e+00 -4.890489e+00 -1.208306e+01 -4.289260e+00 6.446838e+00 -1.196207e+00 -3.135349e+00 -2.610693e+00 -1.057851e+00 3.455770e+00 6.363097e-01 5.748563e-01 2.749130e-01 -5.642723e-01 -1.446671e+00 -7.234915e-01 8.894064e-01 4.098914e-01 -2.874022e-01 -4.131192e-01 -2.404303e-01 4.855541e-01 7.131588e-01 1.624078e-01
<VARIANCE> 25
 1.555298e+01 5.267926e+01 3.184854e+01 6.416151e+01 5.580320e+01 6.115796e+01 5.218560e+01 5.212429e+01 5.100970e+01 4.577322e+01 4.643428e+01 4.218272e+01 1.257264e+00 2.939322e+00 1.975441e+00 2.595386e+00 3.076179e+00 3.652688e+00 3.392246e+00 2.887860e+00 2.862710e+00 3.195388e+00 3.050796e+00 2.622785e+00 1.638599e+00
<GCONST> 1.040870e+02
<STATE> 3
<MEAN> 25
 8.122513e+00 -1.574881e+00 -7.900090e+00 -1.475668e+01 -1.780894e+00 1.111339e+01 -1.347040e+00 -5.143409e+00 -4.037932e-02 1.453950e+00 4.649050e+00 -2.349637e+00 -5.735832e-01 -1.508523e+00 -2.663240e-01 6.313500e-01 1.245029e+00 2.906150e-02 -3.082328e-01 2.675355e-01 8.315645e-01 5.469569e-01 -4.804938e-01 -1.465137e+00 6.903123e-01
<VARIANCE> 25
 1.467110e+01 3.702123e+01 3.426688e+01 5.666594e+01 5.430909e+01 6.378672e+01 6.620721e+01 4.633550e+01 4.545917e+01 4.361092e+01 4.075940e+01 5.595901e+01 5.683685e-01 1.969522e+00 1.278007e+00 2.761919e+00 2.318725e+00 3.259850e+00 2.910727e+00 3.181157e+00 2.779587e+00 2.846721e+00 3.479778e+00 3.397062e+00 1.179524e+00
<GCONST> 1.016448e+02
<STATE> 4
<MEAN> 25
 -1.072359e+00 -9.938133e-01 -4.501772e+00 -1.006225e+00 2.935091e+00 3.301462e+00 -1.457285e-01 2.267331e+00 1.820454e+00 1.096446e+00 8.479819e-01 5.165748e-01 -1.271456e-01 -7.354732e-02 4.233902e-02 1.887372e-01 3.790085e-02 -1.282819e-01 4.488675e-03 1.646984e-01 6.268416e-02 -3.793053e-02 -1.596724e-01 1.357120e-02 -8.682279e-02
<VARIANCE> 25
 3.359439e+01 3.157974e+01 2.423405e+01 5.772206e+01 4.325627e+01 3.732332e+01 2.825711e+01 2.915598e+01 2.950755e+01 2.165231e+01 2.266432e+01 4.892305e+01 2.189059e-01 4.493833e-01 6.227391e-01 9.694834e-01 9.757797e-01 1.324619e+00 1.266679e+00 1.535212e+00 1.286560e+00 1.300138e+00 1.380379e+00 1.069445e+00 1.686783e-01
<GCONST> 8.495100e+01
<TRANSP> 5
 0.000000e+00 1.000000e+00 0.000000e+00 0.000000e+00 0.000000e+00
 0.000000e+00 7.610274e-01 2.389727e-01 0.000000e+00 0.000000e+00
 0.000000e+00 0.000000e+00 7.916206e-01 2.083794e-01 0.000000e+00
 0.000000e+00 0.000000e+00 0.000000e+00 8.623672e-01 1.376328e-01
 0.000000e+00 0.000000e+00 0.000000e+00 0.000000e+00 0.000000e+00
<ENDHMM>
~h "y"
<BEGINHMM>
<NUMSTATES> 5
<STATE> 2
<MEAN> 25
 1.588387e-01 1.180355e-01 1.058084e+01 -1.476627e+00 -9.552398e+00 -3.364217e+00 -1.534162e+00 1.583392e+00 -4.009805e+00 -9.051898e-01 2.869625e+00 2.937127e-01 -1.667846e-02 -1.497835e-01 1.642182e+00 -8.045838e-01 -1.647854e+00 -3.630306e-01 -2.009138e-01 1.282542e-01 -8.882546e-01 2.297532e-01 1.042705e+00 1.237735e-01 1.031338e+00
<VARIANCE> 25
 3.615471e+01 6.705202e+01 8.121677e+01 5.270228e+01 7.132996e+01 6.406145e+01 8.485838e+01 6.917947e+01 6.436634e+01 4.931546e+01 5.022816e+01 3.921550e+01 2.432038e+00 4.078019e+00 6.252697e+00 3.783243e+00 4.918350e+00 4.651446e+00 5.528026e+00 5.630328e+00 4.626330e+00 3.734653e+00 3.825113e+00 2.932597e+00 3.343637e+00
<GCONST> 1.133554e+02
<STATE> 3
<MEAN> 25
 1.183470e+00 -3.666469e+00 1.276362e+01 -4.958505e+00 -1.449989e+01 -5.623330e+00 -1.449423e+00 3.652192e+00 -4.217597e+00 9.523899e-01 5.871655e+00 -2.525021e-02 2.155380e-01 -1.059013e+00 -1.350788e+00 -8.159588e-02 4.715746e-01 -1.581218e-01 8.648140e-01 1.438681e+00 8.243521e-01 -3.672288e-01 -5.747317e-01 -3.877915e-02 4.762859e-01
<VARIANCE> 25
 9.778633e+00 3.302401e+01 4.848402e+01 3.612289e+01 4.087096e+01 4.924635e+01 6.819563e+01 5.866267e+01 4.959956e+01 5.026083e+01 4.187267e+01 3.073607e+01 4.293072e-01 1.780830e+00 3.554063e+00 1.629986e+00 3.246704e+00 2.025721e+00 2.941599e+00 3.654384e+00 2.852445e+00 2.840040e+00 2.979644e+00 1.521034e+00 5.560449e-01
<GCONST> 9.883813e+01
<STATE> 4
<MEAN> 25
 2.674434e+00 -8.768870e+00 4.127654e+00 -3.490393e+00 -7.724002e+00 -4.767884e+00 1.217733e+00 9.544868e+00 1.703329e-01 -3.197426e+00 -1.474444e-01 -7.026370e-01 3.400005e-01 -4.601540e-01 -1.680618e+00 3.587334e-01 1.820799e+00 7.359511e-01 -2.232701e-01 8.560745e-02 6.805593e-01 -4.920726e-01 -1.312247e+00 -4.989543e-01 -1.015203e-01
<VARIANCE> 25
 1.008547e+01 2.748636e+01 3.528847e+01 2.965990e+01 4.359863e+01 5.226492e+01 6.513822e+01 4.553245e+01 4.875174e+01 4.309204e+01 3.880438e+01 2.689551e+01 3.423364e-01 8.701900e-01 2.037343e+00 1.452542e+00 2.987458e+00 1.893421e+00 2.428417e+00 2.119393e+00 1.950873e+00 2.332287e+00 2.237521e+00 1.676612e+00 2.681338e-01
<GCONST> 9.361805e+01
<TRANSP> 5
 0.000000e+00 1.000000e+00 0.000000e+00 0.000000e+00 0.000000e+00
 0.000000e+00 6.874204e-01 3.125795e-01 0.000000e+00 0.000000e+00
 0.000000e+00 0.000000e+00 7.196479e-01 2.803520e-01 0.000000e+00
 0.000000e+00 0.000000e+00 0.000000e+00 6.347379e-01 3.652621e-01
 0.000000e+00 0.000000e+00 0.000000e+00 0.000000e+00 0.000000e+00
<ENDHMM>
~h "z"
<BEGINHMM>
<NUMSTATES> 5
<STATE> 2
<MEAN> 25
 -6.788327e+00 1.924888e-01 -1.312723e+00 2.595052e+00 3.982628e+00 2.398003e+00 1.028047e+00 1.776191e+00 1.107970e+00 1.665836e+00 2.388340e+00 3.730300e+00 -5.188239e-02 -3.076858e-02 -4.738688e-03 -1.622598e-02 3.235535e-03 1.732046e-02 -1.415407e-03 -1.671181e-02 -1.288111e-02 -7.222171e-03 -1.503923e-02 -1.949060e-02 -1.618491e-02
<VARIANCE> 25
 3.565649e+00 1.315093e+01 8.910624e+00 8.447565e+00 9.252213e+00 1.856618e+01 2.297893e+01 1.456615e+01 1.760029e+01 1.255489e+01 2.091647e+01 9.160835e+00 2.353797e-01 3.971840e-01 6.769198e-01 7.142101e-01 7.799678e-01 1.122228e+00 1.338992e+00 1.147599e+00 1.418913e+00 1.412724e+00 1.591061e+00 1.157422e+00 1.432393e-01
<GCONST> 7.229134e+01
<STATE> 3
<MEAN> 25
 -1.158382e+00 5.078656e+00 3.668250e-02 3.372154e+00 1.502896e+00 -2.818856e+00 1.052368e+00 -1.481597e+00 -1.730435e+00 -1.798957e+00 -6.959818e-01 7.559083e-01 1.627674e+00 -3.815636e-01 1.449794e-01 5.497622e-01 -9.204736e-01 -1.241935e+00 5.557872e-02 -1.347902e-01 1.850085e-01 -3.296431e-01 -5.780619e-01 -2.788904e-01 1.361773e+00
<VARIANCE> 25
 5.786356e+01 7.751029e+01 1.817050e+01 2.015533e+01 9.619494e+00 6.523703e+01 2.570918e+01 3.475918e+01 3.048746e+01 1.424498e+01 1.041961e+01 1.285987e+01 1.092964e+00 3.340231e+00 2.104305e+00 3.182172e+00 1.204685e+00 3.157435e+00 2.517672e+00 1.195699e+00 4.099755e+00 1.730484e+00 1.247682e+00 1.962773e+00 1.627300e+01
<GCONST> 9.574633e+01
<STATE> 4
<MEAN> 25
 -1.112805e+00 8.474979e+00 6.471838e+00 7.336168e+00 -5.450774e+00 -9.212337e+00 3.683407e+00 -6.908440e+00 -4.173676e+00 -1.956018e+00 -1.332744e+00 1.267253e+00 5.675239e-01 -6.823178e-01 1.420564e+00 -5.933424e-02 -1.881558e+00 1.533557e-01 1.573980e-01 -8.756238e-01 -4.202805e-01 2.658354e-01 1.571966e-01 -2.542744e-01 2.339460e-01
<VARIANCE> 25
 4.901262e+01 5.148021e+01 3.419434e+01 1.691562e+01 3.616388e+01 2.870430e+01 3.229151e+01 3.760189e+01 3.780108e+01 1.193715e+01 1.126980e+01 1.087455e+01 4.051653e+00 4.451113e+00 3.825693e+00 2.457128e+00 7.254517e+00 1.855838e+00 2.789880e+00 1.668102e+00 2.440905e+00 8.425676e-01 1.542287e+00 2.197278e+00 1.893218e+00
<GCONST> 9.695850e+01
<TRANSP> 5
 0.000000e+00 1.000000e+00 0.000000e+00 0.000000e+00 0.000000e+00
 0.000000e+00 9.717321e-01 2.826794e-02 0.000000e+00 0.000000e+00
 0.000000e+00 0.000000e+00 6.524529e-01 3.475471e-01 0.000000e+00
 0.000000e+00 0.000000e+00 0.000000e+00 7.823217e-01 2.176783e-01
 0.000000e+00 0.000000e+00 0.000000e+00 0.000000e+00 0.000000e+00
<ENDHMM>
~h "aw"
<BEGINHMM>
<NUMSTATES> 5
<STATE> 2
<MEAN> 25
 6.634874e+00 -3.925140e+00 -7.658343e+00 -1.151956e+01 -3.725919e-01 5.603981e+00 1.747713e+00 -2.583560e+00 3.910767e+00 2.542846e+00 2.165076e+00 -6.673309e+00 6.259426e-01 7.246166e-01 -3.743162e-01 -8.380322e-01 -1.425306e-01 1.213964e+00 2.306523e-01 -6.075771e-01 -8.577684e-01 2.081446e-01 4.525781e-01 6.879723e-01 -7.964251e-01
<VARIANCE> 25
 2.253443e+01 3.970760e+01 2.693086e+01 3.959280e+01 3.567498e+01 7.348910e+01 4.161566e+01 4.908980e+01 5.887235e+01 4.028724e+01 5.504376e+01 4.359003e+01 1.191123e+00 1.509081e+00 1.979735e+00 2.700884e+00 2.804836e+00 3.784904e+00 2.174043e+00 4.064176e+00 2.679928e+00 3.225203e+00 3.210887e+00 4.583058e+00 1.174693e+00
<GCONST> 1.025743e+02
<STATE> 3
<MEAN> 25
 8.094961e+00 2.978112e+00 -6.121425e+00 -1.130835e+01 -1.445489e+00 2.440850e+00 3.183333e+00 -5.245128e-01 -3.905207e+00 9.224062e-02 -1.200547e-01 -1.255416e+00 -1.616541e-01 2.798695e-01 3.497080e-01 4.916085e-01 -2.058413e-02 -1.209970e-01 -1.479761e-01 1.777491e-01 -3.223241e-02 -1.190656e-01 -1.388947e-01 1.306498e-01 -5.606172e-01
<VARIANCE> 25
 1.485503e+01 2.951390e+01 3.285532e+01 8.137872e+01 6.060554e+01 6.293611e+01 4.669037e+01 2.824380e+01 2.569751e+01 4.173496e+01 3.031180e+01 3.212233e+01 6.436203e-01 8.620476e-01 9.267544e-01 1.545390e+00 1.416536e+00 1.479121e+00 1.844832e+00 1.253506e+00 1.325550e+00 1.696612e+00 1.319813e+00 1.321930e+00 4.439262e-01
<GCONST> 9.111416e+01
<STATE> 4
<MEAN> 25
 -3.246114e+00 6.716971e-01 -2.309373e+00 2.832698e+00 1.271295e+00 4.490050e+00 -1.392336e-01 3.638767e+00 2.401938e+00 1.672675e+00 1.568095e+00 3.894326e+00 -7.198358e-02 -3.532064e-02 1.175211e-02 8.162740e-02 6.388230e-03 2.309454e-02 -2.980052e-02 1.641749e-02 2.157709e-02 -3.747104e-03 5.389002e-02 2.441314e-02 -8.234430e-02
<VARIANCE> 25
 2.160586e+01 1.186384e+01 1.707311e+01 2.234075e+01 2.073313e+01 2.169648e+01 2.085753e+01 1.583781e+01 1.931646e+01 1.961291e+01 1.728528e+01 1.418684e+01 2.705763e-01 4.127870e-01 6.044497e-01 7.506945e-01 9.601386e-01 1.117894e+00 1.317503e+00 1.166896e+00 1.279427e+00 1.258716e+00 1.135940e+00 1.008648e+00 1.291919e-01
<GCONST> 7.687038e+01
<TRANSP> 5
 0.000000e+00 1.000000e+00 0.000000e+00 0.000000e+00 0.000000e+00
 0.000000e+00 7.776855e-01 2.223145e-01 0.000000e+00 0.000000e+00
 0.000000e+00 0.000000e+00 9.046963e-01 9.530365e-02 0.000000e+00
 0.000000e+00 0.000000e+00 0.000000e+00 9.427121e-01 5.728796e-02
 0.000000e+00 0.000000e+00 0.000000e+00 0.000000e+00 0.000000e+00
<ENDHMM>
~h "ay"
<BEGINHMM>
<NUMSTATES> 5
<STATE> 2
<MEAN> 25
 3.157367e+00 -8.523011e+00 2.545817e+00 -4.118839e+00 -7.205256e+00 -6.596693e+00 2.256411e+00 7.472570e+00 1.178672e+00 -1.667411e+00 -1.268197e-01 -2.359290e+00 -3.057957e-01 3.734202e-01 1.693173e+00 1.749473e-01 -1.471909e+00 -6.895205e-01 2.391549e-01 -1.397257e-01 -1.037165e+00 2.532054e-01 8.612262e-01 5.888308e-01 -1.752791e-01
<VARIANCE> 25
 9.316929e+00 2.429791e+01 6.126900e+01 3.088007e+01 6.189513e+01 5.012648e+01 5.763499e+01 4.149436e+01 4.972009e+01 3.975674e+01 4.965984e+01 2.939982e+01 3.880307e-01 1.144620e+00 2.142681e+00 1.316200e+00 2.467597e+00 2.285877e+00 2.361305e+00 3.870572e+00 2.398906e+00 2.959621e+00 2.708885e+00 1.990992e+00 3.450653e-01
<GCONST> 9.635863e+01
<STATE> 3
<MEAN> 25
 1.505218e+00 -3.923956e-01 1.138982e+01 -8.517113e-01 -1.211430e+01 -6.528199e+00 5.960941e-01 -1.457336e+00 -4.143215e+00 1.651607e+00 2.772879e+00 -2.369156e-01 -4.571110e-02 8.820276e-01 -4.043275e-01 8.492587e-01 7.478885e-01 6.489419e-01 1.354796e-02 -3.519249e-01 1.562555e-01 3.501062e-02 -4.130231e-01 1.549031e-01 -1.558764e+00
<VARIANCE> 25
 1.165648e+01 2.782566e+01 4.690559e+01 4.493732e+01 4.489860e+01 4.740069e+01 4.978077e+01 5.629899e+01 4.228652e+01 4.550516e+01 3.933586e+01 2.602363e+01 7.964124e-01 1.580569e+00 3.277688e+00 2.463333e+00 2.767830e+00 2.875220e+00 2.984332e+00 4.218443e+00 3.146336e+00 2.504769e+00 2.585343e+00 1.915021e+00 1.528247e+00
<GCONST> 1.004909e+02
<STATE> 4
<MEAN> 25
 -3.011566e+00 1.468812e+00 2.149899e+00 3.067051e+00 -1.189409e+00 1.105090e+00 2.719966e+00 1.974173e+00 -4.836927e-02 7.653735e-01 1.762941e+00 2.221381e+00 -1.597641e-01 6.085649e-02 -3.460455e-01 1.292645e-01 3.834801e-01 2.306467e-01 -3.810313e-03 1.184468e-01 8.339962e-02 -2.953486e-02 -4.683330e-02 6.947987e-02 -4.340993e-01
<VARIANCE> 25
 1.836588e+01 1.851739e+01 4.505610e+01 2.187593e+01 4.139170e+01 3.911732e+01 3.526798e+01 3.202107e+01 3.486058e+01 3.162600e+01 2.946338e+01 2.280414e+01 4.630867e-01 7.955132e-01 1.380682e+00 1.224735e+00 1.690722e+00 1.689132e+00 1.663026e+00 1.997975e+00 1.762265e+00 1.946802e+00 1.669688e+00 1.533998e+00 5.550970e-01
<GCONST> 8.996539e+01
<TRANSP> 5
 0.000000e+00 1.000000e+00 0.000000e+00 0.000000e+00 0.000000e+00
 0.000000e+00 8.233997e-01 1.766003e-01 0.000000e+00 0.000000e+00
 0.000000e+00 0.000000e+00 8.376994e-01 1.623007e-01 0.000000e+00
 0.000000e+00 0.000000e+00 0.000000e+00 8.564159e-01 1.435841e-01
 0.000000e+00 0.000000e+00 0.000000e+00 0.000000e+00 0.000000e+00
<ENDHMM>
~h "kh"
<BEGINHMM>
<NUMSTATES> 5
<STATE> 2
<MEAN> 25
 1.774734e+00 -2.854467e+00 -9.309361e+00 -3.029344e+00 3.949104e+00 3.261939e+00 1.345854e+00 1.022890e+00 -2.609346e-01 2.328676e+00 1.165223e+00 -5.970174e+00 -3.161554e-01 2.310840e-01 -5.432578e-01 -8.300798e-01 -4.071270e-01 5.378080e-01 1.224942e-01 -1.171542e-01 -6.271392e-01 1.416151e-01 4.183326e-02 2.724443e-02 -1.699174e-01
<VARIANCE> 25
 4.888124e+01 1.300913e+01 4.369857e+01 5.277996e+01 3.872232e+01 1.419106e+01 2.841819e+01 2.968147e+01 4.412719e+01 1.617719e+01 1.914015e+01 8.642055e+01 3.606409e+00 1.045195e+00 3.986532e+00 3.155668e+00 3.411909e+00 2.509002e+00 1.853049e+00 3.096128e+00 5.290470e+00 2.224322e+00 2.181851e+00 4.123430e+00 5.949960e+00
<GCONST> 1.013725e+02
<STATE> 3
<MEAN> 25
 -2.412164e+00 6.867799e-01 -7.147866e+00 -4.550766e+00 7.600646e-01 6.484014e+00 5.290766e+00 -4.790178e-01 -8.079660e-01 2.370352e-01 2.849594e+00 5.141775e-01 9.878615e-02 3.240707e-01 1.224539e+00 -1.238260e+00 -1.446404e+00 -5.344416e-01 -3.353256e-01 -1.374489e+00 -9.527387e-01 -1.996585e-01 7.602902e-02 1.051670e+00 2.023401e+00
<VARIANCE> 25
 5.242198e+01 2.351919e+01 9.383968e+01 7.905070e+01 5.952819e+01 7.270309e+01 5.282940e+01 6.740829e+01 5.817921e+01 3.355790e+01 2.983254e+01 7.179909e+01 7.819842e+00 2.644274e+00 1.155262e+01 8.857830e+00 6.551485e+00 1.080857e+01 4.114467e+00 1.107113e+01 6.756315e+00 4.719026e+00 3.886414e+00 5.901814e+00 1.909851e+00
<GCONST> 1.167507e+02
<STATE> 4
<MEAN> 25
 -8.926118e+00 1.461034e+00 2.826360e+00 -1.326817e+00 -3.477397e+00 7.467401e-01 -6.929520e+00 -4.754364e+00 5.761503e+00 -2.577607e+00 7.639277e-01 7.617138e+00 4.578432e-01 3.869528e-01 8.572082e-01 -3.266903e-02 -3.588374e-01 -2.772664e-01 -7.422767e-01 -6.613975e-01 -4.459590e-01 3.022752e-01 -3.941841e-02 7.962139e-02 -1.182379e-01
<VARIANCE> 25
 9.690917e+01 1.143018e+01 3.605869e+01 3.239622e+01 4.395241e+01 2.958181e+01 9.097202e+01 6.680108e+01 5.885793e+01 3.005900e+01 1.938668e+01 5.440724e+01 5.809767e+00 1.961399e+00 5.120218e+00 2.057599e+00 3.276461e+00 4.185723e+00 2.911596e+00 7.058304e+00 3.321032e+00 2.216393e+00 2.508232e+00 4.000873e+00 1.780407e+00
<GCONST> 1.056504e+02
<TRANSP> 5
 0.000000e+00 1.000000e+00 0.000000e+00 0.000000e+00 0.000000e+00
 0.000000e+00 7.618341e-01 2.381659e-01 0.000000e+00 0.000000e+00
 0.000000e+00 0.000000e+00 5.995024e-01 4.004975e-01 0.000000e+00
 0.000000e+00 0.000000e+00 0.000000e+00 7.456252e-01 2.543748e-01
 0.000000e+00 0.000000e+00 0.000000e+00 0.000000e+00 0.000000e+00
<ENDHMM>
~h "ng"
<BEGINHMM>
<NUMSTATES> 5
<STATE> 2
<MEAN> 25
 7.014799e+00 -7.355701e-01 1.023995e+00 -6.161355e-01 -2.044904e+00 5.797193e+00 -7.491394e-01 -3.352018e+00 2.455472e-02 1.319035e+00 -9.280998e-01 -1.518148e+00 2.771197e-01 1.073400e+00 5.685099e-01 7.720351e-01 -5.710048e-01 1.253813e-01 6.533474e-01 -9.974241e-01 -3.876143e-01 3.471541e-01 -4.464489e-01 5.208139e-01 -1.097955e+00
<VARIANCE> 25
 1.307308e+01 3.951310e+01 5.103628e+01 4.016628e+01 5.766524e+01 7.220410e+01 5.533218e+01 5.212847e+01 5.622791e+01 4.508607e+01 4.363588e+01 4.147458e+01 4.951910e-01 1.631029e+00 2.872979e+00 2.499706e+00 3.474247e+00 3.583393e+00 4.182526e+00 3.970213e+00 3.543284e+00 3.262679e+00 2.972352e+00 2.636752e+00 5.878416e-01
<GCONST> 1.025244e+02
<STATE> 3
<MEAN> 25
 6.712458e+00 2.487430e+00 2.013408e+00 -6.650941e-01 -2.801187e+00 3.990245e+00 -1.460641e-01 -4.764040e+00 -1.261705e+00 1.003007e+00 -2.299994e+00 -1.646918e+00 -1.439559e-02 5.123994e-01 1.531303e-01 3.243448e-01 -3.592757e-02 -5.268821e-02 1.527895e-01 -1.696901e-01 -1.395631e-01 1.899182e-02 -1.296417e-01 9.541577e-02 -4.776913e-01
<VARIANCE> 25
 1.028581e+01 3.429639e+01 4.400467e+01 4.359497e+01 5.161433e+01 5.436506e+01 4.333723e+01 4.370723e+01 4.487868e+01 4.341603e+01 3.860349e+01 3.874405e+01 2.497672e-01 7.875151e-01 9.404609e-01 1.089934e+00 1.357045e+00 1.440145e+00 1.574880e+00 1.661587e+00 1.620474e+00 1.516223e+00 1.451643e+00 1.253067e+00 3.572565e-01
<GCONST> 9.024169e+01
<STATE> 4
<MEAN> 25
 4.227012e-01 3.887988e+00 1.211287e+00 3.300481e+00 1.902587e+00 3.334639e+00 2.615433e+00 -1.116044e+00 -2.903130e-01 3.556107e-01 -2.055493e-01 1.530994e+00 -4.458157e-01 1.500382e-02 -2.169024e-01 9.008802e-02 4.033072e-01 -1.360558e-01 6.335839e-02 3.223441e-01 8.934575e-02 -7.040874e-02 1.811673e-01 9.407905e-02 -2.899679e-01
<VARIANCE> 25
 4.629062e+01 3.557234e+01 3.836364e+01 3.479661e+01 5.342788e+01 4.530724e+01 3.814587e+01 4.870655e+01 4.120697e+01 3.716729e+01 3.952743e+01 3.377550e+01 8.329793e-01 1.441708e+00 1.548451e+00 1.699397e+00 2.566313e+00 2.454060e+00 2.327307e+00 2.730473e+00 2.504286e+00 2.309354e+00 2.065493e+00 1.928076e+00 8.685732e-01
<GCONST> 9.823584e+01
<TRANSP> 5
 0.000000e+00 1.000000e+00 0.000000e+00 0.000000e+00 0.000000e+00
 0.000000e+00 4.831492e-01 5.168508e-01 0.000000e+00 0.000000e+00
 0.000000e+00 0.000000e+00 6.782513e-01 3.217487e-01 0.000000e+00
 0.000000e+00 0.000000e+00 0.000000e+00 7.069645e-01 2.930356e-01
 0.000000e+00 0.000000e+00 0.000000e+00 0.000000e+00 0.000000e+00
<ENDHMM>
~h "ny"
<BEGINHMM>
<NUMSTATES> 5
<STATE> 2
<MEAN> 25
 2.709307e+00 2.327629e+00 1.042215e+01 -2.603612e+00 -7.867488e+00 4.234659e-01 -8.968902e-01 3.692714e-02 -4.442920e+00 -1.093577e+00 2.720334e+00 -7.646920e-01 -5.168204e-01 -1.230547e+00 7.943066e-01 -9.407336e-01 -1.193375e+00 5.871094e-01 5.214657e-01 8.651728e-01 -4.095804e-01 -2.879404e-01 4.930727e-01 -1.222008e-01 1.183510e+00
<VARIANCE> 25
 1.940955e+01 4.316498e+01 4.899780e+01 6.298995e+01 5.601874e+01 6.700936e+01 5.383970e+01 5.040697e+01 4.554571e+01 4.665186e+01 4.438908e+01 4.790162e+01 1.567960e+00 3.977473e+00 4.390005e+00 5.361920e+00 4.850639e+00 4.932517e+00 4.660584e+00 4.839413e+00 3.794197e+00 3.940686e+00 3.614455e+00 2.738791e+00 1.614673e+00
<GCONST> 1.089291e+02
<STATE> 3
<MEAN> 25
 2.817923e+00 -8.294641e+00 5.591352e+00 -1.519686e+00 -5.864289e+00 1.342277e+00 -1.196856e-01 7.458642e+00 -2.857362e+00 -6.914680e+00 -1.254214e+00 6.022289e-01 1.184696e-01 -3.844733e-01 -1.090624e+00 6.699759e-01 1.052669e+00 -1.481116e-01 -1.775129e-01 2.962530e-01 5.042652e-01 -4.515528e-01 -7.747055e-01 2.244252e-01 -3.485158e-01
<VARIANCE> 25
 1.168861e+01 3.264997e+01 4.486066e+01 4.869453e+01 5.784965e+01 4.507118e+01 6.663818e+01 4.939396e+01 4.809721e+01 5.417908e+01 5.035768e+01 4.187396e+01 5.058601e-01 1.796132e+00 1.551089e+00 1.641834e+00 2.123035e+00 1.750296e+00 2.194122e+00 2.232821e+00 1.928765e+00 2.153762e+00 1.898740e+00 1.613140e+00 1.096406e+00
<GCONST> 9.744114e+01
<STATE> 4
<MEAN> 25
 -3.766627e+00 -3.054767e-01 -1.468250e+00 3.707298e+00 2.792528e+00 2.673039e+00 1.779288e+00 4.357776e+00 1.385109e+00 -9.177827e-01 7.304936e-01 3.703183e+00 -5.985676e-02 4.679000e-02 -1.354435e-01 1.831769e-02 1.008267e-01 1.124707e-02 -2.848756e-02 -6.054717e-02 5.999051e-02 8.906080e-02 2.186604e-02 -3.457672e-02 -2.012557e-01
<VARIANCE> 25
 2.345311e+01 2.547287e+01 2.512725e+01 2.619736e+01 3.499949e+01 3.271217e+01 2.911389e+01 2.890831e+01 2.917904e+01 3.356255e+01 2.753396e+01 2.292897e+01 3.048707e-01 5.920805e-01 8.669516e-01 9.360397e-01 1.313546e+00 1.462472e+00 1.441449e+00 1.557945e+00 1.655119e+00 1.582759e+00 1.508139e+00 1.366380e+00 2.930066e-01
<GCONST> 8.594180e+01
<TRANSP> 5
 0.000000e+00 1.000000e+00 0.000000e+00 0.000000e+00 0.000000e+00
 0.000000e+00 8.203582e-01 1.796418e-01 0.000000e+00 0.000000e+00
 0.000000e+00 0.000000e+00 8.477216e-01 1.522783e-01 0.000000e+00
 0.000000e+00 0.000000e+00 0.000000e+00 9.064102e-01 9.358982e-02
 0.000000e+00 0.000000e+00 0.000000e+00 0.000000e+00 0.000000e+00
<ENDHMM>
~h "oy"
<BEGINHMM>
<NUMSTATES> 5
<STATE> 2
<MEAN> 25
 -1.266016e-08 6.085643e-09 4.721265e-09 -8.308485e-09 -1.463621e-08 1.307279e-08 -2.750496e-09 -6.683219e-09 -1.380889e-08 -3.351599e-09 1.415116e-08 1.473669e-08 2.548279e-03 -7.284069e-04 1.966011e-03 3.249686e-04 1.698112e-03 -2.328777e-04 5.264792e-04 -2.476147e-04 -7.184849e-04 7.200883e-04 -1.639929e-03 -3.923504e-04 6.718315e-03
<VARIANCE> 25
 6.369320e+01 5.437875e+01 8.050616e+01 5.826715e+01 7.171889e+01 6.936944e+01 6.105562e+01 6.027967e+01 5.528890e+01 4.166891e+01 4.685504e+01 3.910781e+01 2.633578e+00 2.804667e+00 3.170903e+00 3.349051e+00 3.834462e+00 3.765719e+00 3.684584e+00 3.809613e+00 3.444291e+00 2.975416e+00 3.042777e+00 2.563504e+00 3.096067e+00
<GCONST> 1.097144e+02
<STATE> 3
<MEAN> 25
 -1.266016e-08 6.085643e-09 4.721265e-09 -8.308485e-09 -1.463621e-08 1.307279e-08 -2.750496e-09 -6.683219e-09 -1.380889e-08 -3.351599e-09 1.415116e-08 1.473669e-08 2.548279e-03 -7.284069e-04 1.966011e-03 3.249686e-04 1.698112e-03 -2.328777e-04 5.264792e-04 -2.476147e-04 -7.184849e-04 7.200883e-04 -1.639929e-03 -3.923504e-04 6.718315e-03
<VARIANCE> 25
 6.369320e+01 5.437875e+01 8.050616e+01 5.826715e+01 7.171889e+01 6.936944e+01 6.105562e+01 6.027967e+01 5.528890e+01 4.166891e+01 4.685504e+01 3.910781e+01 2.633578e+00 2.804667e+00 3.170903e+00 3.349051e+00 3.834462e+00 3.765719e+00 3.684584e+00 3.809613e+00 3.444291e+00 2.975416e+00 3.042777e+00 2.563504e+00 3.096067e+00
<GCONST> 1.097144e+02
<STATE> 4
<MEAN> 25
 -1.266016e-08 6.085643e-09 4.721265e-09 -8.308485e-09 -1.463621e-08 1.307279e-08 -2.750496e-09 -6.683219e-09 -1.380889e-08 -3.351599e-09 1.415116e-08 1.473669e-08 2.548279e-03 -7.284069e-04 1.966011e-03 3.249686e-04 1.698112e-03 -2.328777e-04 5.264792e-04 -2.476147e-04 -7.184849e-04 7.200883e-04 -1.639929e-03 -3.923504e-04 6.718315e-03
<VARIANCE> 25
 6.369320e+01 5.437875e+01 8.050616e+01 5.826715e+01 7.171889e+01 6.936944e+01 6.105562e+01 6.027967e+01 5.528890e+01 4.166891e+01 4.685504e+01 3.910781e+01 2.633578e+00 2.804667e+00 3.170903e+00 3.349051e+00 3.834462e+00 3.765719e+00 3.684584e+00 3.809613e+00 3.444291e+00 2.975416e+00 3.042777e+00 2.563504e+00 3.096067e+00
<GCONST> 1.097144e+02
<TRANSP> 5
 0.000000e+00 1.000000e+00 0.000000e+00 0.000000e+00 0.000000e+00
 0.000000e+00 6.000000e-01 4.000000e-01 0.000000e+00 0.000000e+00
 0.000000e+00 0.000000e+00 6.000000e-01 4.000000e-01 0.000000e+00
 0.000000e+00 0.000000e+00 0.000000e+00 7.000000e-01 3.000000e-01
 0.000000e+00 0.000000e+00 0.000000e+00 0.000000e+00 0.000000e+00
<ENDHMM>
~h "sp"
<BEGINHMM>
<NUMSTATES> 3
<STATE> 2
~s "silst"
<TRANSP> 3
 0.000000e+00 7.000000e-01 3.000000e-01
 0.000000e+00 9.000000e-01 9.999999e-02
 0.000000e+00 0.000000e+00 0.000000e+00
<ENDHMM>
~h "sy"
<BEGINHMM>
<NUMSTATES> 5
<STATE> 2
<MEAN> 25
 -3.865066e+00 4.329946e+00 -4.674863e+00 1.074897e+00 2.681843e+00 -1.040490e+01 7.012705e-01 8.700405e+00 6.133624e+00 6.117550e+00 8.673251e-01 1.466141e+00 -3.512985e+00 -9.554880e-01 3.069898e+00 -8.714169e-01 1.261643e+00 3.821028e-01 7.555521e-01 5.727084e-01 2.099856e+00 8.373249e-01 5.192221e-01 5.770358e-01 1.802347e+00
<VARIANCE> 25
 1.798438e+00 2.985726e+01 1.491592e+00 2.219772e+01 1.702311e+01 6.319574e+00 3.385482e+01 4.928412e+00 4.774784e+01 7.741490e+00 7.220737e+00 4.375122e+00 2.084879e+00 8.635083e+00 1.703477e+00 1.023104e+01 3.731944e+00 5.122577e+00 2.493543e-01 4.015771e-01 2.583464e+00 1.793377e-01 1.103661e+00 1.597631e+00 2.600877e+00
<GCONST> 7.974250e+01
<STATE> 3
<MEAN> 25
 -1.307168e+01 2.417735e+00 3.816721e+00 1.005577e+00 4.927000e+00 -6.828972e+00 6.521544e+00 6.325819e+00 5.353123e+00 4.932144e+00 7.782744e+00 2.284744e+00 -3.997007e+00 -2.230949e-01 3.154824e+00 -6.603926e-01 7.869723e-01 8.300646e-01 1.959035e+00 -6.244550e-01 -3.130266e-01 -1.402313e-01 1.395731e+00 1.082400e-01 1.362413e+00
<VARIANCE> 25
 1.985530e+01 6.427319e+01 1.997276e+01 8.582630e+01 6.000068e+01 2.470891e+01 7.059577e+01 3.275006e+01 1.870464e+01 9.067775e+00 2.194641e+01 1.226960e+01 2.307061e+00 1.645701e+00 2.296345e+00 5.802182e+00 1.498371e+01 1.791130e+00 4.218237e+00 4.523657e+00 5.897473e+00 1.798477e+00 2.975622e+00 2.736604e+00 8.453633e-01
<GCONST> 1.007747e+02
<STATE> 4
<MEAN> 25
 -1.861281e+01 -1.832274e+00 8.697983e+00 7.017095e-01 -1.837591e+00 -4.990713e+00 9.770212e+00 6.358201e-01 1.894936e+00 1.899665e+00 6.328511e+00 1.548065e+00 2.120054e+00 -1.025016e+00 -3.521634e-01 1.364683e-01 -1.455439e+00 -4.677707e-01 -9.057941e-01 -7.506217e-02 -6.467252e-01 -6.664804e-01 -4.897315e-01 -1.692760e-01 4.898154e-01
<VARIANCE> 25
 1.107538e+02 2.354997e+01 1.211456e+01 1.623844e+02 9.853519e+01 1.883797e+01 9.121375e+01 4.955507e+01 2.545610e+01 2.580714e+01 2.502854e+01 1.194492e+01 1.146374e+01 2.826830e+00 1.251019e+00 3.240272e+00 2.804531e+00 1.552185e+00 1.586631e+00 4.869861e+00 2.652010e+00 2.654528e+00 3.330033e+00 1.672543e+00 1.497423e+00
<GCONST> 1.019944e+02
<TRANSP> 5
 0.000000e+00 1.000000e+00 0.000000e+00 0.000000e+00 0.000000e+00
 0.000000e+00 6.487292e-17 1.000000e+00 0.000000e+00 0.000000e+00
 0.000000e+00 0.000000e+00 6.724102e-01 3.275898e-01 0.000000e+00
 0.000000e+00 0.000000e+00 0.000000e+00 8.951915e-01 1.048085e-01
 0.000000e+00 0.000000e+00 0.000000e+00 0.000000e+00 0.000000e+00
<ENDHMM>
~h "sil"
<BEGINHMM>
<NUMSTATES> 5
<STATE> 2
<MEAN> 25
 -5.816192e+00 1.929793e-01 -3.918607e+00 1.692706e+00 2.606629e+00 9.752771e-01 3.117434e+00 1.732960e+00 -1.068872e+00 -9.077089e-02 -4.665490e-01 2.488367e+00 -1.427767e-02 -2.398635e-04 -1.686668e-02 -3.041838e-03 -6.560486e-03 1.866771e-03 -7.033335e-03 -3.088203e-03 -8.508133e-03 -1.657773e-03 6.678612e-03 -1.529333e-03 -3.420138e-02
<VARIANCE> 25
 2.129980e+01 1.708916e+01 1.709528e+01 2.429464e+01 2.269198e+01 3.098268e+01 2.558191e+01 2.350471e+01 3.078581e+01 2.069250e+01 2.349750e+01 1.446757e+01 1.474677e-01 2.867107e-01 4.691538e-01 6.787103e-01 8.881340e-01 1.097692e+00 1.238608e+00 1.329477e+00 1.366661e+00 1.342370e+00 1.280313e+00 1.157112e+00 7.733026e-02
<GCONST> 7.771898e+01
<STATE> 3
~s "silst"
<STATE> 4
<MEAN> 25
 -6.470027e+00 -7.952207e-01 -1.536234e+00 1.632956e+00 4.524306e+00 1.526306e+00 2.743325e+00 2.897874e-01 1.130205e+00 -1.526006e+00 -1.000430e+00 2.712744e+00 -6.575853e-02 1.176160e-02 4.431728e-03 1.463917e-03 5.751999e-02 1.917289e-02 -3.636854e-03 -1.110812e-02 -3.867731e-02 1.896951e-02 1.525203e-03 3.371214e-03 -5.763602e-02
<VARIANCE> 25
 2.579215e+01 3.597036e+01 4.466541e+01 4.520604e+01 4.448034e+01 7.024155e+01 5.922254e+01 4.743938e+01 4.569061e+01 3.453326e+01 3.522272e+01 3.227729e+01 7.583746e-01 1.124032e+00 1.661612e+00 2.052954e+00 2.457159e+00 2.881976e+00 2.970408e+00 3.127332e+00 2.999247e+00 2.789240e+00 2.517864e+00 2.196005e+00 6.352983e-01
<GCONST> 9.941201e+01
<TRANSP> 5
 0.000000e+00 1.000000e+00 0.000000e+00 0.000000e+00 0.000000e+00
 0.000000e+00 9.352230e-01 1.232100e-02 5.245594e-02 0.000000e+00
 0.000000e+00 0.000000e+00 8.894234e-01 1.105766e-01 0.000000e+00
 0.000000e+00 8.854638e-02 0.000000e+00 8.156514e-01 9.580228e-02
 0.000000e+00 0.000000e+00 0.000000e+00 0.000000e+00 0.000000e+00
<ENDHMM>
