~o
<STREAMINFO> 1 25
<VECSIZE> 25<NULLD><MFCC_D_N_Z_0><DIAGC>
~h "@"
<BEGINHMM>
<NUMSTATES> 5
<STATE> 2
<MEAN> 25
 4.764877e-01 1.062576e-01 -1.905072e-02 -8.441678e-02 -6.042474e-02 -9.531299e-02 -2.982247e-01 -2.754515e-01 1.608014e-01 1.807020e-01 8.274889e-02 -3.367687e-02 1.783742e-02 -8.920439e-03 3.568059e-03 -5.462161e-03 -1.987115e-03 -5.474758e-04 1.343273e-03 -2.744753e-04 -4.045186e-03 9.937184e-04 -3.389456e-03 -3.869053e-03 1.965621e-02
<VARIANCE> 25
 6.587154e+01 5.491253e+01 7.571057e+01 5.893870e+01 6.993681e+01 7.103951e+01 6.302697e+01 6.096861e+01 5.583982e+01 4.288976e+01 4.709342e+01 3.912579e+01 2.883348e+00 3.009218e+00 3.177128e+00 3.487629e+00 3.918377e+00 3.930730e+00 3.871405e+00 3.927124e+00 3.580367e+00 3.077813e+00 3.109128e+00 2.645947e+00 3.320092e+00
<GCONST> 1.103375e+02
<STATE> 3
<MEAN> 25
 5.197299e-01 8.427091e-02 -9.951378e-03 -1.002603e-01 -6.207322e-02 -9.796838e-02 -2.940051e-01 -2.760594e-01 1.501508e-01 1.812870e-01 7.211634e-02 -4.136951e-02 1.623545e-02 -8.104502e-03 3.333391e-03 -5.314880e-03 -7.798824e-04 5.006040e-04 2.365077e-03 1.023792e-04 -4.306515e-03 3.867176e-04 -4.234744e-03 -2.840009e-03 1.789116e-02
<VARIANCE> 25
 6.531448e+01 5.495573e+01 7.570279e+01 5.887995e+01 6.982525e+01 7.105348e+01 6.307796e+01 6.102258e+01 5.592628e+01 4.296006e+01 4.704840e+01 3.915981e+01 2.865354e+00 3.005818e+00 3.176175e+00 3.487858e+00 3.912153e+00 3.932490e+00 3.863454e+00 3.929845e+00 3.582508e+00 3.079303e+00 3.106019e+00 2.644709e+00 3.320337e+00
<GCONST> 1.103216e+02
<STATE> 4
<MEAN> 25
 5.715361e-01 5.329394e-02 2.576918e-02 -1.239153e-01 -7.755166e-02 -1.121333e-01 -2.849550e-01 -2.714986e-01 1.285063e-01 1.686064e-01 5.433694e-02 -5.094993e-02 1.351682e-02 -7.384354e-03 2.618649e-03 -4.556037e-03 2.038850e-04 1.088812e-03 2.720550e-03 1.190845e-03 -3.355719e-03 -6.967728e-04 -5.352384e-03 -1.978283e-03 1.541234e-02
<VARIANCE> 25
 6.354430e+01 5.413964e+01 7.463208e+01 5.830590e+01 6.949422e+01 7.058063e+01 6.250823e+01 6.063976e+01 5.530770e+01 4.260760e+01 4.660629e+01 3.914288e+01 2.775102e+00 2.930345e+00 3.110009e+00 3.413323e+00 3.843841e+00 3.886515e+00 3.800323e+00 3.877388e+00 3.527114e+00 3.032132e+00 3.055821e+00 2.616275e+00 3.267257e+00
<GCONST> 1.099655e+02
<TRANSP> 5
 0.000000e+00 1.000000e+00 0.000000e+00 0.000000e+00 0.000000e+00
 0.000000e+00 6.389651e-01 3.610348e-01 0.000000e+00 0.000000e+00
 0.000000e+00 0.000000e+00 6.389583e-01 3.610416e-01 0.000000e+00
 0.000000e+00 0.000000e+00 0.000000e+00 7.531183e-01 2.468817e-01
 0.000000e+00 0.000000e+00 0.000000e+00 0.000000e+00 0.000000e+00
<ENDHMM>
~h "a"
<BEGINHMM>
<NUMSTATES> 5
<STATE> 2
<MEAN> 25
 3.612303e-01 -6.056557e-01 -3.754841e-01 -1.923745e-01 1.349326e-01 3.691058e-02 1.035758e-01 3.886434e-01 3.039257e-01 -1.249933e-01 -3.849321e-01 -2.636307e-01 3.561386e-04 2.830024e-03 3.091134e-03 6.222713e-03 -2.308466e-04 -1.155575e-03 3.018735e-03 6.343458e-04 -1.905089e-05 -7.488307e-04 -3.005789e-03 2.700434e-03 7.866539e-04
<VARIANCE> 25
 6.051014e+01 5.609908e+01 7.927141e+01 5.714096e+01 7.125002e+01 6.888845e+01 6.011512e+01 6.048607e+01 5.502208e+01 4.221899e+01 4.750069e+01 3.998256e+01 2.618357e+00 2.907564e+00 3.154699e+00 3.357646e+00 3.810558e+00 3.763364e+00 3.659491e+00 3.867524e+00 3.448643e+00 2.992771e+00 3.090903e+00 2.620076e+00 3.161071e+00
<GCONST> 1.097722e+02
<STATE> 3
<MEAN> 25
 3.583606e-01 -5.922802e-01 -3.668941e-01 -1.758088e-01 1.350085e-01 3.425085e-02 1.095550e-01 3.883735e-01 3.031316e-01 -1.245918e-01 -3.894952e-01 -2.552387e-01 -3.429497e-03 8.061884e-03 3.973931e-03 7.463523e-03 6.205712e-04 -1.216091e-03 1.604850e-03 -1.425092e-03 -1.603532e-03 1.775448e-04 -8.401868e-04 3.674444e-03 -5.414184e-03
<VARIANCE> 25
 6.029950e+01 5.601065e+01 7.944202e+01 5.718837e+01 7.137444e+01 6.878265e+01 6.006015e+01 6.043722e+01 5.499166e+01 4.226581e+01 4.745444e+01 3.993235e+01 2.612976e+00 2.897741e+00 3.153625e+00 3.351609e+00 3.807786e+00 3.759624e+00 3.655975e+00 3.864769e+00 3.446073e+00 2.992284e+00 3.087497e+00 2.615070e+00 3.145350e+00
<GCONST> 1.097470e+02
<STATE> 4
<MEAN> 25
 3.538024e-01 -5.468164e-01 -3.351296e-01 -1.605004e-01 1.219705e-01 2.754084e-02 9.515604e-02 3.656012e-01 2.938742e-01 -1.137075e-01 -3.768488e-01 -2.501270e-01 -6.301652e-03 1.149577e-02 4.677549e-03 7.092123e-03 1.584097e-03 -8.300049e-04 1.898781e-04 -3.246485e-03 -2.817487e-03 1.442438e-03 1.410267e-03 4.287538e-03 -1.028599e-02
<VARIANCE> 25
 5.933618e+01 5.504671e+01 7.824947e+01 5.657301e+01 7.129121e+01 6.831656e+01 5.957692e+01 5.992527e+01 5.436340e+01 4.172821e+01 4.699213e+01 3.976775e+01 2.553550e+00 2.816278e+00 3.080825e+00 3.272439e+00 3.744755e+00 3.709745e+00 3.605285e+00 3.806574e+00 3.391136e+00 2.945031e+00 3.036668e+00 2.576208e+00 3.084343e+00
<GCONST> 1.093838e+02
<TRANSP> 5
 0.000000e+00 1.000000e+00 0.000000e+00 0.000000e+00 0.000000e+00
 0.000000e+00 6.385379e-01 3.614621e-01 0.000000e+00 0.000000e+00
 0.000000e+00 0.000000e+00 6.385376e-01 3.614624e-01 0.000000e+00
 0.000000e+00 0.000000e+00 0.000000e+00 7.526299e-01 2.473701e-01
 0.000000e+00 0.000000e+00 0.000000e+00 0.000000e+00 0.000000e+00
<ENDHMM>
~h "b"
<BEGINHMM>
<NUMSTATES> 5
<STATE> 2
<MEAN> 25
 6.543775e-01 6.041074e-01 1.921934e-02 1.359602e-01 -3.189106e-02 1.056291e-01 -5.079306e-01 -4.887336e-01 -1.498872e-01 5.840868e-02 1.728096e-01 -2.142152e-01 3.813963e-03 1.562200e-03 1.883012e-02 -7.229481e-03 -1.110019e-02 -1.162195e-02 -2.536996e-03 -1.892461e-03 -3.590926e-03 -4.806753e-03 1.142019e-02 -7.238862e-04 1.657466e-02
<VARIANCE> 25
 6.658086e+01 5.691769e+01 7.786919e+01 6.081340e+01 6.906253e+01 7.079967e+01 6.351378e+01 6.388073e+01 5.939871e+01 4.290629e+01 4.714552e+01 3.917228e+01 2.528882e+00 3.073424e+00 3.194890e+00 3.597007e+00 3.881984e+00 3.820992e+00 3.900855e+00 3.963614e+00 3.726205e+00 3.157957e+00 3.237703e+00 2.629336e+00 3.111608e+00
<GCONST> 1.104869e+02
<STATE> 3
<MEAN> 25
 6.684290e-01 6.059984e-01 7.033023e-02 1.158534e-01 -6.479757e-02 7.654593e-02 -5.129762e-01 -4.934656e-01 -1.638936e-01 4.801710e-02 1.925485e-01 -2.171834e-01 1.491866e-03 1.685039e-04 1.914932e-02 -7.134443e-03 -1.237177e-02 -1.115280e-02 4.612904e-04 -2.191787e-04 -6.911352e-03 -4.530509e-03 8.550186e-03 -3.658617e-04 1.715711e-02
<VARIANCE> 25
 6.595686e+01 5.698058e+01 7.806338e+01 6.076037e+01 6.895023e+01 7.082957e+01 6.356939e+01 6.376642e+01 5.941270e+01 4.288953e+01 4.718288e+01 3.931540e+01 2.525374e+00 3.075907e+00 3.208307e+00 3.608084e+00 3.893341e+00 3.825712e+00 3.895123e+00 3.967515e+00 3.740812e+00 3.166604e+00 3.234594e+00 2.644877e+00 3.122215e+00
<GCONST> 1.105077e+02
<STATE> 4
<MEAN> 25
 6.421593e-01 5.839338e-01 1.330181e-01 9.066528e-02 -1.031313e-01 4.439323e-02 -4.625285e-01 -4.778516e-01 -1.849721e-01 1.320521e-02 1.908019e-01 -2.107172e-01 3.425091e-04 -2.381398e-03 1.638169e-02 -7.484034e-03 -1.070980e-02 -1.119394e-02 2.447452e-03 1.921941e-03 -8.493396e-03 -2.453522e-03 2.883796e-03 -1.217265e-03 1.787140e-02
<VARIANCE> 25
 6.388995e+01 5.591799e+01 7.651302e+01 5.978232e+01 6.838260e+01 6.963759e+01 6.288309e+01 6.265696e+01 5.801826e+01 4.216672e+01 4.657607e+01 3.920932e+01 2.441602e+00 2.992105e+00 3.124605e+00 3.525461e+00 3.827829e+00 3.762837e+00 3.807839e+00 3.895832e+00 3.662322e+00 3.108945e+00 3.163938e+00 2.621451e+00 3.068899e+00
<GCONST> 1.100376e+02
<TRANSP> 5
 0.000000e+00 1.000000e+00 0.000000e+00 0.000000e+00 0.000000e+00
 0.000000e+00 6.381446e-01 3.618554e-01 0.000000e+00 0.000000e+00
 0.000000e+00 0.000000e+00 6.381451e-01 3.618549e-01 0.000000e+00
 0.000000e+00 0.000000e+00 0.000000e+00 7.531117e-01 2.468883e-01
 0.000000e+00 0.000000e+00 0.000000e+00 0.000000e+00 0.000000e+00
<ENDHMM>
~h "c"
<BEGINHMM>
<NUMSTATES> 5
<STATE> 2
<MEAN> 25
 -2.456374e-01 -2.615135e-01 -2.224853e-01 -8.149959e-01 -3.613510e-01 -1.074697e-01 -3.723349e-01 5.642120e-01 1.766645e-01 3.307634e-02 3.597268e-01 2.436869e-01 1.584485e-02 -2.361919e-02 -1.834757e-02 4.550760e-03 7.237684e-03 9.558774e-04 2.024966e-02 2.692047e-02 1.075604e-02 -1.911384e-02 -2.344660e-02 -6.443706e-03 -1.679636e-03
<VARIANCE> 25
 6.812272e+01 5.345804e+01 7.020505e+01 5.789632e+01 6.093412e+01 5.984564e+01 5.513080e+01 5.798640e+01 5.474617e+01 3.998388e+01 4.456136e+01 3.670705e+01 3.980317e+00 2.741408e+00 3.242559e+00 3.536516e+00 3.781110e+00 3.607720e+00 3.500508e+00 3.728645e+00 3.386861e+00 2.973671e+00 3.022005e+00 2.566754e+00 3.272102e+00
<GCONST> 1.093748e+02
<STATE> 3
<MEAN> 25
 -1.750928e-01 -3.269779e-01 -2.624345e-01 -8.014107e-01 -3.361574e-01 -1.069457e-01 -3.249775e-01 6.266587e-01 1.839271e-01 -1.592927e-02 2.943701e-01 2.192504e-01 2.997513e-02 -2.850388e-02 -1.604580e-02 1.312243e-02 6.289599e-03 1.865697e-03 1.448559e-02 1.878616e-02 3.544142e-03 -1.859577e-02 -2.878443e-02 -1.219476e-02 -3.501713e-03
<VARIANCE> 25
 6.750364e+01 5.339142e+01 6.981504e+01 5.770808e+01 6.038967e+01 5.978179e+01 5.473944e+01 5.776916e+01 5.470502e+01 4.002728e+01 4.448299e+01 3.671941e+01 3.964961e+00 2.735369e+00 3.209457e+00 3.500916e+00 3.754765e+00 3.574943e+00 3.488317e+00 3.714470e+00 3.382929e+00 2.962413e+00 3.009293e+00 2.555463e+00 3.269015e+00
<GCONST> 1.092692e+02
<STATE> 4
<MEAN> 25
 6.208173e-03 -3.995444e-01 -3.107111e-01 -7.505497e-01 -3.162732e-01 -7.385492e-02 -3.092297e-01 6.193396e-01 1.472525e-01 -2.923651e-02 2.029054e-01 1.521800e-01 3.875230e-02 -2.955986e-02 -1.260970e-02 1.844297e-02 5.035149e-03 1.606074e-03 6.929557e-03 1.033434e-02 8.657703e-04 -1.144565e-02 -3.021842e-02 -1.302506e-02 -5.466024e-03
<VARIANCE> 25
 6.474378e+01 5.216271e+01 6.861219e+01 5.697173e+01 5.922133e+01 5.904364e+01 5.371466e+01 5.698835e+01 5.385726e+01 3.948853e+01 4.379517e+01 3.682544e+01 3.779686e+00 2.650319e+00 3.123894e+00 3.384961e+00 3.656225e+00 3.505237e+00 3.434713e+00 3.634430e+00 3.331784e+00 2.913144e+00 2.946107e+00 2.512982e+00 3.217059e+00
<GCONST> 1.087579e+02
<TRANSP> 5
 0.000000e+00 1.000000e+00 0.000000e+00 0.000000e+00 0.000000e+00
 0.000000e+00 6.353561e-01 3.646439e-01 0.000000e+00 0.000000e+00
 0.000000e+00 0.000000e+00 6.353547e-01 3.646452e-01 0.000000e+00
 0.000000e+00 0.000000e+00 0.000000e+00 7.485577e-01 2.514423e-01
 0.000000e+00 0.000000e+00 0.000000e+00 0.000000e+00 0.000000e+00
<ENDHMM>
~h "d"
<BEGINHMM>
<NUMSTATES> 5
<STATE> 2
<MEAN> 25
 5.477771e-01 -4.181950e-02 1.038582e+00 2.658754e-01 -8.273110e-01 -7.636200e-01 -4.372727e-01 2.988868e-01 -2.028145e-02 -3.660738e-01 4.445680e-02 -3.680770e-02 7.589532e-03 -8.406951e-03 7.902390e-03 -8.847469e-03 -6.409049e-03 -1.182244e-02 1.483361e-03 3.319741e-03 3.377183e-03 -1.698409e-03 -4.099993e-04 -1.611814e-03 2.896214e-02
<VARIANCE> 25
 5.700521e+01 5.481553e+01 8.678658e+01 5.895098e+01 7.378831e+01 6.832924e+01 6.125851e+01 6.299369e+01 5.792781e+01 4.188044e+01 4.920663e+01 3.940358e+01 2.486479e+00 3.064329e+00 3.386058e+00 3.590618e+00 4.067965e+00 3.946755e+00 3.803350e+00 4.025033e+00 3.571710e+00 3.048955e+00 3.250255e+00 2.680746e+00 3.431049e+00
<GCONST> 1.105005e+02
<STATE> 3
<MEAN> 25
 5.606952e-01 -6.313183e-02 1.056252e+00 2.479426e-01 -8.411381e-01 -7.910101e-01 -4.280994e-01 3.071559e-01 -1.378006e-02 -3.705193e-01 4.399030e-02 -4.136665e-02 3.644889e-03 -8.118235e-03 5.185152e-03 -7.541365e-03 -4.269949e-03 -9.683646e-03 3.964390e-03 2.959325e-03 1.978848e-03 -1.537104e-03 -2.205260e-05 -2.385940e-03 2.458481e-02
<VARIANCE> 25
 5.654575e+01 5.476611e+01 8.683473e+01 5.899724e+01 7.362352e+01 6.831776e+01 6.122507e+01 6.297786e+01 5.796405e+01 4.195516e+01 4.921503e+01 3.948332e+01 2.484755e+00 3.058965e+00 3.390083e+00 3.591124e+00 4.066277e+00 3.945220e+00 3.807523e+00 4.022827e+00 3.575685e+00 3.049251e+00 3.250457e+00 2.684440e+00 3.425022e+00
<GCONST> 1.104937e+02
<STATE> 4
<MEAN> 25
 5.527419e-01 -7.118256e-02 1.029699e+00 2.381227e-01 -8.212616e-01 -7.895572e-01 -4.112087e-01 2.932900e-01 -7.630949e-03 -3.755223e-01 5.328385e-02 -6.997105e-02 3.284921e-04 -5.894973e-03 2.123314e-03 -4.608888e-03 -1.826961e-03 -6.412234e-03 5.853307e-03 1.490515e-03 1.706468e-04 -6.630190e-04 9.942643e-04 -1.802802e-03 1.861248e-02
<VARIANCE> 25
 5.560807e+01 5.389641e+01 8.553563e+01 5.848045e+01 7.300389e+01 6.811741e+01 6.075413e+01 6.247240e+01 5.738483e+01 4.161815e+01 4.889687e+01 3.954773e+01 2.447135e+00 2.977521e+00 3.325878e+00 3.511490e+00 4.003713e+00 3.895822e+00 3.768264e+00 3.957577e+00 3.527184e+00 3.006300e+00 3.198134e+00 2.650481e+00 3.372092e+00
<GCONST> 1.101760e+02
<TRANSP> 5
 0.000000e+00 1.000000e+00 0.000000e+00 0.000000e+00 0.000000e+00
 0.000000e+00 6.401154e-01 3.598846e-01 0.000000e+00 0.000000e+00
 0.000000e+00 0.000000e+00 6.401172e-01 3.598829e-01 0.000000e+00
 0.000000e+00 0.000000e+00 0.000000e+00 7.537768e-01 2.462232e-01
 0.000000e+00 0.000000e+00 0.000000e+00 0.000000e+00 0.000000e+00
<ENDHMM>
~h "e"
<BEGINHMM>
<NUMSTATES> 5
<STATE> 2
<MEAN> 25
 -2.631135e-01 -4.402539e-01 1.745144e-01 3.923599e-01 -5.721088e-01 -5.369755e-01 8.607490e-01 7.724216e-01 -7.359166e-02 5.470896e-01 1.158849e-01 1.042402e-01 -1.758510e-02 1.062366e-02 2.224480e-03 3.708859e-03 1.527974e-03 9.809295e-03 2.266748e-03 1.695617e-03 -1.392845e-02 1.860447e-03 1.288679e-03 4.984983e-03 -2.618718e-02
<VARIANCE> 25
 6.499720e+01 5.619455e+01 8.131833e+01 5.813110e+01 8.097871e+01 7.239029e+01 6.266217e+01 6.276600e+01 5.374331e+01 4.118987e+01 4.384405e+01 3.948734e+01 2.688211e+00 2.886284e+00 3.131429e+00 3.222086e+00 4.131261e+00 3.626195e+00 3.643078e+00 3.891740e+00 3.419642e+00 3.002401e+00 2.875739e+00 2.535285e+00 3.025078e+00
<GCONST> 1.098649e+02
<STATE> 3
<MEAN> 25
 -3.087839e-01 -4.141579e-01 1.782633e-01 3.964274e-01 -5.583611e-01 -5.043131e-01 8.612142e-01 7.741996e-01 -1.067231e-01 5.469365e-01 1.217741e-01 1.222607e-01 -1.936395e-02 1.119373e-02 -1.147115e-03 2.933201e-03 4.552540e-03 1.083356e-02 3.766694e-04 -3.064692e-03 -1.111330e-02 -2.524628e-03 3.770112e-03 7.980711e-03 -2.768896e-02
<VARIANCE> 25
 6.520886e+01 5.602214e+01 8.107267e+01 5.820012e+01 8.095072e+01 7.293447e+01 6.259740e+01 6.275955e+01 5.393306e+01 4.112146e+01 4.359305e+01 3.966328e+01 2.709255e+00 2.880187e+00 3.128268e+00 3.226216e+00 4.123381e+00 3.644347e+00 3.632353e+00 3.900254e+00 3.418421e+00 2.998637e+00 2.868290e+00 2.536103e+00 3.032971e+00
<GCONST> 1.098768e+02
<STATE> 4
<MEAN> 25
 -2.807653e-01 -3.522758e-01 2.164213e-01 3.399840e-01 -5.530063e-01 -4.112796e-01 7.569378e-01 6.811945e-01 -1.252814e-01 5.367554e-01 1.200830e-01 1.238030e-01 -2.023186e-02 1.047320e-02 -1.059862e-03 2.560597e-04 9.236580e-03 1.176559e-02 -2.442260e-03 -6.284851e-03 -7.181954e-03 -6.127902e-03 5.423651e-03 1.192703e-02 -2.765086e-02
<VARIANCE> 25
 6.331577e+01 5.500157e+01 7.917184e+01 5.807533e+01 8.077792e+01 7.305763e+01 6.182607e+01 6.273100e+01 5.350021e+01 4.074920e+01 4.311729e+01 4.015054e+01 2.609381e+00 2.792616e+00 3.039042e+00 3.155732e+00 4.026063e+00 3.596998e+00 3.557233e+00 3.845170e+00 3.353801e+00 2.936501e+00 2.819127e+00 2.513081e+00 2.974427e+00
<GCONST> 1.094964e+02
<TRANSP> 5
 0.000000e+00 1.000000e+00 0.000000e+00 0.000000e+00 0.000000e+00
 0.000000e+00 6.441489e-01 3.558511e-01 0.000000e+00 0.000000e+00
 0.000000e+00 0.000000e+00 6.441492e-01 3.558508e-01 0.000000e+00
 0.000000e+00 0.000000e+00 0.000000e+00 7.590220e-01 2.409780e-01
 0.000000e+00 0.000000e+00 0.000000e+00 0.000000e+00 0.000000e+00
<ENDHMM>
~h "f"
<BEGINHMM>
<NUMSTATES> 5
<STATE> 2
<MEAN> 25
 -7.467372e-01 5.713870e-01 1.618341e+00 9.200191e-01 -1.055770e+00 -1.448257e+00 5.012609e-01 -7.420279e-02 -6.070052e-01 -7.282919e-03 7.720152e-01 2.901781e-01 -6.843996e-03 1.887738e-02 9.713952e-03 -1.291179e-02 5.753693e-03 2.981132e-03 -6.193149e-03 -1.984160e-02 -8.777287e-03 -5.695072e-03 7.036064e-03 3.606644e-03 -1.053429e-03
<VARIANCE> 25
 7.219387e+01 5.469190e+01 9.666112e+01 6.608591e+01 7.558070e+01 7.397363e+01 6.077391e+01 6.155476e+01 5.621650e+01 4.036518e+01 4.532290e+01 3.832393e+01 3.377469e+00 2.906860e+00 3.915295e+00 3.682382e+00 4.565341e+00 3.986536e+00 3.786568e+00 3.743583e+00 3.618091e+00 2.945952e+00 3.037033e+00 2.509209e+00 3.004642e+00
<GCONST> 1.110362e+02
<STATE> 3
<MEAN> 25
 -7.594014e-01 6.125705e-01 1.637877e+00 8.759170e-01 -1.027806e+00 -1.439568e+00 4.892868e-01 -1.273009e-01 -6.227160e-01 -2.068873e-02 7.887123e-01 3.033368e-01 -3.642388e-03 1.009898e-02 4.992784e-03 -1.355809e-02 9.179451e-03 2.318558e-03 -6.620358e-03 -1.585024e-02 -3.333970e-03 -2.681528e-03 7.558248e-03 2.945445e-03 2.711728e-03
<VARIANCE> 25
 7.252749e+01 5.487829e+01 9.709383e+01 6.636912e+01 7.559545e+01 7.444517e+01 6.104294e+01 6.172516e+01 5.609979e+01 4.044175e+01 4.529749e+01 3.849857e+01 3.399684e+00 2.929885e+00 3.920121e+00 3.660123e+00 4.571430e+00 4.010355e+00 3.785906e+00 3.751215e+00 3.609895e+00 2.946036e+00 3.044123e+00 2.514306e+00 3.005964e+00
<GCONST> 1.110918e+02
<STATE> 4
<MEAN> 25
 -6.886531e-01 5.830733e-01 1.624813e+00 7.397433e-01 -9.322453e-01 -1.434733e+00 4.807462e-01 -1.946437e-01 -6.210836e-01 -6.387714e-02 7.651149e-01 3.117061e-01 1.204925e-04 -1.056195e-03 -8.692911e-04 -1.420850e-02 1.364732e-02 4.112758e-04 -4.809807e-03 -1.146934e-02 3.724161e-03 1.036162e-03 6.185230e-03 1.640691e-03 6.797429e-03
<VARIANCE> 25
 7.108178e+01 5.442261e+01 9.573582e+01 6.580158e+01 7.533205e+01 7.376928e+01 6.109272e+01 6.149022e+01 5.549363e+01 4.015507e+01 4.477264e+01 3.937214e+01 3.322052e+00 2.887400e+00 3.827480e+00 3.556990e+00 4.494306e+00 3.984152e+00 3.743062e+00 3.713200e+00 3.563576e+00 2.919415e+00 3.009224e+00 2.506097e+00 2.939579e+00
<GCONST> 1.108234e+02
<TRANSP> 5
 0.000000e+00 1.000000e+00 0.000000e+00 0.000000e+00 0.000000e+00
 0.000000e+00 6.480687e-01 3.519314e-01 0.000000e+00 0.000000e+00
 0.000000e+00 0.000000e+00 6.480679e-01 3.519321e-01 0.000000e+00
 0.000000e+00 0.000000e+00 0.000000e+00 7.625888e-01 2.374112e-01
 0.000000e+00 0.000000e+00 0.000000e+00 0.000000e+00 0.000000e+00
<ENDHMM>
~h "g"
<BEGINHMM>
<NUMSTATES> 5
<STATE> 2
<MEAN> 25
 6.198997e-01 4.220458e-01 1.309167e+00 -3.944559e-01 -5.501847e-01 -5.659765e-01 -1.047049e+00 -4.333686e-01 -5.064532e-01 3.485666e-01 3.048930e-01 -5.250254e-01 -9.502115e-03 -4.009999e-04 5.822672e-03 4.119059e-03 -1.627971e-04 5.524752e-04 4.003433e-03 -3.397587e-03 -3.897449e-04 5.217019e-03 -1.448888e-03 5.643922e-04 -1.063276e-02
<VARIANCE> 25
 5.867118e+01 5.708012e+01 8.944031e+01 5.929744e+01 7.253687e+01 7.036503e+01 6.494891e+01 6.434578e+01 5.992290e+01 4.500149e+01 4.948644e+01 4.169603e+01 2.462271e+00 2.987214e+00 3.551341e+00 3.694653e+00 4.260075e+00 4.037870e+00 3.989419e+00 4.105924e+00 3.753973e+00 3.180869e+00 3.251856e+00 2.638405e+00 3.104992e+00
<GCONST> 1.110201e+02
<STATE> 3
<MEAN> 25
 5.835111e-01 4.176905e-01 1.316862e+00 -3.784373e-01 -5.477483e-01 -5.585893e-01 -1.031756e+00 -4.393320e-01 -4.982741e-01 3.614099e-01 3.003166e-01 -5.191873e-01 -1.412087e-02 -4.997682e-04 2.886748e-03 7.480794e-03 2.956711e-04 6.255936e-03 4.987943e-03 -3.936932e-03 4.151981e-03 3.562000e-03 -1.484269e-03 2.143861e-03 -1.572872e-02
<VARIANCE> 25
 5.885027e+01 5.693017e+01 8.944112e+01 5.925936e+01 7.261257e+01 7.056377e+01 6.539662e+01 6.436757e+01 5.982206e+01 4.510336e+01 4.964100e+01 4.173766e+01 2.456150e+00 2.978004e+00 3.538974e+00 3.685944e+00 4.247261e+00 4.035576e+00 4.005633e+00 4.109408e+00 3.729722e+00 3.175245e+00 3.250284e+00 2.636717e+00 3.090038e+00
<GCONST> 1.110114e+02
<STATE> 4
<MEAN> 25
 5.117018e-01 3.971435e-01 1.270822e+00 -3.546478e-01 -5.236953e-01 -5.563977e-01 -9.660791e-01 -4.498266e-01 -4.705680e-01 3.165909e-01 3.025976e-01 -5.175157e-01 -1.815387e-02 -1.636470e-03 -1.627850e-03 9.196213e-03 7.995727e-04 8.936724e-03 7.278594e-03 -8.107308e-04 1.017910e-02 1.595968e-03 -2.705134e-03 3.702520e-03 -2.120198e-02
<VARIANCE> 25
 5.843367e+01 5.568533e+01 8.790160e+01 5.893509e+01 7.246487e+01 7.062226e+01 6.481185e+01 6.358227e+01 5.868572e+01 4.439119e+01 4.920161e+01 4.188866e+01 2.401796e+00 2.894750e+00 3.439886e+00 3.591355e+00 4.170216e+00 3.982587e+00 3.939990e+00 4.028893e+00 3.638093e+00 3.117581e+00 3.192918e+00 2.604556e+00 3.029377e+00
<GCONST> 1.106304e+02
<TRANSP> 5
 0.000000e+00 1.000000e+00 0.000000e+00 0.000000e+00 0.000000e+00
 0.000000e+00 6.393925e-01 3.606075e-01 0.000000e+00 0.000000e+00
 0.000000e+00 0.000000e+00 6.393903e-01 3.606097e-01 0.000000e+00
 0.000000e+00 0.000000e+00 0.000000e+00 7.541320e-01 2.458680e-01
 0.000000e+00 0.000000e+00 0.000000e+00 0.000000e+00 0.000000e+00
<ENDHMM>
~h "h"
<BEGINHMM>
<NUMSTATES> 5
<STATE> 2
<MEAN> 25
 7.820398e-02 -5.163887e-01 -3.510866e-01 -2.937322e-01 3.688203e-01 1.528700e-01 2.673036e-01 2.438250e-02 2.074362e-01 -1.035690e-01 -9.897038e-02 -2.962655e-01 1.241874e-02 -3.938658e-03 -3.525086e-04 2.563513e-03 -1.887699e-03 -9.449734e-03 -1.888578e-03 -2.537167e-03 -4.364308e-03 -5.639307e-03 -3.119148e-03 -3.053268e-04 1.951371e-02
<VARIANCE> 25
 6.288592e+01 5.736983e+01 8.380623e+01 5.821337e+01 7.790842e+01 7.153217e+01 6.369848e+01 6.139135e+01 5.378950e+01 4.170806e+01 4.825852e+01 4.066130e+01 2.746359e+00 2.876131e+00 3.218336e+00 3.412503e+00 4.120152e+00 3.860957e+00 3.890273e+00 3.804208e+00 3.385705e+00 3.001315e+00 3.116773e+00 2.627339e+00 3.172252e+00
<GCONST> 1.103254e+02
<STATE> 3
<MEAN> 25
 1.075916e-01 -5.194553e-01 -3.505732e-01 -2.919417e-01 3.652809e-01 1.299041e-01 2.641113e-01 1.728581e-02 1.984558e-01 -1.132811e-01 -1.022213e-01 -2.977857e-01 1.068047e-02 1.403365e-03 2.448238e-03 1.062807e-03 -4.298539e-03 -1.061045e-02 -2.494939e-03 -4.616993e-03 -5.964839e-03 -1.949870e-03 -1.171165e-04 2.167189e-03 1.566647e-02
<VARIANCE> 25
 6.244277e+01 5.724315e+01 8.380598e+01 5.840698e+01 7.794480e+01 7.157726e+01 6.354269e+01 6.150520e+01 5.400236e+01 4.183817e+01 4.855032e+01 4.078101e+01 2.743956e+00 2.864377e+00 3.221555e+00 3.414856e+00 4.123197e+00 3.871478e+00 3.883868e+00 3.808716e+00 3.393816e+00 3.004148e+00 3.124270e+00 2.633612e+00 3.163207e+00
<GCONST> 1.103409e+02
<STATE> 4
<MEAN> 25
 1.435137e-01 -4.969383e-01 -3.417970e-01 -3.045431e-01 3.572090e-01 1.157322e-01 2.577720e-01 -5.314597e-03 1.811463e-01 -1.208615e-01 -9.531958e-02 -3.195903e-01 6.801958e-03 6.742640e-03 5.546773e-03 -2.515377e-04 -6.054947e-03 -8.433840e-03 -2.938734e-03 -6.263308e-03 -7.337954e-03 1.071870e-03 1.909866e-03 3.816350e-03 1.006458e-02
<VARIANCE> 25
 6.109350e+01 5.586115e+01 8.239796e+01 5.795920e+01 7.725409e+01 7.114230e+01 6.224342e+01 6.096765e+01 5.356942e+01 4.138711e+01 4.826244e+01 4.072015e+01 2.680202e+00 2.772400e+00 3.142382e+00 3.329108e+00 4.038098e+00 3.827160e+00 3.795300e+00 3.752873e+00 3.351878e+00 2.956796e+00 3.083522e+00 2.602465e+00 3.107661e+00
<GCONST> 1.099515e+02
<TRANSP> 5
 0.000000e+00 1.000000e+00 0.000000e+00 0.000000e+00 0.000000e+00
 0.000000e+00 6.414690e-01 3.585311e-01 0.000000e+00 0.000000e+00
 0.000000e+00 0.000000e+00 6.414742e-01 3.585257e-01 0.000000e+00
 0.000000e+00 0.000000e+00 0.000000e+00 7.571515e-01 2.428484e-01
 0.000000e+00 0.000000e+00 0.000000e+00 0.000000e+00 0.000000e+00
<ENDHMM>
~h "i"
<BEGINHMM>
<NUMSTATES> 5
<STATE> 2
<MEAN> 25
 -4.822017e-01 4.957261e-01 1.900159e+00 2.252863e-01 -1.170776e+00 -7.158780e-01 6.787618e-02 -3.023148e-01 -7.336857e-01 2.982484e-03 4.284218e-01 8.749815e-02 -3.648485e-03 2.308486e-03 -8.763698e-03 5.037176e-03 5.427061e-03 -9.044291e-04 1.914386e-03 -6.128337e-04 1.540597e-03 -2.385220e-03 -3.972752e-03 -4.090083e-03 -5.444985e-05
<VARIANCE> 25
 6.103769e+01 5.278256e+01 9.830466e+01 5.725894e+01 7.872094e+01 6.942030e+01 6.098592e+01 6.097826e+01 5.705175e+01 4.095413e+01 4.641388e+01 3.810138e+01 2.643957e+00 2.721741e+00 3.659339e+00 3.305878e+00 4.131468e+00 3.745651e+00 3.709343e+00 3.810398e+00 3.494874e+00 2.941228e+00 3.013080e+00 2.491212e+00 3.046043e+00
<GCONST> 1.100358e+02
<STATE> 3
<MEAN> 25
 -4.912100e-01 4.969106e-01 1.867300e+00 2.391772e-01 -1.149921e+00 -7.177346e-01 7.514943e-02 -2.997761e-01 -7.264183e-01 -5.705486e-03 4.178115e-01 7.878862e-02 -3.453654e-03 1.176656e-05 -1.684132e-02 6.267561e-03 1.100722e-02 3.626151e-04 2.805882e-03 2.657569e-03 4.720937e-03 -4.591195e-03 -5.064801e-03 -2.695119e-03 -1.978752e-03
<VARIANCE> 25
 6.101552e+01 5.285881e+01 9.803693e+01 5.721090e+01 7.866196e+01 6.945827e+01 6.097301e+01 6.103706e+01 5.705838e+01 4.095069e+01 4.644077e+01 3.815392e+01 2.641962e+00 2.724724e+00 3.651346e+00 3.299363e+00 4.128551e+00 3.743631e+00 3.713199e+00 3.809152e+00 3.492216e+00 2.940660e+00 3.015740e+00 2.494539e+00 3.039414e+00
<GCONST> 1.100306e+02
<STATE> 4
<MEAN> 25
 -4.547026e-01 4.634253e-01 1.716449e+00 2.467302e-01 -1.056544e+00 -6.901115e-01 6.503653e-02 -2.743199e-01 -6.699732e-01 -3.831704e-02 3.935498e-01 5.624486e-02 -2.976755e-03 -2.737165e-03 -2.219653e-02 5.820837e-03 1.535297e-02 1.634998e-03 3.273564e-03 5.212369e-03 6.994689e-03 -5.562735e-03 -4.892736e-03 -1.101699e-03 -2.405527e-03
<VARIANCE> 25
 6.001440e+01 5.195825e+01 9.518028e+01 5.649208e+01 7.818571e+01 6.906319e+01 6.024297e+01 6.053586e+01 5.611985e+01 4.039439e+01 4.616856e+01 3.833635e+01 2.573960e+00 2.653122e+00 3.540021e+00 3.210634e+00 4.042313e+00 3.682812e+00 3.652882e+00 3.751214e+00 3.430747e+00 2.895821e+00 2.976486e+00 2.470366e+00 2.974833e+00
<GCONST> 1.096337e+02
<TRANSP> 5
 0.000000e+00 1.000000e+00 0.000000e+00 0.000000e+00 0.000000e+00
 0.000000e+00 6.439906e-01 3.560093e-01 0.000000e+00 0.000000e+00
 0.000000e+00 0.000000e+00 6.439801e-01 3.560199e-01 0.000000e+00
 0.000000e+00 0.000000e+00 0.000000e+00 7.594819e-01 2.405181e-01
 0.000000e+00 0.000000e+00 0.000000e+00 0.000000e+00 0.000000e+00
<ENDHMM>
~h "j"
<BEGINHMM>
<NUMSTATES> 5
<STATE> 2
<MEAN> 25
 -1.028026e-01 5.566827e-01 1.171227e+00 4.206282e-01 -3.967813e-01 -7.791936e-01 -6.731170e-01 1.397281e-01 -4.931571e-02 -2.379189e-01 2.870346e-01 3.091246e-01 3.732148e-03 -8.861013e-03 -7.335266e-04 -2.693236e-03 8.880991e-03 5.974133e-03 -1.048548e-02 1.527547e-04 -3.557103e-03 -4.781400e-03 -6.881407e-03 6.055965e-03 2.990721e-03
<VARIANCE> 25
 5.681712e+01 5.623156e+01 8.311003e+01 5.564204e+01 7.004375e+01 6.941047e+01 6.550649e+01 6.197403e+01 5.645697e+01 4.219483e+01 4.618727e+01 3.930285e+01 2.787282e+00 3.169428e+00 3.457311e+00 3.433962e+00 4.265008e+00 3.911992e+00 3.966471e+00 4.003663e+00 3.606086e+00 3.029676e+00 3.111772e+00 2.641306e+00 3.282735e+00
<GCONST> 1.104518e+02
<STATE> 3
<MEAN> 25
 -9.705850e-02 5.301057e-01 1.165429e+00 4.104041e-01 -3.837407e-01 -7.490443e-01 -6.982664e-01 1.395053e-01 -5.980802e-02 -2.441183e-01 2.628921e-01 3.201306e-01 5.389979e-03 -1.200953e-02 -2.763891e-03 -4.215724e-03 3.871898e-03 1.046900e-02 -7.853331e-03 2.136464e-03 -3.982096e-03 -2.029554e-03 -1.080425e-02 4.295723e-03 4.795587e-03
<VARIANCE> 25
 5.614194e+01 5.597766e+01 8.328844e+01 5.565699e+01 6.981184e+01 6.937437e+01 6.545750e+01 6.190394e+01 5.644600e+01 4.218692e+01 4.618938e+01 3.922233e+01 2.763481e+00 3.167461e+00 3.468136e+00 3.424052e+00 4.264637e+00 3.920436e+00 3.964182e+00 4.002570e+00 3.599988e+00 3.023705e+00 3.104855e+00 2.640873e+00 3.312782e+00
<GCONST> 1.104249e+02
<STATE> 4
<MEAN> 25
 -1.095388e-01 4.906889e-01 1.096003e+00 3.911760e-01 -3.367545e-01 -6.830380e-01 -6.865142e-01 9.713247e-02 -7.783220e-02 -2.508375e-01 2.068845e-01 3.284483e-01 4.658577e-03 -1.044807e-02 -6.160098e-03 -2.721856e-03 1.231822e-03 1.331563e-02 -4.135040e-03 3.274042e-03 -4.176054e-03 1.231873e-03 -1.255648e-02 1.681456e-03 3.678224e-03
<VARIANCE> 25
 5.493568e+01 5.454527e+01 8.178608e+01 5.486706e+01 6.913128e+01 6.855814e+01 6.465209e+01 6.131350e+01 5.568037e+01 4.197422e+01 4.553411e+01 3.893360e+01 2.677681e+00 3.065572e+00 3.377122e+00 3.330905e+00 4.165209e+00 3.862732e+00 3.886112e+00 3.938720e+00 3.519801e+00 2.982872e+00 3.050689e+00 2.602913e+00 3.251529e+00
<GCONST> 1.099811e+02
<TRANSP> 5
 0.000000e+00 1.000000e+00 0.000000e+00 0.000000e+00 0.000000e+00
 0.000000e+00 6.366292e-01 3.633709e-01 0.000000e+00 0.000000e+00
 0.000000e+00 0.000000e+00 6.366277e-01 3.633723e-01 0.000000e+00
 0.000000e+00 0.000000e+00 0.000000e+00 7.492846e-01 2.507154e-01
 0.000000e+00 0.000000e+00 0.000000e+00 0.000000e+00 0.000000e+00
<ENDHMM>
~h "k"
<BEGINHMM>
<NUMSTATES> 5
<STATE> 2
<MEAN> 25
 -4.684817e-02 -1.900100e-01 -4.312390e-01 -1.443602e-01 2.190885e-01 -1.146578e-01 2.103909e-01 8.642385e-02 -7.404750e-02 2.264498e-01 1.826699e-02 -1.152055e-01 1.450589e-02 -6.982523e-03 2.205444e-03 -3.272412e-03 -3.938992e-03 1.232032e-03 -2.345899e-03 -1.439862e-03 2.582434e-04 9.887576e-04 -3.186605e-03 -2.799794e-03 2.046616e-02
<VARIANCE> 25
 6.244305e+01 5.470065e+01 8.190919e+01 5.817563e+01 7.257003e+01 7.187468e+01 6.012122e+01 6.037740e+01 5.499298e+01 4.185505e+01 4.722748e+01 3.973097e+01 2.777449e+00 2.908263e+00 3.403671e+00 3.512288e+00 4.063710e+00 3.987298e+00 3.780333e+00 3.890998e+00 3.563162e+00 3.115631e+00 3.128764e+00 2.669781e+00 3.564284e+00
<GCONST> 1.104317e+02
<STATE> 3
<MEAN> 25
 -8.310157e-03 -2.065892e-01 -4.227147e-01 -1.497504e-01 2.035119e-01 -1.072291e-01 2.007954e-01 8.280890e-02 -7.408231e-02 2.266763e-01 1.170775e-02 -1.259898e-01 1.449721e-02 -6.398669e-03 3.784251e-03 -3.825202e-04 -6.468039e-03 3.683957e-03 -3.247047e-03 -1.598496e-03 3.363682e-04 -1.491444e-03 -3.185960e-03 -3.531217e-03 1.958289e-02
<VARIANCE> 25
 6.218872e+01 5.475941e+01 8.168887e+01 5.820476e+01 7.249892e+01 7.176242e+01 6.008325e+01 6.045227e+01 5.496628e+01 4.193593e+01 4.721884e+01 3.973198e+01 2.776567e+00 2.902724e+00 3.407009e+00 3.510027e+00 4.071564e+00 3.993279e+00 3.773658e+00 3.900080e+00 3.573257e+00 3.121024e+00 3.135042e+00 2.672788e+00 3.560062e+00
<GCONST> 1.104345e+02
<STATE> 4
<MEAN> 25
 5.304538e-02 -2.031170e-01 -3.706788e-01 -1.491134e-01 1.641457e-01 -9.859366e-02 1.803766e-01 6.222805e-02 -6.744737e-02 2.184527e-01 1.399364e-02 -1.396074e-01 1.233456e-02 -4.183727e-03 4.069733e-03 1.530793e-03 -6.687255e-03 5.809282e-03 -3.915755e-03 -1.782565e-03 1.575267e-03 -2.209517e-03 -2.102705e-03 -2.971222e-03 1.588034e-02
<VARIANCE> 25
 6.106730e+01 5.373750e+01 7.974948e+01 5.753875e+01 7.201903e+01 7.117314e+01 5.945899e+01 5.994044e+01 5.427321e+01 4.153419e+01 4.677615e+01 3.960369e+01 2.704607e+00 2.818203e+00 3.320548e+00 3.424153e+00 3.995888e+00 3.932418e+00 3.704565e+00 3.851933e+00 3.522341e+00 3.068690e+00 3.091694e+00 2.639069e+00 3.492562e+00
<GCONST> 1.100448e+02
<TRANSP> 5
 0.000000e+00 1.000000e+00 0.000000e+00 0.000000e+00 0.000000e+00
 0.000000e+00 6.414652e-01 3.585348e-01 0.000000e+00 0.000000e+00
 0.000000e+00 0.000000e+00 6.414656e-01 3.585343e-01 0.000000e+00
 0.000000e+00 0.000000e+00 0.000000e+00 7.563900e-01 2.436100e-01
 0.000000e+00 0.000000e+00 0.000000e+00 0.000000e+00 0.000000e+00
<ENDHMM>
~h "l"
<BEGINHMM>
<NUMSTATES> 5
<STATE> 2
<MEAN> 25
 5.731848e-01 -2.273162e-01 -2.673239e-01 -5.259194e-01 9.830005e-02 3.571489e-01 -3.406399e-01 -4.085906e-01 3.984917e-01 2.145405e-01 -1.034846e-01 -2.269203e-01 4.750389e-03 2.271323e-03 4.537649e-03 -2.682768e-04 3.900649e-03 -2.017076e-03 1.809077e-03 1.695242e-03 9.073741e-04 2.101333e-03 -7.322583e-03 -4.067129e-03 1.449825e-02
<VARIANCE> 25
 6.377110e+01 5.429280e+01 7.876897e+01 6.106889e+01 6.966788e+01 7.113560e+01 6.532644e+01 6.407381e+01 5.664984e+01 4.342096e+01 4.740250e+01 4.008139e+01 2.487767e+00 2.676823e+00 3.098390e+00 3.360317e+00 3.764598e+00 3.781487e+00 3.757785e+00 3.904537e+00 3.503434e+00 3.055362e+00 3.024936e+00 2.576043e+00 2.870808e+00
<GCONST> 1.098393e+02
<STATE> 3
<MEAN> 25
 5.750965e-01 -2.176723e-01 -2.503505e-01 -5.237529e-01 1.073785e-01 3.491772e-01 -3.337270e-01 -4.026322e-01 3.946241e-01 2.167290e-01 -1.196033e-01 -2.307976e-01 -2.977215e-03 5.346237e-03 5.508691e-03 2.778652e-03 4.802237e-03 -6.438690e-03 4.285878e-03 4.192178e-03 -3.453476e-03 1.558547e-03 -4.675994e-03 -1.731609e-03 7.681905e-03
<VARIANCE> 25
 6.331519e+01 5.441319e+01 7.906269e+01 6.106348e+01 6.966380e+01 7.106692e+01 6.537687e+01 6.415947e+01 5.663124e+01 4.352099e+01 4.750415e+01 4.015867e+01 2.477660e+00 2.676613e+00 3.106889e+00 3.364985e+00 3.763561e+00 3.775731e+00 3.763441e+00 3.903725e+00 3.501854e+00 3.057163e+00 3.029847e+00 2.577201e+00 2.870120e+00
<GCONST> 1.098466e+02
<STATE> 4
<MEAN> 25
 5.465466e-01 -1.942229e-01 -1.769435e-01 -4.868231e-01 7.149483e-02 2.779553e-01 -3.121470e-01 -3.796630e-01 3.442297e-01 2.072033e-01 -1.141451e-01 -2.373741e-01 -9.144601e-03 7.881322e-03 6.302876e-03 6.912499e-03 4.883967e-03 -8.723627e-03 6.487345e-03 4.821470e-03 -6.835495e-03 1.087012e-03 -2.434553e-03 1.981748e-03 -2.838550e-04
<VARIANCE> 25
 6.191999e+01 5.374579e+01 7.837253e+01 6.050013e+01 6.964676e+01 7.028989e+01 6.461891e+01 6.353645e+01 5.569329e+01 4.306044e+01 4.727905e+01 4.017491e+01 2.420219e+00 2.624765e+00 3.060266e+00 3.303483e+00 3.711741e+00 3.718539e+00 3.711826e+00 3.845597e+00 3.439579e+00 3.013933e+00 2.991539e+00 2.549466e+00 2.828913e+00
<GCONST> 1.095249e+02
<TRANSP> 5
 0.000000e+00 1.000000e+00 0.000000e+00 0.000000e+00 0.000000e+00
 0.000000e+00 6.385443e-01 3.614556e-01 0.000000e+00 0.000000e+00
 0.000000e+00 0.000000e+00 6.385444e-01 3.614555e-01 0.000000e+00
 0.000000e+00 0.000000e+00 0.000000e+00 7.522953e-01 2.477047e-01
 0.000000e+00 0.000000e+00 0.000000e+00 0.000000e+00 0.000000e+00
<ENDHMM>
~h "m"
<BEGINHMM>
<NUMSTATES> 5
<STATE> 2
<MEAN> 25
 9.270434e-01 5.078993e-02 -1.491150e-01 -1.227901e-01 1.578494e-01 6.793167e-01 -9.306458e-02 -7.086093e-01 -1.926217e-01 4.305450e-02 -1.966606e-01 -1.864725e-01 5.422472e-03 -8.496145e-03 7.751024e-04 -3.115866e-03 4.038024e-03 2.807788e-03 8.534582e-03 3.120619e-03 2.372790e-03 -1.841823e-03 -4.077576e-03 -5.262401e-03 2.859044e-02
<VARIANCE> 25
 6.438458e+01 5.571207e+01 7.703982e+01 6.000101e+01 7.060392e+01 7.292070e+01 6.044094e+01 6.346565e+01 5.750929e+01 4.303014e+01 4.680531e+01 3.910171e+01 2.590550e+00 2.980882e+00 3.248520e+00 3.539010e+00 3.797558e+00 3.860541e+00 3.730584e+00 3.988083e+00 3.597877e+00 3.036546e+00 3.113264e+00 2.624268e+00 2.999549e+00
<GCONST> 1.101565e+02
<STATE> 3
<MEAN> 25
 9.326406e-01 3.091608e-02 -1.457034e-01 -1.331953e-01 1.697789e-01 6.838505e-01 -7.048552e-02 -6.921950e-01 -1.873968e-01 4.159337e-02 -2.016085e-01 -1.992141e-01 -2.378839e-03 -8.008258e-03 1.157247e-03 -3.767037e-03 4.940195e-03 6.854634e-04 1.024171e-02 9.977929e-03 1.991228e-03 -1.887474e-03 -4.124053e-04 -3.117867e-03 2.345638e-02
<VARIANCE> 25
 6.417717e+01 5.571360e+01 7.721645e+01 6.010092e+01 7.093745e+01 7.306345e+01 6.069297e+01 6.367399e+01 5.764075e+01 4.299627e+01 4.677369e+01 3.925080e+01 2.592957e+00 2.974000e+00 3.242861e+00 3.546558e+00 3.806070e+00 3.855739e+00 3.739800e+00 3.992043e+00 3.607842e+00 3.040869e+00 3.112415e+00 2.629442e+00 2.981581e+00
<GCONST> 1.101793e+02
<STATE> 4
<MEAN> 25
 8.853316e-01 1.202382e-02 -1.113636e-01 -1.603078e-01 1.740445e-01 6.357601e-01 -4.256045e-02 -6.255168e-01 -1.606023e-01 4.589996e-02 -1.474685e-01 -2.159069e-01 -6.524300e-03 -5.967024e-03 2.339565e-03 -3.908428e-03 4.771367e-03 -7.189019e-04 8.525307e-03 1.349989e-02 1.149158e-03 -1.814004e-04 2.899490e-03 -2.248047e-03 1.791606e-02
<VARIANCE> 25
 6.336463e+01 5.482977e+01 7.625651e+01 5.962986e+01 7.144961e+01 7.285301e+01 6.070683e+01 6.329591e+01 5.708077e+01 4.236242e+01 4.639423e+01 3.958970e+01 2.562706e+00 2.893826e+00 3.164397e+00 3.476991e+00 3.766400e+00 3.804075e+00 3.712667e+00 3.938046e+00 3.568708e+00 3.000882e+00 3.066325e+00 2.611626e+00 2.934084e+00
<GCONST> 1.099145e+02
<TRANSP> 5
 0.000000e+00 1.000000e+00 0.000000e+00 0.000000e+00 0.000000e+00
 0.000000e+00 6.377213e-01 3.622787e-01 0.000000e+00 0.000000e+00
 0.000000e+00 0.000000e+00 6.377196e-01 3.622803e-01 0.000000e+00
 0.000000e+00 0.000000e+00 0.000000e+00 7.517108e-01 2.482892e-01
 0.000000e+00 0.000000e+00 0.000000e+00 0.000000e+00 0.000000e+00
<ENDHMM>
~h "n"
<BEGINHMM>
<NUMSTATES> 5
<STATE> 2
<MEAN> 25
 3.961733e-01 3.138227e-02 2.609091e-01 2.675798e-01 -1.346486e-01 2.112606e-01 -9.296571e-02 -8.953097e-02 -8.297104e-03 -6.278749e-02 -4.019865e-01 5.530524e-02 -1.263884e-02 1.314191e-02 4.439737e-04 5.174496e-03 7.268859e-03 4.100545e-03 -4.039341e-04 -5.736508e-03 -4.505647e-03 -5.868552e-04 1.265010e-03 4.455059e-03 -1.671915e-02
<VARIANCE> 25
 5.920442e+01 5.559644e+01 8.074244e+01 5.895897e+01 7.195666e+01 6.623919e+01 5.932822e+01 6.043513e+01 5.512906e+01 4.300610e+01 4.797453e+01 3.887329e+01 2.493542e+00 2.890398e+00 3.161162e+00 3.425728e+00 3.830288e+00 3.714550e+00 3.614810e+00 3.937984e+00 3.454038e+00 3.017182e+00 3.077794e+00 2.552137e+00 3.038558e+00
<GCONST> 1.096548e+02
<STATE> 3
<MEAN> 25
 3.600993e-01 6.348047e-02 2.586077e-01 2.796737e-01 -1.170858e-01 2.198814e-01 -9.301376e-02 -1.029087e-01 -2.215364e-02 -6.336860e-02 -3.966363e-01 6.768426e-02 -1.570884e-02 1.295340e-02 -1.320930e-03 3.299456e-03 6.354248e-03 3.944165e-03 -1.346580e-04 -4.886821e-03 -5.696302e-03 6.078385e-04 3.246376e-03 3.761312e-03 -1.875920e-02
<VARIANCE> 25
 5.942420e+01 5.551691e+01 8.054076e+01 5.916223e+01 7.207051e+01 6.612518e+01 5.921827e+01 6.045005e+01 5.514952e+01 4.294436e+01 4.787503e+01 3.888526e+01 2.491796e+00 2.879287e+00 3.154177e+00 3.420098e+00 3.829744e+00 3.709824e+00 3.609800e+00 3.932210e+00 3.447850e+00 3.003308e+00 3.068512e+00 2.548034e+00 3.028612e+00
<GCONST> 1.096264e+02
<STATE> 4
<MEAN> 25
 3.210786e-01 9.874141e-02 2.425732e-01 2.645756e-01 -1.171824e-01 2.195465e-01 -1.004670e-01 -1.124690e-01 -4.830778e-02 -4.714929e-02 -3.731751e-01 7.230653e-02 -1.723626e-02 1.090833e-02 -3.611583e-03 1.441764e-03 4.108190e-03 3.375917e-03 1.214184e-04 -2.388239e-03 -6.002036e-03 1.639066e-03 4.976510e-03 2.818804e-03 -1.985271e-02
<VARIANCE> 25
 5.900622e+01 5.460619e+01 7.886248e+01 5.874393e+01 7.197653e+01 6.576962e+01 5.869038e+01 6.004692e+01 5.447353e+01 4.234981e+01 4.749686e+01 3.898996e+01 2.439407e+00 2.807114e+00 3.078844e+00 3.350630e+00 3.777083e+00 3.661009e+00 3.563356e+00 3.873432e+00 3.390525e+00 2.953120e+00 3.024770e+00 2.521316e+00 2.980656e+00
<GCONST> 1.092999e+02
<TRANSP> 5
 0.000000e+00 1.000000e+00 0.000000e+00 0.000000e+00 0.000000e+00
 0.000000e+00 6.384721e-01 3.615279e-01 0.000000e+00 0.000000e+00
 0.000000e+00 0.000000e+00 6.384686e-01 3.615315e-01 0.000000e+00
 0.000000e+00 0.000000e+00 0.000000e+00 7.517581e-01 2.482419e-01
 0.000000e+00 0.000000e+00 0.000000e+00 0.000000e+00 0.000000e+00
<ENDHMM>
~h "o"
<BEGINHMM>
<NUMSTATES> 5
<STATE> 2
<MEAN> 25
 2.882231e-01 1.223740e-01 -1.467479e+00 -7.018336e-01 5.592889e-01 8.113434e-01 7.938655e-02 -4.036494e-01 3.341935e-01 3.103846e-01 6.126356e-01 -1.474836e-02 5.516943e-03 -1.505020e-02 -1.622428e-03 -9.011367e-03 4.545463e-03 -1.042268e-02 7.680607e-03 2.934072e-03 -9.430709e-03 1.378426e-02 -8.531651e-03 -1.802519e-02 2.612148e-02
<VARIANCE> 25
 6.990788e+01 5.257692e+01 7.920040e+01 7.215929e+01 6.930560e+01 7.588129e+01 6.256642e+01 6.113433e+01 5.367714e+01 4.431823e+01 4.746673e+01 3.909273e+01 2.765915e+00 2.743336e+00 3.101864e+00 3.932943e+00 3.926384e+00 4.000247e+00 3.673709e+00 3.762566e+00 3.413913e+00 3.173383e+00 3.117535e+00 2.571093e+00 3.063085e+00
<GCONST> 1.104164e+02
<STATE> 3
<MEAN> 25
 2.970017e-01 8.979341e-02 -1.456583e+00 -7.229833e-01 5.616582e-01 7.704538e-01 9.379487e-02 -4.002768e-01 2.929879e-01 3.470589e-01 5.976216e-01 -5.818807e-02 -1.458113e-03 -1.370946e-02 5.697916e-03 -2.595358e-03 -4.511235e-04 -1.647882e-02 5.394276e-03 5.645008e-03 -1.471388e-02 1.246175e-02 -7.103476e-03 -1.605964e-02 2.229103e-02
<VARIANCE> 25
 6.914932e+01 5.272568e+01 8.008986e+01 7.169098e+01 6.937218e+01 7.546124e+01 6.242933e+01 6.129794e+01 5.358396e+01 4.399052e+01 4.735765e+01 3.915755e+01 2.751988e+00 2.745255e+00 3.113146e+00 3.909492e+00 3.935146e+00 3.992685e+00 3.691841e+00 3.781920e+00 3.416348e+00 3.160495e+00 3.118843e+00 2.579582e+00 3.065979e+00
<GCONST> 1.104040e+02
<STATE> 4
<MEAN> 25
 2.484332e-01 1.061189e-01 -1.306921e+00 -7.299122e-01 5.321237e-01 5.987712e-01 1.097081e-01 -4.081828e-01 1.647650e-01 3.608584e-01 6.170782e-01 -8.307151e-02 -8.211362e-03 -7.356100e-03 1.773911e-02 1.075830e-03 -7.031587e-03 -2.062941e-02 4.819443e-03 4.099689e-03 -1.923731e-02 8.227371e-03 -2.163935e-03 -1.177089e-02 2.252219e-02
<VARIANCE> 25
 6.712962e+01 5.160943e+01 8.072684e+01 7.045576e+01 6.969682e+01 7.483358e+01 6.166098e+01 6.089215e+01 5.287938e+01 4.302952e+01 4.685430e+01 3.899776e+01 2.662765e+00 2.657022e+00 3.070574e+00 3.766912e+00 3.866370e+00 3.937731e+00 3.661883e+00 3.723735e+00 3.375148e+00 3.090385e+00 3.076118e+00 2.546814e+00 3.026694e+00
<GCONST> 1.100250e+02
<TRANSP> 5
 0.000000e+00 1.000000e+00 0.000000e+00 0.000000e+00 0.000000e+00
 0.000000e+00 6.399437e-01 3.600564e-01 0.000000e+00 0.000000e+00
 0.000000e+00 0.000000e+00 6.399415e-01 3.600586e-01 0.000000e+00
 0.000000e+00 0.000000e+00 0.000000e+00 7.558305e-01 2.441695e-01
 0.000000e+00 0.000000e+00 0.000000e+00 0.000000e+00 0.000000e+00
<ENDHMM>
~h "p"
<BEGINHMM>
<NUMSTATES> 5
<STATE> 2
<MEAN> 25
 4.571506e-01 -6.485467e-02 -8.694040e-01 -1.555387e-01 6.461145e-02 7.009954e-02 -3.880785e-02 -4.633432e-02 3.205225e-01 2.133054e-01 2.897995e-04 -2.469742e-01 6.076450e-03 -1.291869e-02 -4.164259e-03 -7.526022e-03 -4.775978e-03 1.510781e-03 3.745402e-03 -1.487199e-03 5.839781e-03 -3.034468e-04 -9.372881e-03 -7.957095e-03 1.595091e-02
<VARIANCE> 25
 6.401566e+01 5.469423e+01 7.912803e+01 5.788001e+01 6.728865e+01 6.878302e+01 6.097423e+01 5.891355e+01 5.484941e+01 4.166228e+01 4.761870e+01 3.949841e+01 2.803160e+00 3.037123e+00 3.256590e+00 3.601020e+00 3.836669e+00 4.037891e+00 3.746141e+00 3.836990e+00 3.509998e+00 3.023996e+00 3.116721e+00 2.690787e+00 3.801071e+00
<GCONST> 1.102708e+02
<STATE> 3
<MEAN> 25
 4.684496e-01 -9.626421e-02 -8.695467e-01 -1.761825e-01 5.473689e-02 7.395374e-02 -2.698139e-02 -4.928702e-02 3.324675e-01 2.117997e-01 -2.029478e-02 -2.648883e-01 2.177729e-03 -1.220368e-02 1.879792e-03 -6.768637e-03 -4.134524e-03 2.524050e-03 6.035467e-03 -2.255231e-03 3.153268e-03 -6.616479e-04 -6.897657e-03 -6.256122e-03 1.532276e-02
<VARIANCE> 25
 6.373063e+01 5.468365e+01 7.928285e+01 5.777278e+01 6.732565e+01 6.868746e+01 6.101274e+01 5.894271e+01 5.500311e+01 4.176717e+01 4.774492e+01 3.949644e+01 2.799679e+00 3.034333e+00 3.259152e+00 3.602717e+00 3.843605e+00 4.047309e+00 3.739177e+00 3.843478e+00 3.515145e+00 3.028980e+00 3.123421e+00 2.694544e+00 3.805519e+00
<GCONST> 1.102853e+02
<STATE> 4
<MEAN> 25
 4.525328e-01 -1.154024e-01 -8.062717e-01 -1.845423e-01 3.561136e-02 8.491977e-02 -2.327756e-02 -4.201372e-02 3.278078e-01 2.126071e-01 -3.353650e-02 -2.722860e-01 -1.158197e-03 -8.988032e-03 5.723975e-03 -4.041438e-03 -2.109214e-03 1.894207e-03 6.664462e-03 -2.038373e-03 -1.420810e-04 -1.545567e-03 -4.009405e-03 -4.052866e-03 1.102262e-02
<VARIANCE> 25
 6.262907e+01 5.401731e+01 7.835970e+01 5.724443e+01 6.744754e+01 6.858505e+01 6.107616e+01 5.869428e+01 5.466075e+01 4.156890e+01 4.760124e+01 3.945596e+01 2.733958e+00 2.959705e+00 3.189887e+00 3.521772e+00 3.793817e+00 4.007556e+00 3.702041e+00 3.805285e+00 3.472940e+00 2.999206e+00 3.086566e+00 2.667328e+00 3.731758e+00
<GCONST> 1.100175e+02
<TRANSP> 5
 0.000000e+00 1.000000e+00 0.000000e+00 0.000000e+00 0.000000e+00
 0.000000e+00 6.389446e-01 3.610554e-01 0.000000e+00 0.000000e+00
 0.000000e+00 0.000000e+00 6.389441e-01 3.610559e-01 0.000000e+00
 0.000000e+00 0.000000e+00 0.000000e+00 7.521062e-01 2.478939e-01
 0.000000e+00 0.000000e+00 0.000000e+00 0.000000e+00 0.000000e+00
<ENDHMM>
~h "q"
<BEGINHMM>
<NUMSTATES> 5
<STATE> 2
<MEAN> 25
 4.101811e-01 -1.052166e+00 -6.144862e-01 -2.830225e-01 4.271175e-01 4.200508e-01 3.694966e-01 4.740660e-01 3.000151e-01 -1.396336e-01 -6.436803e-01 -9.424889e-02 -2.004710e-02 2.674087e-02 2.919340e-03 2.795541e-02 1.234764e-02 7.189434e-03 1.164989e-02 -2.693778e-03 -1.480181e-02 -1.668211e-03 -4.927642e-03 1.149366e-02 -4.819503e-02
<VARIANCE> 25
 5.902579e+01 5.660534e+01 7.677689e+01 6.404831e+01 6.937052e+01 7.343679e+01 5.565672e+01 5.829633e+01 5.245983e+01 4.293821e+01 4.983585e+01 3.913889e+01 2.483366e+00 2.749413e+00 2.939978e+00 3.177529e+00 3.707699e+00 3.598384e+00 3.477159e+00 3.612294e+00 3.221511e+00 2.882600e+00 2.890129e+00 2.466907e+00 2.727997e+00
<GCONST> 1.089512e+02
<STATE> 3
<MEAN> 25
 3.560067e-01 -9.658259e-01 -5.953063e-01 -2.015258e-01 4.519119e-01 4.378047e-01 3.955534e-01 4.630275e-01 2.596271e-01 -1.404413e-01 -6.500540e-01 -6.163606e-02 -2.082488e-02 4.093172e-02 9.399313e-03 3.603027e-02 1.210601e-02 2.017784e-03 8.056407e-03 -4.821283e-03 -1.293641e-02 -8.464307e-04 -1.224950e-03 1.291417e-02 -5.700228e-02
<VARIANCE> 25
 5.870596e+01 5.646506e+01 7.760414e+01 6.335608e+01 6.983170e+01 7.331223e+01 5.538034e+01 5.830103e+01 5.230172e+01 4.249228e+01 4.948848e+01 3.879086e+01 2.475152e+00 2.745434e+00 2.924685e+00 3.153346e+00 3.696926e+00 3.573951e+00 3.468473e+00 3.623413e+00 3.214054e+00 2.860902e+00 2.871418e+00 2.450336e+00 2.701886e+00
<GCONST> 1.088543e+02
<STATE> 4
<MEAN> 25
 3.152658e-01 -7.840413e-01 -4.757290e-01 -1.132444e-01 4.195013e-01 4.516252e-01 3.504815e-01 4.207853e-01 1.867227e-01 -1.206745e-01 -6.226591e-01 -3.525886e-03 -2.375839e-02 5.097267e-02 1.200297e-02 3.818634e-02 1.251200e-02 -3.881887e-03 3.924863e-03 -5.348079e-03 -1.222194e-02 6.783846e-04 2.582261e-03 1.317775e-02 -6.706499e-02
<VARIANCE> 25
 5.775423e+01 5.571918e+01 7.720686e+01 6.157233e+01 7.003570e+01 7.295586e+01 5.488678e+01 5.816935e+01 5.218286e+01 4.152029e+01 4.883213e+01 3.853069e+01 2.428472e+00 2.692760e+00 2.858133e+00 3.089274e+00 3.645445e+00 3.524436e+00 3.427086e+00 3.600180e+00 3.190871e+00 2.820746e+00 2.827205e+00 2.418563e+00 2.645607e+00
<GCONST> 1.085329e+02
<TRANSP> 5
 0.000000e+00 1.000000e+00 0.000000e+00 0.000000e+00 0.000000e+00
 0.000000e+00 6.349109e-01 3.650891e-01 0.000000e+00 0.000000e+00
 0.000000e+00 0.000000e+00 6.349097e-01 3.650903e-01 0.000000e+00
 0.000000e+00 0.000000e+00 0.000000e+00 7.470539e-01 2.529460e-01
 0.000000e+00 0.000000e+00 0.000000e+00 0.000000e+00 0.000000e+00
<ENDHMM>
~h "r"
<BEGINHMM>
<NUMSTATES> 5
<STATE> 2
<MEAN> 25
 7.552723e-01 -5.689698e-01 -8.230767e-02 -9.249402e-02 -3.771117e-01 -2.192452e-01 -2.001322e-01 1.960350e-01 1.598824e-01 1.157412e-01 1.282284e-01 -1.582747e-01 -4.415771e-04 4.366347e-03 4.589378e-03 -2.857209e-03 -2.851864e-03 -7.580568e-04 6.592472e-03 -4.399688e-03 -1.035083e-02 5.106145e-03 9.210976e-04 9.196464e-04 -3.498868e-03
<VARIANCE> 25
 6.000139e+01 5.485366e+01 8.111891e+01 5.808819e+01 7.131284e+01 6.807637e+01 6.047466e+01 6.010631e+01 5.580512e+01 4.193159e+01 4.761386e+01 3.955946e+01 2.653164e+00 2.864166e+00 3.171437e+00 3.437548e+00 3.912530e+00 3.826244e+00 3.673470e+00 3.818037e+00 3.554743e+00 3.029388e+00 3.100074e+00 2.626047e+00 3.252559e+00
<GCONST> 1.099056e+02
<STATE> 3
<MEAN> 25
 7.523770e-01 -5.567905e-01 -7.243606e-02 -9.838033e-02 -3.790888e-01 -2.193750e-01 -1.813664e-01 1.851126e-01 1.387781e-01 1.282284e-01 1.288373e-01 -1.554144e-01 -3.526688e-03 7.011285e-03 3.147993e-03 -4.007860e-03 9.146846e-04 7.235119e-04 7.068996e-03 -4.781918e-03 -1.006185e-02 4.944820e-03 -8.943150e-05 6.987972e-04 -6.159554e-03
<VARIANCE> 25
 5.970872e+01 5.487695e+01 8.161151e+01 5.800578e+01 7.151748e+01 6.808980e+01 6.061930e+01 6.003560e+01 5.578805e+01 4.193269e+01 4.763917e+01 3.952466e+01 2.646654e+00 2.863566e+00 3.174332e+00 3.428090e+00 3.907407e+00 3.825208e+00 3.673191e+00 3.809266e+00 3.547237e+00 3.030111e+00 3.097416e+00 2.618889e+00 3.236305e+00
<GCONST> 1.098905e+02
<STATE> 4
<MEAN> 25
 7.446662e-01 -5.290309e-01 -6.122826e-02 -1.243851e-01 -3.663868e-01 -2.125088e-01 -1.731125e-01 1.815365e-01 1.316154e-01 1.389364e-01 1.138010e-01 -1.534890e-01 -6.528148e-03 8.423681e-03 1.770418e-03 -3.787919e-03 4.839033e-03 1.646988e-03 8.132589e-03 -3.736445e-03 -7.580725e-03 4.090920e-03 -1.102498e-03 9.625679e-04 -7.417738e-03
<VARIANCE> 25
 5.859540e+01 5.394917e+01 8.024569e+01 5.728780e+01 7.146981e+01 6.756709e+01 6.030206e+01 5.944573e+01 5.512228e+01 4.140963e+01 4.727057e+01 3.935742e+01 2.580363e+00 2.788514e+00 3.098380e+00 3.337546e+00 3.835668e+00 3.767450e+00 3.624156e+00 3.745970e+00 3.481742e+00 2.981339e+00 3.041094e+00 2.578202e+00 3.166780e+00
<GCONST> 1.095078e+02
<TRANSP> 5
 0.000000e+00 1.000000e+00 0.000000e+00 0.000000e+00 0.000000e+00
 0.000000e+00 6.390676e-01 3.609324e-01 0.000000e+00 0.000000e+00
 0.000000e+00 0.000000e+00 6.390750e-01 3.609250e-01 0.000000e+00
 0.000000e+00 0.000000e+00 0.000000e+00 7.534807e-01 2.465193e-01
 0.000000e+00 0.000000e+00 0.000000e+00 0.000000e+00 0.000000e+00
<ENDHMM>
~h "s"
<BEGINHMM>
<NUMSTATES> 5
<STATE> 2
<MEAN> 25
 -1.578895e+00 5.469184e-01 -3.601499e-02 -9.148336e-02 6.294572e-01 -6.684727e-01 4.735082e-01 3.367499e-02 1.503286e-01 -2.800333e-02 2.796636e-01 2.371934e-01 1.811904e-02 -6.814463e-03 1.718380e-03 -7.111867e-03 -4.916454e-03 1.741547e-03 -5.017804e-03 -5.680626e-03 1.035899e-02 6.685386e-04 -6.754046e-03 -3.009806e-03 1.400220e-02
<VARIANCE> 25
 8.541585e+01 5.567963e+01 8.092581e+01 5.765497e+01 7.711018e+01 7.323503e+01 6.503546e+01 5.938528e+01 5.517414e+01 4.061868e+01 4.626035e+01 3.872272e+01 3.900087e+00 2.907798e+00 3.244816e+00 3.227717e+00 4.073660e+00 3.810211e+00 3.921298e+00 3.771254e+00 3.410863e+00 2.928151e+00 3.023415e+00 2.527970e+00 2.796393e+00
<GCONST> 1.105422e+02
<STATE> 3
<MEAN> 25
 -1.533420e+00 5.250312e-01 -3.314829e-02 -1.076141e-01 6.166211e-01 -6.580271e-01 4.652995e-01 2.533222e-02 1.744316e-01 -2.474677e-02 2.651482e-01 2.279972e-01 2.371683e-02 -9.894406e-03 1.851468e-03 -3.743914e-03 -7.601796e-03 6.331213e-03 -5.698191e-03 -4.351174e-03 8.677396e-03 1.086321e-03 -7.898699e-03 -5.090766e-03 1.156372e-02
<VARIANCE> 25
 8.465046e+01 5.561995e+01 8.075438e+01 5.757006e+01 7.689925e+01 7.299664e+01 6.490831e+01 5.944264e+01 5.507933e+01 4.061185e+01 4.618297e+01 3.871943e+01 3.891510e+00 2.913756e+00 3.238536e+00 3.227629e+00 4.062515e+00 3.811214e+00 3.923933e+00 3.779949e+00 3.412264e+00 2.927276e+00 3.019916e+00 2.527791e+00 2.800981e+00
<GCONST> 1.105168e+02
<STATE> 4
<MEAN> 25
 -1.397820e+00 4.659465e-01 -7.545513e-03 -1.194007e-01 5.589198e-01 -6.167061e-01 4.389401e-01 1.075683e-02 1.762968e-01 -1.038213e-02 2.320446e-01 2.009572e-01 2.344874e-02 -1.073299e-02 2.425651e-03 -1.812509e-03 -9.045499e-03 8.969227e-03 -5.183961e-03 -2.120658e-03 5.559190e-03 5.244392e-04 -7.727717e-03 -4.831014e-03 8.476579e-03
<VARIANCE> 25
 8.165317e+01 5.474816e+01 7.930704e+01 5.719996e+01 7.635466e+01 7.224284e+01 6.410066e+01 5.914325e+01 5.421666e+01 4.011709e+01 4.571010e+01 3.865962e+01 3.718101e+00 2.837492e+00 3.158911e+00 3.164212e+00 3.977032e+00 3.752316e+00 3.860237e+00 3.734350e+00 3.359482e+00 2.882154e+00 2.967189e+00 2.498853e+00 2.759785e+00
<GCONST> 1.101082e+02
<TRANSP> 5
 0.000000e+00 1.000000e+00 0.000000e+00 0.000000e+00 0.000000e+00
 0.000000e+00 6.392466e-01 3.607533e-01 0.000000e+00 0.000000e+00
 0.000000e+00 0.000000e+00 6.392408e-01 3.607592e-01 0.000000e+00
 0.000000e+00 0.000000e+00 0.000000e+00 7.532635e-01 2.467364e-01
 0.000000e+00 0.000000e+00 0.000000e+00 0.000000e+00 0.000000e+00
<ENDHMM>
~h "t"
<BEGINHMM>
<NUMSTATES> 5
<STATE> 2
<MEAN> 25
 1.240321e-01 2.231305e-01 -5.179432e-02 -2.620779e-01 1.021567e-04 -2.470780e-01 -2.448008e-01 -1.618393e-01 2.707599e-02 2.205172e-01 7.150258e-02 1.193825e-02 1.888226e-02 -1.409066e-02 6.420589e-03 -7.896459e-03 -8.268962e-03 2.130756e-03 -5.192808e-03 2.843932e-03 1.979681e-03 5.447295e-03 -1.291572e-04 -1.591317e-03 2.273995e-02
<VARIANCE> 25
 6.052395e+01 5.463799e+01 8.239590e+01 5.878445e+01 7.100927e+01 7.072261e+01 6.305769e+01 6.033301e+01 5.655093e+01 4.244237e+01 4.730152e+01 3.942405e+01 2.796183e+00 2.989236e+00 3.394840e+00 3.569949e+00 3.950213e+00 4.106174e+00 3.937387e+00 3.927241e+00 3.628688e+00 3.064914e+00 3.170997e+00 2.689491e+00 3.721542e+00
<GCONST> 1.106250e+02
<STATE> 3
<MEAN> 25
 1.647008e-01 1.926681e-01 -4.031263e-02 -2.768217e-01 -1.788088e-02 -2.345021e-01 -2.583545e-01 -1.540884e-01 3.104858e-02 2.334983e-01 7.202345e-02 8.828485e-03 1.739288e-02 -1.152825e-02 3.249184e-03 -4.713651e-03 -6.267543e-03 5.073347e-03 -4.933819e-03 1.953185e-03 1.082976e-03 5.030036e-03 7.004405e-04 -2.599353e-03 1.805380e-02
<VARIANCE> 25
 6.004345e+01 5.467077e+01 8.233107e+01 5.882225e+01 7.097488e+01 7.060217e+01 6.310822e+01 6.043731e+01 5.662409e+01 4.241135e+01 4.723005e+01 3.943784e+01 2.783265e+00 2.975034e+00 3.382005e+00 3.556962e+00 3.938250e+00 4.089660e+00 3.937417e+00 3.923702e+00 3.633060e+00 3.069941e+00 3.171518e+00 2.689054e+00 3.686989e+00
<GCONST> 1.105860e+02
<STATE> 4
<MEAN> 25
 2.120631e-01 1.623677e-01 -3.452829e-02 -2.709571e-01 -2.427215e-02 -1.869851e-01 -2.724099e-01 -1.438644e-01 2.887304e-02 2.500576e-01 6.368586e-02 9.754742e-03 1.120809e-02 -6.510281e-03 6.525766e-04 -1.116015e-03 -2.257418e-03 6.488312e-03 -3.280763e-03 -1.221990e-04 -2.447111e-04 3.848962e-03 1.771236e-03 -2.203510e-03 9.940268e-03
<VARIANCE> 25
 5.853214e+01 5.357150e+01 8.027810e+01 5.798584e+01 7.052321e+01 6.980882e+01 6.242968e+01 5.994955e+01 5.574134e+01 4.178674e+01 4.658227e+01 3.923895e+01 2.684853e+00 2.866265e+00 3.269286e+00 3.449129e+00 3.848071e+00 3.998607e+00 3.869690e+00 3.850598e+00 3.566275e+00 3.022007e+00 3.113094e+00 2.646123e+00 3.565628e+00
<GCONST> 1.100924e+02
<TRANSP> 5
 0.000000e+00 1.000000e+00 0.000000e+00 0.000000e+00 0.000000e+00
 0.000000e+00 6.394565e-01 3.605435e-01 0.000000e+00 0.000000e+00
 0.000000e+00 0.000000e+00 6.394523e-01 3.605477e-01 0.000000e+00
 0.000000e+00 0.000000e+00 0.000000e+00 7.538009e-01 2.461991e-01
 0.000000e+00 0.000000e+00 0.000000e+00 0.000000e+00 0.000000e+00
<ENDHMM>
~h "u"
<BEGINHMM>
<NUMSTATES> 5
<STATE> 2
<MEAN> 25
 5.369234e-01 7.279524e-01 -1.487025e-01 -4.923403e-01 1.141303e-01 4.899989e-01 -9.059754e-01 -8.455098e-01 -2.287757e-01 1.340345e-01 4.340064e-01 1.324819e-01 3.262547e-03 -1.701086e-03 -8.277095e-04 -1.350869e-03 2.908339e-03 3.521377e-03 -2.337455e-03 -3.067147e-03 -1.775615e-03 6.858221e-03 -3.813249e-03 1.177652e-04 1.529629e-02
<VARIANCE> 25
 6.699445e+01 5.620400e+01 7.729529e+01 6.376723e+01 7.062994e+01 7.330253e+01 6.707583e+01 6.464011e+01 5.830384e+01 4.408282e+01 4.905128e+01 3.933627e+01 2.884576e+00 2.913571e+00 3.252637e+00 3.746527e+00 3.979204e+00 4.123366e+00 4.064381e+00 4.071953e+00 3.691214e+00 3.187638e+00 3.243377e+00 2.666313e+00 3.196031e+00
<GCONST> 1.110445e+02
<STATE> 3
<MEAN> 25
 5.430142e-01 7.215962e-01 -1.458389e-01 -4.915100e-01 1.172575e-01 4.983639e-01 -9.090570e-01 -8.487629e-01 -2.321480e-01 1.543236e-01 4.223021e-01 1.327574e-01 1.460138e-03 -5.547518e-03 -6.116339e-06 1.251024e-03 1.324605e-03 8.966397e-04 4.193203e-04 5.029297e-04 -5.520932e-04 7.511431e-03 -3.811280e-03 -6.454192e-04 1.394815e-02
<VARIANCE> 25
 6.661823e+01 5.609415e+01 7.701283e+01 6.374370e+01 7.060841e+01 7.316299e+01 6.721525e+01 6.455580e+01 5.825293e+01 4.405000e+01 4.910654e+01 3.934922e+01 2.882401e+00 2.919022e+00 3.246684e+00 3.749774e+00 3.982403e+00 4.126242e+00 4.065903e+00 4.067660e+00 3.687169e+00 3.187388e+00 3.246508e+00 2.671167e+00 3.193759e+00
<GCONST> 1.110331e+02
<STATE> 4
<MEAN> 25
 5.289230e-01 6.896334e-01 -1.150661e-01 -4.684204e-01 9.972580e-02 4.911784e-01 -8.590724e-01 -8.164662e-01 -2.422647e-01 1.729388e-01 3.977013e-01 1.262451e-01 -6.717567e-04 -7.975218e-03 1.101077e-03 4.473236e-03 -5.678375e-04 -1.030334e-03 3.342218e-03 5.433181e-03 1.051592e-04 5.903673e-03 -3.514490e-03 -8.644834e-04 9.896446e-03
<VARIANCE> 25
 6.530639e+01 5.515728e+01 7.512597e+01 6.291503e+01 7.043184e+01 7.250330e+01 6.669360e+01 6.393350e+01 5.734055e+01 4.351952e+01 4.863578e+01 3.927473e+01 2.812104e+00 2.852965e+00 3.163306e+00 3.663370e+00 3.921047e+00 4.060011e+00 3.999310e+00 3.998493e+00 3.619472e+00 3.138883e+00 3.201650e+00 2.642846e+00 3.136270e+00
<GCONST> 1.106512e+02
<TRANSP> 5
 0.000000e+00 1.000000e+00 0.000000e+00 0.000000e+00 0.000000e+00
 0.000000e+00 6.381535e-01 3.618465e-01 0.000000e+00 0.000000e+00
 0.000000e+00 0.000000e+00 6.381519e-01 3.618481e-01 0.000000e+00
 0.000000e+00 0.000000e+00 0.000000e+00 7.516557e-01 2.483443e-01
 0.000000e+00 0.000000e+00 0.000000e+00 0.000000e+00 0.000000e+00
<ENDHMM>
~h "w"
<BEGINHMM>
<NUMSTATES> 5
<STATE> 2
<MEAN> 25
 1.347768e-01 -4.607870e-01 -9.425357e-01 -1.354275e+00 3.603897e-01 2.936723e-01 -3.548299e-01 2.772671e-01 3.994421e-01 2.148983e-01 2.836354e-01 2.499021e-02 2.333793e-03 -1.503969e-02 -4.694275e-03 -7.874318e-03 -1.032954e-02 2.911422e-03 -8.962030e-04 8.827728e-03 -3.122941e-03 8.123535e-03 -4.627854e-03 -2.825856e-03 -1.865312e-02
<VARIANCE> 25
 6.467732e+01 5.454406e+01 7.806825e+01 6.352860e+01 7.119218e+01 6.889300e+01 6.320848e+01 6.138737e+01 5.211965e+01 4.025280e+01 4.722963e+01 4.361269e+01 2.661932e+00 2.747290e+00 2.935256e+00 3.403847e+00 3.740162e+00 3.653786e+00 3.534450e+00 3.594116e+00 3.341004e+00 2.915263e+00 3.076587e+00 2.756047e+00 2.738276e+00
<GCONST> 1.095344e+02
<STATE> 3
<MEAN> 25
 1.407758e-01 -4.909539e-01 -9.492790e-01 -1.365002e+00 3.360284e-01 2.999829e-01 -3.546688e-01 2.963725e-01 3.893548e-01 2.320664e-01 2.736557e-01 1.834373e-02 2.482361e-03 -1.472833e-02 -3.267551e-03 -1.461266e-03 -5.608726e-03 5.841275e-03 1.381061e-03 1.093042e-02 -5.936562e-03 5.182262e-03 -6.271363e-03 -5.037923e-03 -1.806152e-02
<VARIANCE> 25
 6.396299e+01 5.448494e+01 7.774448e+01 6.362749e+01 7.104946e+01 6.877326e+01 6.300303e+01 6.117669e+01 5.199984e+01 4.032883e+01 4.716890e+01 4.332938e+01 2.658604e+00 2.749161e+00 2.951177e+00 3.398761e+00 3.751741e+00 3.644412e+00 3.538227e+00 3.603302e+00 3.333291e+00 2.915628e+00 3.083868e+00 2.752110e+00 2.728592e+00
<GCONST> 1.095036e+02
<STATE> 4
<MEAN> 25
 1.226898e-01 -5.098835e-01 -8.562837e-01 -1.256362e+00 3.106262e-01 2.916892e-01 -3.537825e-01 3.650615e-01 3.309347e-01 2.686178e-01 2.363893e-01 1.865889e-03 1.457536e-03 -1.006154e-02 -1.531959e-03 7.115535e-03 1.036874e-03 9.879748e-03 3.621581e-03 1.181517e-02 -5.586441e-03 4.545638e-04 -5.731954e-03 -2.826403e-03 -1.841142e-02
<VARIANCE> 25
 6.169777e+01 5.368334e+01 7.605946e+01 6.253865e+01 7.130119e+01 6.790602e+01 6.199819e+01 6.073353e+01 5.124710e+01 3.955919e+01 4.624246e+01 4.322115e+01 2.577240e+00 2.675618e+00 2.904851e+00 3.308613e+00 3.712307e+00 3.553957e+00 3.478856e+00 3.545978e+00 3.279375e+00 2.853146e+00 3.017925e+00 2.707569e+00 2.658995e+00
<GCONST> 1.090536e+02
<TRANSP> 5
 0.000000e+00 1.000000e+00 0.000000e+00 0.000000e+00 0.000000e+00
 0.000000e+00 6.441199e-01 3.558801e-01 0.000000e+00 0.000000e+00
 0.000000e+00 0.000000e+00 6.441201e-01 3.558799e-01 0.000000e+00
 0.000000e+00 0.000000e+00 0.000000e+00 7.591419e-01 2.408581e-01
 0.000000e+00 0.000000e+00 0.000000e+00 0.000000e+00 0.000000e+00
<ENDHMM>
~h "y"
<BEGINHMM>
<NUMSTATES> 5
<STATE> 2
<MEAN> 25
 -1.877076e-01 -7.242403e-01 5.007493e-01 -4.980587e-01 -9.252536e-01 -3.148247e-02 5.409693e-01 7.049553e-01 1.729960e-02 -1.597535e-01 3.236698e-01 -4.741297e-02 3.116754e-02 -3.004213e-02 1.814718e-02 -2.213317e-02 -1.685391e-02 -6.515943e-03 -6.618829e-03 -6.403230e-04 -1.426776e-02 1.185646e-03 -1.860025e-02 -1.802878e-03 5.744284e-02
<VARIANCE> 25
 5.942584e+01 5.426324e+01 8.538158e+01 5.607561e+01 7.780921e+01 7.011546e+01 6.239738e+01 6.143681e+01 5.484144e+01 4.109358e+01 4.605492e+01 3.876742e+01 2.506153e+00 2.650931e+00 3.373676e+00 3.123503e+00 3.844995e+00 3.545233e+00 3.668115e+00 3.720065e+00 3.326982e+00 2.894107e+00 2.982951e+00 2.441964e+00 2.954496e+00
<GCONST> 1.093712e+02
<STATE> 3
<MEAN> 25
 -1.059702e-01 -7.948718e-01 5.301114e-01 -5.494573e-01 -9.557063e-01 -4.981603e-02 5.213797e-01 6.973213e-01 -1.633011e-02 -1.592230e-01 2.707950e-01 -5.139990e-02 2.998509e-02 -2.522769e-02 4.666348e-03 -1.263180e-02 -5.760669e-03 -5.736336e-03 -6.320347e-03 -4.373540e-03 -9.029334e-03 -5.840124e-04 -2.292324e-02 -6.066812e-04 4.552894e-02
<VARIANCE> 25
 5.843338e+01 5.413334e+01 8.534774e+01 5.585479e+01 7.779441e+01 7.024679e+01 6.209435e+01 6.154962e+01 5.486180e+01 4.100255e+01 4.601393e+01 3.866373e+01 2.492913e+00 2.638842e+00 3.343257e+00 3.104524e+00 3.841566e+00 3.542954e+00 3.647812e+00 3.721543e+00 3.328146e+00 2.897484e+00 2.982930e+00 2.436126e+00 2.945730e+00
<GCONST> 1.093053e+02
<STATE> 4
<MEAN> 25
 3.675545e-02 -8.346890e-01 4.737135e-01 -5.654426e-01 -9.364740e-01 -8.481526e-02 4.446372e-01 6.540257e-01 -1.641108e-02 -1.770735e-01 1.906853e-01 -5.859484e-02 2.191054e-02 -1.120769e-02 -9.413998e-03 8.135019e-04 6.048024e-03 -4.932604e-03 -8.823931e-03 -8.514744e-03 -3.069600e-03 -3.238911e-03 -2.256268e-02 3.551614e-03 1.897452e-02
<VARIANCE> 25
 5.650909e+01 5.313297e+01 8.325564e+01 5.482560e+01 7.798739e+01 6.995589e+01 6.104279e+01 6.136216e+01 5.430092e+01 4.034121e+01 4.560136e+01 3.835779e+01 2.392421e+00 2.526186e+00 3.204879e+00 3.009526e+00 3.759950e+00 3.481229e+00 3.558592e+00 3.668053e+00 3.280998e+00 2.844242e+00 2.937391e+00 2.397102e+00 2.796309e+00
<GCONST> 1.087916e+02
<TRANSP> 5
 0.000000e+00 1.000000e+00 0.000000e+00 0.000000e+00 0.000000e+00
 0.000000e+00 6.417518e-01 3.582482e-01 0.000000e+00 0.000000e+00
 0.000000e+00 0.000000e+00 6.417525e-01 3.582475e-01 0.000000e+00
 0.000000e+00 0.000000e+00 0.000000e+00 7.569438e-01 2.430563e-01
 0.000000e+00 0.000000e+00 0.000000e+00 0.000000e+00 0.000000e+00
<ENDHMM>
~h "z"
<BEGINHMM>
<NUMSTATES> 5
<STATE> 2
<MEAN> 25
 -4.913234e-01 -4.880225e-01 1.838127e+00 -2.506828e-01 -3.202049e+00 -3.996280e-01 -1.648544e+00 -9.761490e-01 -1.532361e+00 -1.748971e-01 -4.403236e-01 -6.909903e-01 9.022816e-02 -7.827489e-03 5.122880e-02 1.088397e-02 -9.562686e-02 -7.880716e-02 -1.993827e-02 -3.464660e-02 -2.748024e-02 -1.633797e-02 -9.702100e-03 -2.292027e-02 1.209237e-01
<VARIANCE> 25
 4.570046e+01 4.417245e+01 1.067291e+02 4.030676e+01 9.095953e+01 4.207919e+01 2.964887e+01 4.776263e+01 4.063097e+01 2.470105e+01 4.311368e+01 3.156231e+01 1.613177e+00 2.151848e+00 2.749263e+00 2.442102e+00 3.282420e+00 2.184436e+00 1.975460e+00 2.625283e+00 2.118099e+00 2.169471e+00 2.060511e+00 1.850312e+00 2.548663e+00
<GCONST> 1.021203e+02
<STATE> 3
<MEAN> 25
 -1.853574e-01 -5.090699e-01 1.992571e+00 -2.116028e-01 -3.508428e+00 -6.575614e-01 -1.701694e+00 -1.090067e+00 -1.616403e+00 -2.363046e-01 -4.709078e-01 -7.603235e-01 9.098864e-02 -1.807418e-03 4.810089e-02 1.323893e-02 -9.523402e-02 -8.007577e-02 -1.373170e-02 -3.809882e-02 -2.591662e-02 -1.858371e-02 -5.668154e-03 -2.072585e-02 1.206205e-01
<VARIANCE> 25
 4.593660e+01 4.561512e+01 1.067732e+02 4.157758e+01 9.085478e+01 4.314322e+01 2.971218e+01 4.894523e+01 4.083637e+01 2.505702e+01 4.390482e+01 3.156407e+01 1.632937e+00 2.223625e+00 2.798543e+00 2.506703e+00 3.356355e+00 2.205038e+00 1.993886e+00 2.680107e+00 2.149907e+00 2.146616e+00 2.068805e+00 1.849699e+00 2.660957e+00
<GCONST> 1.024786e+02
<STATE> 4
<MEAN> 25
 2.708595e-01 -6.131555e-01 2.128613e+00 -2.865857e-01 -3.929562e+00 -9.687262e-01 -1.768630e+00 -1.149259e+00 -1.629220e+00 -4.166145e-01 -5.931715e-01 -8.529518e-01 8.908126e-02 5.518003e-03 3.966290e-02 1.512054e-02 -8.642349e-02 -7.519124e-02 -4.164795e-03 -4.011194e-02 -2.133196e-02 -2.188808e-02 -3.213462e-03 -1.685944e-02 1.134913e-01
<VARIANCE> 25
 4.638986e+01 4.766138e+01 1.057455e+02 4.327314e+01 9.085338e+01 4.373533e+01 2.964402e+01 5.071999e+01 4.109740e+01 2.570840e+01 4.588297e+01 3.159563e+01 1.634962e+00 2.268967e+00 2.817722e+00 2.536011e+00 3.373836e+00 2.190654e+00 1.990906e+00 2.725168e+00 2.184359e+00 2.071988e+00 2.070274e+00 1.821562e+00 2.702912e+00
<GCONST> 1.027220e+02
<TRANSP> 5
 0.000000e+00 1.000000e+00 0.000000e+00 0.000000e+00 0.000000e+00
 0.000000e+00 7.082879e-01 2.917121e-01 0.000000e+00 0.000000e+00
 0.000000e+00 0.000000e+00 7.082881e-01 2.917119e-01 0.000000e+00
 0.000000e+00 0.000000e+00 0.000000e+00 8.273131e-01 1.726869e-01
 0.000000e+00 0.000000e+00 0.000000e+00 0.000000e+00 0.000000e+00
<ENDHMM>
~h "aw"
<BEGINHMM>
<NUMSTATES> 5
<STATE> 2
<MEAN> 25
 -2.277485e+00 2.133504e+00 -2.599021e+00 1.141802e+00 5.932530e-01 -1.288545e+00 1.375383e+00 3.285856e-01 -1.949625e+00 -2.674817e-01 1.662266e-02 7.577696e-01 -2.961255e-02 -3.765388e-02 -1.189586e-02 -3.560646e-02 -2.534120e-02 -2.861843e-03 5.520789e-02 7.093896e-02 -1.904350e-02 3.470256e-02 -6.189022e-03 -5.915162e-02 7.366786e-03
<VARIANCE> 25
 6.978117e+01 4.130260e+01 7.223615e+01 4.575884e+01 6.328772e+01 5.850692e+01 4.885172e+01 4.009989e+01 6.064105e+01 3.508130e+01 3.960111e+01 2.769430e+01 2.783096e+00 2.212591e+00 2.603425e+00 2.358701e+00 3.884312e+00 3.273589e+00 3.002344e+00 3.464791e+00 3.475243e+00 2.494216e+00 2.535857e+00 1.952798e+00 3.038770e+00
<GCONST> 1.058647e+02
<STATE> 3
<MEAN> 25
 -2.332153e+00 2.008658e+00 -2.645921e+00 1.048525e+00 5.401359e-01 -1.282274e+00 1.490196e+00 5.165713e-01 -1.984195e+00 -1.697832e-01 -1.904085e-02 6.027354e-01 -7.756256e-03 -5.478882e-02 -1.414193e-02 -3.561199e-02 -2.422737e-02 1.118883e-02 4.401031e-02 6.059429e-02 -4.778386e-03 2.373745e-02 -3.637134e-02 -5.910109e-02 2.445585e-02
<VARIANCE> 25
 7.133634e+01 3.997992e+01 7.456158e+01 4.727997e+01 6.316944e+01 5.686366e+01 5.011003e+01 3.863115e+01 5.876092e+01 3.597499e+01 3.977993e+01 2.744541e+01 2.736170e+00 2.194368e+00 2.588513e+00 2.321783e+00 3.755912e+00 3.272951e+00 2.964717e+00 3.413337e+00 3.385528e+00 2.445083e+00 2.595665e+00 1.997047e+00 3.014683e+00
<GCONST> 1.057490e+02
<STATE> 4
<MEAN> 25
 -2.340502e+00 1.806644e+00 -2.754304e+00 9.495124e-01 5.213016e-01 -1.115923e+00 1.528669e+00 6.954521e-01 -2.052163e+00 -5.634438e-02 -2.202110e-01 4.612338e-01 5.626094e-03 -6.649899e-02 -8.366908e-03 -3.069468e-02 -2.162058e-02 1.567254e-02 2.248945e-02 3.348203e-02 -2.359792e-03 -3.220274e-03 -6.093825e-02 -4.470256e-02 2.997590e-02
<VARIANCE> 25
 7.282948e+01 3.832762e+01 7.646290e+01 4.913114e+01 6.234880e+01 5.553073e+01 4.969594e+01 3.692933e+01 5.721026e+01 3.673225e+01 4.013720e+01 2.768672e+01 2.610179e+00 2.155577e+00 2.541342e+00 2.264284e+00 3.566264e+00 3.266375e+00 2.877127e+00 3.345924e+00 3.267910e+00 2.361580e+00 2.626759e+00 2.069673e+00 2.918749e+00
<GCONST> 1.054457e+02
<TRANSP> 5
 0.000000e+00 1.000000e+00 0.000000e+00 0.000000e+00 0.000000e+00
 0.000000e+00 6.286207e-01 3.713793e-01 0.000000e+00 0.000000e+00
 0.000000e+00 0.000000e+00 6.286206e-01 3.713794e-01 0.000000e+00
 0.000000e+00 0.000000e+00 0.000000e+00 7.342535e-01 2.657465e-01
 0.000000e+00 0.000000e+00 0.000000e+00 0.000000e+00 0.000000e+00
<ENDHMM>
~h "ay"
<BEGINHMM>
<NUMSTATES> 5
<STATE> 2
<MEAN> 25
 3.278409e-02 3.536772e-01 2.126684e+00 -3.286308e-01 -1.757342e+00 -1.484475e+00 7.287977e-01 -5.560830e-02 -7.269518e-01 1.047746e+00 1.127365e-01 2.587764e-01 -4.582423e-02 4.303369e-02 -2.133345e-02 5.307950e-02 7.873471e-02 1.671677e-02 5.240889e-02 2.572895e-02 -3.534301e-02 -3.120240e-02 2.067440e-02 3.221688e-02 -9.784665e-02
<VARIANCE> 25
 5.427309e+01 4.662507e+01 9.773318e+01 5.350684e+01 6.166170e+01 6.269704e+01 5.679876e+01 6.061950e+01 5.831574e+01 3.949145e+01 4.712809e+01 3.368972e+01 2.648511e+00 2.488356e+00 4.366982e+00 3.358596e+00 3.437821e+00 3.705270e+00 3.476100e+00 4.348023e+00 3.389685e+00 3.177052e+00 3.412841e+00 2.554008e+00 2.721153e+00
<GCONST> 1.092357e+02
<STATE> 3
<MEAN> 25
 -8.572415e-02 4.571077e-01 2.036228e+00 -1.837549e-01 -1.559794e+00 -1.406181e+00 8.853881e-01 3.239376e-02 -8.378730e-01 9.557026e-01 1.657752e-01 3.492647e-01 -4.546416e-02 3.351359e-02 -3.896505e-02 6.244713e-02 7.772687e-02 2.826082e-02 5.970677e-02 3.256148e-02 -3.694411e-02 -3.712628e-02 2.774700e-02 2.397184e-02 -1.114822e-01
<VARIANCE> 25
 5.536018e+01 4.611354e+01 9.514371e+01 5.330265e+01 6.279282e+01 6.350510e+01 5.839190e+01 5.976433e+01 5.883332e+01 3.910796e+01 4.714010e+01 3.369332e+01 2.620005e+00 2.407771e+00 4.197793e+00 3.261249e+00 3.430221e+00 3.604860e+00 3.438930e+00 4.236245e+00 3.363510e+00 3.132642e+00 3.387340e+00 2.508039e+00 2.643800e+00
<GCONST> 1.090022e+02
<STATE> 4
<MEAN> 25
 -3.333160e-01 6.508744e-01 1.819423e+00 -8.406299e-02 -1.322883e+00 -1.115710e+00 9.902523e-01 9.025373e-02 -1.010431e+00 8.644834e-01 2.435187e-01 5.608445e-01 -4.173458e-02 1.954956e-02 -6.178528e-02 7.277074e-02 7.113269e-02 4.960641e-02 6.249468e-02 4.521626e-02 -2.712161e-02 -4.179480e-02 2.786195e-02 1.924752e-02 -1.279173e-01
<VARIANCE> 25
 5.625588e+01 4.354595e+01 9.077436e+01 5.147538e+01 6.243106e+01 6.267736e+01 5.770881e+01 5.800087e+01 5.917569e+01 3.760016e+01 4.684467e+01 3.320954e+01 2.525676e+00 2.214671e+00 3.881788e+00 3.061497e+00 3.330267e+00 3.385753e+00 3.315607e+00 4.024809e+00 3.280359e+00 3.025259e+00 3.280947e+00 2.413672e+00 2.525140e+00
<GCONST> 1.081463e+02
<TRANSP> 5
 0.000000e+00 1.000000e+00 0.000000e+00 0.000000e+00 0.000000e+00
 0.000000e+00 6.377604e-01 3.622395e-01 0.000000e+00 0.000000e+00
 0.000000e+00 0.000000e+00 6.377594e-01 3.622406e-01 0.000000e+00
 0.000000e+00 0.000000e+00 0.000000e+00 7.500675e-01 2.499324e-01
 0.000000e+00 0.000000e+00 0.000000e+00 0.000000e+00 0.000000e+00
<ENDHMM>
~h "kh"
<BEGINHMM>
<NUMSTATES> 5
<STATE> 2
<MEAN> 25
 -1.570917e+00 -7.650692e-01 -1.246207e+00 2.723495e-01 -7.504275e-02 2.988948e+00 -1.650001e+00 -1.739274e+00 2.079360e+00 1.256505e-01 1.468763e+00 4.784292e-01 3.478514e-03 7.012533e-02 7.946376e-02 -5.274616e-02 -7.762624e-02 -1.807648e-02 -8.534362e-02 -7.932983e-02 -7.015038e-03 3.489415e-02 2.038332e-02 2.444494e-02 1.919174e-01
<VARIANCE> 25
 9.012833e+01 4.306620e+01 7.956339e+01 5.577396e+01 7.949945e+01 5.362459e+01 6.016807e+01 6.053206e+01 5.473764e+01 4.575708e+01 3.311181e+01 7.185305e+01 4.685590e+00 2.493594e+00 3.472858e+00 2.727147e+00 4.981933e+00 4.015118e+00 3.805967e+00 4.831174e+00 4.148610e+00 3.383422e+00 2.741652e+00 3.817890e+00 4.649009e+00
<GCONST> 1.119078e+02
<STATE> 3
<MEAN> 25
 -1.564125e+00 -6.090172e-01 -1.020036e+00 1.045458e-01 -2.590094e-01 2.913345e+00 -1.933121e+00 -1.911654e+00 2.033350e+00 2.164711e-01 1.528770e+00 5.152339e-01 1.963944e-02 6.086575e-02 7.212446e-02 -5.899970e-02 -6.723426e-02 -3.445719e-02 -1.055809e-01 -7.104433e-02 -1.297494e-02 4.247998e-02 1.505276e-02 3.455596e-03 1.993542e-01
<VARIANCE> 25
 9.161189e+01 4.377098e+01 8.103082e+01 5.641754e+01 8.047935e+01 5.391550e+01 6.092875e+01 6.250061e+01 5.637111e+01 4.727174e+01 3.379405e+01 7.304268e+01 4.726397e+00 2.545751e+00 3.584341e+00 2.773506e+00 5.143269e+00 4.133472e+00 3.863972e+00 4.923537e+00 4.257874e+00 3.489414e+00 2.815810e+00 3.837513e+00 4.732174e+00
<GCONST> 1.124103e+02
<STATE> 4
<MEAN> 25
 -1.415142e+00 -6.211697e-01 -9.649563e-01 -3.303259e-01 -2.779879e-01 2.789312e+00 -2.406245e+00 -2.106783e+00 1.966710e+00 4.954969e-01 1.556701e+00 2.139103e-01 1.859837e-02 5.164689e-02 6.369147e-02 -6.555780e-02 -4.255526e-02 -5.507968e-02 -1.242759e-01 -5.028160e-02 -2.258266e-02 4.340325e-02 1.317501e-02 -1.546534e-02 2.000997e-01
<VARIANCE> 25
 9.363309e+01 4.310051e+01 8.253863e+01 5.704113e+01 8.158517e+01 5.355282e+01 6.095240e+01 6.397788e+01 5.925796e+01 4.954992e+01 3.469988e+01 7.215899e+01 4.771281e+00 2.480860e+00 3.678572e+00 2.848572e+00 5.314583e+00 4.268350e+00 3.914076e+00 4.954909e+00 4.450043e+00 3.638096e+00 2.907650e+00 3.844080e+00 4.847959e+00
<GCONST> 1.128523e+02
<TRANSP> 5
 0.000000e+00 1.000000e+00 0.000000e+00 0.000000e+00 0.000000e+00
 0.000000e+00 6.225034e-01 3.774966e-01 0.000000e+00 0.000000e+00
 0.000000e+00 0.000000e+00 6.225032e-01 3.774967e-01 0.000000e+00
 0.000000e+00 0.000000e+00 0.000000e+00 7.296391e-01 2.703609e-01
 0.000000e+00 0.000000e+00 0.000000e+00 0.000000e+00 0.000000e+00
<ENDHMM>
~h "ng"
<BEGINHMM>
<NUMSTATES> 5
<STATE> 2
<MEAN> 25
 9.408360e-01 -7.301566e-02 3.108792e-01 -4.453027e-01 -2.442766e-01 4.491287e-01 -2.437304e-03 -3.470517e-01 -6.312729e-02 5.456983e-02 -1.517597e-01 -2.898296e-01 8.027728e-03 -2.201349e-03 -4.477331e-04 1.013707e-02 3.536786e-03 -5.066976e-03 -1.493607e-03 -4.186672e-03 -1.127865e-03 -7.509913e-03 -2.013539e-03 1.621733e-03 -1.209878e-03
<VARIANCE> 25
 6.037445e+01 5.537540e+01 7.791359e+01 5.776750e+01 7.251440e+01 7.267595e+01 6.393682e+01 6.302517e+01 5.818617e+01 4.262150e+01 4.940171e+01 3.992309e+01 2.525182e+00 2.783149e+00 3.242991e+00 3.367589e+00 3.943483e+00 3.843155e+00 3.829623e+00 4.100294e+00 3.539365e+00 3.096472e+00 3.201750e+00 2.641451e+00 2.941166e+00
<GCONST> 1.101686e+02
<STATE> 3
<MEAN> 25
 9.565619e-01 -7.524517e-02 3.093397e-01 -4.191206e-01 -2.343385e-01 4.358031e-01 -2.900501e-03 -3.560514e-01 -6.746677e-02 3.779687e-02 -1.564645e-01 -2.869973e-01 5.070909e-03 -1.779959e-03 -1.502911e-03 1.150478e-02 5.536384e-03 -5.732800e-03 -9.050559e-04 -3.412516e-03 -5.434168e-04 -6.891609e-03 -1.619255e-03 1.651332e-03 -6.085450e-03
<VARIANCE> 25
 6.022463e+01 5.533726e+01 7.790145e+01 5.757858e+01 7.260231e+01 7.242339e+01 6.394180e+01 6.309877e+01 5.822431e+01 4.266827e+01 4.952457e+01 3.995510e+01 2.511568e+00 2.774289e+00 3.231874e+00 3.353787e+00 3.939307e+00 3.826214e+00 3.819121e+00 4.099140e+00 3.538550e+00 3.091751e+00 3.204990e+00 2.639699e+00 2.916377e+00
<GCONST> 1.101315e+02
<STATE> 4
<MEAN> 25
 9.606761e-01 -6.566435e-02 2.990099e-01 -3.889228e-01 -2.052395e-01 3.977784e-01 -3.944517e-03 -3.615993e-01 -5.320269e-02 1.546283e-02 -1.618655e-01 -2.987589e-01 5.169808e-04 -1.044791e-03 -1.531243e-03 1.171319e-02 6.134850e-03 -6.120443e-03 7.455818e-04 -1.003009e-03 6.824060e-04 -5.368002e-03 -2.390138e-03 2.113620e-03 -1.130632e-02
<VARIANCE> 25
 5.962933e+01 5.455212e+01 7.682707e+01 5.697088e+01 7.261631e+01 7.182830e+01 6.355654e+01 6.265365e+01 5.782135e+01 4.245110e+01 4.925265e+01 3.996334e+01 2.456324e+00 2.710816e+00 3.156014e+00 3.275414e+00 3.885750e+00 3.766676e+00 3.754994e+00 4.040836e+00 3.494444e+00 3.045664e+00 3.161159e+00 2.608396e+00 2.853352e+00
<GCONST> 1.098158e+02
<TRANSP> 5
 0.000000e+00 1.000000e+00 0.000000e+00 0.000000e+00 0.000000e+00
 0.000000e+00 6.372374e-01 3.627626e-01 0.000000e+00 0.000000e+00
 0.000000e+00 0.000000e+00 6.372389e-01 3.627611e-01 0.000000e+00
 0.000000e+00 0.000000e+00 0.000000e+00 7.504446e-01 2.495554e-01
 0.000000e+00 0.000000e+00 0.000000e+00 0.000000e+00 0.000000e+00
<ENDHMM>
~h "ny"
<BEGINHMM>
<NUMSTATES> 5
<STATE> 2
<MEAN> 25
 7.118708e-02 -8.491185e-01 8.095568e-01 1.823973e-01 -4.413706e-01 1.407571e-01 1.226103e-01 8.915259e-01 -9.344047e-01 -9.834661e-01 -4.028296e-01 1.300922e-01 -1.178830e-02 -1.374050e-02 -2.323825e-02 3.775297e-02 1.714760e-02 2.863843e-02 1.094716e-02 1.214532e-02 -1.774070e-02 -1.687517e-02 6.265538e-04 1.027223e-02 -4.766694e-02
<VARIANCE> 25
 5.384183e+01 5.337693e+01 6.955809e+01 5.458374e+01 7.122739e+01 6.003141e+01 5.665916e+01 5.999542e+01 5.474162e+01 4.721797e+01 4.593963e+01 3.941482e+01 2.116166e+00 2.742194e+00 3.007216e+00 3.186105e+00 3.657903e+00 3.375034e+00 3.466599e+00 3.756253e+00 3.321377e+00 2.951356e+00 2.886672e+00 2.470231e+00 2.498408e+00
<GCONST> 1.082640e+02
<STATE> 3
<MEAN> 25
 3.279101e-02 -8.752847e-01 7.352054e-01 2.818448e-01 -3.866830e-01 2.095372e-01 1.448560e-01 9.176396e-01 -9.694694e-01 -1.016239e+00 -4.071410e-01 1.658439e-01 -1.480426e-02 -1.038643e-02 -3.656450e-02 4.120951e-02 2.464631e-02 1.806362e-02 1.060992e-02 9.837373e-03 -1.114029e-02 -1.452350e-02 -4.421500e-03 1.750624e-02 -5.508027e-02
<VARIANCE> 25
 5.384747e+01 5.304365e+01 6.923499e+01 5.484225e+01 7.108255e+01 5.987915e+01 5.679227e+01 5.958931e+01 5.447278e+01 4.719539e+01 4.555772e+01 3.947129e+01 2.094676e+00 2.708831e+00 2.994684e+00 3.170812e+00 3.655012e+00 3.368437e+00 3.453208e+00 3.726202e+00 3.309973e+00 2.941435e+00 2.879821e+00 2.467495e+00 2.480071e+00
<GCONST> 1.081728e+02
<STATE> 4
<MEAN> 25
 2.684982e-02 -8.853118e-01 5.688285e-01 3.498654e-01 -3.153666e-01 2.369393e-01 8.353709e-02 9.284081e-01 -9.803822e-01 -9.594598e-01 -4.583189e-01 2.270202e-01 -1.963172e-02 -2.292817e-03 -4.500203e-02 3.726719e-02 3.103369e-02 9.248894e-03 7.343084e-03 6.277250e-03 -3.568464e-03 -7.443336e-03 -8.019337e-03 2.127611e-02 -6.494672e-02
<VARIANCE> 25
 5.323614e+01 5.192266e+01 6.777370e+01 5.458854e+01 7.103233e+01 5.927790e+01 5.669292e+01 5.861173e+01 5.341238e+01 4.648043e+01 4.489223e+01 3.898395e+01 2.037155e+00 2.593554e+00 2.882244e+00 3.064029e+00 3.565514e+00 3.300796e+00 3.377925e+00 3.624490e+00 3.237489e+00 2.873999e+00 2.823786e+00 2.425037e+00 2.409834e+00
<GCONST> 1.076732e+02
<TRANSP> 5
 0.000000e+00 1.000000e+00 0.000000e+00 0.000000e+00 0.000000e+00
 0.000000e+00 6.375920e-01 3.624079e-01 0.000000e+00 0.000000e+00
 0.000000e+00 0.000000e+00 6.375896e-01 3.624103e-01 0.000000e+00
 0.000000e+00 0.000000e+00 0.000000e+00 7.521618e-01 2.478382e-01
 0.000000e+00 0.000000e+00 0.000000e+00 0.000000e+00 0.000000e+00
<ENDHMM>
~h "oy"
<BEGINHMM>
<NUMSTATES> 5
<STATE> 2
<MEAN> 25
 -1.266016e-08 6.085643e-09 4.721265e-09 -8.308485e-09 -1.463621e-08 1.307279e-08 -2.750496e-09 -6.683219e-09 -1.380889e-08 -3.351599e-09 1.415116e-08 1.473669e-08 2.548279e-03 -7.284069e-04 1.966011e-03 3.249686e-04 1.698112e-03 -2.328777e-04 5.264792e-04 -2.476147e-04 -7.184849e-04 7.200883e-04 -1.639929e-03 -3.923504e-04 6.718315e-03
<VARIANCE> 25
 6.369320e+01 5.437875e+01 8.050616e+01 5.826715e+01 7.171889e+01 6.936944e+01 6.105562e+01 6.027967e+01 5.528890e+01 4.166891e+01 4.685504e+01 3.910781e+01 2.633578e+00 2.804667e+00 3.170903e+00 3.349051e+00 3.834462e+00 3.765719e+00 3.684584e+00 3.809613e+00 3.444291e+00 2.975416e+00 3.042777e+00 2.563504e+00 3.096067e+00
<GCONST> 1.097144e+02
<STATE> 3
<MEAN> 25
 -1.266016e-08 6.085643e-09 4.721265e-09 -8.308485e-09 -1.463621e-08 1.307279e-08 -2.750496e-09 -6.683219e-09 -1.380889e-08 -3.351599e-09 1.415116e-08 1.473669e-08 2.548279e-03 -7.284069e-04 1.966011e-03 3.249686e-04 1.698112e-03 -2.328777e-04 5.264792e-04 -2.476147e-04 -7.184849e-04 7.200883e-04 -1.639929e-03 -3.923504e-04 6.718315e-03
<VARIANCE> 25
 6.369320e+01 5.437875e+01 8.050616e+01 5.826715e+01 7.171889e+01 6.936944e+01 6.105562e+01 6.027967e+01 5.528890e+01 4.166891e+01 4.685504e+01 3.910781e+01 2.633578e+00 2.804667e+00 3.170903e+00 3.349051e+00 3.834462e+00 3.765719e+00 3.684584e+00 3.809613e+00 3.444291e+00 2.975416e+00 3.042777e+00 2.563504e+00 3.096067e+00
<GCONST> 1.097144e+02
<STATE> 4
<MEAN> 25
 -1.266016e-08 6.085643e-09 4.721265e-09 -8.308485e-09 -1.463621e-08 1.307279e-08 -2.750496e-09 -6.683219e-09 -1.380889e-08 -3.351599e-09 1.415116e-08 1.473669e-08 2.548279e-03 -7.284069e-04 1.966011e-03 3.249686e-04 1.698112e-03 -2.328777e-04 5.264792e-04 -2.476147e-04 -7.184849e-04 7.200883e-04 -1.639929e-03 -3.923504e-04 6.718315e-03
<VARIANCE> 25
 6.369320e+01 5.437875e+01 8.050616e+01 5.826715e+01 7.171889e+01 6.936944e+01 6.105562e+01 6.027967e+01 5.528890e+01 4.166891e+01 4.685504e+01 3.910781e+01 2.633578e+00 2.804667e+00 3.170903e+00 3.349051e+00 3.834462e+00 3.765719e+00 3.684584e+00 3.809613e+00 3.444291e+00 2.975416e+00 3.042777e+00 2.563504e+00 3.096067e+00
<GCONST> 1.097144e+02
<TRANSP> 5
 0.000000e+00 1.000000e+00 0.000000e+00 0.000000e+00 0.000000e+00
 0.000000e+00 6.000000e-01 4.000000e-01 0.000000e+00 0.000000e+00
 0.000000e+00 0.000000e+00 6.000000e-01 4.000000e-01 0.000000e+00
 0.000000e+00 0.000000e+00 0.000000e+00 7.000000e-01 3.000000e-01
 0.000000e+00 0.000000e+00 0.000000e+00 0.000000e+00 0.000000e+00
<ENDHMM>
~h "sy"
<BEGINHMM>
<NUMSTATES> 5
<STATE> 2
<MEAN> 25
 -1.120420e+00 -1.408527e+00 -2.924542e+00 3.176872e-01 2.583989e+00 -1.275131e+00 2.819483e+00 6.637439e+00 8.522673e-01 -9.811929e-01 1.243814e+00 3.660000e-01 1.037328e-01 8.716959e-02 -2.930910e-02 -2.392713e-01 -1.507746e-01 -1.203649e-01 -3.469510e-02 -4.422203e-02 -4.558625e-02 2.295550e-02 2.419362e-02 -8.357652e-02 1.387869e-01
<VARIANCE> 25
 6.992722e+01 7.891292e+01 4.556949e+01 7.986088e+01 7.313627e+01 4.156360e+01 3.841124e+01 5.051989e+01 3.120517e+01 3.503562e+01 6.301096e+01 2.346184e+01 3.726524e+00 4.458994e+00 2.718109e+00 6.614408e+00 4.237926e+00 3.083492e+00 2.705086e+00 3.442291e+00 2.452664e+00 2.685022e+00 3.159531e+00 1.921006e+00 3.108361e+00
<GCONST> 1.079714e+02
<STATE> 3
<MEAN> 25
 -8.144632e-01 -1.293533e+00 -3.010196e+00 -3.213749e-01 2.179469e+00 -1.664614e+00 2.648039e+00 6.504005e+00 7.547011e-01 -9.233770e-01 1.346535e+00 1.310974e-01 9.627432e-02 3.925071e-02 -2.558629e-02 -2.263626e-01 -1.397894e-01 -1.334715e-01 -5.429827e-02 -6.163400e-02 -3.462241e-02 1.883978e-02 3.758796e-02 -7.790941e-02 1.738598e-01
<VARIANCE> 25
 7.758923e+01 7.962886e+01 5.095005e+01 8.090980e+01 7.310754e+01 4.001707e+01 3.911491e+01 5.069574e+01 3.117361e+01 3.571830e+01 6.517449e+01 2.223291e+01 4.103684e+00 4.383157e+00 2.870539e+00 6.728895e+00 4.308033e+00 2.984360e+00 2.646856e+00 3.504852e+00 2.466563e+00 2.698403e+00 3.311144e+00 1.913258e+00 3.049621e+00
<GCONST> 1.083559e+02
<STATE> 4
<MEAN> 25
 -4.401567e-01 -1.268539e+00 -3.158768e+00 -1.007422e+00 1.744394e+00 -2.225602e+00 2.212563e+00 6.271776e+00 6.639780e-01 -7.650713e-01 1.795323e+00 -1.188076e-01 7.121704e-02 -2.695871e-02 -1.010773e-03 -1.793351e-01 -1.287876e-01 -1.502881e-01 -8.380480e-02 -6.385022e-02 -6.097819e-03 1.882580e-02 4.577213e-02 -6.015449e-02 2.039526e-01
<VARIANCE> 25
 8.701840e+01 7.829416e+01 5.881064e+01 8.026340e+01 7.194917e+01 3.850703e+01 4.077636e+01 5.040490e+01 3.102227e+01 3.586847e+01 6.790855e+01 2.066211e+01 4.628776e+00 4.227380e+00 3.098597e+00 6.750134e+00 4.289219e+00 2.902276e+00 2.567626e+00 3.605274e+00 2.488779e+00 2.680187e+00 3.500252e+00 1.891735e+00 2.917229e+00
<GCONST> 1.086692e+02
<TRANSP> 5
 0.000000e+00 1.000000e+00 0.000000e+00 0.000000e+00 0.000000e+00
 0.000000e+00 6.118065e-01 3.881935e-01 0.000000e+00 0.000000e+00
 0.000000e+00 0.000000e+00 6.118066e-01 3.881934e-01 0.000000e+00
 0.000000e+00 0.000000e+00 0.000000e+00 7.151841e-01 2.848159e-01
 0.000000e+00 0.000000e+00 0.000000e+00 0.000000e+00 0.000000e+00
<ENDHMM>
~h "sil"
<BEGINHMM>
<NUMSTATES> 5
<STATE> 2
<MEAN> 25
 -7.262788e+00 1.503229e+00 -3.229085e+00 3.461114e+00 3.198719e+00 2.345113e+00 2.459887e+00 1.486807e+00 -3.004871e-01 -6.931484e-01 3.252518e-01 2.586981e+00 -2.861699e-03 3.540583e-02 3.030909e-02 -3.048403e-03 7.622331e-02 1.423313e-02 -1.475693e-02 7.978220e-03 2.696537e-02 1.030304e-02 3.942134e-02 -8.959790e-03 3.428436e-02
<VARIANCE> 25
 4.919971e+01 3.748387e+01 4.431994e+01 4.002567e+01 4.410338e+01 4.876495e+01 4.057974e+01 3.422489e+01 4.198534e+01 2.925220e+01 3.414741e+01 2.473997e+01 8.379974e-01 1.017543e+00 1.358184e+00 1.524934e+00 1.778100e+00 1.960998e+00 2.072706e+00 2.131949e+00 2.000517e+00 1.967089e+00 1.833416e+00 1.663249e+00 1.174231e+00
<GCONST> 9.565898e+01
<STATE> 3
<MEAN> 25
 -7.196887e+00 1.544406e+00 -3.137183e+00 3.384176e+00 3.343727e+00 2.324394e+00 2.406345e+00 1.495227e+00 -2.242963e-01 -6.630464e-01 3.835818e-01 2.615003e+00 2.975427e-02 -2.553622e-03 3.676479e-02 -4.179984e-02 3.290388e-02 -1.453911e-02 -2.616235e-02 2.721113e-03 2.695802e-02 2.234215e-02 1.124313e-02 1.237600e-02 9.641879e-02
<VARIANCE> 25
 5.003360e+01 3.795385e+01 4.393986e+01 4.127185e+01 4.372692e+01 4.974520e+01 4.084179e+01 3.381328e+01 4.253677e+01 2.926654e+01 3.482549e+01 2.425348e+01 1.064112e+00 1.253388e+00 1.488361e+00 1.759599e+00 1.925225e+00 2.106512e+00 2.156902e+00 2.177944e+00 2.092121e+00 2.035755e+00 1.924147e+00 1.675049e+00 1.516456e+00
<GCONST> 9.701376e+01
<STATE> 4
<MEAN> 25
 -6.684978e+00 1.303074e+00 -2.923931e+00 3.024276e+00 3.203622e+00 2.140542e+00 2.243114e+00 1.399526e+00 -1.565318e-01 -5.256972e-01 2.568447e-01 2.563591e+00 5.455881e-02 -4.006639e-02 4.367470e-02 -4.361564e-02 -9.163798e-03 -1.577252e-02 -3.263776e-02 -1.009868e-02 3.411777e-03 1.936664e-02 -7.868560e-03 -2.230737e-02 1.259710e-01
<VARIANCE> 25
 4.936123e+01 3.737659e+01 4.177761e+01 4.234326e+01 4.203432e+01 4.875410e+01 4.097330e+01 3.438057e+01 4.228569e+01 2.839832e+01 3.362683e+01 2.407178e+01 1.090820e+00 1.268808e+00 1.421737e+00 1.775076e+00 1.938404e+00 2.145424e+00 2.178330e+00 2.188534e+00 2.140804e+00 1.992467e+00 1.946050e+00 1.703801e+00 1.515599e+00
<GCONST> 9.691089e+01
<TRANSP> 5
 0.000000e+00 1.000000e+00 0.000000e+00 0.000000e+00 0.000000e+00
 0.000000e+00 6.434309e-01 3.565691e-01 0.000000e+00 0.000000e+00
 0.000000e+00 0.000000e+00 6.434329e-01 3.565671e-01 0.000000e+00
 0.000000e+00 0.000000e+00 0.000000e+00 7.633302e-01 2.366698e-01
 0.000000e+00 0.000000e+00 0.000000e+00 0.000000e+00 0.000000e+00
<ENDHMM>
