~o
<STREAMINFO> 1 25
<VECSIZE> 25<NULLD><MFCC_D_N_Z_0><DIAGC>
~h "@"
<BEGINHMM>
<NUMSTATES> 5
<STATE> 2
<MEAN> 25
 2.754088e+00 1.692652e-01 -9.631840e-01 -1.398296e-01 2.503737e-01 -6.734462e-01 -2.233296e+00 -1.400663e+00 1.110082e+00 1.612693e+00 4.596798e-01 -6.127363e-01 5.382304e-01 -1.716317e-01 1.209070e-01 -4.393408e-02 -2.633094e-01 1.428678e-01 -2.440069e-01 -1.291246e-01 1.495205e-01 1.315726e-01 -2.192564e-02 -8.030851e-02 3.135414e-01
<VARIANCE> 25
 5.362359e+01 5.135269e+01 5.225409e+01 5.596739e+01 5.638594e+01 7.523815e+01 6.497540e+01 5.985506e+01 5.792306e+01 4.545137e+01 4.435735e+01 3.696392e+01 4.297652e+00 4.377410e+00 3.618728e+00 4.738416e+00 4.666764e+00 5.407330e+00 5.587271e+00 5.200743e+00 4.880565e+00 3.864427e+00 3.809664e+00 3.355519e+00 5.241447e+00
<GCONST> 1.132610e+02
<STATE> 3
<MEAN> 25
 3.430835e+00 -6.822039e-02 -7.264242e-01 -1.395623e-01 -1.698137e-01 -4.570505e-01 -2.441607e+00 -1.574009e+00 1.282026e+00 1.736341e+00 3.955415e-01 -6.823825e-01 2.978414e-01 -5.172456e-02 1.483597e-01 6.281710e-02 -2.002547e-01 1.245940e-01 -2.099876e-02 -7.340829e-02 4.611693e-02 9.908705e-03 -6.270564e-02 -6.399359e-03 1.215808e-01
<VARIANCE> 25
 4.767637e+01 5.127954e+01 5.105962e+01 5.613000e+01 5.630442e+01 7.408521e+01 6.449601e+01 6.056164e+01 5.795079e+01 4.625798e+01 4.449167e+01 3.695784e+01 3.525429e+00 4.206626e+00 3.454253e+00 4.613515e+00 4.448161e+00 5.103601e+00 5.208987e+00 5.122473e+00 4.757628e+00 3.797392e+00 3.686296e+00 3.276865e+00 4.889964e+00
<GCONST> 1.124590e+02
<STATE> 4
<MEAN> 25
 3.647903e+00 -1.762138e-02 -4.356923e-01 1.022266e-01 -4.547153e-01 -2.895350e-01 -2.194951e+00 -1.557865e+00 1.162887e+00 1.647505e+00 1.361505e-01 -5.897391e-01 6.276340e-02 7.510057e-02 1.209550e-01 1.251716e-01 -7.314231e-02 1.031347e-01 1.606201e-01 -2.510075e-02 -7.700633e-02 -8.330172e-02 -8.545920e-02 4.256414e-02 -6.492963e-02
<VARIANCE> 25
 4.365513e+01 5.225109e+01 5.065829e+01 5.584489e+01 5.610170e+01 7.240994e+01 6.249344e+01 6.139017e+01 5.704053e+01 4.606894e+01 4.487525e+01 3.726674e+01 2.632903e+00 3.434448e+00 3.048029e+00 3.924265e+00 3.874584e+00 4.318264e+00 4.332256e+00 4.479325e+00 4.086255e+00 3.399518e+00 3.250340e+00 2.942393e+00 3.669097e+00
<GCONST> 1.101404e+02
<TRANSP> 5
 0.000000e+00 1.000000e+00 0.000000e+00 0.000000e+00 0.000000e+00
 0.000000e+00 4.376461e-01 5.623540e-01 0.000000e+00 0.000000e+00
 0.000000e+00 0.000000e+00 4.372694e-01 5.627306e-01 0.000000e+00
 0.000000e+00 0.000000e+00 0.000000e+00 5.248030e-01 4.751970e-01
 0.000000e+00 0.000000e+00 0.000000e+00 0.000000e+00 0.000000e+00
<ENDHMM>
~h "a"
<BEGINHMM>
<NUMSTATES> 5
<STATE> 2
<MEAN> 25
 3.195501e+00 -5.816300e+00 -3.296350e+00 -2.793818e+00 8.579717e-01 2.072505e-01 -1.342085e-01 2.915296e+00 3.045636e+00 -6.188735e-01 -2.547155e+00 -2.994477e+00 1.567685e-01 -2.361122e-01 -1.343900e-01 1.329375e-01 2.131185e-01 1.520873e-01 1.221683e-01 1.975784e-01 1.093028e-01 -1.210213e-01 -3.363186e-01 -1.383975e-01 7.041162e-03
<VARIANCE> 25
 2.797182e+01 4.686466e+01 5.390197e+01 4.877025e+01 5.713020e+01 7.167007e+01 5.855520e+01 5.732969e+01 5.135521e+01 4.368745e+01 4.969411e+01 4.529457e+01 1.793816e+00 3.017355e+00 2.680306e+00 3.013346e+00 3.570311e+00 3.754222e+00 3.437938e+00 3.963219e+00 3.208565e+00 3.103527e+00 3.176489e+00 3.017393e+00 2.964351e+00
<GCONST> 1.075011e+02
<STATE> 3
<MEAN> 25
 3.290607e+00 -5.584136e+00 -3.272989e+00 -2.112072e+00 1.195386e+00 3.842606e-01 5.482402e-02 2.917674e+00 2.970011e+00 -6.966258e-01 -2.939481e+00 -2.811564e+00 1.917977e-02 2.924942e-01 1.100131e-01 3.885569e-01 9.069404e-02 5.319876e-02 6.562518e-02 -1.011788e-01 -8.437911e-02 2.655302e-02 -8.794124e-02 1.592691e-01 -4.880942e-01
<VARIANCE> 25
 2.741251e+01 4.694478e+01 5.211710e+01 4.860409e+01 5.556192e+01 6.784759e+01 5.685215e+01 5.558578e+01 5.037965e+01 4.314501e+01 4.870716e+01 4.375186e+01 1.476992e+00 2.657465e+00 2.507899e+00 2.778133e+00 3.287475e+00 3.448681e+00 3.251601e+00 3.754422e+00 2.984762e+00 2.900176e+00 2.984793e+00 2.710828e+00 2.558551e+00
<GCONST> 1.060131e+02
<STATE> 4
<MEAN> 25
 2.369889e+00 -4.158657e+00 -3.127172e+00 -6.863161e-01 1.588332e+00 5.420684e-01 3.909135e-01 2.684534e+00 2.399995e+00 -5.882815e-01 -2.928854e+00 -1.771997e+00 -1.107441e-01 5.600276e-01 2.311964e-01 4.074972e-01 -3.028592e-02 -8.369375e-03 2.152551e-02 -2.658230e-01 -1.723150e-01 1.034027e-01 1.127679e-01 2.717879e-01 -6.625640e-01
<VARIANCE> 25
 3.414484e+01 4.619979e+01 4.937035e+01 4.834180e+01 5.385222e+01 6.169092e+01 5.169264e+01 5.203447e+01 4.762315e+01 4.060246e+01 4.617218e+01 4.228677e+01 1.369296e+00 2.224735e+00 2.220002e+00 2.490696e+00 2.894933e+00 3.026070e+00 2.991141e+00 3.340565e+00 2.752821e+00 2.589211e+00 2.656675e+00 2.331554e+00 1.984678e+00
<GCONST> 1.040068e+02
<TRANSP> 5
 0.000000e+00 1.000000e+00 0.000000e+00 0.000000e+00 0.000000e+00
 0.000000e+00 5.127526e-01 4.872474e-01 0.000000e+00 0.000000e+00
 0.000000e+00 0.000000e+00 5.121503e-01 4.878497e-01 0.000000e+00
 0.000000e+00 0.000000e+00 0.000000e+00 6.706417e-01 3.293582e-01
 0.000000e+00 0.000000e+00 0.000000e+00 0.000000e+00 0.000000e+00
<ENDHMM>
~h "b"
<BEGINHMM>
<NUMSTATES> 5
<STATE> 2
<MEAN> 25
 5.680971e+00 5.217083e+00 6.475684e-01 2.675111e+00 4.942024e-01 1.964117e+00 -1.821991e+00 -4.032110e+00 -2.811911e+00 6.361305e-01 4.682080e-01 -7.918364e-01 2.871171e-01 3.042808e-01 -2.356934e-01 -9.005834e-02 2.022904e-01 -1.494185e-01 -1.698380e-01 -1.280327e-01 6.520632e-02 1.880344e-01 2.604559e-01 -1.135396e-01 1.700299e-01
<VARIANCE> 25
 4.157409e+01 6.193814e+01 5.129990e+01 5.818850e+01 4.999666e+01 6.086444e+01 6.254931e+01 6.009541e+01 6.217088e+01 4.981439e+01 4.765863e+01 3.611635e+01 2.207739e+00 5.319640e+00 3.826364e+00 5.479970e+00 4.122451e+00 4.234524e+00 5.428087e+00 4.717468e+00 5.279536e+00 4.599823e+00 4.377118e+00 3.025381e+00 5.074724e+00
<GCONST> 1.125499e+02
<STATE> 3
<MEAN> 25
 6.180080e+00 4.920614e+00 2.499581e-02 1.669488e+00 5.145546e-01 1.487343e+00 -2.541265e+00 -4.039287e+00 -2.080086e+00 1.272973e+00 1.189988e+00 -1.260273e+00 5.046266e-02 -5.173318e-01 -2.503600e-01 -5.841496e-01 -9.928939e-02 -2.555663e-01 -3.393103e-01 1.905590e-01 5.381492e-01 2.190003e-01 2.477431e-01 -2.625594e-01 7.970478e-01
<VARIANCE> 25
 3.504188e+01 6.689173e+01 5.047554e+01 6.647135e+01 4.960074e+01 6.194708e+01 6.585151e+01 5.964814e+01 6.762591e+01 5.723635e+01 4.889570e+01 3.880290e+01 2.206361e+00 6.468221e+00 4.010517e+00 6.248652e+00 4.730422e+00 4.801931e+00 5.973548e+00 5.594495e+00 6.447458e+00 5.351628e+00 5.010341e+00 3.675319e+00 5.647029e+00
<GCONST> 1.146374e+02
<STATE> 4
<MEAN> 25
 5.657888e+00 3.506172e+00 -2.245006e-01 4.834285e-01 7.735234e-02 8.636363e-01 -2.901118e+00 -3.123247e+00 -7.479338e-01 1.130060e+00 1.218776e+00 -1.792237e+00 -1.787529e-01 -7.476786e-01 -9.912706e-03 -5.342715e-01 -2.472510e-01 -2.080989e-01 -1.987511e-01 3.538485e-01 4.870639e-01 -1.251951e-02 4.461300e-02 -1.460287e-01 7.728220e-01
<VARIANCE> 25
 3.311061e+01 7.112994e+01 5.033750e+01 7.118895e+01 5.085364e+01 6.313026e+01 6.582927e+01 5.927954e+01 7.124818e+01 5.641212e+01 4.779893e+01 4.281658e+01 1.669902e+00 5.253136e+00 3.703703e+00 5.311908e+00 4.678483e+00 4.446439e+00 5.059038e+00 5.407717e+00 5.747419e+00 4.652622e+00 4.542596e+00 3.539014e+00 4.265463e+00
<GCONST> 1.131707e+02
<TRANSP> 5
 0.000000e+00 1.000000e+00 0.000000e+00 0.000000e+00 0.000000e+00
 0.000000e+00 5.282984e-01 4.717016e-01 0.000000e+00 0.000000e+00
 0.000000e+00 0.000000e+00 5.320094e-01 4.679905e-01 0.000000e+00
 0.000000e+00 0.000000e+00 0.000000e+00 5.990892e-01 4.009107e-01
 0.000000e+00 0.000000e+00 0.000000e+00 0.000000e+00 0.000000e+00
<ENDHMM>
~h "c"
<BEGINHMM>
<NUMSTATES> 5
<STATE> 2
<MEAN> 25
 -7.711649e+00 3.654679e+00 1.947230e+00 -1.099688e+00 1.438557e+00 -1.830521e+00 1.776737e+00 5.426384e-01 7.858741e-01 7.547695e-02 1.860363e+00 1.615546e+00 -1.901222e+00 -3.436395e-01 8.607044e-02 -1.138898e+00 -3.471325e-02 -1.202196e-01 3.231022e-01 -2.390952e-01 3.210847e-01 -1.188207e-01 3.218102e-01 4.615317e-02 1.350827e+00
<VARIANCE> 25
 1.030683e+02 4.658775e+01 5.358098e+01 5.460424e+01 5.058288e+01 5.118643e+01 4.439600e+01 5.354887e+01 3.849689e+01 3.210596e+01 3.447473e+01 2.654165e+01 1.342241e+01 4.054684e+00 4.647905e+00 5.704923e+00 5.794041e+00 4.894039e+00 4.387702e+00 5.155564e+00 3.597887e+00 3.551359e+00 3.949686e+00 2.703424e+00 5.865324e+00
<GCONST> 1.123995e+02
<STATE> 3
<MEAN> 25
 -9.646654e+00 1.651909e+00 2.330208e+00 -3.474634e+00 -1.081575e-01 -2.791094e+00 2.164004e+00 5.284200e-01 1.613617e+00 -6.250285e-01 1.950736e+00 1.714811e+00 9.998570e-01 -9.691839e-01 -6.802621e-02 -2.799159e-01 -7.532152e-01 -4.051926e-01 -1.669610e-01 2.714086e-01 2.424981e-01 -3.072608e-01 -3.630002e-01 -1.773006e-01 1.418662e+00
<VARIANCE> 25
 1.063419e+02 4.221754e+01 4.742131e+01 4.584534e+01 5.201404e+01 5.111044e+01 4.530225e+01 4.847015e+01 3.555931e+01 3.113518e+01 3.638476e+01 2.568391e+01 1.811028e+01 4.308695e+00 4.319631e+00 5.265008e+00 5.892164e+00 4.839917e+00 4.011555e+00 4.893877e+00 3.545836e+00 3.397753e+00 4.105821e+00 2.831168e+00 3.778414e+00
<GCONST> 1.115505e+02
<STATE> 4
<MEAN> 25
 -2.966326e+00 -1.564987e+00 -1.132504e-01 -2.286930e+00 -1.523507e+00 -1.814803e+00 3.854310e-01 1.897906e+00 2.382075e+00 -9.601215e-01 -4.253921e-02 1.250490e+00 1.558390e+00 -7.278149e-01 -4.096331e-01 8.379726e-02 -1.798451e-01 9.661010e-02 -3.040134e-01 1.024587e-01 2.523043e-02 -9.082370e-02 -4.244002e-01 -3.890359e-01 4.644761e-01
<VARIANCE> 25
 6.207727e+01 3.736692e+01 4.494189e+01 3.709351e+01 3.679455e+01 4.576546e+01 4.076233e+01 4.680596e+01 3.613626e+01 2.743234e+01 3.275752e+01 2.582168e+01 8.122657e+00 3.100520e+00 3.204000e+00 3.022487e+00 3.880557e+00 3.614912e+00 3.194446e+00 3.408597e+00 2.656516e+00 2.740984e+00 3.124915e+00 2.254191e+00 2.354158e+00
<GCONST> 1.050561e+02
<TRANSP> 5
 0.000000e+00 1.000000e+00 0.000000e+00 0.000000e+00 0.000000e+00
 0.000000e+00 6.737239e-01 3.262760e-01 0.000000e+00 0.000000e+00
 0.000000e+00 0.000000e+00 6.396198e-01 3.603802e-01 0.000000e+00
 0.000000e+00 0.000000e+00 0.000000e+00 7.234458e-01 2.765542e-01
 0.000000e+00 0.000000e+00 0.000000e+00 0.000000e+00 0.000000e+00
<ENDHMM>
~h "d"
<BEGINHMM>
<NUMSTATES> 5
<STATE> 2
<MEAN> 25
 3.843041e+00 1.795856e+00 4.388941e+00 3.846641e+00 -2.739523e+00 -2.937704e+00 -2.577032e+00 4.621080e-01 3.441313e-01 -1.939227e+00 -1.392478e+00 4.452090e-01 1.445839e-02 -4.869987e-02 4.171501e-01 -6.897800e-02 -2.728451e-01 -4.834318e-01 -2.150528e-01 3.037379e-01 -3.871692e-02 -2.336549e-01 2.531343e-01 2.222770e-01 3.960327e-01
<VARIANCE> 25
 3.311649e+01 6.028751e+01 6.570757e+01 5.694239e+01 6.907519e+01 6.075124e+01 5.746764e+01 6.256207e+01 5.863986e+01 4.051684e+01 5.333413e+01 3.632837e+01 2.641038e+00 6.233575e+00 4.394304e+00 5.923073e+00 6.076890e+00 5.477278e+00 5.165927e+00 5.870532e+00 4.814473e+00 3.782942e+00 4.633528e+00 3.308935e+00 6.621122e+00
<GCONST> 1.141448e+02
<STATE> 3
<MEAN> 25
 3.687078e+00 8.732777e-01 5.204388e+00 2.779317e+00 -3.608718e+00 -4.048838e+00 -3.094527e+00 1.353951e+00 3.816694e-01 -2.268796e+00 -5.318374e-01 7.846052e-01 -1.724505e-01 -5.780210e-01 2.632809e-01 -6.588938e-01 -4.164764e-01 -3.471979e-01 -1.624618e-01 4.070728e-01 2.944813e-02 -4.135982e-02 4.196573e-01 -1.110954e-03 8.975272e-01
<VARIANCE> 25
 2.891425e+01 5.749963e+01 6.535270e+01 5.964442e+01 7.157822e+01 6.248385e+01 5.973418e+01 6.556811e+01 6.315619e+01 4.050801e+01 5.499825e+01 3.838283e+01 2.432509e+00 6.301402e+00 4.876058e+00 6.130748e+00 6.765380e+00 5.858678e+00 5.698934e+00 6.359682e+00 5.413125e+00 3.989359e+00 4.987780e+00 3.641577e+00 6.479431e+00
<GCONST> 1.150498e+02
<STATE> 4
<MEAN> 25
 3.238242e+00 -7.426436e-01 5.263918e+00 9.781019e-01 -4.544782e+00 -4.401163e+00 -3.222601e+00 2.338368e+00 6.089268e-01 -2.119453e+00 2.935325e-01 2.438579e-01 -1.829999e-01 -4.512932e-01 -1.942535e-02 -6.207280e-01 -1.742766e-01 5.298002e-02 6.937657e-02 1.792982e-01 -1.063763e-02 1.742997e-01 2.042765e-01 -2.556312e-01 6.247403e-01
<VARIANCE> 25
 2.536514e+01 5.233117e+01 6.819549e+01 5.834183e+01 6.650459e+01 5.955620e+01 6.084241e+01 7.143304e+01 6.843402e+01 4.058163e+01 5.406543e+01 3.848971e+01 1.814101e+00 4.363836e+00 4.469890e+00 4.873995e+00 5.927264e+00 4.945326e+00 5.079473e+00 5.460882e+00 4.741240e+00 3.554292e+00 4.485446e+00 3.462659e+00 4.689734e+00
<GCONST> 1.126213e+02
<TRANSP> 5
 0.000000e+00 1.000000e+00 0.000000e+00 0.000000e+00 0.000000e+00
 0.000000e+00 5.493815e-01 4.506185e-01 0.000000e+00 0.000000e+00
 0.000000e+00 0.000000e+00 5.492107e-01 4.507892e-01 0.000000e+00
 0.000000e+00 0.000000e+00 0.000000e+00 6.224802e-01 3.775198e-01
 0.000000e+00 0.000000e+00 0.000000e+00 0.000000e+00 0.000000e+00
<ENDHMM>
~h "e"
<BEGINHMM>
<NUMSTATES> 5
<STATE> 2
<MEAN> 25
 1.237382e+00 -4.417274e+00 1.943768e+00 1.007485e+00 -5.619470e+00 -5.448568e+00 2.631571e+00 4.791112e+00 9.026384e-02 7.468606e-01 1.099077e+00 -6.580880e-01 2.335398e-02 -1.204540e-01 7.735220e-02 1.613641e-01 -1.759488e-01 -2.699642e-02 3.384714e-01 3.081395e-01 -1.930394e-01 8.694379e-02 1.305663e-02 -2.191031e-02 -3.363551e-02
<VARIANCE> 25
 3.543441e+01 5.169195e+01 6.354913e+01 4.582037e+01 8.103165e+01 6.607236e+01 6.898869e+01 5.840104e+01 4.702701e+01 4.424755e+01 4.182999e+01 3.527691e+01 2.283355e+00 3.148087e+00 2.907521e+00 2.663361e+00 4.552435e+00 3.272835e+00 3.616810e+00 4.178149e+00 3.424442e+00 2.876989e+00 2.825445e+00 2.358180e+00 2.893128e+00
<GCONST> 1.079434e+02
<STATE> 3
<MEAN> 25
 8.904326e-01 -3.954938e+00 1.692726e+00 1.555644e+00 -5.182995e+00 -5.206501e+00 3.124738e+00 4.796900e+00 -3.299218e-01 8.858443e-01 1.049095e+00 -4.373932e-01 -1.012224e-01 2.936226e-01 -1.133664e-01 2.155229e-01 2.964336e-01 1.639721e-01 1.336760e-01 -1.397361e-01 -1.057084e-01 3.800279e-02 -4.242005e-02 6.837341e-02 -4.355478e-01
<VARIANCE> 25
 3.866373e+01 4.857938e+01 6.365959e+01 4.608657e+01 8.035912e+01 6.689458e+01 6.585703e+01 5.834606e+01 4.856132e+01 4.533853e+01 4.006564e+01 3.690321e+01 1.802354e+00 2.573884e+00 2.633882e+00 2.515862e+00 3.762536e+00 2.978705e+00 3.282275e+00 3.810584e+00 3.118006e+00 2.649619e+00 2.632395e+00 2.231838e+00 2.471314e+00
<GCONST> 1.064640e+02
<STATE> 4
<MEAN> 25
 -1.317827e+00 -1.943817e+00 8.670171e-01 2.740587e+00 -2.388217e+00 -2.672447e+00 3.408319e+00 3.751047e+00 -2.561054e-01 1.632824e+00 1.198138e+00 1.435386e+00 -1.260446e-01 3.504305e-01 -1.389311e-01 1.419740e-01 3.978323e-01 2.085969e-01 -5.628563e-02 -2.782795e-01 3.850995e-02 -4.628450e-02 -5.318881e-02 1.019569e-01 -4.489905e-01
<VARIANCE> 25
 4.157161e+01 4.081631e+01 5.273997e+01 3.808281e+01 7.939642e+01 6.281316e+01 5.211263e+01 4.915878e+01 4.382154e+01 3.862785e+01 3.380157e+01 4.030847e+01 1.329796e+00 1.695634e+00 1.832713e+00 1.886079e+00 2.818246e+00 2.507783e+00 2.640674e+00 2.999234e+00 2.453295e+00 2.237785e+00 2.140754e+00 1.955539e+00 1.512368e+00
<GCONST> 1.016295e+02
<TRANSP> 5
 0.000000e+00 1.000000e+00 0.000000e+00 0.000000e+00 0.000000e+00
 0.000000e+00 5.501308e-01 4.498692e-01 0.000000e+00 0.000000e+00
 0.000000e+00 0.000000e+00 5.465084e-01 4.534916e-01 0.000000e+00
 0.000000e+00 0.000000e+00 0.000000e+00 7.654615e-01 2.345385e-01
 0.000000e+00 0.000000e+00 0.000000e+00 0.000000e+00 0.000000e+00
<ENDHMM>
~h "f"
<BEGINHMM>
<NUMSTATES> 5
<STATE> 2
<MEAN> 25
 -3.569711e+00 1.840977e+00 5.874689e+00 7.449618e+00 -2.041264e+00 -4.203536e+00 1.755979e+00 -8.080940e-01 -1.970941e+00 -7.339589e-02 3.026639e+00 1.639061e+00 -7.791736e-01 -1.120242e-01 -2.935812e-01 3.425431e-01 4.110363e-01 -3.456300e-01 1.380775e-01 2.398645e-02 1.587285e-01 -4.618093e-02 -3.405121e-03 1.100988e-01 -3.276344e-02
<VARIANCE> 25
 6.700663e+01 3.661491e+01 1.053960e+02 6.667860e+01 8.782375e+01 6.609863e+01 5.047511e+01 5.315604e+01 5.352060e+01 3.803288e+01 3.506111e+01 3.159346e+01 6.074029e+00 3.323631e+00 6.789468e+00 5.145604e+00 9.072123e+00 5.214581e+00 4.338093e+00 4.298186e+00 5.523776e+00 3.518816e+00 3.653681e+00 2.724324e+00 3.524568e+00
<GCONST> 1.136653e+02
<STATE> 3
<MEAN> 25
 -5.155378e+00 1.468565e+00 5.832532e+00 7.492242e+00 -1.870248e+00 -4.976307e+00 1.532433e+00 -1.182797e+00 -2.207463e+00 -2.108629e-01 3.225794e+00 1.607857e+00 -8.110696e-02 -5.185134e-02 5.193310e-02 -2.773333e-01 -1.199627e-01 -1.492175e-01 -5.304499e-02 -1.146126e-01 -1.906709e-01 1.586712e-02 4.237689e-02 -6.009669e-02 3.056368e-01
<VARIANCE> 25
 6.383001e+01 4.202024e+01 1.114982e+02 7.370599e+01 8.891055e+01 6.426326e+01 5.024789e+01 5.082845e+01 5.369078e+01 3.900990e+01 3.304203e+01 3.103538e+01 7.297450e+00 4.061396e+00 7.668092e+00 5.085964e+00 9.064110e+00 5.505864e+00 4.639122e+00 4.031126e+00 5.229710e+00 3.621513e+00 3.419272e+00 2.704700e+00 3.357290e+00
<GCONST> 1.141995e+02
<STATE> 4
<MEAN> 25
 -5.110348e+00 1.685948e+00 5.676005e+00 6.079464e+00 -1.772501e+00 -5.231919e+00 1.664681e+00 -1.384958e+00 -2.680491e+00 5.262671e-02 3.147332e+00 1.535834e+00 5.392820e-01 5.559775e-03 1.849358e-01 -7.059657e-01 -3.933705e-01 7.305025e-02 -1.324920e-01 -1.442311e-01 -3.158732e-01 6.042353e-02 -8.128508e-03 -1.990063e-01 4.265175e-01
<VARIANCE> 25
 6.262403e+01 4.737041e+01 1.125018e+02 7.634410e+01 8.614268e+01 6.843557e+01 5.210376e+01 5.225655e+01 5.437881e+01 3.672808e+01 3.111178e+01 3.316363e+01 7.114441e+00 4.098991e+00 7.373372e+00 4.808065e+00 8.392352e+00 5.776904e+00 4.770591e+00 4.054049e+00 4.826721e+00 3.436085e+00 3.131638e+00 2.818667e+00 2.934277e+00
<GCONST> 1.139773e+02
<TRANSP> 5
 0.000000e+00 1.000000e+00 0.000000e+00 0.000000e+00 0.000000e+00
 0.000000e+00 6.673152e-01 3.326848e-01 0.000000e+00 0.000000e+00
 0.000000e+00 0.000000e+00 6.752433e-01 3.247568e-01 0.000000e+00
 0.000000e+00 0.000000e+00 0.000000e+00 7.451763e-01 2.548237e-01
 0.000000e+00 0.000000e+00 0.000000e+00 0.000000e+00 0.000000e+00
<ENDHMM>
~h "g"
<BEGINHMM>
<NUMSTATES> 5
<STATE> 2
<MEAN> 25
 3.490692e+00 3.539695e+00 4.281117e+00 6.922809e-01 -1.136563e+00 -1.455931e+00 -4.573467e+00 -2.295670e+00 -2.328734e+00 1.621239e+00 4.305733e-01 -1.819399e+00 -2.349520e-01 -6.585735e-02 3.740793e-01 -2.108913e-01 -1.739315e-01 -3.802809e-01 -4.357023e-01 9.932812e-02 -3.293231e-01 1.793943e-01 2.494270e-01 -1.424762e-01 3.575196e-01
<VARIANCE> 25
 3.326700e+01 5.804366e+01 7.582934e+01 6.323458e+01 7.818153e+01 7.151897e+01 7.219924e+01 6.672972e+01 6.614422e+01 5.711987e+01 5.496570e+01 4.364787e+01 2.529866e+00 5.022556e+00 6.088883e+00 6.132899e+00 7.361327e+00 5.824553e+00 5.837197e+00 5.924001e+00 5.708684e+00 4.674429e+00 4.494730e+00 3.401433e+00 4.513030e+00
<GCONST> 1.160989e+02
<STATE> 3
<MEAN> 25
 2.914567e+00 2.910578e+00 5.131296e+00 -3.427199e-01 -1.925177e+00 -2.272856e+00 -5.383117e+00 -1.751889e+00 -2.814175e+00 2.076410e+00 1.029993e+00 -2.295866e+00 -1.599014e-01 -3.347605e-01 2.833797e-01 -4.677871e-01 -4.254070e-01 -2.341056e-01 -1.237129e-01 2.653652e-01 -5.194113e-02 6.213574e-02 2.300453e-01 -1.241430e-01 5.195798e-01
<VARIANCE> 25
 3.218142e+01 5.818741e+01 8.722148e+01 6.493385e+01 8.093630e+01 7.207170e+01 7.300834e+01 7.284746e+01 6.753294e+01 6.260466e+01 5.537912e+01 4.526479e+01 2.378658e+00 4.663565e+00 5.825747e+00 5.786671e+00 7.294499e+00 5.670949e+00 5.755749e+00 6.031241e+00 5.852684e+00 4.694764e+00 4.721776e+00 3.516007e+00 4.064952e+00
<GCONST> 1.162693e+02
<STATE> 4
<MEAN> 25
 2.700522e+00 1.999212e+00 5.891475e+00 -1.568040e+00 -3.571352e+00 -2.467912e+00 -5.214429e+00 -1.216345e+00 -2.473158e+00 1.790880e+00 1.161489e+00 -2.755354e+00 -5.358967e-02 -3.361957e-01 3.033562e-02 -3.432669e-01 -3.186279e-01 6.683748e-02 2.432412e-01 2.058315e-01 1.326066e-01 -1.017244e-01 2.279313e-02 -2.309560e-02 2.981288e-01
<VARIANCE> 25
 2.915197e+01 6.268234e+01 9.337319e+01 6.469218e+01 7.386115e+01 7.144191e+01 6.731671e+01 7.672396e+01 6.434885e+01 6.118386e+01 5.329539e+01 4.465919e+01 1.833002e+00 3.390652e+00 4.487142e+00 4.548204e+00 5.780502e+00 4.537488e+00 4.681592e+00 5.057482e+00 4.697608e+00 3.887137e+00 4.055407e+00 3.112711e+00 2.980204e+00
<GCONST> 1.131442e+02
<TRANSP> 5
 0.000000e+00 1.000000e+00 0.000000e+00 0.000000e+00 0.000000e+00
 0.000000e+00 6.099196e-01 3.900803e-01 0.000000e+00 0.000000e+00
 0.000000e+00 0.000000e+00 6.028575e-01 3.971425e-01 0.000000e+00
 0.000000e+00 0.000000e+00 0.000000e+00 6.738822e-01 3.261178e-01
 0.000000e+00 0.000000e+00 0.000000e+00 0.000000e+00 0.000000e+00
<ENDHMM>
~h "h"
<BEGINHMM>
<NUMSTATES> 5
<STATE> 2
<MEAN> 25
 1.284580e-01 -3.143754e+00 -2.344714e+00 -7.284480e-01 3.516836e+00 1.109169e+00 2.522866e+00 1.289789e+00 1.119224e+00 -4.375174e-01 -1.632526e+00 -8.385233e-01 -8.476209e-02 -1.655419e-02 -2.839183e-01 1.360885e-01 3.639742e-01 6.350692e-02 1.776897e-01 6.920491e-02 3.460666e-02 -9.581402e-02 -1.042254e-01 3.801404e-02 -2.130580e-01
<VARIANCE> 25
 4.523236e+01 5.316919e+01 7.563037e+01 5.524726e+01 8.912564e+01 7.414668e+01 7.498771e+01 6.154949e+01 5.008889e+01 4.306401e+01 5.223898e+01 4.706069e+01 2.071145e+00 2.839922e+00 3.205103e+00 3.356114e+00 4.674376e+00 4.009047e+00 4.121965e+00 3.793085e+00 3.271666e+00 3.125458e+00 3.240502e+00 2.850865e+00 2.965419e+00
<GCONST> 1.102497e+02
<STATE> 3
<MEAN> 25
 2.290307e-01 -3.197875e+00 -2.758062e+00 -6.589755e-01 3.799258e+00 1.098743e+00 2.508567e+00 1.322838e+00 1.196994e+00 -6.078525e-01 -1.800451e+00 -9.101979e-01 5.480892e-02 8.809285e-02 -1.391686e-01 3.802284e-02 1.707131e-03 -8.738554e-03 -2.473801e-02 -3.019376e-02 -1.864472e-02 -4.935993e-02 -4.615153e-02 -4.815666e-03 -1.512295e-01
<VARIANCE> 25
 4.449046e+01 5.699783e+01 7.439552e+01 5.442457e+01 8.833564e+01 7.369839e+01 7.262269e+01 6.094596e+01 4.985253e+01 4.244081e+01 5.247742e+01 4.689065e+01 2.279408e+00 2.825020e+00 3.120852e+00 3.336236e+00 4.628508e+00 4.081439e+00 4.173854e+00 3.724894e+00 3.287868e+00 3.045796e+00 3.144404e+00 2.946146e+00 3.179295e+00
<GCONST> 1.103079e+02
<STATE> 4
<MEAN> 25
 1.345127e-01 -3.053019e+00 -3.344252e+00 -6.475249e-01 3.788023e+00 1.084861e+00 2.245136e+00 1.321721e+00 1.107051e+00 -7.036117e-01 -1.924970e+00 -9.873511e-01 1.082951e-01 1.946930e-01 3.448099e-02 -3.259875e-03 -2.520431e-01 -7.762996e-02 -1.575580e-01 -7.820626e-02 -6.413300e-02 5.751669e-03 1.060701e-03 1.133965e-02 -1.263354e-01
<VARIANCE> 25
 4.494212e+01 5.995289e+01 6.999005e+01 5.528807e+01 7.857602e+01 6.920574e+01 6.392812e+01 5.645802e+01 4.966493e+01 3.965976e+01 4.954207e+01 4.615564e+01 2.074070e+00 2.463352e+00 2.752241e+00 2.979795e+00 3.844753e+00 3.668230e+00 3.680637e+00 3.379165e+00 3.084515e+00 2.759100e+00 2.769941e+00 2.682737e+00 2.640340e+00
<GCONST> 1.082400e+02
<TRANSP> 5
 0.000000e+00 1.000000e+00 0.000000e+00 0.000000e+00 0.000000e+00
 0.000000e+00 4.775463e-01 5.224537e-01 0.000000e+00 0.000000e+00
 0.000000e+00 0.000000e+00 4.760186e-01 5.239814e-01 0.000000e+00
 0.000000e+00 0.000000e+00 0.000000e+00 6.013889e-01 3.986110e-01
 0.000000e+00 0.000000e+00 0.000000e+00 0.000000e+00 0.000000e+00
<ENDHMM>
~h "i"
<BEGINHMM>
<NUMSTATES> 5
<STATE> 2
<MEAN> 25
 -4.029469e-01 2.114182e+00 1.390358e+01 -2.083195e-01 -9.415511e+00 -3.616817e+00 -1.657673e+00 -3.010701e+00 -5.750148e+00 -1.522723e-01 3.287382e+00 -5.041137e-01 1.179842e-01 1.039952e-01 1.163851e+00 -2.332585e-01 -9.127878e-01 1.200086e-01 -3.103350e-01 -3.167205e-01 -5.612512e-01 8.094341e-02 3.528004e-01 -1.422596e-01 2.430725e-01
<VARIANCE> 25
 3.246272e+01 4.552351e+01 9.532673e+01 5.661125e+01 8.027708e+01 6.635727e+01 6.165129e+01 6.389029e+01 5.743426e+01 4.824619e+01 4.766677e+01 3.431774e+01 2.700929e+00 2.739288e+00 6.747066e+00 3.833414e+00 6.367928e+00 4.237972e+00 4.553493e+00 4.458841e+00 4.510222e+00 3.371713e+00 3.602313e+00 2.536920e+00 2.968157e+00
<GCONST> 1.116074e+02
<STATE> 3
<MEAN> 25
 -2.195140e-01 2.607759e+00 1.463673e+01 -1.865775e-01 -1.015087e+01 -3.000439e+00 -1.769947e+00 -3.361293e+00 -6.033980e+00 5.456904e-02 3.453378e+00 -5.831159e-01 5.011369e-02 1.493395e-01 -2.966438e-01 1.644474e-01 1.390537e-01 1.117125e-01 1.418556e-01 6.622396e-02 1.298605e-01 3.755347e-02 -6.971691e-02 7.948446e-02 -3.898960e-01
<VARIANCE> 25
 2.741637e+01 4.368018e+01 8.875700e+01 5.832365e+01 7.608300e+01 6.750005e+01 6.086422e+01 6.114800e+01 5.457730e+01 4.908400e+01 4.828093e+01 3.521306e+01 1.841442e+00 2.503338e+00 5.336562e+00 3.354093e+00 5.264477e+00 3.751548e+00 3.970552e+00 3.965226e+00 3.789699e+00 3.023915e+00 3.163630e+00 2.345756e+00 2.715386e+00
<GCONST> 1.092790e+02
<STATE> 4
<MEAN> 25
 -7.642255e-01 3.140347e+00 1.058838e+01 1.174642e+00 -7.611267e+00 -2.286195e+00 -6.305192e-01 -2.708055e+00 -4.624507e+00 -1.752447e-01 2.516312e+00 1.471161e-01 -5.530781e-02 3.650898e-02 -1.002001e+00 2.638391e-01 7.422927e-01 7.116239e-02 2.837359e-01 2.452210e-01 3.778290e-01 -1.160860e-02 -2.690992e-01 1.587286e-01 -5.313748e-01
<VARIANCE> 25
 3.387205e+01 4.288789e+01 8.683911e+01 5.647138e+01 8.041232e+01 6.498103e+01 5.800412e+01 5.946008e+01 4.966350e+01 4.214315e+01 4.456246e+01 3.605240e+01 1.533878e+00 2.213935e+00 3.545038e+00 2.744824e+00 3.996132e+00 3.287412e+00 3.409195e+00 3.515831e+00 3.096786e+00 2.723083e+00 2.699579e+00 2.153836e+00 2.027638e+00
<GCONST> 1.066176e+02
<TRANSP> 5
 0.000000e+00 1.000000e+00 0.000000e+00 0.000000e+00 0.000000e+00
 0.000000e+00 6.733100e-01 3.266900e-01 0.000000e+00 0.000000e+00
 0.000000e+00 0.000000e+00 6.611561e-01 3.388440e-01 0.000000e+00
 0.000000e+00 0.000000e+00 0.000000e+00 7.752240e-01 2.247760e-01
 0.000000e+00 0.000000e+00 0.000000e+00 0.000000e+00 0.000000e+00
<ENDHMM>
~h "j"
<BEGINHMM>
<NUMSTATES> 5
<STATE> 2
<MEAN> 25
 -1.615705e-01 6.058037e+00 7.480829e+00 3.515014e+00 -1.327199e+00 -3.349588e+00 -1.351681e+00 1.908458e-01 -1.488213e+00 -2.376114e+00 9.925168e-01 2.003181e+00 -6.406384e-01 2.242356e-01 8.422839e-01 -2.694557e-01 -2.090677e-01 -4.023382e-01 -1.223480e-01 -8.249266e-02 -2.457079e-01 -8.973462e-02 3.937696e-01 1.882614e-01 5.835994e-01
<VARIANCE> 25
 5.625723e+01 6.101157e+01 6.846529e+01 5.131104e+01 7.972240e+01 6.479935e+01 6.546996e+01 5.064624e+01 4.935738e+01 3.798197e+01 3.956930e+01 3.266528e+01 6.447037e+00 5.881112e+00 5.792505e+00 5.123724e+00 8.543766e+00 5.841881e+00 5.751155e+00 4.908701e+00 4.360180e+00 3.695058e+00 3.871018e+00 3.173231e+00 5.207911e+00
<GCONST> 1.148234e+02
<STATE> 3
<MEAN> 25
 -1.271366e+00 4.997555e+00 9.484195e+00 2.315239e+00 -3.133252e+00 -4.597985e+00 -2.301316e+00 1.787493e-02 -1.817891e+00 -2.428285e+00 2.314994e+00 2.413457e+00 -2.234173e-02 -6.821060e-01 2.997153e-01 -3.435766e-01 -7.101350e-01 -3.899265e-01 -4.049994e-01 1.080761e-01 5.058405e-02 5.382805e-02 3.708911e-01 2.519026e-02 8.927197e-01
<VARIANCE> 25
 4.985573e+01 6.236202e+01 6.925604e+01 5.204661e+01 8.776826e+01 6.635075e+01 6.493980e+01 5.470081e+01 4.913728e+01 3.868668e+01 3.959790e+01 3.429187e+01 6.220748e+00 6.282067e+00 6.461159e+00 4.552920e+00 9.654797e+00 6.118412e+00 6.164372e+00 5.584831e+00 4.799851e+00 3.742585e+00 4.016919e+00 3.332560e+00 4.924888e+00
<GCONST> 1.155295e+02
<STATE> 4
<MEAN> 25
 -1.015320e-01 2.441253e+00 8.333472e+00 1.679241e+00 -4.686994e+00 -4.986554e+00 -3.482217e+00 5.462355e-01 -1.245222e+00 -1.999941e+00 2.676100e+00 2.099766e+00 3.675160e-01 -6.167416e-01 -6.441280e-01 -2.201920e-01 -7.313095e-02 9.173778e-02 -1.971348e-01 1.739260e-01 2.802744e-01 2.354634e-01 -2.890745e-02 -2.782614e-01 2.828787e-01
<VARIANCE> 25
 3.813633e+01 5.691202e+01 6.592860e+01 5.325714e+01 7.572013e+01 5.947823e+01 6.715551e+01 6.185289e+01 5.041358e+01 3.932070e+01 3.731228e+01 3.492924e+01 3.729611e+00 4.718273e+00 5.076842e+00 3.475382e+00 7.236912e+00 4.922997e+00 5.288664e+00 5.153416e+00 4.236627e+00 3.309234e+00 3.555788e+00 3.126461e+00 3.474292e+00
<GCONST> 1.122132e+02
<TRANSP> 5
 0.000000e+00 1.000000e+00 0.000000e+00 0.000000e+00 0.000000e+00
 0.000000e+00 6.562096e-01 3.437904e-01 0.000000e+00 0.000000e+00
 0.000000e+00 0.000000e+00 6.484466e-01 3.515533e-01 0.000000e+00
 0.000000e+00 0.000000e+00 0.000000e+00 6.973675e-01 3.026325e-01
 0.000000e+00 0.000000e+00 0.000000e+00 0.000000e+00 0.000000e+00
<ENDHMM>
~h "k"
<BEGINHMM>
<NUMSTATES> 5
<STATE> 2
<MEAN> 25
 -1.351704e+00 4.755243e-01 -3.718818e+00 5.746255e-01 2.706715e+00 -6.251639e-01 8.264278e-01 8.764293e-01 -1.035192e-01 1.737840e+00 4.728185e-01 4.604935e-02 -4.117416e-01 -5.168957e-01 -5.445566e-01 -2.712721e-01 4.548486e-01 -4.110764e-01 -5.846463e-02 2.293752e-01 1.161460e-01 1.319097e-01 -7.055847e-02 -5.477552e-02 5.795264e-01
<VARIANCE> 25
 5.110882e+01 5.248403e+01 7.580305e+01 5.619410e+01 7.118153e+01 7.763791e+01 5.599946e+01 5.626143e+01 5.462342e+01 4.369032e+01 4.526983e+01 4.315961e+01 4.177835e+00 4.891881e+00 5.688396e+00 5.287857e+00 6.261743e+00 6.252756e+00 5.162688e+00 4.947190e+00 4.766209e+00 4.224522e+00 4.041996e+00 3.807663e+00 7.682703e+00
<GCONST> 1.153303e+02
<STATE> 3
<MEAN> 25
 -1.734042e+00 -1.021074e+00 -4.444430e+00 -5.172258e-01 3.190361e+00 -1.553746e+00 5.127077e-01 1.223959e+00 2.238517e-01 1.927839e+00 2.979951e-01 -4.280155e-01 9.330066e-02 -5.723574e-01 -6.901968e-02 -4.901058e-01 -1.075740e-01 -2.596539e-01 -6.516558e-02 8.114205e-02 1.242979e-01 -6.198983e-02 -1.239182e-01 -3.256892e-01 1.141777e+00
<VARIANCE> 25
 5.266393e+01 5.312962e+01 7.914246e+01 5.799745e+01 7.516964e+01 8.086098e+01 5.695603e+01 5.763760e+01 5.579377e+01 4.543963e+01 4.567295e+01 4.574703e+01 5.208075e+00 4.714764e+00 5.922857e+00 5.422229e+00 6.927253e+00 6.701844e+00 5.283053e+00 5.135312e+00 5.092352e+00 4.509785e+00 4.255695e+00 4.205336e+00 7.416741e+00
<GCONST> 1.164379e+02
<STATE> 4
<MEAN> 25
 -9.760994e-01 -1.889425e+00 -3.810580e+00 -1.164494e+00 2.132151e+00 -1.567700e+00 6.653358e-01 1.222352e+00 3.739008e-01 1.422401e+00 -7.607051e-02 -1.187359e+00 4.802734e-01 -2.978133e-01 3.288821e-01 -2.927524e-01 -4.917765e-01 8.294240e-02 -9.312843e-03 -6.282078e-02 1.662616e-02 -2.579186e-01 -1.262991e-01 -3.546641e-01 8.612827e-01
<VARIANCE> 25
 5.315862e+01 5.350153e+01 7.552449e+01 5.456734e+01 7.008129e+01 7.441204e+01 5.367429e+01 5.514814e+01 5.382371e+01 4.266993e+01 4.605405e+01 4.579976e+01 4.436619e+00 3.655333e+00 4.704208e+00 4.429105e+00 5.858865e+00 5.572521e+00 4.564363e+00 4.486159e+00 4.443174e+00 4.018455e+00 3.795844e+00 3.770071e+00 5.397987e+00
<GCONST> 1.137265e+02
<TRANSP> 5
 0.000000e+00 1.000000e+00 0.000000e+00 0.000000e+00 0.000000e+00
 0.000000e+00 5.190271e-01 4.809729e-01 0.000000e+00 0.000000e+00
 0.000000e+00 0.000000e+00 5.170006e-01 4.829994e-01 0.000000e+00
 0.000000e+00 0.000000e+00 0.000000e+00 5.836428e-01 4.163572e-01
 0.000000e+00 0.000000e+00 0.000000e+00 0.000000e+00 0.000000e+00
<ENDHMM>
~h "l"
<BEGINHMM>
<NUMSTATES> 5
<STATE> 2
<MEAN> 25
 5.139747e+00 -3.243412e+00 -2.400542e+00 -3.934972e+00 -3.007604e-01 1.852598e+00 -3.454545e+00 -3.358591e+00 3.147239e+00 3.170906e+00 -3.534048e-01 -2.443708e+00 1.265997e-01 -8.598600e-02 -5.395621e-02 -1.551649e-01 1.047469e-01 9.038744e-02 -1.567117e-01 -7.039156e-02 2.132509e-01 1.635539e-01 -1.642670e-01 -6.966417e-02 3.147445e-02
<VARIANCE> 25
 3.036103e+01 3.881879e+01 5.294788e+01 6.256463e+01 5.282915e+01 8.032149e+01 7.685196e+01 7.392680e+01 6.095628e+01 5.366717e+01 4.989212e+01 4.338105e+01 1.169842e+00 1.935861e+00 2.506308e+00 3.153109e+00 3.238123e+00 3.724881e+00 3.936362e+00 4.761901e+00 3.619297e+00 3.626041e+00 3.005503e+00 2.666571e+00 1.594655e+00
<GCONST> 1.073233e+02
<STATE> 3
<MEAN> 25
 5.159105e+00 -3.304611e+00 -2.452509e+00 -4.146530e+00 3.080400e-03 1.948241e+00 -3.490385e+00 -3.183752e+00 3.316508e+00 3.136245e+00 -7.180290e-01 -2.482273e+00 -7.050896e-02 -3.793587e-02 8.818940e-03 -1.850478e-02 1.477281e-01 -4.827671e-03 1.103375e-01 2.628651e-01 -7.822282e-03 -1.723060e-01 -1.612702e-01 4.202622e-03 -9.853034e-04
<VARIANCE> 25
 2.936453e+01 3.911948e+01 5.198664e+01 6.333632e+01 5.212796e+01 7.841392e+01 7.926963e+01 7.426609e+01 6.160283e+01 5.478091e+01 5.060630e+01 4.385340e+01 1.028496e+00 1.889125e+00 2.421347e+00 3.025710e+00 3.041411e+00 3.557641e+00 3.880926e+00 4.609106e+00 3.465756e+00 3.582042e+00 2.993869e+00 2.548725e+00 1.492392e+00
<GCONST> 1.067906e+02
<STATE> 4
<MEAN> 25
 4.226122e+00 -2.940713e+00 -2.467885e+00 -3.680791e+00 7.163914e-01 1.882765e+00 -2.561320e+00 -2.124986e+00 2.781967e+00 2.252383e+00 -1.056139e+00 -2.090235e+00 -1.954699e-01 3.891739e-02 1.074150e-01 1.617421e-01 1.122460e-01 -6.335294e-02 2.724639e-01 4.030389e-01 -2.021475e-01 -3.426851e-01 -7.656913e-02 1.023672e-01 -1.034455e-01
<VARIANCE> 25
 3.203616e+01 4.195408e+01 5.084405e+01 6.366755e+01 5.235651e+01 7.515282e+01 7.520092e+01 7.195618e+01 5.743290e+01 5.118546e+01 5.034927e+01 4.490014e+01 9.320399e-01 1.760045e+00 2.206339e+00 2.727551e+00 2.865891e+00 3.248081e+00 3.429862e+00 3.892210e+00 3.175800e+00 3.158781e+00 2.847023e+00 2.346112e+00 1.361030e+00
<GCONST> 1.054413e+02
<TRANSP> 5
 0.000000e+00 1.000000e+00 0.000000e+00 0.000000e+00 0.000000e+00
 0.000000e+00 5.168696e-01 4.831304e-01 0.000000e+00 0.000000e+00
 0.000000e+00 0.000000e+00 5.170093e-01 4.829907e-01 0.000000e+00
 0.000000e+00 0.000000e+00 0.000000e+00 6.489207e-01 3.510793e-01
 0.000000e+00 0.000000e+00 0.000000e+00 0.000000e+00 0.000000e+00
<ENDHMM>
~h "m"
<BEGINHMM>
<NUMSTATES> 5
<STATE> 2
<MEAN> 25
 5.878977e+00 1.214922e+00 -1.494704e-01 7.773144e-01 1.873786e-02 4.791637e+00 -8.048884e-01 -5.111206e+00 -3.193872e+00 3.550242e-01 -4.692747e-01 -9.565827e-01 2.281567e-01 1.733685e-01 9.554108e-02 1.676953e-01 3.758462e-02 3.578082e-01 1.096764e-01 -4.035355e-01 -2.977250e-01 -3.751744e-02 -9.913901e-02 -1.068323e-02 -1.080769e-01
<VARIANCE> 25
 3.462108e+01 4.908997e+01 5.116413e+01 5.708927e+01 4.926077e+01 6.216979e+01 5.084789e+01 6.049314e+01 6.230006e+01 4.567595e+01 4.331534e+01 3.529788e+01 1.444371e+00 2.986575e+00 3.525101e+00 4.134246e+00 3.013376e+00 3.400844e+00 3.484014e+00 4.387167e+00 4.497553e+00 3.135744e+00 3.276085e+00 2.605769e+00 2.385137e+00
<GCONST> 1.075639e+02
<STATE> 3
<MEAN> 25
 6.193232e+00 1.127648e+00 -1.430433e-01 6.077750e-01 4.805356e-02 5.460409e+00 -7.360313e-01 -5.405564e+00 -3.328409e+00 2.187366e-01 -5.760943e-01 -1.088863e+00 6.623203e-02 -1.499825e-01 -1.111604e-01 -1.564947e-01 2.505600e-02 1.962349e-01 3.427644e-03 1.129220e-01 1.439252e-01 -5.329786e-02 -8.376970e-03 -8.782150e-02 1.399578e-01
<VARIANCE> 25
 3.211868e+01 5.066002e+01 5.195975e+01 5.722767e+01 4.944556e+01 6.488127e+01 5.233275e+01 6.241958e+01 6.559180e+01 4.755046e+01 4.437889e+01 3.606564e+01 1.246660e+00 3.205761e+00 3.474763e+00 4.119447e+00 3.092478e+00 3.487898e+00 3.557200e+00 4.519154e+00 4.900567e+00 3.278324e+00 3.239826e+00 2.672012e+00 2.297852e+00
<GCONST> 1.078965e+02
<STATE> 4
<MEAN> 25
 5.851239e+00 6.500921e-01 -6.357414e-01 5.208415e-02 3.506705e-01 5.668517e+00 -8.804175e-01 -4.414585e+00 -2.405402e+00 -3.461339e-02 -6.136893e-01 -1.318933e+00 -1.133408e-01 -2.718105e-01 -1.736258e-01 -2.225393e-01 3.627310e-02 -6.858914e-02 -4.030812e-02 4.664474e-01 4.000523e-01 -3.437509e-02 3.478010e-02 -7.836114e-02 1.980917e-01
<VARIANCE> 25
 3.420864e+01 5.717513e+01 5.266552e+01 5.897936e+01 5.298913e+01 6.755074e+01 5.517500e+01 6.271433e+01 6.536133e+01 4.598761e+01 4.364182e+01 3.764677e+01 1.127061e+00 2.920529e+00 3.233405e+00 3.642996e+00 3.214610e+00 3.432279e+00 3.426151e+00 4.307267e+00 4.427996e+00 3.184724e+00 3.180475e+00 2.616210e+00 1.943835e+00
<GCONST> 1.074914e+02
<TRANSP> 5
 0.000000e+00 1.000000e+00 0.000000e+00 0.000000e+00 0.000000e+00
 0.000000e+00 5.276018e-01 4.723982e-01 0.000000e+00 0.000000e+00
 0.000000e+00 0.000000e+00 5.266340e-01 4.733660e-01 0.000000e+00
 0.000000e+00 0.000000e+00 0.000000e+00 6.314040e-01 3.685960e-01
 0.000000e+00 0.000000e+00 0.000000e+00 0.000000e+00 0.000000e+00
<ENDHMM>
~h "n"
<BEGINHMM>
<NUMSTATES> 5
<STATE> 2
<MEAN> 25
 4.508277e+00 1.820758e-03 1.674571e+00 3.053887e+00 -1.428583e+00 4.012654e-01 -1.244952e+00 -1.361290e+00 5.638174e-01 -2.137705e-02 -3.517052e+00 -1.879453e-01 6.122467e-02 7.171953e-01 2.555791e-01 5.306894e-01 -6.618700e-03 5.833295e-02 2.415195e-02 -4.406473e-01 -1.673316e-01 7.586677e-02 -9.821625e-02 2.277303e-01 -7.421662e-01
<VARIANCE> 25
 3.137203e+01 5.259278e+01 5.550355e+01 4.651714e+01 5.704752e+01 5.338846e+01 4.954041e+01 6.084944e+01 4.961553e+01 4.643441e+01 4.779560e+01 3.652465e+01 1.196458e+00 2.677063e+00 2.917071e+00 3.111164e+00 3.377611e+00 3.143133e+00 3.047874e+00 4.752720e+00 3.090445e+00 2.979997e+00 3.036186e+00 2.344858e+00 1.903402e+00
<GCONST> 1.056835e+02
<STATE> 3
<MEAN> 25
 4.275179e+00 1.379402e+00 1.948428e+00 3.756485e+00 -1.184407e+00 5.480335e-01 -1.057932e+00 -1.807372e+00 1.098836e-01 8.110175e-02 -3.360708e+00 1.899167e-01 -1.567371e-01 5.191166e-01 1.006436e-01 1.794464e-01 1.476618e-01 7.094567e-02 1.011489e-01 -6.249779e-02 -1.991013e-01 7.268826e-03 1.359933e-01 1.236309e-01 -5.620175e-01
<VARIANCE> 25
 3.365192e+01 5.227240e+01 5.448343e+01 4.629750e+01 5.669861e+01 5.197427e+01 4.800293e+01 5.947888e+01 4.805951e+01 4.595869e+01 4.688263e+01 3.595054e+01 1.232811e+00 2.633656e+00 2.639123e+00 2.967294e+00 3.269005e+00 3.055146e+00 2.935701e+00 4.546868e+00 3.039341e+00 2.872992e+00 2.939009e+00 2.234127e+00 1.817479e+00
<GCONST> 1.051027e+02
<STATE> 4
<MEAN> 25
 1.512193e+00 2.445325e+00 1.013876e+00 4.405389e+00 3.702860e-01 1.048906e+00 4.257523e-02 -5.122349e-01 -3.417804e-01 -2.020102e-02 -2.190441e+00 1.126815e+00 -3.407461e-01 1.774710e-01 -1.853089e-02 -9.229858e-02 1.985517e-01 4.301499e-02 1.347145e-01 2.036583e-01 -1.245424e-01 -4.375144e-02 2.618766e-01 3.461662e-02 -2.756658e-01
<VARIANCE> 25
 4.866490e+01 4.963719e+01 5.053881e+01 4.558883e+01 5.369676e+01 4.748447e+01 4.392656e+01 5.540731e+01 4.399987e+01 4.085241e+01 4.482361e+01 3.535328e+01 1.240235e+00 2.220766e+00 2.175772e+00 2.492140e+00 2.853858e+00 2.759137e+00 2.630813e+00 3.617127e+00 2.723319e+00 2.557547e+00 2.571343e+00 2.011119e+00 1.508860e+00
<GCONST> 1.029979e+02
<TRANSP> 5
 0.000000e+00 1.000000e+00 0.000000e+00 0.000000e+00 0.000000e+00
 0.000000e+00 5.161672e-01 4.838328e-01 0.000000e+00 0.000000e+00
 0.000000e+00 0.000000e+00 5.172260e-01 4.827739e-01 0.000000e+00
 0.000000e+00 0.000000e+00 0.000000e+00 7.084366e-01 2.915634e-01
 0.000000e+00 0.000000e+00 0.000000e+00 0.000000e+00 0.000000e+00
<ENDHMM>
~h "o"
<BEGINHMM>
<NUMSTATES> 5
<STATE> 2
<MEAN> 25
 4.785580e+00 1.617866e-01 -7.114655e+00 -7.267914e+00 -6.561212e-03 6.334229e+00 -7.005556e-01 -2.891285e+00 4.727661e-01 1.435702e+00 3.878962e+00 -3.371213e-01 6.046111e-01 -9.982534e-02 -3.464890e-01 -1.019699e+00 6.602847e-03 7.517784e-01 -1.388610e-02 -1.603189e-01 -7.344168e-02 1.221419e-01 2.536091e-01 -1.824746e-01 6.425581e-01
<VARIANCE> 25
 5.470840e+01 4.131860e+01 5.135714e+01 1.112177e+02 6.005568e+01 9.270571e+01 6.716393e+01 5.611272e+01 5.393459e+01 5.509846e+01 4.974952e+01 4.274374e+01 3.316184e+00 2.795692e+00 3.223541e+00 7.344472e+00 4.644938e+00 6.059495e+00 4.459876e+00 4.194130e+00 4.125710e+00 4.375035e+00 3.958556e+00 3.098693e+00 4.129706e+00
<GCONST> 1.133146e+02
<STATE> 3
<MEAN> 25
 5.895077e+00 -2.493313e-01 -7.481885e+00 -8.587088e+00 3.385980e-01 7.203380e+00 -7.487193e-01 -3.137564e+00 3.383051e-01 1.901621e+00 3.924853e+00 -8.781469e-01 1.810863e-01 -8.923967e-02 9.515470e-02 8.078459e-02 1.284804e-01 3.233367e-02 -1.332336e-02 -5.656302e-02 3.667250e-02 1.181016e-01 -1.545789e-01 -1.335180e-01 1.358117e-01
<VARIANCE> 25
 4.347254e+01 4.224169e+01 5.083150e+01 1.033474e+02 5.901024e+01 9.138131e+01 6.831387e+01 5.586427e+01 5.325051e+01 5.587453e+01 4.994141e+01 4.745197e+01 2.308492e+00 2.636581e+00 2.853364e+00 6.279302e+00 4.196477e+00 5.499558e+00 4.208109e+00 3.978268e+00 3.906685e+00 4.035053e+00 3.689132e+00 3.071189e+00 3.536871e+00
<GCONST> 1.117346e+02
<STATE> 4
<MEAN> 25
 5.446840e+00 -3.143065e-01 -6.913900e+00 -7.147674e+00 1.028590e+00 6.223781e+00 -1.724663e-01 -2.901526e+00 2.060732e-01 2.059994e+00 3.000726e+00 -7.728921e-01 -1.678059e-01 -1.569515e-02 3.689915e-01 7.455868e-01 8.983034e-02 -4.645058e-01 -3.403294e-02 4.637907e-02 6.004278e-02 1.490510e-02 -3.530329e-01 5.539449e-03 -2.586659e-01
<VARIANCE> 25
 4.277785e+01 4.436135e+01 5.007430e+01 9.914749e+01 5.647783e+01 8.540770e+01 6.445451e+01 5.544422e+01 5.085640e+01 4.865245e+01 4.542289e+01 4.892026e+01 1.630008e+00 2.132696e+00 2.479551e+00 4.425066e+00 3.406374e+00 4.426592e+00 3.437570e+00 3.498701e+00 3.213370e+00 3.270880e+00 3.003700e+00 2.709137e+00 2.248646e+00
<GCONST> 1.082889e+02
<TRANSP> 5
 0.000000e+00 1.000000e+00 0.000000e+00 0.000000e+00 0.000000e+00
 0.000000e+00 6.476124e-01 3.523876e-01 0.000000e+00 0.000000e+00
 0.000000e+00 0.000000e+00 6.326137e-01 3.673863e-01 0.000000e+00
 0.000000e+00 0.000000e+00 0.000000e+00 7.472029e-01 2.527971e-01
 0.000000e+00 0.000000e+00 0.000000e+00 0.000000e+00 0.000000e+00
<ENDHMM>
~h "p"
<BEGINHMM>
<NUMSTATES> 5
<STATE> 2
<MEAN> 25
 1.435295e+00 9.897599e-01 -4.265061e+00 4.899516e-01 1.717183e+00 1.255575e+00 6.296901e-01 -4.238782e-01 8.627587e-01 1.585675e+00 9.215160e-01 -6.517448e-01 8.899611e-02 -3.557261e-01 -5.489520e-01 -3.212159e-01 5.222841e-02 3.037747e-02 8.660320e-02 -6.984550e-02 2.394559e-01 1.379671e-01 1.153294e-01 -1.478462e-01 4.349146e-01
<VARIANCE> 25
 5.302444e+01 5.066955e+01 5.343249e+01 5.522928e+01 4.199334e+01 6.460471e+01 5.054950e+01 4.685032e+01 4.731975e+01 3.873182e+01 4.210470e+01 3.925227e+01 4.173665e+00 4.781559e+00 4.015965e+00 5.471456e+00 4.045129e+00 6.004547e+00 4.454339e+00 4.307584e+00 4.121307e+00 3.580370e+00 3.751530e+00 3.675049e+00 1.048982e+01
<GCONST> 1.123258e+02
<STATE> 3
<MEAN> 25
 1.952818e+00 -4.158822e-01 -5.341493e+00 -8.292322e-01 1.626417e+00 1.420568e+00 5.789383e-01 -6.424545e-01 1.474315e+00 1.737432e+00 1.038397e+00 -1.359167e+00 3.370842e-01 -7.292644e-01 -3.176918e-01 -6.268809e-01 -1.571382e-01 1.386568e-01 -1.332476e-01 -8.426149e-02 2.572786e-01 2.863720e-02 2.567816e-02 -3.837414e-01 1.171795e+00
<VARIANCE> 25
 4.973387e+01 5.111231e+01 5.221822e+01 5.694002e+01 4.175017e+01 6.908682e+01 5.212158e+01 4.622668e+01 4.632562e+01 3.873495e+01 4.159533e+01 4.184715e+01 4.861732e+00 5.252650e+00 4.414770e+00 5.970021e+00 4.353116e+00 7.386536e+00 4.809207e+00 4.511919e+00 4.482517e+00 3.770409e+00 4.019083e+00 4.349737e+00 1.095792e+01
<GCONST> 1.136360e+02
<STATE> 4
<MEAN> 25
 2.539346e+00 -2.028495e+00 -5.614209e+00 -1.981560e+00 1.414951e+00 1.768052e+00 2.139193e-01 -6.059763e-01 2.052916e+00 1.633603e+00 7.542878e-01 -2.210772e+00 3.122166e-01 -5.068136e-01 1.108066e-01 -3.443223e-01 -2.192864e-01 6.509345e-02 -1.897958e-01 -2.026854e-02 1.187870e-01 -7.048043e-02 -9.137799e-02 -2.426691e-01 9.223833e-01
<VARIANCE> 25
 4.682690e+01 5.069337e+01 4.970020e+01 5.559165e+01 4.340422e+01 7.095943e+01 5.313250e+01 4.657867e+01 4.679320e+01 3.762482e+01 4.188461e+01 4.488304e+01 4.070983e+00 4.324373e+00 3.911439e+00 5.173503e+00 4.233312e+00 6.717795e+00 4.420781e+00 4.285237e+00 4.226842e+00 3.509161e+00 3.729116e+00 3.983860e+00 8.603020e+00
<GCONST> 1.122144e+02
<TRANSP> 5
 0.000000e+00 1.000000e+00 0.000000e+00 0.000000e+00 0.000000e+00
 0.000000e+00 5.477461e-01 4.522539e-01 0.000000e+00 0.000000e+00
 0.000000e+00 0.000000e+00 5.491422e-01 4.508578e-01 0.000000e+00
 0.000000e+00 0.000000e+00 0.000000e+00 6.290349e-01 3.709652e-01
 0.000000e+00 0.000000e+00 0.000000e+00 0.000000e+00 0.000000e+00
<ENDHMM>
~h "q"
<BEGINHMM>
<NUMSTATES> 5
<STATE> 2
<MEAN> 25
 3.658612e+00 -7.773604e+00 -4.616137e+00 -4.346116e+00 1.949713e+00 2.318880e+00 1.703831e+00 1.533319e+00 2.102408e+00 -9.010578e-01 -3.960593e+00 -3.578828e+00 5.086014e-02 -1.110989e-01 -6.377602e-03 2.235392e-01 1.479039e-01 1.313373e-01 -4.020585e-03 -2.333030e-02 1.612785e-03 -1.732410e-01 -2.504654e-01 7.265118e-02 -9.197435e-02
<VARIANCE> 25
 2.150429e+01 5.737109e+01 5.549217e+01 5.740102e+01 5.767696e+01 8.106592e+01 4.719872e+01 5.582808e+01 4.221518e+01 4.775440e+01 5.061396e+01 4.523732e+01 8.395002e-01 1.822976e+00 1.763650e+00 1.932503e+00 2.153217e+00 2.518599e+00 2.088247e+00 2.374907e+00 2.090182e+00 2.106617e+00 1.905973e+00 1.856405e+00 1.294564e+00
<GCONST> 1.007506e+02
<STATE> 3
<MEAN> 25
 3.488950e+00 -7.304258e+00 -4.380445e+00 -3.274613e+00 2.264980e+00 2.242771e+00 1.567709e+00 1.411916e+00 1.839014e+00 -1.222778e+00 -4.201723e+00 -2.929714e+00 5.072705e-03 2.042858e-01 1.087463e-01 3.680172e-01 6.300954e-02 -5.590405e-02 -1.042766e-01 -3.281300e-02 -5.014733e-02 -6.758130e-02 -1.037440e-01 1.995951e-01 -2.386277e-01
<VARIANCE> 25
 2.340597e+01 5.865242e+01 5.289679e+01 6.111868e+01 5.566311e+01 7.691987e+01 4.589483e+01 5.503452e+01 4.435530e+01 4.487075e+01 5.008195e+01 4.170232e+01 7.166905e-01 1.649734e+00 1.589018e+00 1.851535e+00 2.038942e+00 2.374844e+00 2.000123e+00 2.354366e+00 2.043185e+00 2.052311e+00 1.827017e+00 1.821919e+00 1.187626e+00
<GCONST> 9.987080e+01
<STATE> 4
<MEAN> 25
 2.416518e-01 -3.476243e+00 -3.095060e+00 4.404851e-01 3.009517e+00 2.646627e+00 9.087017e-01 2.234557e+00 1.128171e+00 -1.129758e+00 -2.498241e+00 1.678723e-02 -5.427249e-02 2.427388e-01 1.066094e-01 2.286260e-01 -1.974139e-02 -8.945323e-02 -9.809069e-02 -1.436500e-02 -2.286375e-02 2.501132e-02 6.037282e-02 1.564981e-01 -2.793941e-01
<VARIANCE> 25
 3.477884e+01 5.366021e+01 3.631396e+01 6.074382e+01 4.063411e+01 5.529481e+01 3.468278e+01 4.242873e+01 3.793970e+01 3.537225e+01 4.623064e+01 3.779012e+01 5.537382e-01 1.140759e+00 1.146708e+00 1.503639e+00 1.635119e+00 1.831307e+00 1.726272e+00 1.988154e+00 1.857003e+00 1.752484e+00 1.744411e+00 1.509717e+00 8.111239e-01
<GCONST> 9.521078e+01
<TRANSP> 5
 0.000000e+00 1.000000e+00 0.000000e+00 0.000000e+00 0.000000e+00
 0.000000e+00 5.940440e-01 4.059561e-01 0.000000e+00 0.000000e+00
 0.000000e+00 0.000000e+00 5.853749e-01 4.146250e-01 0.000000e+00
 0.000000e+00 0.000000e+00 0.000000e+00 8.412048e-01 1.587952e-01
 0.000000e+00 0.000000e+00 0.000000e+00 0.000000e+00 0.000000e+00
<ENDHMM>
~h "r"
<BEGINHMM>
<NUMSTATES> 5
<STATE> 2
<MEAN> 25
 3.827722e+00 -3.904167e+00 -1.658786e+00 1.735030e-01 -1.989862e+00 -1.352742e+00 -1.911271e+00 1.067883e+00 3.179106e+00 2.411814e-01 2.754731e-01 -1.375810e+00 7.142798e-02 4.242937e-02 1.975022e-01 3.337235e-01 -1.742636e-01 -8.338085e-02 -5.951837e-02 4.546272e-02 -1.216343e-01 -3.524208e-02 1.597821e-01 1.454268e-01 -2.163997e-01
<VARIANCE> 25
 3.333136e+01 4.335688e+01 5.973640e+01 5.101394e+01 5.744625e+01 6.055018e+01 6.031140e+01 5.788640e+01 5.514259e+01 4.255407e+01 4.981858e+01 4.110484e+01 2.118867e+00 2.794145e+00 3.107268e+00 3.796029e+00 4.042386e+00 4.081862e+00 3.718032e+00 3.984316e+00 4.118716e+00 3.380612e+00 3.410433e+00 3.097614e+00 3.282379e+00
<GCONST> 1.088672e+02
<STATE> 3
<MEAN> 25
 3.878567e+00 -3.627890e+00 -1.242809e+00 6.624348e-01 -2.190803e+00 -1.427499e+00 -1.912871e+00 1.037841e+00 2.714323e+00 2.540130e-01 5.469351e-01 -1.111666e+00 -4.152308e-02 2.058124e-01 2.625239e-01 2.013428e-01 -7.204410e-02 -1.826955e-02 4.291062e-02 -5.761936e-02 -3.384188e-01 1.008680e-02 1.483449e-01 1.425263e-01 -2.727573e-01
<VARIANCE> 25
 3.391709e+01 4.505777e+01 6.532284e+01 5.087391e+01 5.963392e+01 6.009678e+01 5.946391e+01 5.784883e+01 5.468448e+01 4.234081e+01 4.972820e+01 4.018739e+01 1.990102e+00 2.708059e+00 3.156575e+00 3.535103e+00 4.078129e+00 3.986994e+00 3.605967e+00 3.900777e+00 4.031705e+00 3.336515e+00 3.388472e+00 2.989363e+00 3.051377e+00
<GCONST> 1.086216e+02
<STATE> 4
<MEAN> 25
 3.393672e+00 -2.997244e+00 -9.600533e-01 9.040130e-01 -1.886463e+00 -1.132259e+00 -1.570123e+00 9.779937e-01 1.876487e+00 3.764765e-01 5.580497e-01 -8.146118e-01 -1.637288e-01 2.993464e-01 2.745438e-01 7.543750e-02 2.905012e-02 2.333344e-02 1.137758e-01 -1.534549e-01 -4.095658e-01 1.121029e-02 1.057647e-01 1.246266e-01 -2.478042e-01
<VARIANCE> 25
 3.655814e+01 4.569799e+01 6.917311e+01 5.017127e+01 6.332616e+01 6.000716e+01 5.658286e+01 5.630709e+01 5.278648e+01 4.148760e+01 4.904805e+01 3.895595e+01 1.817928e+00 2.369174e+00 2.887084e+00 3.030079e+00 3.753350e+00 3.571331e+00 3.322204e+00 3.594630e+00 3.622614e+00 3.047115e+00 3.053973e+00 2.625734e+00 2.572129e+00
<GCONST> 1.072088e+02
<TRANSP> 5
 0.000000e+00 1.000000e+00 0.000000e+00 0.000000e+00 0.000000e+00
 0.000000e+00 4.586939e-01 5.413061e-01 0.000000e+00 0.000000e+00
 0.000000e+00 0.000000e+00 4.569464e-01 5.430536e-01 0.000000e+00
 0.000000e+00 0.000000e+00 0.000000e+00 5.794517e-01 4.205482e-01
 0.000000e+00 0.000000e+00 0.000000e+00 0.000000e+00 0.000000e+00
<ENDHMM>
~h "s"
<BEGINHMM>
<NUMSTATES> 5
<STATE> 2
<MEAN> 25
 -1.204002e+01 5.825597e+00 -7.468752e-01 1.736110e-01 7.237101e+00 -4.700732e+00 4.847951e+00 1.680329e+00 1.850241e+00 -8.885503e-01 9.850926e-01 2.171168e+00 -2.471009e+00 8.481463e-01 -3.221415e-01 -1.499564e-01 7.721863e-01 -5.063043e-01 7.293747e-01 1.529156e-01 2.136671e-01 -2.412543e-01 4.366003e-01 3.168915e-01 1.248136e-01
<VARIANCE> 25
 1.013013e+02 5.126960e+01 6.578706e+01 5.313747e+01 7.622177e+01 8.021149e+01 7.757323e+01 5.859034e+01 4.775644e+01 3.738672e+01 4.259822e+01 3.318663e+01 7.996817e+00 4.498238e+00 3.567403e+00 3.328542e+00 5.481561e+00 5.131995e+00 5.604267e+00 4.263851e+00 3.563441e+00 3.235020e+00 3.535690e+00 2.631879e+00 2.058931e+00
<GCONST> 1.125082e+02
<STATE> 3
<MEAN> 25
 -1.611583e+01 6.268642e+00 -1.455023e+00 -5.575011e-01 7.266912e+00 -5.387839e+00 5.369584e+00 1.719508e+00 2.131948e+00 -1.138023e+00 1.647490e+00 2.513479e+00 1.580296e-01 -2.560048e-01 -1.974651e-02 -1.665251e-01 -4.024597e-01 -9.653416e-02 -2.171042e-01 -9.983411e-02 2.061393e-02 1.408409e-02 -6.429209e-02 -7.500724e-02 2.072420e-02
<VARIANCE> 25
 7.933310e+01 4.712890e+01 6.057483e+01 5.434528e+01 7.067346e+01 7.724782e+01 7.224931e+01 5.627757e+01 4.319845e+01 3.362922e+01 3.582578e+01 3.165214e+01 1.136660e+01 3.731397e+00 3.475130e+00 2.973452e+00 4.535826e+00 4.178571e+00 4.816772e+00 4.007834e+00 3.375691e+00 2.851418e+00 3.275410e+00 2.510342e+00 2.127445e+00
<GCONST> 1.106142e+02
<STATE> 4
<MEAN> 25
 -1.169705e+01 4.110571e+00 -1.352112e+00 -2.070415e-01 4.885378e+00 -4.555387e+00 3.770918e+00 1.129424e+00 1.630010e+00 -7.596951e-01 9.136804e-01 2.017288e+00 1.960228e+00 -5.297691e-01 2.703442e-01 -1.217953e-01 -8.562421e-01 1.638572e-01 -7.222920e-01 -4.210211e-01 -1.526859e-01 1.233870e-01 -2.887222e-01 -3.651030e-01 1.988906e-01
<VARIANCE> 25
 9.353863e+01 4.723182e+01 6.331652e+01 5.283667e+01 6.343582e+01 6.689783e+01 6.427058e+01 5.339035e+01 4.348415e+01 3.142016e+01 3.679698e+01 3.111031e+01 8.326908e+00 3.338188e+00 3.858450e+00 3.181213e+00 4.568350e+00 4.355729e+00 4.891082e+00 4.357256e+00 3.595448e+00 2.732282e+00 3.120501e+00 2.565792e+00 2.523088e+00
<GCONST> 1.103853e+02
<TRANSP> 5
 0.000000e+00 1.000000e+00 0.000000e+00 0.000000e+00 0.000000e+00
 0.000000e+00 7.378372e-01 2.621628e-01 0.000000e+00 0.000000e+00
 0.000000e+00 0.000000e+00 7.138014e-01 2.861986e-01 0.000000e+00
 0.000000e+00 0.000000e+00 0.000000e+00 7.687190e-01 2.312810e-01
 0.000000e+00 0.000000e+00 0.000000e+00 0.000000e+00 0.000000e+00
<ENDHMM>
~h "t"
<BEGINHMM>
<NUMSTATES> 5
<STATE> 2
<MEAN> 25
 -5.831805e-01 2.207318e+00 -1.432045e+00 8.868700e-01 1.525193e+00 -2.019089e+00 1.685911e-01 -3.181649e-01 1.070835e+00 1.241561e+00 1.396562e-01 6.208266e-01 -3.505931e-01 -4.468312e-01 -2.407356e-01 -5.879090e-01 2.104477e-01 -3.955516e-01 9.119997e-02 8.560836e-02 1.900728e-01 -1.038264e-01 1.014455e-01 -1.712736e-02 7.874472e-01
<VARIANCE> 25
 5.112307e+01 5.035752e+01 6.458170e+01 5.542001e+01 5.744806e+01 7.037154e+01 6.060423e+01 5.127699e+01 5.472575e+01 4.160629e+01 4.259087e+01 3.634050e+01 4.413743e+00 4.997583e+00 5.216571e+00 6.043878e+00 5.349050e+00 6.509523e+00 5.795995e+00 5.140574e+00 5.145405e+00 4.005162e+00 4.231459e+00 3.638153e+00 1.029591e+01
<GCONST> 1.149852e+02
<STATE> 3
<MEAN> 25
 -8.456848e-01 6.691992e-01 -1.678769e+00 -8.477068e-01 1.519454e+00 -2.758888e+00 -4.428705e-02 -1.449530e-01 1.519964e+00 9.945202e-01 2.858417e-01 2.176174e-01 8.934761e-02 -6.950485e-01 -3.802479e-03 -7.663673e-01 -1.599382e-01 -1.720866e-01 -2.465240e-01 4.118216e-02 1.136923e-01 -1.162881e-01 4.381180e-02 -3.023396e-01 1.458063e+00
<VARIANCE> 25
 4.949166e+01 4.941077e+01 6.452903e+01 5.884375e+01 5.819471e+01 7.369149e+01 6.645067e+01 5.238504e+01 5.480346e+01 4.246512e+01 4.361648e+01 3.889621e+01 5.306126e+00 5.100587e+00 5.916435e+00 6.097999e+00 5.719729e+00 7.525163e+00 6.654281e+00 5.601622e+00 5.784502e+00 4.298271e+00 4.821343e+00 4.161982e+00 1.019184e+01
<GCONST> 1.164968e+02
<STATE> 4
<MEAN> 25
 -6.971137e-02 -3.972807e-01 -1.590000e+00 -1.739946e+00 9.276230e-01 -2.312036e+00 -7.395146e-01 -2.274703e-02 1.489875e+00 9.142995e-01 1.976023e-01 -4.988627e-01 4.004261e-01 -3.945727e-01 1.982597e-01 -4.217479e-01 -3.127523e-01 2.168740e-01 -3.214535e-01 -7.409397e-02 -1.561603e-01 -8.671179e-02 2.871760e-02 -3.012910e-01 1.011895e+00
<VARIANCE> 25
 4.487384e+01 4.824172e+01 6.621091e+01 5.794318e+01 5.959785e+01 7.176880e+01 6.768349e+01 5.369662e+01 5.542242e+01 4.136158e+01 4.603959e+01 4.016399e+01 4.337162e+00 4.018352e+00 5.078228e+00 4.858640e+00 5.049788e+00 6.493763e+00 5.865978e+00 5.096586e+00 5.082061e+00 3.821711e+00 4.295405e+00 3.689603e+00 7.185577e+00
<GCONST> 1.143517e+02
<TRANSP> 5
 0.000000e+00 1.000000e+00 0.000000e+00 0.000000e+00 0.000000e+00
 0.000000e+00 5.129958e-01 4.870042e-01 0.000000e+00 0.000000e+00
 0.000000e+00 0.000000e+00 4.990438e-01 5.009562e-01 0.000000e+00
 0.000000e+00 0.000000e+00 0.000000e+00 5.434499e-01 4.565501e-01
 0.000000e+00 0.000000e+00 0.000000e+00 0.000000e+00 0.000000e+00
<ENDHMM>
~h "u"
<BEGINHMM>
<NUMSTATES> 5
<STATE> 2
<MEAN> 25
 5.045722e+00 3.952087e+00 -1.376524e+00 -3.815362e+00 -1.011332e+00 3.323023e+00 -5.234217e+00 -5.529581e+00 -2.288072e+00 1.178231e-01 3.267786e+00 7.911482e-01 5.889261e-01 2.075914e-01 -1.203334e-01 -6.390972e-01 -2.499513e-01 6.065403e-01 -4.960198e-01 -5.577145e-01 -2.472114e-01 9.738004e-02 3.749654e-01 7.011954e-02 3.121636e-01
<VARIANCE> 25
 4.845797e+01 4.799158e+01 5.921307e+01 9.456583e+01 6.367882e+01 8.354224e+01 8.503901e+01 7.636161e+01 6.931500e+01 5.806369e+01 5.527928e+01 3.926332e+01 3.857601e+00 3.476271e+00 3.963135e+00 6.448559e+00 5.370058e+00 6.643528e+00 6.597904e+00 6.024601e+00 5.447622e+00 4.943578e+00 4.763496e+00 3.368042e+00 3.789875e+00
<GCONST> 1.161647e+02
<STATE> 3
<MEAN> 25
 5.829243e+00 4.146040e+00 -1.410952e+00 -4.770666e+00 -1.303690e+00 4.347923e+00 -5.859808e+00 -6.238545e+00 -2.476188e+00 4.858365e-01 3.713346e+00 8.107436e-01 7.051170e-02 -4.328560e-02 5.852837e-02 2.705593e-02 4.670820e-02 8.313406e-02 -4.549060e-02 -3.622618e-02 1.023061e-01 1.618434e-01 -2.750787e-02 -7.487111e-02 -1.907786e-02
<VARIANCE> 25
 4.044424e+01 4.728199e+01 5.692646e+01 9.544047e+01 6.268113e+01 8.508289e+01 8.584229e+01 7.528359e+01 7.115734e+01 5.979391e+01 5.595387e+01 4.089570e+01 3.054942e+00 3.508556e+00 3.630620e+00 6.166807e+00 5.114603e+00 6.383677e+00 6.265658e+00 5.643574e+00 5.350527e+00 4.827863e+00 4.716229e+00 3.464405e+00 3.604566e+00
<GCONST> 1.154094e+02
<STATE> 4
<MEAN> 25
 5.329882e+00 4.030052e+00 -1.254521e+00 -4.053658e+00 -8.895360e-01 3.876233e+00 -5.278179e+00 -5.683854e+00 -2.157018e+00 9.113855e-01 3.006495e+00 7.347059e-01 -4.009438e-01 -1.803095e-01 1.652940e-01 5.203477e-01 2.510445e-01 -4.151222e-01 3.677731e-01 4.085650e-01 2.627798e-01 5.858072e-02 -3.303848e-01 -9.811556e-02 -2.706912e-01
<VARIANCE> 25
 3.814736e+01 4.936271e+01 5.623494e+01 8.921822e+01 6.010435e+01 8.071955e+01 7.943188e+01 6.760873e+01 6.553684e+01 5.504192e+01 5.153022e+01 4.155482e+01 2.366192e+00 3.107654e+00 3.142142e+00 4.804143e+00 4.396924e+00 5.230835e+00 5.021801e+00 4.696962e+00 4.378574e+00 3.963981e+00 3.941949e+00 3.176532e+00 2.837125e+00
<GCONST> 1.123737e+02
<TRANSP> 5
 0.000000e+00 1.000000e+00 0.000000e+00 0.000000e+00 0.000000e+00
 0.000000e+00 6.115691e-01 3.884309e-01 0.000000e+00 0.000000e+00
 0.000000e+00 0.000000e+00 6.106462e-01 3.893538e-01 0.000000e+00
 0.000000e+00 0.000000e+00 0.000000e+00 7.003397e-01 2.996604e-01
 0.000000e+00 0.000000e+00 0.000000e+00 0.000000e+00 0.000000e+00
<ENDHMM>
~h "w"
<BEGINHMM>
<NUMSTATES> 5
<STATE> 2
<MEAN> 25
 6.469685e+00 -4.961310e-01 -5.513434e+00 -9.941078e+00 -1.289018e+00 6.101889e+00 -1.541309e+00 -1.913097e+00 -2.978097e-02 4.947334e-01 3.605683e+00 -1.336555e+00 1.849418e-01 5.383514e-03 -3.347254e-01 -7.841722e-01 -3.022697e-03 4.497778e-01 1.364974e-01 5.559289e-03 -4.995805e-02 6.392621e-02 2.044492e-01 -3.718300e-02 1.393146e-01
<VARIANCE> 25
 3.701774e+01 5.021651e+01 4.058695e+01 8.251472e+01 5.563426e+01 7.328358e+01 6.019754e+01 5.949684e+01 4.947401e+01 4.294236e+01 4.745562e+01 5.641149e+01 1.560658e+00 2.815615e+00 1.752233e+00 3.158412e+00 3.229656e+00 3.313128e+00 2.957906e+00 3.353391e+00 2.970285e+00 3.048224e+00 2.915533e+00 3.998813e+00 1.891487e+00
<GCONST> 1.067942e+02
<STATE> 3
<MEAN> 25
 6.253006e+00 -1.183342e+00 -6.152672e+00 -1.106489e+01 -6.415448e-01 6.918428e+00 -1.244646e+00 -1.815192e+00 3.465801e-01 7.490969e-01 3.653486e+00 -1.879906e+00 -1.928297e-01 -3.545892e-01 -1.851564e-01 -6.018898e-02 4.067682e-01 1.854631e-01 7.519179e-02 9.714236e-02 1.563480e-01 1.358670e-01 -1.248662e-01 -3.322483e-01 1.414850e-01
<VARIANCE> 25
 3.707004e+01 4.734351e+01 4.104231e+01 8.680745e+01 5.709986e+01 7.215921e+01 6.027693e+01 5.686338e+01 4.485635e+01 4.151814e+01 4.789779e+01 5.631617e+01 1.195394e+00 2.607372e+00 1.555717e+00 2.871994e+00 2.958376e+00 3.141916e+00 2.881489e+00 2.872629e+00 2.693872e+00 2.914309e+00 2.929483e+00 3.647603e+00 1.644701e+00
<GCONST> 1.053922e+02
<STATE> 4
<MEAN> 25
 2.499361e+00 -2.914586e+00 -5.419470e+00 -6.805793e+00 2.036791e+00 5.109490e+00 -9.495099e-01 9.929395e-02 1.358109e+00 8.006310e-01 1.614315e+00 -1.385586e+00 -2.009237e-01 -1.848606e-01 1.373201e-03 3.782218e-01 2.563730e-01 -1.055113e-01 3.090874e-02 1.136884e-01 1.074299e-01 9.026504e-02 -2.218764e-01 -1.068631e-01 -1.021537e-01
<VARIANCE> 25
 4.416440e+01 4.186638e+01 3.634409e+01 8.793859e+01 4.828783e+01 5.929359e+01 4.442760e+01 4.962199e+01 3.480385e+01 3.286018e+01 4.188308e+01 6.487334e+01 7.919535e-01 1.606114e+00 1.241904e+00 2.045230e+00 2.155166e+00 2.349262e+00 2.149915e+00 2.201312e+00 1.991999e+00 2.191898e+00 2.253818e+00 2.428164e+00 1.116941e+00
<GCONST> 9.977972e+01
<TRANSP> 5
 0.000000e+00 1.000000e+00 0.000000e+00 0.000000e+00 0.000000e+00
 0.000000e+00 6.382015e-01 3.617986e-01 0.000000e+00 0.000000e+00
 0.000000e+00 0.000000e+00 6.388823e-01 3.611178e-01 0.000000e+00
 0.000000e+00 0.000000e+00 0.000000e+00 8.380974e-01 1.619026e-01
 0.000000e+00 0.000000e+00 0.000000e+00 0.000000e+00 0.000000e+00
<ENDHMM>
~h "y"
<BEGINHMM>
<NUMSTATES> 5
<STATE> 2
<MEAN> 25
 4.109918e-01 -3.014018e+00 7.163601e+00 -2.545783e+00 -8.276008e+00 -3.001439e+00 -1.922567e-01 3.877800e+00 -2.005662e+00 -5.278244e-01 2.832200e+00 -1.560115e-02 7.859015e-02 -3.188244e-01 5.997109e-01 -3.081951e-01 -6.403880e-01 -1.006596e-01 6.112159e-02 3.832577e-01 -2.607328e-01 1.221347e-02 3.503918e-01 4.223398e-02 4.142267e-01
<VARIANCE> 25
 3.545197e+01 5.617068e+01 8.979430e+01 4.910376e+01 8.359641e+01 6.632916e+01 8.230128e+01 6.225572e+01 6.358282e+01 4.668208e+01 4.657386e+01 3.491015e+01 1.551848e+00 2.691781e+00 5.870418e+00 2.570886e+00 4.443631e+00 3.048244e+00 3.883646e+00 4.136046e+00 3.557274e+00 2.932553e+00 3.274111e+00 2.170753e+00 2.468315e+00
<GCONST> 1.092226e+02
<STATE> 3
<MEAN> 25
 1.074547e+00 -4.335961e+00 7.767899e+00 -3.098528e+00 -8.978860e+00 -3.213212e+00 -3.414095e-01 4.611132e+00 -1.996826e+00 -4.362179e-01 3.012311e+00 -9.807117e-02 1.058093e-01 -3.893033e-01 -3.522581e-01 -6.046352e-02 1.412301e-01 5.630892e-02 2.096373e-01 3.986542e-01 1.547120e-01 -1.181514e-01 -1.689043e-01 -5.760933e-02 1.961267e-01
<VARIANCE> 25
 2.424311e+01 4.434888e+01 8.590642e+01 4.338834e+01 8.036873e+01 6.329745e+01 7.396407e+01 6.199715e+01 5.703466e+01 4.715274e+01 4.659434e+01 3.329627e+01 9.191607e-01 2.162964e+00 4.545398e+00 2.028695e+00 4.052326e+00 2.639436e+00 3.359379e+00 3.809136e+00 3.102428e+00 2.788174e+00 3.045271e+00 1.890918e+00 1.584800e+00
<GCONST> 1.055561e+02
<STATE> 4
<MEAN> 25
 5.713322e-01 -5.289159e+00 3.393221e+00 -2.238441e+00 -5.442751e+00 -1.976691e+00 9.107835e-01 5.520157e+00 -5.738826e-01 -1.379550e+00 1.025774e+00 -1.567675e-01 1.252666e-01 -1.628565e-01 -7.030111e-01 1.399621e-01 6.050668e-01 2.322084e-01 9.571521e-02 9.830537e-02 2.772847e-01 -1.342288e-01 -4.397426e-01 -9.745735e-02 -1.502647e-01
<VARIANCE> 25
 2.658254e+01 3.772709e+01 7.571587e+01 3.585370e+01 8.527383e+01 6.027098e+01 6.559164e+01 5.454920e+01 4.621751e+01 4.020856e+01 4.546772e+01 3.114146e+01 5.842242e-01 1.398839e+00 2.461935e+00 1.514976e+00 2.865537e+00 2.088295e+00 2.465300e+00 2.899728e+00 2.250421e+00 2.265132e+00 2.378274e+00 1.614684e+00 8.431992e-01
<GCONST> 9.994850e+01
<TRANSP> 5
 0.000000e+00 1.000000e+00 0.000000e+00 0.000000e+00 0.000000e+00
 0.000000e+00 5.915904e-01 4.084096e-01 0.000000e+00 0.000000e+00
 0.000000e+00 0.000000e+00 5.898934e-01 4.101066e-01 0.000000e+00
 0.000000e+00 0.000000e+00 0.000000e+00 8.043150e-01 1.956850e-01
 0.000000e+00 0.000000e+00 0.000000e+00 0.000000e+00 0.000000e+00
<ENDHMM>
~h "z"
<BEGINHMM>
<NUMSTATES> 5
<STATE> 2
<MEAN> 25
 -2.614694e+00 2.932985e-01 -7.062198e-01 2.628875e-01 1.490057e+00 3.839532e-01 4.600839e-01 2.291687e-01 -5.685272e-01 9.471572e-01 1.141633e+00 1.759517e+00 5.714648e-03 -7.645606e-03 -1.378685e-02 2.973658e-03 -4.542950e-04 3.593270e-03 4.689548e-03 1.136027e-03 2.869317e-03 -1.058770e-02 -4.243511e-03 -4.071013e-03 -1.158237e-02
<VARIANCE> 25
 4.126738e+01 2.457423e+01 4.193118e+01 2.919385e+01 4.653403e+01 2.325959e+01 2.772707e+01 2.711707e+01 3.029134e+01 1.860963e+01 3.731487e+01 2.020284e+01 9.028386e-01 1.035682e+00 1.354433e+00 1.157925e+00 1.856733e+00 1.473641e+00 1.576411e+00 1.679790e+00 1.691645e+00 1.523346e+00 1.619336e+00 1.169080e+00 7.753815e-01
<GCONST> 9.024159e+01
<STATE> 3
<MEAN> 25
 4.526464e-01 7.682707e-01 1.296718e+00 1.010023e+00 1.821523e+00 -2.104491e-01 -1.343959e+00 9.904158e-01 8.929731e-02 9.984505e-02 -2.404027e+00 -5.034048e-01 5.045345e-01 1.325206e-01 2.120568e-01 -1.320435e-01 -4.627371e-01 -2.838773e-01 -1.966804e-01 -1.202585e-01 -1.906725e-01 -2.651600e-01 -1.329188e-01 -1.624421e-01 4.115480e-01
<VARIANCE> 25
 4.397801e+01 3.946757e+01 4.611435e+01 3.198426e+01 4.965663e+01 4.981580e+01 1.770094e+01 2.232128e+01 2.439690e+01 1.167784e+01 4.004777e+01 3.700825e+01 1.010926e+00 1.684430e+00 2.759940e+00 1.234199e+00 2.779519e+00 2.838342e+00 1.438831e+00 1.646386e+00 1.603444e+00 9.971691e-01 1.436765e+00 1.248990e+00 1.288020e+00
<GCONST> 9.344143e+01
<STATE> 4
<MEAN> 25
 1.740496e+00 -8.508101e-01 1.847273e+00 -7.373087e-01 -2.707469e+00 -2.963684e-01 -6.255528e-01 1.589437e-01 -2.822333e-02 -1.315168e+00 -1.945830e+00 -7.180795e-01 -1.383089e-02 9.108175e-04 -6.400246e-03 -1.678332e-03 2.197028e-03 2.071940e-02 4.939694e-04 5.305179e-03 -1.873509e-03 -1.286009e-02 1.603663e-02 4.493535e-03 -1.616235e-02
<VARIANCE> 25
 4.513272e+01 4.360408e+01 9.860544e+01 2.957360e+01 8.083011e+01 3.284297e+01 2.801179e+01 3.432088e+01 4.201675e+01 2.583649e+01 4.310320e+01 2.236907e+01 1.168506e+00 1.791553e+00 2.411694e+00 1.655082e+00 2.892380e+00 1.813714e+00 1.576366e+00 1.832976e+00 1.825184e+00 1.412225e+00 1.578566e+00 1.163215e+00 1.051790e+00
<GCONST> 9.656985e+01
<TRANSP> 5
 0.000000e+00 1.000000e+00 0.000000e+00 0.000000e+00 0.000000e+00
 0.000000e+00 9.945744e-01 5.425598e-03 0.000000e+00 0.000000e+00
 0.000000e+00 0.000000e+00 7.741433e-01 2.258566e-01 0.000000e+00
 0.000000e+00 0.000000e+00 0.000000e+00 9.925157e-01 7.484287e-03
 0.000000e+00 0.000000e+00 0.000000e+00 0.000000e+00 0.000000e+00
<ENDHMM>
~h "aw"
<BEGINHMM>
<NUMSTATES> 5
<STATE> 2
<MEAN> 25
 1.769796e+00 4.810309e+00 -3.550407e+00 -7.917078e-01 8.624185e-01 -1.870778e+00 2.639219e+00 -8.802013e-03 -3.482354e+00 2.335350e-02 -3.716301e-01 2.173652e+00 -6.282042e-01 2.030328e-01 -3.012637e-01 9.857960e-02 6.490642e-01 1.239113e-01 2.173788e-01 2.553010e-01 -2.868645e-01 9.965086e-02 -4.225943e-02 1.788166e-01 -6.315758e-01
<VARIANCE> 25
 5.933932e+01 6.741463e+01 4.326184e+01 6.798050e+01 4.914276e+01 6.863316e+01 3.438518e+01 3.396807e+01 4.541549e+01 4.064539e+01 3.480236e+01 2.442010e+01 2.153582e+00 1.675650e+00 1.820083e+00 1.966512e+00 3.832216e+00 2.913447e+00 2.243236e+00 3.273671e+00 2.817897e+00 2.242449e+00 2.126568e+00 2.123476e+00 1.043121e+00
<GCONST> 1.020384e+02
<STATE> 3
<MEAN> 25
 3.165697e-01 4.259849e+00 -3.797549e+00 -9.328430e-01 2.031858e+00 -6.086534e-01 3.438341e+00 1.042907e+00 -2.881639e+00 3.960989e-01 1.368284e-01 1.802864e+00 -4.522682e-01 -6.596628e-02 -7.565928e-02 -6.107914e-02 1.276958e-01 2.047255e-01 3.026398e-02 5.756784e-02 -5.419435e-02 7.236990e-02 9.703753e-02 -4.230450e-02 -3.685359e-01
<VARIANCE> 25
 6.727228e+01 4.923483e+01 4.895203e+01 7.297601e+01 5.575450e+01 6.183475e+01 3.617806e+01 3.384756e+01 4.933139e+01 3.692168e+01 2.921264e+01 1.999850e+01 2.300862e+00 1.410724e+00 1.386966e+00 1.783898e+00 3.277510e+00 2.526188e+00 1.762995e+00 2.866428e+00 2.224146e+00 2.064118e+00 1.642988e+00 1.556651e+00 1.202827e+00
<GCONST> 9.983160e+01
<STATE> 4
<MEAN> 25
 -2.628548e+00 3.469631e+00 -4.059043e+00 3.150161e+00 1.207414e+00 1.493145e+00 1.855003e-01 3.589623e+00 7.667400e-01 4.465792e-02 3.277859e+00 3.265941e+00 -2.356448e-02 -2.453831e-02 2.072649e-02 -6.259420e-03 -6.696253e-02 6.766542e-02 -1.170790e-01 -2.130475e-02 1.007161e-02 3.017319e-03 8.702700e-02 -6.051749e-02 -7.748757e-02
<VARIANCE> 25
 4.043379e+01 1.895677e+01 2.614790e+01 3.426127e+01 3.119693e+01 3.059819e+01 2.860229e+01 1.633721e+01 3.769521e+01 2.232514e+01 3.149739e+01 2.378597e+01 7.477148e-01 7.546681e-01 7.306173e-01 1.011427e+00 1.505779e+00 1.354428e+00 1.210817e+00 1.280614e+00 1.459018e+00 1.427645e+00 1.285676e+00 1.086293e+00 4.140489e-01
<GCONST> 8.621164e+01
<TRANSP> 5
 0.000000e+00 1.000000e+00 0.000000e+00 0.000000e+00 0.000000e+00
 0.000000e+00 6.165870e-01 3.834129e-01 0.000000e+00 0.000000e+00
 0.000000e+00 0.000000e+00 5.894135e-01 4.105866e-01 0.000000e+00
 0.000000e+00 0.000000e+00 0.000000e+00 9.244785e-01 7.552153e-02
 0.000000e+00 0.000000e+00 0.000000e+00 0.000000e+00 0.000000e+00
<ENDHMM>
~h "ay"
<BEGINHMM>
<NUMSTATES> 5
<STATE> 2
<MEAN> 25
 1.905450e+00 -2.730011e+00 9.430316e+00 -3.665693e+00 -9.876786e+00 -4.831778e+00 1.556078e+00 1.685674e+00 -2.254721e-01 2.693548e+00 6.818877e-01 -4.134865e-01 -1.493223e-01 5.977165e-01 1.272486e+00 1.478299e-01 -3.879908e-01 -1.793623e-01 -1.174846e-01 -5.956230e-01 -5.370448e-01 5.046774e-01 3.120247e-01 3.723328e-01 -3.744088e-01
<VARIANCE> 25
 1.631519e+01 4.762232e+01 1.304181e+02 5.717046e+01 4.157070e+01 4.811786e+01 6.624868e+01 9.691530e+01 4.099370e+01 5.855521e+01 5.768837e+01 2.316946e+01 1.249242e+00 2.392992e+00 8.189591e+00 3.918288e+00 4.029590e+00 3.118886e+00 4.606988e+00 7.019771e+00 3.945564e+00 4.138099e+00 4.555604e+00 2.068733e+00 2.355894e+00
<GCONST> 1.093327e+02
<STATE> 3
<MEAN> 25
 1.108549e+00 -7.485605e-01 9.875035e+00 -1.243578e+00 -9.217118e+00 -6.200499e+00 1.972057e+00 5.012627e-01 -1.364067e+00 2.866653e+00 1.711772e+00 5.597250e-01 -2.849924e-01 6.062047e-01 -9.188902e-02 5.237302e-01 4.940431e-01 1.317297e-01 1.684543e-01 -3.745216e-01 -3.618605e-02 2.956423e-01 -8.858689e-02 1.985164e-01 -9.543530e-01
<VARIANCE> 25
 1.645725e+01 3.790702e+01 6.668004e+01 4.271980e+01 4.346254e+01 4.907779e+01 6.227811e+01 7.122243e+01 4.045341e+01 4.827008e+01 3.956198e+01 2.723949e+01 1.048333e+00 1.971154e+00 6.899534e+00 3.304084e+00 3.801806e+00 2.986309e+00 3.941397e+00 6.149291e+00 3.954007e+00 3.729905e+00 3.799201e+00 2.287706e+00 2.115683e+00
<GCONST> 1.060323e+02
<STATE> 4
<MEAN> 25
 -2.513867e+00 1.296278e+00 7.985961e+00 5.350264e-01 -5.037868e+00 -2.288785e+00 3.072930e+00 1.000017e-01 -1.636876e+00 2.157203e+00 3.346567e+00 1.061898e+00 -2.594656e-01 5.051567e-02 -5.067655e-01 2.551910e-01 4.283263e-01 1.831745e-01 -6.571923e-04 1.332327e-01 2.590136e-02 -1.427991e-01 -4.937267e-02 2.298897e-02 -4.539824e-01
<VARIANCE> 25
 2.179234e+01 2.051666e+01 7.339199e+01 4.346549e+01 4.083343e+01 5.185781e+01 6.879099e+01 6.262199e+01 4.201423e+01 3.811273e+01 3.286310e+01 2.467055e+01 9.369426e-01 1.139307e+00 4.029286e+00 2.200487e+00 2.313030e+00 2.223165e+00 2.457029e+00 3.842850e+00 2.695391e+00 2.430284e+00 2.024929e+00 2.125226e+00 1.462935e+00
<GCONST> 1.000699e+02
<TRANSP> 5
 0.000000e+00 1.000000e+00 0.000000e+00 0.000000e+00 0.000000e+00
 0.000000e+00 7.977212e-01 2.022788e-01 0.000000e+00 0.000000e+00
 0.000000e+00 0.000000e+00 7.103915e-01 2.896085e-01 0.000000e+00
 0.000000e+00 0.000000e+00 0.000000e+00 8.726932e-01 1.273067e-01
 0.000000e+00 0.000000e+00 0.000000e+00 0.000000e+00 0.000000e+00
<ENDHMM>
~h "kh"
<BEGINHMM>
<NUMSTATES> 5
<STATE> 2
<MEAN> 25
 1.929528e-01 -1.543637e+00 -5.150598e+00 2.610169e+00 1.556795e+00 5.474591e+00 1.593153e+00 -1.502956e+00 2.873332e+00 -9.349775e-02 1.830482e+00 1.213738e+00 -5.677528e-02 1.831567e-01 -1.325213e-02 -4.117135e-01 -4.561110e-01 2.353549e-01 2.385110e-01 -4.018846e-01 1.032016e-01 -7.177529e-02 1.916777e-01 3.673083e-01 4.813127e-01
<VARIANCE> 25
 7.283524e+01 3.717317e+01 5.816814e+01 7.591193e+01 4.929405e+01 4.907969e+01 5.119101e+01 4.829179e+01 4.094422e+01 4.024533e+01 1.566889e+01 1.146953e+02 5.676355e+00 1.767038e+00 6.659780e+00 4.198086e+00 5.212771e+00 5.586967e+00 3.897608e+00 6.957867e+00 4.318232e+00 2.573312e+00 2.405660e+00 6.046113e+00 5.438841e+00
<GCONST> 1.118358e+02
<STATE> 3
<MEAN> 25
 -1.080725e+00 1.967968e+00 -2.805286e+00 5.106750e-01 5.443577e-01 4.209509e+00 -4.020696e-02 -4.710392e+00 2.448225e+00 6.942225e-01 2.151877e+00 3.462512e+00 1.511601e-01 1.285328e-01 4.660447e-02 -2.948391e-01 -4.088832e-01 -3.573930e-01 -4.330558e-01 -4.052892e-01 -1.996318e-01 2.002085e-01 -8.592950e-02 -9.516766e-02 6.478730e-01
<VARIANCE> 25
 9.989600e+01 6.418324e+01 7.747383e+01 5.197075e+01 5.211951e+01 5.974438e+01 7.522784e+01 7.505290e+01 5.844474e+01 4.068952e+01 1.852724e+01 9.675089e+01 8.206734e+00 4.047067e+00 5.078241e+00 3.810987e+00 4.891099e+00 5.572823e+00 4.874839e+00 7.733014e+00 6.252325e+00 3.036778e+00 2.664842e+00 4.612967e+00 4.658976e+00
<GCONST> 1.153535e+02
<STATE> 4
<MEAN> 25
 -4.362054e+00 4.178113e-01 -3.482705e+00 -2.540481e+00 5.938675e-01 1.391853e+00 -4.867449e+00 -3.395717e+00 3.468662e+00 -1.888320e-01 2.388926e+00 1.328958e+00 -1.940924e-01 -7.477323e-02 9.175675e-02 -1.780982e-01 -1.906232e-01 -1.272562e-01 -1.821733e-01 1.349424e-01 -1.600145e-01 -1.625938e-01 8.865815e-02 -5.732974e-02 8.750597e-02
<VARIANCE> 25
 1.165273e+02 3.109605e+01 7.577411e+01 4.178241e+01 6.340875e+01 3.755274e+01 8.813055e+01 6.934432e+01 7.370412e+01 4.329676e+01 2.553384e+01 9.186745e+01 6.941055e+00 2.333615e+00 4.461503e+00 2.919479e+00 4.890482e+00 4.729015e+00 4.585607e+00 5.985824e+00 6.534671e+00 3.689725e+00 2.699691e+00 3.549997e+00 3.978403e+00
<GCONST> 1.131528e+02
<TRANSP> 5
 0.000000e+00 1.000000e+00 0.000000e+00 0.000000e+00 0.000000e+00
 0.000000e+00 7.890517e-01 2.109484e-01 0.000000e+00 0.000000e+00
 0.000000e+00 0.000000e+00 7.692293e-01 2.307707e-01 0.000000e+00
 0.000000e+00 0.000000e+00 0.000000e+00 9.411271e-01 5.887289e-02
 0.000000e+00 0.000000e+00 0.000000e+00 0.000000e+00 0.000000e+00
<ENDHMM>
~h "ng"
<BEGINHMM>
<NUMSTATES> 5
<STATE> 2
<MEAN> 25
 5.359991e+00 -1.243906e-01 9.751176e-01 -1.172201e+00 -1.785742e+00 4.221925e+00 -2.045454e-01 -2.630726e+00 -3.874991e-01 8.222836e-01 -1.281441e+00 -1.365147e+00 1.164709e-01 2.811688e-01 4.046057e-02 2.413786e-01 3.139307e-03 1.414996e-01 1.244607e-01 -2.767312e-01 -5.216236e-02 8.385159e-02 -1.669515e-01 6.342426e-02 -3.360539e-01
<VARIANCE> 25
 2.583481e+01 5.065030e+01 5.880973e+01 4.893762e+01 6.419585e+01 7.189442e+01 6.126220e+01 6.286440e+01 6.018984e+01 4.717470e+01 5.066796e+01 4.293437e+01 1.059307e+00 2.391022e+00 2.997808e+00 2.921137e+00 3.622854e+00 3.514178e+00 3.769576e+00 4.169419e+00 3.411822e+00 3.087906e+00 3.121527e+00 2.611500e+00 1.785664e+00
<GCONST> 1.068488e+02
<STATE> 3
<MEAN> 25
 5.387772e+00 3.361726e-01 1.077382e+00 -7.077468e-01 -1.676155e+00 4.242148e+00 -1.512907e-02 -2.842350e+00 -4.803948e-01 8.408973e-01 -1.580827e+00 -1.236958e+00 -7.374199e-02 2.094735e-01 -2.140061e-03 2.240136e-01 1.578568e-01 -6.973594e-02 8.509675e-02 -8.439664e-03 -2.870105e-02 -2.159952e-03 -9.303983e-02 4.342728e-02 -2.800879e-01
<VARIANCE> 25
 2.611462e+01 5.136287e+01 5.641748e+01 4.824577e+01 6.400576e+01 7.134161e+01 6.108910e+01 6.401256e+01 6.121708e+01 4.804375e+01 5.126070e+01 4.295347e+01 1.047085e+00 2.434986e+00 2.683236e+00 2.750234e+00 3.595549e+00 3.407127e+00 3.644576e+00 4.227686e+00 3.409076e+00 3.071323e+00 3.059782e+00 2.534169e+00 1.677121e+00
<GCONST> 1.065278e+02
<STATE> 4
<MEAN> 25
 4.739455e+00 8.675202e-01 9.217477e-01 -1.597272e-01 -8.679471e-01 4.007327e+00 1.719538e-01 -2.675275e+00 -4.865127e-01 5.504377e-01 -1.869959e+00 -1.134947e+00 -2.867246e-01 1.335929e-01 -7.598004e-02 1.949903e-01 3.235933e-01 -2.592198e-01 3.920875e-02 2.235224e-01 7.141764e-03 -5.735425e-02 2.973606e-02 6.973840e-02 -2.239176e-01
<VARIANCE> 25
 2.949841e+01 5.490413e+01 5.390081e+01 4.818776e+01 6.480961e+01 6.975314e+01 5.903272e+01 6.315668e+01 6.047934e+01 4.751764e+01 5.124501e+01 4.242951e+01 1.197301e+00 2.431074e+00 2.460665e+00 2.603624e+00 3.553205e+00 3.333084e+00 3.452189e+00 4.156169e+00 3.342227e+00 3.000226e+00 2.977024e+00 2.441019e+00 1.650191e+00
<GCONST> 1.063377e+02
<TRANSP> 5
 0.000000e+00 1.000000e+00 0.000000e+00 0.000000e+00 0.000000e+00
 0.000000e+00 4.963352e-01 5.036648e-01 0.000000e+00 0.000000e+00
 0.000000e+00 0.000000e+00 4.991308e-01 5.008692e-01 0.000000e+00
 0.000000e+00 0.000000e+00 0.000000e+00 6.299687e-01 3.700314e-01
 0.000000e+00 0.000000e+00 0.000000e+00 0.000000e+00 0.000000e+00
<ENDHMM>
~h "ny"
<BEGINHMM>
<NUMSTATES> 5
<STATE> 2
<MEAN> 25
 2.417593e+00 -3.569969e+00 7.058220e+00 -1.683979e+00 -6.841762e+00 2.323087e-01 3.952394e-01 4.293816e+00 -3.032866e+00 -3.373012e+00 7.557544e-01 -7.908772e-02 1.649380e-02 -6.031763e-01 -2.647294e-01 2.938503e-01 7.809595e-02 2.050996e-02 1.070440e-01 5.432821e-01 -6.618413e-02 -5.369620e-01 -2.746324e-01 9.738916e-02 1.399198e-01
<VARIANCE> 25
 1.843462e+01 5.076754e+01 5.669092e+01 4.726500e+01 6.281252e+01 4.954094e+01 5.230253e+01 5.952497e+01 4.920480e+01 5.163303e+01 4.681688e+01 4.408226e+01 8.097039e-01 3.168731e+00 2.881708e+00 2.794826e+00 3.651549e+00 2.640023e+00 2.907568e+00 3.462503e+00 2.855532e+00 2.868313e+00 2.876029e+00 2.117166e+00 1.532464e+00
<GCONST> 1.041806e+02
<STATE> 3
<MEAN> 25
 2.435221e+00 -5.010355e+00 5.302516e+00 -5.551108e-01 -5.285620e+00 4.527284e-01 2.837310e-01 5.373688e+00 -2.530283e+00 -4.813620e+00 -5.786945e-01 2.914365e-01 4.516172e-02 -3.412810e-01 -5.628588e-01 3.325646e-01 4.955235e-01 2.578355e-04 -6.241160e-02 2.317597e-01 1.584952e-01 -3.252068e-01 -4.125757e-01 7.029427e-02 -1.469965e-01
<VARIANCE> 25
 1.913126e+01 5.097910e+01 5.247873e+01 4.627868e+01 6.170185e+01 4.632113e+01 5.374590e+01 5.831738e+01 5.129720e+01 5.515723e+01 4.641333e+01 4.475702e+01 6.863111e-01 2.410397e+00 2.363255e+00 2.448692e+00 3.160125e+00 2.279558e+00 2.625811e+00 2.994912e+00 2.543471e+00 2.659610e+00 2.496046e+00 1.913467e+00 1.346431e+00
<GCONST> 1.022882e+02
<STATE> 4
<MEAN> 25
 -6.520315e-01 -3.266134e+00 2.853551e-02 2.324646e+00 7.432728e-01 1.039648e+00 6.454877e-01 4.655217e+00 -3.997239e-01 -3.898983e+00 -1.668626e+00 1.812686e+00 -6.940194e-02 1.026328e-01 -2.462807e-01 1.465227e-01 2.722054e-01 1.629657e-02 2.039381e-02 -6.920335e-02 1.105389e-01 6.740503e-02 -5.696113e-02 2.198520e-02 -3.848915e-01
<VARIANCE> 25
 3.374696e+01 4.271722e+01 3.840097e+01 4.122107e+01 5.638787e+01 4.228735e+01 4.593800e+01 4.531897e+01 4.376141e+01 4.864648e+01 4.585619e+01 3.701736e+01 5.049308e-01 1.214742e+00 1.292422e+00 1.551288e+00 1.936274e+00 1.814890e+00 2.017794e+00 2.108715e+00 2.039749e+00 2.014657e+00 1.814349e+00 1.632921e+00 8.019193e-01
<GCONST> 9.629575e+01
<TRANSP> 5
 0.000000e+00 1.000000e+00 0.000000e+00 0.000000e+00 0.000000e+00
 0.000000e+00 6.704692e-01 3.295308e-01 0.000000e+00 0.000000e+00
 0.000000e+00 0.000000e+00 6.722943e-01 3.277058e-01 0.000000e+00
 0.000000e+00 0.000000e+00 0.000000e+00 9.194742e-01 8.052588e-02
 0.000000e+00 0.000000e+00 0.000000e+00 0.000000e+00 0.000000e+00
<ENDHMM>
~h "oy"
<BEGINHMM>
<NUMSTATES> 5
<STATE> 2
<MEAN> 25
 -1.266016e-08 6.085643e-09 4.721265e-09 -8.308485e-09 -1.463621e-08 1.307279e-08 -2.750496e-09 -6.683219e-09 -1.380889e-08 -3.351599e-09 1.415116e-08 1.473669e-08 2.548279e-03 -7.284069e-04 1.966011e-03 3.249686e-04 1.698112e-03 -2.328777e-04 5.264792e-04 -2.476147e-04 -7.184849e-04 7.200883e-04 -1.639929e-03 -3.923504e-04 6.718315e-03
<VARIANCE> 25
 6.369320e+01 5.437875e+01 8.050616e+01 5.826715e+01 7.171889e+01 6.936944e+01 6.105562e+01 6.027967e+01 5.528890e+01 4.166891e+01 4.685504e+01 3.910781e+01 2.633578e+00 2.804667e+00 3.170903e+00 3.349051e+00 3.834462e+00 3.765719e+00 3.684584e+00 3.809613e+00 3.444291e+00 2.975416e+00 3.042777e+00 2.563504e+00 3.096067e+00
<GCONST> 1.097144e+02
<STATE> 3
<MEAN> 25
 -1.266016e-08 6.085643e-09 4.721265e-09 -8.308485e-09 -1.463621e-08 1.307279e-08 -2.750496e-09 -6.683219e-09 -1.380889e-08 -3.351599e-09 1.415116e-08 1.473669e-08 2.548279e-03 -7.284069e-04 1.966011e-03 3.249686e-04 1.698112e-03 -2.328777e-04 5.264792e-04 -2.476147e-04 -7.184849e-04 7.200883e-04 -1.639929e-03 -3.923504e-04 6.718315e-03
<VARIANCE> 25
 6.369320e+01 5.437875e+01 8.050616e+01 5.826715e+01 7.171889e+01 6.936944e+01 6.105562e+01 6.027967e+01 5.528890e+01 4.166891e+01 4.685504e+01 3.910781e+01 2.633578e+00 2.804667e+00 3.170903e+00 3.349051e+00 3.834462e+00 3.765719e+00 3.684584e+00 3.809613e+00 3.444291e+00 2.975416e+00 3.042777e+00 2.563504e+00 3.096067e+00
<GCONST> 1.097144e+02
<STATE> 4
<MEAN> 25
 -1.266016e-08 6.085643e-09 4.721265e-09 -8.308485e-09 -1.463621e-08 1.307279e-08 -2.750496e-09 -6.683219e-09 -1.380889e-08 -3.351599e-09 1.415116e-08 1.473669e-08 2.548279e-03 -7.284069e-04 1.966011e-03 3.249686e-04 1.698112e-03 -2.328777e-04 5.264792e-04 -2.476147e-04 -7.184849e-04 7.200883e-04 -1.639929e-03 -3.923504e-04 6.718315e-03
<VARIANCE> 25
 6.369320e+01 5.437875e+01 8.050616e+01 5.826715e+01 7.171889e+01 6.936944e+01 6.105562e+01 6.027967e+01 5.528890e+01 4.166891e+01 4.685504e+01 3.910781e+01 2.633578e+00 2.804667e+00 3.170903e+00 3.349051e+00 3.834462e+00 3.765719e+00 3.684584e+00 3.809613e+00 3.444291e+00 2.975416e+00 3.042777e+00 2.563504e+00 3.096067e+00
<GCONST> 1.097144e+02
<TRANSP> 5
 0.000000e+00 1.000000e+00 0.000000e+00 0.000000e+00 0.000000e+00
 0.000000e+00 6.000000e-01 4.000000e-01 0.000000e+00 0.000000e+00
 0.000000e+00 0.000000e+00 6.000000e-01 4.000000e-01 0.000000e+00
 0.000000e+00 0.000000e+00 0.000000e+00 7.000000e-01 3.000000e-01
 0.000000e+00 0.000000e+00 0.000000e+00 0.000000e+00 0.000000e+00
<ENDHMM>
~h "sy"
<BEGINHMM>
<NUMSTATES> 5
<STATE> 2
<MEAN> 25
 5.140053e-01 -3.287623e+00 -4.488955e+00 1.122629e+00 4.092631e+00 -2.906736e+00 1.831464e+00 8.567423e+00 2.984160e+00 -4.984833e+00 -5.506709e+00 8.760757e-01 -1.731633e-01 3.261593e-02 2.255377e-01 5.384244e-02 -1.365308e-01 -6.631711e-02 3.926441e-02 -3.889312e-02 1.661480e-02 6.658120e-02 9.577505e-02 1.142413e-01 -5.776347e-02
<VARIANCE> 25
 2.570001e+01 7.824536e+01 1.881656e+01 6.914074e+01 3.011755e+01 2.318086e+01 3.346590e+01 6.511116e+01 3.369588e+01 3.768245e+01 4.110814e+01 1.601888e+01 2.205696e+00 5.528005e+00 1.694022e+00 6.788043e+00 2.812514e+00 3.139781e+00 2.600147e+00 5.295448e+00 2.568638e+00 3.103488e+00 2.847801e+00 1.901581e+00 4.263665e+00
<GCONST> 1.035548e+02
<STATE> 3
<MEAN> 25
 -1.895830e+00 -1.746748e+00 -1.270058e+00 3.856564e+00 9.458769e-01 -4.356651e+00 1.220966e+00 6.413588e+00 1.290779e+00 -2.757912e+00 2.677171e-02 1.291488e+00 9.081414e-02 -1.159131e-01 4.868582e-01 -4.315039e-01 -8.575964e-01 -2.368996e-02 3.055075e-02 -1.132456e-02 -2.811147e-01 6.138543e-02 2.916780e-01 -1.334731e-01 4.062738e-01
<VARIANCE> 25
 4.498532e+01 9.895785e+01 2.459238e+01 5.404281e+01 6.908009e+01 2.550616e+01 3.366500e+01 6.700077e+01 3.591256e+01 4.121177e+01 4.975148e+01 1.822663e+01 4.753196e+00 5.375986e+00 2.655140e+00 6.219594e+00 5.140766e+00 2.915091e+00 3.659724e+00 4.279965e+00 3.063345e+00 2.193698e+00 2.549208e+00 2.128303e+00 3.356856e+00
<GCONST> 1.071559e+02
<STATE> 4
<MEAN> 25
 -4.314853e+00 -2.629745e+00 3.091211e+00 -3.733148e+00 -3.134528e+00 -4.560236e+00 3.551022e+00 5.921244e+00 8.730857e-01 1.517206e+00 2.994996e+00 -3.580099e-01 4.734238e-01 -3.050134e-01 -9.522716e-02 -4.137189e-01 -3.994429e-01 2.428074e-01 -1.513352e-01 -2.626140e-01 6.053868e-02 -1.128301e-01 -1.182676e-01 -2.663707e-02 3.216103e-01
<VARIANCE> 25
 1.635948e+02 9.853431e+01 3.890041e+01 5.858092e+01 1.101240e+02 2.939673e+01 4.018181e+01 5.403249e+01 2.780739e+01 2.271688e+01 2.664565e+01 1.670073e+01 1.013731e+01 4.454261e+00 3.947943e+00 5.750737e+00 7.321072e+00 2.605970e+00 2.085408e+00 4.965133e+00 2.811352e+00 2.270810e+00 3.164257e+00 1.890293e+00 2.316160e+00
<GCONST> 1.083790e+02
<TRANSP> 5
 0.000000e+00 1.000000e+00 0.000000e+00 0.000000e+00 0.000000e+00
 0.000000e+00 9.619685e-01 3.803154e-02 0.000000e+00 0.000000e+00
 0.000000e+00 0.000000e+00 8.347985e-01 1.652016e-01 0.000000e+00
 0.000000e+00 0.000000e+00 0.000000e+00 9.412109e-01 5.878915e-02
 0.000000e+00 0.000000e+00 0.000000e+00 0.000000e+00 0.000000e+00
<ENDHMM>
~h "sil"
<BEGINHMM>
<NUMSTATES> 5
<STATE> 2
<MEAN> 25
 -6.060102e+00 9.084227e-01 -3.551154e+00 2.570487e+00 2.916204e+00 1.393780e+00 3.356587e+00 1.641769e+00 -6.645681e-01 -4.272973e-01 -2.672634e-01 2.515121e+00 -6.399003e-02 6.032825e-03 -2.893966e-02 6.174687e-03 1.909279e-02 1.023454e-02 1.951178e-03 5.290128e-03 -1.267400e-02 2.085811e-04 2.626041e-02 1.185604e-02 -9.872382e-02
<VARIANCE> 25
 3.085910e+01 2.334165e+01 2.374517e+01 2.747710e+01 2.756923e+01 3.785971e+01 2.990980e+01 2.631326e+01 3.333994e+01 2.309473e+01 2.695962e+01 1.700948e+01 2.584251e-01 4.156547e-01 6.219993e-01 8.224865e-01 1.042785e+00 1.265460e+00 1.394721e+00 1.496515e+00 1.502311e+00 1.473093e+00 1.375613e+00 1.242886e+00 1.917626e-01
<GCONST> 8.319173e+01
<STATE> 3
<MEAN> 25
 -7.942241e+00 2.522390e+00 -3.100551e+00 4.432613e+00 3.920869e+00 3.180425e+00 3.062437e+00 1.713596e+00 2.906638e-01 -1.119679e+00 5.331104e-01 2.882649e+00 -6.933600e-02 2.885147e-02 4.331362e-02 -7.782982e-02 2.965862e-02 -6.966235e-02 -8.113054e-03 -3.858093e-02 1.413831e-02 2.739525e-02 2.237681e-02 7.455271e-03 1.529895e-01
<VARIANCE> 25
 4.590994e+01 3.929480e+01 4.068791e+01 3.648214e+01 4.466569e+01 5.191670e+01 3.853571e+01 3.079655e+01 4.064695e+01 2.939568e+01 3.622310e+01 2.266745e+01 1.295588e+00 1.164386e+00 1.681083e+00 1.603373e+00 1.931023e+00 2.180458e+00 2.110578e+00 2.166988e+00 2.141387e+00 2.132241e+00 1.966257e+00 1.620332e+00 2.208956e+00
<GCONST> 9.720219e+01
<STATE> 4
<MEAN> 25
 -2.327971e+00 -4.109941e-02 -1.036695e+00 6.000121e-01 1.465450e+00 7.566884e-01 1.017852e+00 7.816813e-01 2.830945e-01 -6.133525e-02 1.416039e-02 1.320772e+00 -2.870522e-03 3.384168e-04 5.242886e-03 -6.509754e-03 1.605045e-04 -4.708748e-03 -3.023427e-03 -4.080656e-03 -8.005056e-03 6.805844e-03 6.352103e-05 -2.596643e-03 3.003875e-02
<VARIANCE> 25
 4.356407e+01 3.348256e+01 4.674096e+01 4.751065e+01 5.049345e+01 5.131789e+01 4.313784e+01 4.441576e+01 3.841519e+01 2.938972e+01 3.250343e+01 3.358842e+01 1.259518e+00 1.211249e+00 1.643545e+00 2.047433e+00 2.124013e+00 2.310612e+00 2.254432e+00 2.397006e+00 2.279560e+00 2.026022e+00 1.989143e+00 1.806084e+00 1.575723e+00
<GCONST> 9.855766e+01
<TRANSP> 5
 0.000000e+00 1.000000e+00 0.000000e+00 0.000000e+00 0.000000e+00
 0.000000e+00 9.651465e-01 3.485342e-02 0.000000e+00 0.000000e+00
 0.000000e+00 0.000000e+00 7.043163e-01 2.956837e-01 0.000000e+00
 0.000000e+00 0.000000e+00 0.000000e+00 9.711431e-01 2.885688e-02
 0.000000e+00 0.000000e+00 0.000000e+00 0.000000e+00 0.000000e+00
<ENDHMM>
