~o
<STREAMINFO> 1 25
<VECSIZE> 25<NULLD><MFCC_D_N_Z_0><DIAGC>
~s "silst"
<MEAN> 25
 -8.915757e+00 5.600346e+00 -2.629096e+00 6.665714e+00 3.539523e+00 6.385835e+00 3.173338e+00 2.182537e+00 2.464950e+00 -1.090669e+00 2.553504e+00 3.331250e+00 9.885179e-02 -9.399993e-02 9.764636e-02 -1.098649e-01 2.459408e-02 -1.249286e-01 -3.141654e-02 -6.663075e-02 1.187966e-03 2.054194e-03 -2.708411e-02 -7.311790e-02 7.185106e-01
<VARIANCE> 25
 8.739407e+01 4.321004e+01 4.580875e+01 3.487561e+01 6.043968e+01 4.930386e+01 3.662043e+01 3.016350e+01 3.508028e+01 2.693713e+01 4.344724e+01 2.251425e+01 3.324582e+00 2.407863e+00 2.498380e+00 2.245087e+00 2.739578e+00 3.018835e+00 2.486151e+00 2.630484e+00 2.433539e+00 2.210000e+00 2.274273e+00 1.807755e+00 6.661110e+00
<GCONST> 1.030908e+02
~h "@"
<BEGINHMM>
<NUMSTATES> 5
<STATE> 2
<MEAN> 25
 4.216462e+00 -1.518464e+00 -1.273056e+00 -2.517296e+00 -1.036206e+00 -8.629141e-01 -4.203685e+00 -1.785040e+00 2.093636e+00 1.852204e+00 6.538868e-01 -2.274366e+00 1.574753e+00 -6.814467e-01 2.705560e-01 -4.578452e-01 -7.987133e-01 4.021891e-01 -1.043813e+00 8.608704e-02 5.261555e-01 2.739628e-01 -9.721833e-02 -6.287737e-01 1.128333e+00
<VARIANCE> 25
 3.671012e+01 4.483918e+01 5.175762e+01 5.372509e+01 5.277302e+01 8.020692e+01 6.412784e+01 5.732222e+01 5.804877e+01 4.445379e+01 4.776725e+01 3.750056e+01 5.345593e+00 4.817076e+00 4.419177e+00 5.103392e+00 5.876956e+00 7.540323e+00 6.438552e+00 7.176455e+00 6.262012e+00 4.871936e+00 4.581518e+00 3.679708e+00 4.473441e+00
<GCONST> 1.149199e+02
<STATE> 3
<MEAN> 25
 5.541616e+00 -2.450527e+00 -1.018646e+00 -2.741161e+00 -1.615847e+00 -4.235985e-01 -5.210262e+00 -1.300037e+00 2.656734e+00 2.210464e+00 9.207997e-01 -2.667546e+00 6.729254e-01 1.351127e-01 4.387650e-01 5.800247e-01 -1.958467e-01 3.101850e-01 -9.686964e-02 2.099189e-02 -1.847370e-02 1.781963e-01 -2.146211e-01 8.950274e-02 -3.944694e-01
<VARIANCE> 25
 2.762555e+01 4.392283e+01 5.165314e+01 5.487055e+01 5.598287e+01 8.185173e+01 6.656950e+01 6.006287e+01 6.396462e+01 4.663158e+01 5.018583e+01 3.975832e+01 2.647662e+00 3.104954e+00 3.369753e+00 4.197698e+00 4.379200e+00 5.519662e+00 4.503087e+00 5.541068e+00 4.548832e+00 4.158490e+00 4.005270e+00 3.120585e+00 3.104249e+00
<GCONST> 1.110770e+02
<STATE> 4
<MEAN> 25
 4.865728e+00 -9.770612e-01 7.300478e-01 -9.977226e-01 -1.939439e+00 -1.893883e+00 -4.063995e+00 -1.032943e+00 1.168921e+00 2.205592e+00 3.573823e-01 -1.550851e+00 -8.125096e-02 6.780460e-01 2.556634e-01 8.700205e-01 2.355593e-01 1.450436e-01 4.999543e-01 -1.439780e-01 -2.232696e-01 -8.093461e-02 -1.823291e-01 4.145654e-01 -1.083674e+00
<VARIANCE> 25
 2.723468e+01 4.549210e+01 6.034823e+01 5.304960e+01 6.886604e+01 7.731205e+01 6.396583e+01 6.181924e+01 6.045517e+01 4.992323e+01 4.745771e+01 3.639617e+01 1.337715e+00 2.506560e+00 2.678353e+00 3.283730e+00 3.218527e+00 3.444799e+00 3.361955e+00 3.680383e+00 3.417502e+00 2.964822e+00 2.947357e+00 2.480472e+00 2.266958e+00
<GCONST> 1.068985e+02
<TRANSP> 5
 0.000000e+00 1.000000e+00 0.000000e+00 0.000000e+00 0.000000e+00
 0.000000e+00 1.717844e-01 8.282156e-01 0.000000e+00 0.000000e+00
 0.000000e+00 0.000000e+00 1.134409e-01 8.865591e-01 0.000000e+00
 0.000000e+00 0.000000e+00 0.000000e+00 5.136415e-01 4.863585e-01
 0.000000e+00 0.000000e+00 0.000000e+00 0.000000e+00 0.000000e+00
<ENDHMM>
~h "a"
<BEGINHMM>
<NUMSTATES> 5
<STATE> 2
<MEAN> 25
 4.284380e+00 -7.042356e+00 -3.784170e+00 -4.293955e+00 -8.180843e-02 -7.954838e-02 -8.339592e-01 3.070684e+00 3.856900e+00 -3.576593e-01 -2.607190e+00 -4.248465e+00 2.503663e-01 -1.197845e+00 -5.746796e-01 -4.256422e-01 6.112518e-01 4.141358e-01 2.274900e-01 8.152391e-01 3.293488e-01 -5.570668e-01 -7.735717e-01 -7.846537e-01 9.177440e-01
<VARIANCE> 25
 1.863456e+01 3.724605e+01 5.180035e+01 4.765665e+01 6.033879e+01 8.098611e+01 6.364233e+01 6.184635e+01 5.087104e+01 4.562709e+01 5.018977e+01 4.517546e+01 1.915638e+00 2.576163e+00 3.233542e+00 3.127198e+00 4.395165e+00 4.588838e+00 4.454633e+00 4.706427e+00 3.587069e+00 3.703080e+00 3.617954e+00 3.055388e+00 2.271130e+00
<GCONST> 1.083159e+02
<STATE> 3
<MEAN> 25
 4.773821e+00 -8.997497e+00 -4.904248e+00 -5.130967e+00 1.423998e+00 7.246034e-01 -9.034206e-01 3.805893e+00 3.656758e+00 -1.316437e+00 -4.038639e+00 -5.931746e+00 5.011643e-02 4.659515e-01 7.146622e-02 5.449211e-01 1.478387e-01 -4.752523e-02 7.897954e-02 -1.532730e-01 -1.218554e-01 1.214506e-01 -1.362493e-01 4.027344e-01 -7.328149e-01
<VARIANCE> 25
 1.074771e+01 2.957392e+01 4.089124e+01 3.483394e+01 5.106453e+01 7.832477e+01 6.226655e+01 5.310096e+01 4.682492e+01 4.397524e+01 4.720398e+01 3.736596e+01 5.803831e-01 1.519034e+00 1.605872e+00 1.788458e+00 2.344133e+00 2.936405e+00 2.622904e+00 2.800142e+00 2.270244e+00 2.452895e+00 2.411526e+00 2.204735e+00 1.472405e+00
<GCONST> 9.909986e+01
<STATE> 4
<MEAN> 25
 1.367048e+00 -2.970989e+00 -4.037146e+00 -1.401177e-01 2.523524e+00 2.247823e-01 1.725583e+00 2.923448e+00 2.282204e+00 -5.948198e-01 -2.528659e+00 -2.114647e-01 -2.235375e-01 6.548517e-01 2.968205e-01 5.686101e-01 1.298211e-05 5.742963e-02 1.927641e-02 -2.294138e-01 -1.764070e-01 1.023415e-01 2.207069e-01 3.509247e-01 -9.328650e-01
<VARIANCE> 25
 3.247772e+01 3.192249e+01 4.003042e+01 4.120276e+01 4.465810e+01 5.304142e+01 4.700301e+01 4.239946e+01 4.364591e+01 3.755641e+01 4.226243e+01 3.246474e+01 8.626953e-01 1.535027e+00 1.617074e+00 1.944656e+00 2.199780e+00 2.379033e+00 2.515903e+00 2.587059e+00 2.338275e+00 2.176485e+00 2.143226e+00 1.899419e+00 1.165681e+00
<GCONST> 9.843146e+01
<TRANSP> 5
 0.000000e+00 1.000000e+00 0.000000e+00 0.000000e+00 0.000000e+00
 0.000000e+00 4.824641e-01 5.175359e-01 0.000000e+00 0.000000e+00
 0.000000e+00 0.000000e+00 6.967511e-01 3.032489e-01 0.000000e+00
 0.000000e+00 0.000000e+00 0.000000e+00 7.072750e-01 2.927249e-01
 0.000000e+00 0.000000e+00 0.000000e+00 0.000000e+00 0.000000e+00
<ENDHMM>
~h "b"
<BEGINHMM>
<NUMSTATES> 5
<STATE> 2
<MEAN> 25
 6.595309e+00 8.719521e+00 1.840813e+00 5.349709e+00 2.046639e+00 2.124705e+00 -7.003508e-01 -3.537663e+00 -3.850821e+00 -5.748953e-01 -3.224665e-01 -4.826624e-01 2.360014e-01 1.026052e+00 -4.409271e-02 4.100184e-01 5.527081e-01 -1.389250e-01 3.316806e-01 -9.120611e-02 -3.582015e-01 -1.683376e-01 -4.273617e-02 1.067953e-01 -4.462683e-01
<VARIANCE> 25
 3.006588e+01 4.572269e+01 4.476957e+01 3.340469e+01 3.794678e+01 4.332968e+01 4.244452e+01 4.175905e+01 3.895609e+01 3.774357e+01 3.565986e+01 2.725104e+01 1.934827e+00 3.570669e+00 3.180285e+00 3.659183e+00 3.257044e+00 3.350224e+00 3.774856e+00 3.540874e+00 3.202482e+00 3.209329e+00 3.124385e+00 2.194435e+00 3.259856e+00
<GCONST> 1.043470e+02
<STATE> 3
<MEAN> 25
 6.759655e+00 7.991769e+00 4.660319e-01 3.500170e+00 2.313500e+00 1.695987e+00 -8.998849e-01 -5.178429e+00 -4.553963e+00 4.905358e-01 1.751049e+00 1.979692e-01 9.651913e-02 -2.435154e+00 -1.352636e+00 -2.278957e+00 -8.110424e-01 -7.503664e-01 -1.711598e+00 -4.317419e-01 1.413014e+00 1.372215e+00 1.622571e+00 -4.756200e-01 3.032490e+00
<VARIANCE> 25
 2.742006e+01 4.891808e+01 4.126873e+01 4.793353e+01 3.575691e+01 4.954121e+01 4.550191e+01 4.574567e+01 4.500299e+01 4.575502e+01 4.078418e+01 2.876826e+01 3.703378e+00 5.138670e+00 5.832200e+00 6.924774e+00 5.965763e+00 6.783047e+00 7.182052e+00 6.253255e+00 7.673339e+00 7.746254e+00 5.826872e+00 4.642066e+00 4.039367e+00
<GCONST> 1.134846e+02
<STATE> 4
<MEAN> 25
 7.227911e+00 6.623907e-01 -2.610965e+00 -3.269509e+00 -1.493706e-01 6.365068e-01 -6.520792e+00 -4.926508e+00 1.360560e+00 5.493836e+00 4.206044e+00 -3.280601e+00 -3.046098e-01 -2.550284e+00 -2.630965e-01 -1.775668e+00 -1.095480e+00 -5.033544e-01 -1.098673e+00 1.212288e+00 1.991460e+00 3.785667e-01 -1.692342e-01 -1.183709e+00 2.579144e+00
<VARIANCE> 25
 2.295353e+01 4.120841e+01 4.501759e+01 8.370119e+01 5.254771e+01 7.044919e+01 6.988721e+01 5.145305e+01 6.074676e+01 8.059626e+01 5.183621e+01 4.281279e+01 2.129361e+00 5.109911e+00 5.529323e+00 6.204206e+00 6.728868e+00 6.936006e+00 7.819029e+00 8.450988e+00 8.765862e+00 6.529955e+00 6.800882e+00 5.466309e+00 3.130620e+00
<GCONST> 1.163990e+02
<TRANSP> 5
 0.000000e+00 1.000000e+00 0.000000e+00 0.000000e+00 0.000000e+00
 0.000000e+00 6.824198e-01 3.175802e-01 0.000000e+00 0.000000e+00
 0.000000e+00 0.000000e+00 4.215252e-01 5.784748e-01 0.000000e+00
 0.000000e+00 0.000000e+00 0.000000e+00 3.176039e-01 6.823961e-01
 0.000000e+00 0.000000e+00 0.000000e+00 0.000000e+00 0.000000e+00
<ENDHMM>
~h "c"
<BEGINHMM>
<NUMSTATES> 5
<STATE> 2
<MEAN> 25
 -7.716429e+00 4.395857e+00 2.525985e+00 -1.846785e-01 2.692754e+00 -1.318782e+00 2.073274e+00 8.716321e-03 1.087260e+00 -1.407878e-02 2.339704e+00 1.571628e+00 -3.597580e+00 -9.737197e-02 2.880141e-01 -1.704362e+00 4.865405e-01 1.793283e-01 6.963312e-01 -6.195358e-01 4.329566e-01 -8.915604e-02 6.872467e-01 4.132263e-02 1.647779e+00
<VARIANCE> 25
 8.043687e+01 4.746573e+01 5.807286e+01 5.201623e+01 5.001387e+01 5.528267e+01 4.513887e+01 5.805910e+01 3.953549e+01 3.063391e+01 3.003483e+01 2.479793e+01 4.562482e+00 4.063528e+00 5.507911e+00 5.212343e+00 5.346107e+00 5.343196e+00 4.498687e+00 5.171715e+00 3.837296e+00 3.676798e+00 3.570324e+00 2.564821e+00 6.906574e+00
<GCONST> 1.112862e+02
<STATE> 3
<MEAN> 25
 -1.717668e+01 2.429960e+00 6.004851e+00 -5.600175e+00 -2.328932e-01 -1.798170e+00 3.620299e+00 -1.788847e+00 2.096874e+00 -9.226496e-01 4.209864e+00 2.281972e+00 2.924006e+00 -1.108166e+00 3.931539e-01 5.343003e-01 -1.982370e+00 -1.351454e+00 -6.808615e-01 6.555560e-01 4.443344e-02 -5.780562e-01 -6.541780e-01 -1.219645e-01 1.332269e+00
<VARIANCE> 25
 5.010577e+01 3.098966e+01 5.705130e+01 4.031227e+01 5.396115e+01 6.363807e+01 4.256318e+01 4.465080e+01 3.271795e+01 3.170474e+01 3.037877e+01 2.585948e+01 9.621161e+00 3.680784e+00 3.574714e+00 4.460412e+00 5.880620e+00 4.108328e+00 3.592229e+00 4.323359e+00 3.849808e+00 2.978109e+00 3.236386e+00 2.762618e+00 2.172209e+00
<GCONST> 1.080069e+02
<STATE> 4
<MEAN> 25
 -1.152633e+00 -2.324158e+00 3.761220e+00 -3.717854e+00 -4.515876e+00 -6.084822e+00 -4.828825e-02 1.152912e+00 2.113561e+00 -2.558333e+00 -2.089649e-01 1.076971e+00 4.179213e+00 -1.884603e+00 -1.558587e+00 -8.302879e-02 -2.859214e-01 -8.836230e-02 -7.925547e-01 7.628375e-01 2.582548e-01 -8.319002e-02 -1.222542e+00 -8.366576e-01 1.098471e+00
<VARIANCE> 25
 2.475953e+01 2.509443e+01 3.496043e+01 3.467698e+01 2.892103e+01 4.240915e+01 4.906395e+01 6.010926e+01 3.275531e+01 2.495376e+01 3.192408e+01 2.347736e+01 5.158783e+00 4.641812e+00 3.796347e+00 3.557965e+00 4.614635e+00 5.030098e+00 4.981446e+00 4.621294e+00 3.443209e+00 3.393384e+00 4.052952e+00 3.157839e+00 1.366609e+00
<GCONST> 1.052858e+02
<TRANSP> 5
 0.000000e+00 1.000000e+00 0.000000e+00 0.000000e+00 0.000000e+00
 0.000000e+00 7.610993e-01 2.389007e-01 0.000000e+00 0.000000e+00
 0.000000e+00 0.000000e+00 6.330007e-01 3.669994e-01 0.000000e+00
 0.000000e+00 0.000000e+00 0.000000e+00 4.942288e-01 5.057712e-01
 0.000000e+00 0.000000e+00 0.000000e+00 0.000000e+00 0.000000e+00
<ENDHMM>
~h "d"
<BEGINHMM>
<NUMSTATES> 5
<STATE> 2
<MEAN> 25
 5.782595e+00 4.866662e+00 3.891141e+00 6.930735e+00 -5.615931e-01 -2.195970e+00 -2.776815e+00 -4.365595e-01 1.115893e+00 -1.632254e+00 -3.660767e+00 -2.449106e-01 2.357513e-01 8.436417e-01 4.291584e-01 5.139310e-01 3.450794e-01 -2.221373e-01 1.267342e-01 1.701040e-02 -2.987498e-01 -2.879307e-01 -1.031384e-01 1.364214e-01 -4.641173e-01
<VARIANCE> 25
 3.202515e+01 5.308278e+01 4.634044e+01 4.101991e+01 5.579944e+01 5.150727e+01 4.829282e+01 5.358689e+01 4.860216e+01 3.718457e+01 3.969904e+01 2.960662e+01 2.807277e+00 4.904357e+00 3.388922e+00 4.710024e+00 4.559296e+00 4.943961e+00 4.498558e+00 4.838222e+00 4.040161e+00 3.454541e+00 3.693221e+00 2.901260e+00 5.270184e+00
<GCONST> 1.095842e+02
<STATE> 3
<MEAN> 25
 3.381483e+00 3.212717e+00 5.559509e+00 4.695170e+00 -9.988850e-01 -4.210252e+00 -2.101428e+00 8.475649e-02 -4.851173e-01 -2.744404e+00 -1.309516e+00 2.162029e+00 -1.048447e+00 -2.674896e+00 9.314137e-01 -2.302917e+00 -1.778675e+00 -1.520491e+00 -8.960184e-01 8.129672e-01 7.366137e-02 -4.253777e-01 1.650911e+00 8.269661e-01 3.474103e+00
<VARIANCE> 25
 3.403268e+01 5.224939e+01 4.922074e+01 5.098325e+01 6.979328e+01 6.991139e+01 5.710840e+01 5.176273e+01 5.220763e+01 3.791066e+01 4.006722e+01 3.605740e+01 4.299399e+00 4.823123e+00 6.721099e+00 5.261502e+00 7.694928e+00 7.876864e+00 7.673453e+00 8.801445e+00 7.981800e+00 5.252221e+00 4.920781e+00 3.792123e+00 3.716600e+00
<GCONST> 1.154984e+02
<STATE> 4
<MEAN> 25
 2.935742e+00 -3.353859e+00 7.478771e+00 -1.119091e+00 -7.522955e+00 -6.863044e+00 -5.355684e+00 3.564614e+00 1.024123e+00 -2.633480e+00 2.594591e+00 2.060465e+00 -1.634104e-01 -1.364387e+00 -4.898832e-02 -1.715273e+00 -9.930746e-01 -1.462304e-01 -1.144043e-01 9.569718e-01 3.499209e-01 4.635823e-01 5.861658e-01 -9.500620e-01 1.826848e+00
<VARIANCE> 25
 1.821252e+01 3.068887e+01 5.164473e+01 4.258477e+01 5.749590e+01 5.525612e+01 7.098315e+01 7.488175e+01 8.039211e+01 3.747928e+01 4.390112e+01 3.476443e+01 1.951662e+00 3.274438e+00 6.193682e+00 4.674227e+00 7.177139e+00 5.726261e+00 6.098191e+00 7.031120e+00 6.289507e+00 4.253699e+00 5.501726e+00 3.909364e+00 2.753765e+00
<GCONST> 1.120149e+02
<TRANSP> 5
 0.000000e+00 1.000000e+00 0.000000e+00 0.000000e+00 0.000000e+00
 0.000000e+00 6.385321e-01 3.614679e-01 0.000000e+00 0.000000e+00
 0.000000e+00 0.000000e+00 4.520074e-01 5.479926e-01 0.000000e+00
 0.000000e+00 0.000000e+00 0.000000e+00 4.048722e-01 5.951278e-01
 0.000000e+00 0.000000e+00 0.000000e+00 0.000000e+00 0.000000e+00
<ENDHMM>
~h "e"
<BEGINHMM>
<NUMSTATES> 5
<STATE> 2
<MEAN> 25
 2.474561e+00 -5.800689e+00 1.777358e+00 3.106695e-01 -7.331368e+00 -6.086017e+00 1.726896e+00 5.490084e+00 1.350822e+00 -7.387549e-01 1.211328e+00 -2.147399e+00 2.605520e-01 -9.165567e-01 6.345071e-01 -3.274777e-01 -1.032494e+00 -3.299153e-01 5.086136e-01 1.062105e+00 -3.087768e-01 -2.074298e-01 2.714958e-01 -3.602197e-01 1.002214e+00
<VARIANCE> 25
 2.991076e+01 5.174157e+01 5.382293e+01 3.539644e+01 6.312516e+01 5.827013e+01 8.162086e+01 5.494561e+01 4.808562e+01 4.301087e+01 4.863071e+01 3.843110e+01 3.472057e+00 3.274500e+00 3.427069e+00 3.030983e+00 5.201611e+00 4.648247e+00 5.150304e+00 5.298572e+00 4.414949e+00 3.461462e+00 3.781325e+00 2.902597e+00 3.076407e+00
<GCONST> 1.101395e+02
<STATE> 3
<MEAN> 25
 2.938849e+00 -5.870610e+00 4.645286e+00 6.102357e-01 -9.291301e+00 -6.759448e+00 2.269709e+00 5.392416e+00 -1.659949e+00 1.004746e+00 2.110776e+00 -1.980987e+00 -7.494684e-02 7.366048e-01 -3.532463e-01 6.236834e-01 7.667445e-01 3.584729e-01 1.698647e-01 -4.508793e-01 2.141692e-02 1.618450e-01 -2.733385e-01 3.112579e-01 -1.135227e+00
<VARIANCE> 25
 1.369823e+01 3.635510e+01 6.319243e+01 4.669221e+01 5.754630e+01 4.932950e+01 7.214255e+01 5.577466e+01 5.693901e+01 4.806179e+01 5.042946e+01 3.265347e+01 1.056323e+00 1.788177e+00 2.094891e+00 2.302269e+00 2.693314e+00 2.684601e+00 3.259556e+00 3.315984e+00 2.978085e+00 2.499919e+00 2.755432e+00 1.906428e+00 1.825974e+00
<GCONST> 1.025559e+02
<STATE> 4
<MEAN> 25
 -3.150779e+00 2.232754e-01 8.867255e-02 3.366323e+00 1.998007e+00 1.255282e+00 3.007814e+00 3.975059e+00 1.995401e+00 1.112115e+00 2.265620e+00 3.264125e+00 -1.359904e-01 2.072044e-01 -9.121450e-02 4.505223e-02 2.551624e-01 1.411680e-01 -4.394970e-02 -1.279277e-01 1.579380e-02 4.327282e-03 -2.303521e-02 1.018319e-01 -3.204687e-01
<VARIANCE> 25
 2.288447e+01 2.825355e+01 3.315231e+01 2.842869e+01 4.538535e+01 4.639810e+01 3.630635e+01 3.702998e+01 3.140886e+01 3.008214e+01 3.150294e+01 2.594480e+01 4.876490e-01 7.766320e-01 9.236428e-01 1.074736e+00 1.604916e+00 1.532370e+00 1.629614e+00 1.959748e+00 1.722684e+00 1.680321e+00 1.595716e+00 1.437234e+00 4.355820e-01
<GCONST> 8.982494e+01
<TRANSP> 5
 0.000000e+00 1.000000e+00 0.000000e+00 0.000000e+00 0.000000e+00
 0.000000e+00 6.682421e-01 3.317580e-01 0.000000e+00 0.000000e+00
 0.000000e+00 0.000000e+00 7.755215e-01 2.244785e-01 0.000000e+00
 0.000000e+00 0.000000e+00 0.000000e+00 8.153847e-01 1.846153e-01
 0.000000e+00 0.000000e+00 0.000000e+00 0.000000e+00 0.000000e+00
<ENDHMM>
~h "f"
<BEGINHMM>
<NUMSTATES> 5
<STATE> 2
<MEAN> 25
 -2.547529e+00 3.315380e+00 4.967740e+00 9.590984e+00 6.547192e-01 -3.138341e+00 1.098946e+00 -5.965974e-01 -6.495608e-04 2.948861e-02 2.504142e+00 1.495322e+00 -2.484610e+00 -1.661784e-01 -1.378068e+00 6.033289e-01 1.550014e+00 2.575242e-01 3.180791e-01 2.746338e-01 1.317811e+00 1.752988e-01 -1.838824e-01 2.680473e-01 -5.346280e-01
<VARIANCE> 25
 3.644767e+01 2.885292e+01 6.911893e+01 5.310427e+01 5.817513e+01 5.628276e+01 4.207533e+01 4.686572e+01 3.425852e+01 3.390380e+01 2.639643e+01 2.907651e+01 2.292487e+00 3.422488e+00 4.204768e+00 4.241557e+00 7.122360e+00 5.277343e+00 4.501892e+00 4.283853e+00 4.142564e+00 3.573786e+00 3.063214e+00 2.624722e+00 1.808040e+00
<GCONST> 1.073931e+02
<STATE> 3
<MEAN> 25
 -9.661957e+00 -2.710423e-01 7.824148e-02 6.195280e+00 3.743850e+00 -1.161734e+00 2.651700e+00 3.380135e-01 1.787953e+00 4.012039e-01 2.773928e+00 2.089272e+00 -3.401968e-01 -5.212622e-01 -1.297289e-01 -1.548884e-01 -6.586233e-02 -1.690121e-01 1.325978e-01 6.334147e-02 -1.137480e-01 1.007749e-03 -4.754883e-02 2.887573e-02 -1.184841e-01
<VARIANCE> 25
 2.446129e+01 3.411014e+01 5.597562e+01 5.710001e+01 4.326079e+01 4.676724e+01 3.652946e+01 3.727229e+01 3.287976e+01 3.280429e+01 2.640691e+01 3.180921e+01 2.103673e+00 1.950885e+00 1.727235e+00 1.748496e+00 1.909335e+00 2.394981e+00 2.564702e+00 2.285006e+00 2.293704e+00 2.115812e+00 1.758610e+00 1.594911e+00 9.156364e-01
<GCONST> 9.761733e+01
<STATE> 4
<MEAN> 25
 -6.710843e+00 -1.657700e+00 1.474552e+00 6.188465e+00 1.669239e+00 -3.780610e+00 1.935223e+00 -3.140560e-01 9.160622e-02 3.413739e-01 1.740696e+00 1.538162e+00 3.177670e+00 4.218192e-01 1.397257e+00 -1.307225e+00 -2.093087e+00 -4.537960e-01 -9.748534e-01 -7.285368e-01 -1.673118e+00 -3.900203e-01 -3.090674e-02 -7.912075e-01 1.269070e+00
<VARIANCE> 25
 4.416690e+01 4.089344e+01 7.174322e+01 7.602991e+01 5.029217e+01 7.137614e+01 4.642512e+01 4.027428e+01 3.583433e+01 2.842457e+01 2.534495e+01 2.593050e+01 4.452627e+00 4.565778e+00 8.192011e+00 5.322158e+00 6.277598e+00 8.784702e+00 4.914063e+00 4.987408e+00 5.375671e+00 3.980734e+00 3.736651e+00 3.565008e+00 3.769192e+00
<GCONST> 1.121593e+02
<TRANSP> 5
 0.000000e+00 1.000000e+00 0.000000e+00 0.000000e+00 0.000000e+00
 0.000000e+00 6.523936e-01 3.476065e-01 0.000000e+00 0.000000e+00
 0.000000e+00 0.000000e+00 8.043425e-01 1.956575e-01 0.000000e+00
 0.000000e+00 0.000000e+00 0.000000e+00 4.938702e-01 5.061298e-01
 0.000000e+00 0.000000e+00 0.000000e+00 0.000000e+00 0.000000e+00
<ENDHMM>
~h "g"
<BEGINHMM>
<NUMSTATES> 5
<STATE> 2
<MEAN> 25
 5.455880e+00 6.770046e+00 3.149853e+00 5.190197e+00 5.284697e-01 -2.231859e+00 -3.279842e+00 -1.900645e+00 -1.857085e+00 1.266716e+00 -1.145882e+00 -1.577156e+00 -6.960739e-01 2.449549e-01 -1.345099e-01 1.981268e-01 9.182665e-01 -3.714553e-01 1.514467e-01 2.649350e-01 -3.834564e-01 7.332856e-02 -2.434383e-01 3.040936e-01 -2.099365e-01
<VARIANCE> 25
 1.936874e+01 4.574439e+01 4.379166e+01 3.726144e+01 4.950657e+01 5.450116e+01 5.287028e+01 4.867339e+01 4.532765e+01 3.898695e+01 4.095384e+01 3.035771e+01 3.207062e+00 6.129007e+00 6.231106e+00 5.503466e+00 6.075240e+00 6.125605e+00 6.382203e+00 5.720145e+00 4.629014e+00 4.380812e+00 4.292195e+00 3.019083e+00 5.254332e+00
<GCONST> 1.114449e+02
<STATE> 3
<MEAN> 25
 -2.197945e-01 2.053183e+00 3.389302e+00 1.508860e+00 3.199352e+00 -3.545579e+00 -3.986169e+00 -7.380674e-01 -3.198325e+00 2.203960e+00 -1.450403e-01 -3.687320e-01 -9.566959e-01 -1.597044e+00 9.731663e-01 -1.883145e+00 -1.292005e+00 -1.010998e+00 -8.036623e-01 3.666862e-01 -4.843383e-02 1.691444e-01 9.788545e-01 -2.178577e-01 2.582821e+00
<VARIANCE> 25
 4.624208e+01 4.098313e+01 7.777191e+01 5.145867e+01 7.685395e+01 7.781953e+01 8.464522e+01 5.960563e+01 5.385622e+01 4.553037e+01 4.461429e+01 3.726580e+01 5.604529e+00 4.888014e+00 8.472014e+00 5.609546e+00 9.696177e+00 7.584268e+00 6.920123e+00 8.130142e+00 7.223187e+00 5.662833e+00 4.866125e+00 4.185911e+00 3.159829e+00
<GCONST> 1.176071e+02
<STATE> 4
<MEAN> 25
 1.795681e+00 -3.089616e-01 6.162868e+00 -2.350239e+00 -4.599061e+00 -5.529353e+00 -5.852308e+00 1.206402e+00 -2.284769e+00 1.786237e+00 2.648133e+00 -2.366839e+00 2.978296e-01 -8.292772e-01 1.308449e-01 -1.413758e+00 -1.210884e+00 8.659243e-02 2.836267e-02 6.472121e-01 4.856085e-01 -1.161171e-01 4.018149e-01 -4.762861e-01 1.216839e+00
<VARIANCE> 25
 3.008964e+01 3.959604e+01 6.299418e+01 4.799829e+01 8.005238e+01 6.180619e+01 7.419478e+01 6.691591e+01 6.477697e+01 6.476429e+01 5.270504e+01 4.085259e+01 1.578950e+00 2.824869e+00 5.278873e+00 3.737856e+00 5.497462e+00 3.814741e+00 4.148318e+00 5.508841e+00 5.920801e+00 3.853293e+00 4.154170e+00 3.239115e+00 1.979045e+00
<GCONST> 1.111363e+02
<TRANSP> 5
 0.000000e+00 1.000000e+00 0.000000e+00 0.000000e+00 0.000000e+00
 0.000000e+00 5.964867e-01 4.035134e-01 0.000000e+00 0.000000e+00
 0.000000e+00 0.000000e+00 4.874730e-01 5.125270e-01 0.000000e+00
 0.000000e+00 0.000000e+00 0.000000e+00 4.441070e-01 5.558930e-01
 0.000000e+00 0.000000e+00 0.000000e+00 0.000000e+00 0.000000e+00
<ENDHMM>
~h "h"
<BEGINHMM>
<NUMSTATES> 5
<STATE> 2
<MEAN> 25
 6.888633e-01 -2.629182e+00 -5.389208e-01 2.000257e-01 3.622397e+00 4.481032e-01 3.416058e+00 1.972001e+00 7.853484e-01 -3.682310e-01 -2.556400e+00 3.254732e-01 -6.039734e-01 1.245057e-01 -5.512433e-01 6.696834e-01 1.318514e+00 2.203077e-01 6.349508e-01 3.084272e-01 1.458670e-01 -1.167568e-01 -1.995602e-01 4.502583e-01 -7.742093e-01
<VARIANCE> 25
 2.731560e+01 4.191564e+01 7.481163e+01 5.148393e+01 9.643066e+01 8.071922e+01 8.173409e+01 6.494196e+01 5.044455e+01 4.901888e+01 5.302895e+01 4.264695e+01 1.845292e+00 3.245361e+00 3.978505e+00 3.542174e+00 4.851066e+00 4.571875e+00 4.370072e+00 4.462794e+00 3.928712e+00 3.734946e+00 3.802427e+00 2.942991e+00 2.028254e+00
<GCONST> 1.106334e+02
<STATE> 3
<MEAN> 25
 -9.540473e-01 -2.925471e+00 -3.561976e+00 5.425388e-01 6.339375e+00 8.688012e-01 3.517198e+00 1.625998e+00 1.793345e+00 -5.513136e-01 -2.477833e+00 2.879326e-02 -8.676951e-02 2.331243e-01 -4.147149e-01 8.856828e-02 -9.042502e-03 2.111691e-01 -8.283973e-03 -2.742969e-02 -3.992505e-02 8.387239e-02 8.978110e-02 3.188875e-02 -4.955178e-01
<VARIANCE> 25
 4.165464e+01 5.354797e+01 7.872199e+01 5.514284e+01 9.012631e+01 7.303764e+01 7.660713e+01 6.610320e+01 4.908357e+01 4.439546e+01 5.273059e+01 4.009737e+01 2.737606e+00 3.366847e+00 3.502682e+00 3.590865e+00 4.434077e+00 4.453830e+00 4.467998e+00 3.966886e+00 3.842137e+00 3.321701e+00 3.303397e+00 3.040401e+00 4.643441e+00
<GCONST> 1.116979e+02
<STATE> 4
<MEAN> 25
 -4.470686e+00 -1.121287e+00 -3.158892e+00 2.676048e+00 5.066815e+00 2.268722e+00 2.669112e+00 2.588730e+00 3.647141e-01 -5.965881e-02 4.246338e-02 2.248224e+00 9.120591e-03 1.222352e-01 -2.403138e-02 -2.038252e-02 -1.200793e-01 -3.187156e-02 -5.891931e-02 -7.314587e-02 -6.425305e-02 8.636226e-04 1.416154e-02 -5.996871e-02 -1.457133e-01
<VARIANCE> 25
 3.652077e+01 4.466536e+01 4.171568e+01 4.206987e+01 4.099998e+01 4.381049e+01 3.755785e+01 3.623964e+01 3.751358e+01 2.860950e+01 3.612625e+01 2.818385e+01 9.841335e-01 1.057887e+00 1.295028e+00 1.436361e+00 1.750154e+00 1.956167e+00 1.937023e+00 1.980677e+00 1.945966e+00 1.788879e+00 1.726932e+00 1.592758e+00 8.086910e-01
<GCONST> 9.471095e+01
<TRANSP> 5
 0.000000e+00 1.000000e+00 0.000000e+00 0.000000e+00 0.000000e+00
 0.000000e+00 3.744988e-01 6.255011e-01 0.000000e+00 0.000000e+00
 0.000000e+00 0.000000e+00 4.018555e-01 5.981445e-01 0.000000e+00
 0.000000e+00 0.000000e+00 0.000000e+00 8.301427e-01 1.698573e-01
 0.000000e+00 0.000000e+00 0.000000e+00 0.000000e+00 0.000000e+00
<ENDHMM>
~h "i"
<BEGINHMM>
<NUMSTATES> 5
<STATE> 2
<MEAN> 25
 2.306761e-01 1.329314e+00 1.374263e+01 4.303499e-01 -9.944363e+00 -5.134762e+00 -1.485059e+00 -2.857789e+00 -5.905945e+00 -5.149527e-01 3.310287e+00 -4.169648e-01 4.553826e-01 -1.371834e-01 2.744420e+00 -9.124305e-01 -2.527405e+00 1.238099e-01 -1.043642e+00 -5.190058e-01 -1.553287e+00 1.769025e-01 1.176289e+00 -6.249662e-01 1.253074e+00
<VARIANCE> 25
 2.807709e+01 4.460196e+01 6.623775e+01 5.195404e+01 6.620922e+01 6.185100e+01 5.763309e+01 6.725739e+01 5.197428e+01 4.168306e+01 4.369111e+01 3.198955e+01 4.594147e+00 3.565656e+00 5.425876e+00 5.173195e+00 5.920413e+00 6.307175e+00 5.901000e+00 6.333554e+00 5.235398e+00 4.804736e+00 4.371056e+00 3.249670e+00 2.193592e+00
<GCONST> 1.127629e+02
<STATE> 3
<MEAN> 25
 -6.215153e-02 2.225986e+00 1.859158e+01 -3.295452e+00 -1.387571e+01 -2.177882e+00 -4.430690e+00 -4.931308e+00 -7.716227e+00 -8.290172e-02 4.559192e+00 -2.604266e+00 1.150575e-01 2.391234e-01 -2.902646e-01 2.174708e-01 1.595250e-01 3.079778e-02 1.893194e-01 4.518393e-02 1.130845e-01 1.114221e-01 -1.876677e-01 7.577883e-02 -4.228505e-01
<VARIANCE> 25
 1.185434e+01 3.927086e+01 4.871812e+01 5.558450e+01 4.720561e+01 6.444193e+01 5.081249e+01 6.174258e+01 4.842630e+01 6.152879e+01 5.276501e+01 3.452065e+01 7.136868e-01 1.590743e+00 2.276592e+00 2.399335e+00 2.325648e+00 2.557099e+00 2.609072e+00 2.989037e+00 2.433779e+00 2.253068e+00 2.154661e+00 1.770733e+00 1.199754e+00
<GCONST> 1.004569e+02
<STATE> 4
<MEAN> 25
 -2.340627e-01 4.246953e+00 1.008492e+01 3.120598e+00 -6.632806e+00 -3.488215e+00 5.217627e-01 -2.998473e+00 -4.288632e+00 2.798848e-01 1.821350e+00 1.133402e+00 -8.387306e-02 2.706559e-01 -1.549119e+00 6.251319e-01 1.331638e+00 2.304982e-01 4.768727e-01 4.114567e-01 7.458521e-01 -5.503974e-02 -4.422703e-01 3.833305e-01 -1.240715e+00
<VARIANCE> 25
 2.645121e+01 4.056933e+01 5.386019e+01 4.301763e+01 5.964402e+01 6.918413e+01 5.390897e+01 5.376545e+01 4.438544e+01 3.586975e+01 3.852507e+01 3.306748e+01 1.489337e+00 2.391801e+00 3.062917e+00 2.867647e+00 3.720542e+00 3.689293e+00 3.717305e+00 3.669492e+00 3.235532e+00 3.014041e+00 2.920204e+00 2.290112e+00 1.976209e+00
<GCONST> 1.050275e+02
<TRANSP> 5
 0.000000e+00 1.000000e+00 0.000000e+00 0.000000e+00 0.000000e+00
 0.000000e+00 5.723814e-01 4.276186e-01 0.000000e+00 0.000000e+00
 0.000000e+00 0.000000e+00 7.733532e-01 2.266469e-01 0.000000e+00
 0.000000e+00 0.000000e+00 0.000000e+00 7.419587e-01 2.580413e-01
 0.000000e+00 0.000000e+00 0.000000e+00 0.000000e+00 0.000000e+00
<ENDHMM>
~h "j"
<BEGINHMM>
<NUMSTATES> 5
<STATE> 2
<MEAN> 25
 -6.808055e-01 8.661326e+00 6.632586e+00 4.792916e+00 1.519957e+00 -2.935158e+00 2.850778e-01 7.369103e-01 -1.335866e+00 -2.210139e+00 -4.098225e-01 1.810248e+00 -1.662404e+00 6.760682e-01 8.289840e-01 -4.432663e-01 5.427963e-01 7.560776e-02 3.967576e-01 -3.714603e-01 -2.299305e-01 -7.974649e-02 2.983386e-01 9.241378e-02 6.094018e-01
<VARIANCE> 25
 7.713306e+01 4.835704e+01 4.668226e+01 4.974303e+01 6.424707e+01 6.330937e+01 5.100706e+01 4.317437e+01 4.186074e+01 3.107726e+01 3.319065e+01 2.772985e+01 6.750167e+00 5.129221e+00 4.928049e+00 5.694180e+00 5.873877e+00 5.941840e+00 5.119858e+00 4.818054e+00 3.990627e+00 3.716818e+00 3.834828e+00 2.913093e+00 6.311906e+00
<GCONST> 1.125144e+02
<STATE> 3
<MEAN> 25
 -6.205630e+00 6.865469e+00 1.413508e+01 1.421223e+00 -3.984216e+00 -4.919292e+00 -8.483418e-01 -3.713982e+00 -3.823820e+00 -3.066070e+00 3.555831e+00 3.304844e+00 1.119646e+00 -1.942566e+00 1.482372e+00 -1.118005e-01 -3.369687e+00 -1.811930e+00 -1.358395e+00 -1.028137e-01 -5.740389e-01 -2.520128e-01 1.228204e+00 5.045885e-01 2.007942e+00
<VARIANCE> 25
 4.279335e+01 4.258356e+01 4.904751e+01 5.891664e+01 8.183196e+01 8.069859e+01 5.779561e+01 4.359154e+01 4.052774e+01 3.818290e+01 3.112755e+01 3.170011e+01 6.299226e+00 4.806033e+00 5.615396e+00 5.109830e+00 6.385752e+00 6.147520e+00 6.232772e+00 5.616987e+00 5.046250e+00 4.446052e+00 3.183300e+00 3.067657e+00 2.006939e+00
<GCONST> 1.123685e+02
<STATE> 4
<MEAN> 25
 1.382093e+00 -1.065263e+00 1.198398e+01 7.396985e-01 -1.093194e+01 -8.191794e+00 -5.794270e+00 1.714820e+00 -1.898855e+00 -2.422294e+00 4.762381e+00 2.418515e+00 1.151265e+00 -1.227714e+00 -1.811551e+00 -3.913012e-01 5.033727e-01 3.468497e-01 -6.152736e-01 9.911113e-01 1.106535e+00 4.805304e-01 -5.488999e-01 -9.250109e-01 3.058861e-01
<VARIANCE> 25
 1.253946e+01 3.059802e+01 4.304888e+01 6.494418e+01 4.863514e+01 4.204230e+01 6.502753e+01 6.356730e+01 5.342620e+01 4.662650e+01 3.121052e+01 3.447796e+01 1.749053e+00 3.235144e+00 3.205700e+00 2.605232e+00 4.691041e+00 3.843380e+00 5.841365e+00 5.220033e+00 3.812021e+00 3.030366e+00 3.360703e+00 2.911587e+00 1.556780e+00
<GCONST> 1.059195e+02
<TRANSP> 5
 0.000000e+00 1.000000e+00 0.000000e+00 0.000000e+00 0.000000e+00
 0.000000e+00 7.775269e-01 2.224731e-01 0.000000e+00 0.000000e+00
 0.000000e+00 0.000000e+00 6.441478e-01 3.558522e-01 0.000000e+00
 0.000000e+00 0.000000e+00 0.000000e+00 6.882700e-01 3.117300e-01
 0.000000e+00 0.000000e+00 0.000000e+00 0.000000e+00 0.000000e+00
<ENDHMM>
~h "k"
<BEGINHMM>
<NUMSTATES> 5
<STATE> 2
<MEAN> 25
 -2.605153e+00 2.910482e+00 -3.114280e+00 3.010406e+00 2.959731e+00 2.796982e-01 1.748900e+00 1.080093e+00 -2.407811e-01 1.778222e+00 1.169212e+00 9.424695e-01 -1.191309e+00 -5.272841e-01 -9.659023e-01 -3.459077e-03 9.596355e-01 -3.776703e-01 -1.439260e-01 4.678093e-01 9.147041e-02 1.723830e-01 -6.842163e-02 2.687242e-01 8.956402e-02
<VARIANCE> 25
 5.222900e+01 4.100274e+01 6.494338e+01 4.595927e+01 5.903459e+01 6.547741e+01 5.081810e+01 5.081435e+01 5.117032e+01 3.859539e+01 3.934288e+01 3.321508e+01 3.015291e+00 4.841225e+00 5.287318e+00 4.508181e+00 5.417755e+00 5.875648e+00 4.951826e+00 4.801496e+00 4.266706e+00 3.707296e+00 3.486643e+00 3.126608e+00 5.339278e+00
<GCONST> 1.118037e+02
<STATE> 3
<MEAN> 25
 -5.174596e+00 -2.183788e+00 -7.503444e+00 -6.822840e-01 7.067322e+00 -1.389695e+00 -6.788098e-01 1.777097e+00 4.043357e-01 3.090782e+00 7.344043e-01 7.047111e-01 -2.675608e-01 -1.267575e+00 -4.189837e-01 -1.470900e+00 2.424676e-01 -1.010259e+00 -3.579381e-01 -1.338195e-02 2.693747e-01 2.441943e-01 -3.680103e-01 -6.273464e-01 2.789760e+00
<VARIANCE> 25
 4.956278e+01 5.132605e+01 9.363730e+01 7.285579e+01 8.541152e+01 1.016059e+02 7.451620e+01 6.713167e+01 6.912972e+01 5.365823e+01 4.924916e+01 5.016834e+01 6.733587e+00 5.703943e+00 8.034022e+00 6.895300e+00 8.234063e+00 8.993542e+00 7.363527e+00 6.801673e+00 6.843267e+00 5.936595e+00 5.839329e+00 5.093904e+00 7.254285e+00
<GCONST> 1.211934e+02
<STATE> 4
<MEAN> 25
 -2.727428e+00 -2.589391e+00 -4.073215e+00 -2.792247e+00 2.750988e+00 -3.312642e+00 3.570774e-01 1.139506e+00 9.483953e-01 1.977888e+00 -8.451903e-01 -1.646056e+00 2.077393e+00 -2.117668e-01 1.208388e+00 -6.729992e-01 -1.947149e+00 1.531171e-01 2.127797e-01 -2.801610e-01 -2.300491e-01 -7.804804e-01 -2.403543e-01 -1.310687e+00 1.858388e+00
<VARIANCE> 25
 5.610855e+01 4.291244e+01 7.386609e+01 4.929473e+01 6.449069e+01 7.471816e+01 5.465949e+01 5.415437e+01 5.199702e+01 4.222936e+01 4.449242e+01 4.611977e+01 5.040714e+00 4.570167e+00 5.092064e+00 5.206176e+00 6.310969e+00 6.968202e+00 5.967071e+00 5.247742e+00 5.698455e+00 4.650034e+00 4.602790e+00 4.540746e+00 3.645147e+00
<GCONST> 1.149801e+02
<TRANSP> 5
 0.000000e+00 1.000000e+00 0.000000e+00 0.000000e+00 0.000000e+00
 0.000000e+00 6.101223e-01 3.898777e-01 0.000000e+00 0.000000e+00
 0.000000e+00 0.000000e+00 4.812036e-01 5.187964e-01 0.000000e+00
 0.000000e+00 0.000000e+00 0.000000e+00 4.653029e-01 5.346971e-01
 0.000000e+00 0.000000e+00 0.000000e+00 0.000000e+00 0.000000e+00
<ENDHMM>
~h "l"
<BEGINHMM>
<NUMSTATES> 5
<STATE> 2
<MEAN> 25
 6.710562e+00 -3.189889e+00 -9.658306e-01 -2.785338e+00 -2.041049e+00 6.712920e-01 -5.423557e+00 -6.114478e+00 2.978986e+00 5.036034e+00 7.515194e-02 -2.533648e+00 4.628025e-01 -2.841743e-02 1.492165e-02 -2.601834e-01 -1.214907e-01 1.549438e-01 -5.460290e-01 -7.202516e-01 9.537000e-02 9.126793e-01 4.420567e-02 -6.098172e-02 -1.217350e-01
<VARIANCE> 25
 1.597039e+01 2.987668e+01 4.893341e+01 5.919489e+01 4.663084e+01 7.847089e+01 6.906533e+01 6.624297e+01 6.940466e+01 5.594739e+01 4.850682e+01 3.756459e+01 9.151913e-01 1.782566e+00 2.997446e+00 3.720036e+00 3.810684e+00 4.414733e+00 4.350816e+00 4.962434e+00 4.431509e+00 3.827480e+00 3.421768e+00 3.029576e+00 1.301915e+00
<GCONST> 1.067208e+02
<STATE> 3
<MEAN> 25
 7.184117e+00 -3.538711e+00 -1.864660e+00 -4.911861e+00 -1.874758e+00 2.130655e+00 -5.926668e+00 -6.594034e+00 3.761050e+00 6.496905e+00 -4.663336e-02 -2.987125e+00 -2.278799e-01 -3.329832e-01 -2.774571e-01 -7.024554e-01 6.263966e-01 8.594018e-02 1.900979e-01 1.090210e+00 3.234304e-01 -5.945013e-01 -3.384445e-01 -3.846630e-01 3.457072e-01
<VARIANCE> 25
 1.437210e+01 2.809435e+01 4.371639e+01 6.041423e+01 4.497797e+01 7.697427e+01 7.856731e+01 6.426247e+01 6.332266e+01 5.063630e+01 4.910442e+01 3.540753e+01 5.310087e-01 1.520863e+00 2.101396e+00 2.887524e+00 2.786478e+00 3.462885e+00 3.820867e+00 4.846882e+00 3.600359e+00 3.460239e+00 3.139440e+00 2.384709e+00 8.015053e-01
<GCONST> 1.031263e+02
<STATE> 4
<MEAN> 25
 5.802428e+00 -2.944353e+00 -3.406041e+00 -5.989406e+00 1.130364e+00 9.847354e-01 -2.807535e+00 -2.887829e+00 2.279830e+00 2.590282e+00 -3.997036e-01 -2.825265e+00 -2.736221e-01 -1.297779e-01 -3.164768e-02 3.802405e-02 2.530800e-01 -4.593204e-02 4.827444e-01 7.600081e-01 -2.295632e-01 -7.121335e-01 -1.508235e-01 2.296099e-02 2.978864e-02
<VARIANCE> 25
 1.938053e+01 3.251939e+01 5.292009e+01 7.116114e+01 5.099295e+01 8.698129e+01 8.474587e+01 6.392815e+01 6.412809e+01 4.957024e+01 5.738263e+01 4.429986e+01 5.310456e-01 1.477638e+00 1.885554e+00 2.224089e+00 2.494876e+00 2.869830e+00 2.926985e+00 3.413305e+00 2.927257e+00 2.723126e+00 2.600295e+00 2.119960e+00 9.182379e-01
<GCONST> 1.026854e+02
<TRANSP> 5
 0.000000e+00 1.000000e+00 0.000000e+00 0.000000e+00 0.000000e+00
 0.000000e+00 4.744785e-01 5.255215e-01 0.000000e+00 0.000000e+00
 0.000000e+00 0.000000e+00 4.471087e-01 5.528913e-01 0.000000e+00
 0.000000e+00 0.000000e+00 0.000000e+00 5.261654e-01 4.738347e-01
 0.000000e+00 0.000000e+00 0.000000e+00 0.000000e+00 0.000000e+00
<ENDHMM>
~h "m"
<BEGINHMM>
<NUMSTATES> 5
<STATE> 2
<MEAN> 25
 7.308292e+00 1.995878e+00 3.427646e-01 1.874156e+00 1.621060e-01 4.457629e+00 -1.205505e+00 -6.488216e+00 -4.587463e+00 5.494498e-01 -2.325591e-01 -1.187651e+00 1.047108e-01 8.345759e-01 8.520244e-01 1.237828e+00 1.696402e-01 2.592180e-01 3.768645e-01 -1.375219e+00 -1.332573e+00 -1.198494e-01 -3.838656e-01 1.602552e-01 -7.501243e-01
<VARIANCE> 25
 1.733320e+01 3.689526e+01 4.196328e+01 4.359873e+01 3.977448e+01 5.101216e+01 4.047345e+01 4.308192e+01 4.634946e+01 4.195549e+01 3.806166e+01 2.929816e+01 9.909464e-01 1.976231e+00 2.768819e+00 2.958695e+00 2.583313e+00 2.982668e+00 3.189856e+00 3.427674e+00 3.147995e+00 2.920203e+00 3.243392e+00 2.324117e+00 1.414195e+00
<GCONST> 1.013820e+02
<STATE> 3
<MEAN> 25
 7.054743e+00 3.537826e+00 2.423274e+00 3.706905e+00 -4.413086e-01 4.906778e+00 -5.566323e-01 -8.532733e+00 -6.879546e+00 -3.579978e-01 -1.298121e+00 -1.060970e+00 1.228896e-01 -2.666714e-02 -1.532391e-01 -2.844257e-01 -1.554672e-01 1.579698e-01 9.518740e-02 2.223959e-01 9.210289e-02 -1.953415e-02 9.703415e-02 7.756711e-03 5.801275e-02
<VARIANCE> 25
 1.297301e+01 3.597640e+01 3.662118e+01 3.342553e+01 3.890321e+01 4.773135e+01 4.714976e+01 5.243543e+01 5.842976e+01 5.472811e+01 4.595313e+01 3.420452e+01 4.501560e-01 1.214292e+00 1.573390e+00 1.877892e+00 1.675439e+00 2.117979e+00 1.900664e+00 2.140936e+00 2.296082e+00 2.016160e+00 1.940788e+00 1.600642e+00 8.317207e-01
<GCONST> 9.560338e+01
<STATE> 4
<MEAN> 25
 8.060544e+00 8.515503e-01 -8.424567e-01 -1.013604e+00 -7.686968e-01 6.470047e+00 -6.930690e-01 -5.722087e+00 -3.907605e+00 -2.140599e-01 6.428198e-01 -1.211627e+00 3.592818e-02 -1.187167e+00 -1.318635e+00 -1.506204e+00 1.110006e-01 3.833327e-01 -3.239502e-01 1.267650e+00 1.690918e+00 4.324516e-02 3.063347e-01 -3.448700e-01 1.091653e+00
<VARIANCE> 25
 1.734688e+01 4.468105e+01 5.796320e+01 6.313171e+01 4.708210e+01 6.210822e+01 5.106731e+01 4.941695e+01 5.743983e+01 4.369141e+01 4.182308e+01 3.403997e+01 9.940640e-01 3.428409e+00 4.492906e+00 4.555124e+00 4.607411e+00 4.343796e+00 5.266294e+00 4.852858e+00 5.813652e+00 4.464673e+00 3.987001e+00 3.718823e+00 1.832851e+00
<GCONST> 1.087489e+02
<TRANSP> 5
 0.000000e+00 1.000000e+00 0.000000e+00 0.000000e+00 0.000000e+00
 0.000000e+00 5.896312e-01 4.103688e-01 0.000000e+00 0.000000e+00
 0.000000e+00 0.000000e+00 6.311048e-01 3.688951e-01 0.000000e+00
 0.000000e+00 0.000000e+00 0.000000e+00 5.213302e-01 4.786698e-01
 0.000000e+00 0.000000e+00 0.000000e+00 0.000000e+00 0.000000e+00
<ENDHMM>
~h "n"
<BEGINHMM>
<NUMSTATES> 5
<STATE> 2
<MEAN> 25
 6.574229e+00 -2.498395e+00 2.265622e+00 3.045627e+00 -2.391280e+00 -1.809758e-01 -3.058242e+00 -5.219582e-01 1.988559e+00 -4.333628e-01 -4.670512e+00 -9.397097e-01 5.117977e-01 1.760495e+00 8.533519e-01 1.716769e+00 -6.030067e-01 1.065318e-01 -4.944112e-02 -2.033712e+00 -2.388754e-01 5.258967e-01 -4.258915e-01 5.590930e-01 -1.869260e+00
<VARIANCE> 25
 1.499047e+01 4.145349e+01 4.575631e+01 3.527175e+01 5.173549e+01 5.492462e+01 4.924943e+01 6.472919e+01 5.280588e+01 4.583896e+01 4.269787e+01 3.580323e+01 1.077994e+00 2.304158e+00 3.923600e+00 2.787471e+00 4.314737e+00 4.117521e+00 4.000521e+00 4.585399e+00 3.817688e+00 3.662339e+00 3.715773e+00 2.934113e+00 9.816679e-01
<GCONST> 1.050053e+02
<STATE> 3
<MEAN> 25
 6.507072e+00 3.395281e+00 3.415025e+00 5.743899e+00 -2.646759e+00 -9.127488e-01 -2.061059e+00 -5.015996e+00 -1.013337e+00 4.679620e-01 -5.343593e+00 -7.174631e-01 -2.248130e-01 8.108335e-01 -8.719423e-03 2.132939e-01 4.117105e-01 1.508946e-01 2.059071e-01 3.970446e-02 -2.699865e-01 -4.608930e-02 2.767261e-01 1.580564e-01 -8.738321e-01
<VARIANCE> 25
 1.382019e+01 3.631492e+01 3.791784e+01 2.870397e+01 4.779692e+01 5.324276e+01 4.048153e+01 4.722964e+01 4.689041e+01 4.977045e+01 4.300811e+01 3.626089e+01 7.024565e-01 1.422446e+00 1.521573e+00 1.475352e+00 2.277227e+00 2.286140e+00 2.212013e+00 2.877242e+00 2.459783e+00 2.140866e+00 2.281646e+00 1.765726e+00 5.739314e-01
<GCONST> 9.647070e+01
<STATE> 4
<MEAN> 25
 -2.902421e+00 2.171206e+00 -6.583122e-01 4.879655e+00 2.729943e+00 2.591885e+00 1.793569e+00 2.257152e+00 7.293156e-01 5.975285e-01 5.660691e-01 3.309385e+00 -1.964547e-01 7.835852e-03 -5.419716e-02 -2.151623e-02 7.142949e-02 4.735254e-02 6.065919e-02 1.049927e-01 -7.188878e-03 5.505804e-03 1.227076e-01 3.292838e-02 -1.744601e-01
<VARIANCE> 25
 3.398000e+01 3.089812e+01 3.054447e+01 2.505841e+01 3.437327e+01 3.235110e+01 3.007573e+01 3.469492e+01 3.091454e+01 2.592139e+01 3.003589e+01 2.306920e+01 4.846962e-01 7.281389e-01 8.423091e-01 1.042418e+00 1.317462e+00 1.510693e+00 1.575428e+00 1.757685e+00 1.726401e+00 1.604183e+00 1.537474e+00 1.369004e+00 3.241889e-01
<GCONST> 8.790690e+01
<TRANSP> 5
 0.000000e+00 1.000000e+00 0.000000e+00 0.000000e+00 0.000000e+00
 0.000000e+00 5.990388e-01 4.009612e-01 0.000000e+00 0.000000e+00
 0.000000e+00 0.000000e+00 7.199154e-01 2.800846e-01 0.000000e+00
 0.000000e+00 0.000000e+00 0.000000e+00 8.796705e-01 1.203295e-01
 0.000000e+00 0.000000e+00 0.000000e+00 0.000000e+00 0.000000e+00
<ENDHMM>
~h "o"
<BEGINHMM>
<NUMSTATES> 5
<STATE> 2
<MEAN> 25
 5.550482e+00 5.547521e-01 -7.236706e+00 -7.280756e+00 -5.335364e-01 4.653142e+00 -1.428113e+00 -2.748810e+00 -1.400630e-01 1.428786e+00 3.521139e+00 -8.038473e-01 1.667181e+00 -1.175881e-01 -6.195683e-01 -2.193587e+00 -5.756351e-01 1.766952e+00 -1.891260e-01 -5.540516e-01 -1.638602e-01 1.277871e-01 7.474859e-01 -5.638233e-01 1.680642e+00
<VARIANCE> 25
 3.797111e+01 3.698484e+01 5.500430e+01 8.202177e+01 5.804537e+01 8.118289e+01 6.988741e+01 5.037580e+01 5.279637e+01 5.050877e+01 5.011624e+01 3.717199e+01 4.825583e+00 3.782090e+00 4.823485e+00 7.455218e+00 6.572217e+00 7.506108e+00 6.799522e+00 5.709636e+00 5.780149e+00 5.289068e+00 4.967765e+00 3.787203e+00 5.171329e+00
<GCONST> 1.156935e+02
<STATE> 3
<MEAN> 25
 8.227959e+00 -1.133725e+00 -8.209000e+00 -1.193566e+01 -2.110791e+00 9.628867e+00 -1.879683e+00 -3.583893e+00 6.782830e-01 2.395260e-01 6.813996e+00 -1.593292e+00 1.022305e-01 -2.278069e-01 6.740911e-02 8.942711e-02 2.832254e-01 3.920805e-01 7.171890e-03 -1.817152e-01 8.822094e-02 4.170551e-01 -3.157479e-01 -2.142475e-01 -3.942537e-02
<VARIANCE> 25
 1.689116e+01 3.380523e+01 4.128426e+01 7.581432e+01 5.216987e+01 8.250182e+01 7.752760e+01 5.760054e+01 6.211546e+01 6.559225e+01 5.877225e+01 5.143812e+01 8.386576e-01 2.563013e+00 2.060866e+00 4.295321e+00 3.670585e+00 4.519038e+00 4.420265e+00 3.693464e+00 4.346541e+00 4.305632e+00 3.634090e+00 3.274720e+00 2.184281e+00
<GCONST> 1.081756e+02
<STATE> 4
<MEAN> 25
 7.635443e+00 2.938911e-01 -6.977518e+00 -9.533197e+00 -1.664545e-01 7.084418e+00 -2.059412e-01 -4.321530e+00 -5.285657e-01 2.757537e+00 3.038458e+00 -1.172633e+00 -2.574789e-01 2.661778e-01 3.958436e-01 1.188358e+00 3.555729e-01 -7.349100e-01 -5.056399e-03 1.196781e-01 1.503498e-01 -3.939250e-03 -5.541378e-01 1.553220e-01 -7.496626e-01
<VARIANCE> 25
 1.559216e+01 4.387629e+01 4.205545e+01 6.419003e+01 5.234959e+01 7.730479e+01 6.718443e+01 4.933794e+01 4.997226e+01 4.060231e+01 3.698096e+01 5.018254e+01 6.581444e-01 1.465890e+00 1.914312e+00 3.113150e+00 2.476827e+00 3.509645e+00 2.613151e+00 2.731004e+00 2.598324e+00 2.396435e+00 2.434531e+00 2.085465e+00 1.087964e+00
<GCONST> 1.013439e+02
<TRANSP> 5
 0.000000e+00 1.000000e+00 0.000000e+00 0.000000e+00 0.000000e+00
 0.000000e+00 5.335361e-01 4.664639e-01 0.000000e+00 0.000000e+00
 0.000000e+00 0.000000e+00 6.510568e-01 3.489432e-01 0.000000e+00
 0.000000e+00 0.000000e+00 0.000000e+00 7.754489e-01 2.245511e-01
 0.000000e+00 0.000000e+00 0.000000e+00 0.000000e+00 0.000000e+00
<ENDHMM>
~h "p"
<BEGINHMM>
<NUMSTATES> 5
<STATE> 2
<MEAN> 25
 -2.195852e+00 3.895625e+00 -4.403640e+00 3.489707e+00 3.092482e+00 6.907383e-01 1.850540e+00 1.194185e+00 2.747834e-01 1.931745e+00 1.190932e+00 1.208717e+00 -7.119871e-01 -1.498110e-01 -4.113984e-01 8.439557e-02 7.207162e-02 -2.767386e-01 3.638388e-01 1.354034e-01 4.997101e-02 1.169540e-02 2.088709e-01 2.460522e-01 -2.514340e-01
<VARIANCE> 25
 5.958627e+01 3.852125e+01 4.933048e+01 3.733439e+01 3.234832e+01 4.860620e+01 3.810377e+01 3.755820e+01 4.382790e+01 3.363100e+01 3.132980e+01 2.515526e+01 2.634659e+00 2.857119e+00 2.962912e+00 3.200988e+00 3.063228e+00 3.662868e+00 3.167523e+00 3.339929e+00 3.259494e+00 2.697126e+00 2.612570e+00 2.071069e+00 4.874033e+00
<GCONST> 1.042868e+02
<STATE> 3
<MEAN> 25
 -1.228657e+00 7.013813e-01 -4.682334e+00 9.361658e-01 1.704441e+00 -8.179412e-01 2.089098e+00 -9.391469e-01 2.564611e-01 1.280629e+00 2.177341e+00 1.000738e+00 1.721392e+00 -2.148010e+00 -8.612238e-01 -2.457941e+00 -8.247186e-01 6.461653e-01 -6.265672e-01 -1.161381e+00 4.376844e-01 1.418133e-01 4.695242e-01 -1.320808e+00 4.343207e+00
<VARIANCE> 25
 3.921321e+01 3.394762e+01 4.007085e+01 4.995602e+01 3.743686e+01 5.810340e+01 4.056050e+01 3.997817e+01 3.788798e+01 3.298024e+01 3.041732e+01 2.555664e+01 6.565451e+00 5.265353e+00 6.935538e+00 6.410820e+00 5.798855e+00 9.984062e+00 6.417141e+00 5.304630e+00 5.969389e+00 4.890342e+00 5.151708e+00 4.508436e+00 6.696466e+00
<GCONST> 1.129496e+02
<STATE> 4
<MEAN> 25
 5.039501e+00 -4.008552e+00 -6.955178e+00 -5.319980e+00 5.359346e-01 3.988929e+00 9.365873e-02 -3.709943e+00 2.476954e+00 1.998446e+00 2.866182e+00 -3.812624e+00 1.327150e+00 -1.094993e+00 -8.412299e-02 -1.126214e+00 -5.281934e-01 5.174138e-01 -7.644218e-01 -1.265379e-02 3.726466e-01 9.335364e-02 -1.719431e-01 -1.081295e+00 2.159505e+00
<VARIANCE> 25
 4.296434e+01 3.486114e+01 4.409624e+01 5.453479e+01 4.378345e+01 8.275958e+01 5.976255e+01 4.805078e+01 4.573239e+01 4.380910e+01 4.534801e+01 4.880339e+01 5.351268e+00 5.210304e+00 5.558172e+00 6.754764e+00 6.325238e+00 1.073728e+01 6.380547e+00 5.457576e+00 6.078109e+00 4.901147e+00 5.253742e+00 5.346855e+00 9.247252e+00
<GCONST> 1.161825e+02
<TRANSP> 5
 0.000000e+00 1.000000e+00 0.000000e+00 0.000000e+00 0.000000e+00
 0.000000e+00 7.104254e-01 2.895746e-01 0.000000e+00 0.000000e+00
 0.000000e+00 0.000000e+00 4.343856e-01 5.656145e-01 0.000000e+00
 0.000000e+00 0.000000e+00 0.000000e+00 4.458153e-01 5.541847e-01
 0.000000e+00 0.000000e+00 0.000000e+00 0.000000e+00 0.000000e+00
<ENDHMM>
~h "q"
<BEGINHMM>
<NUMSTATES> 5
<STATE> 2
<MEAN> 25
 3.600717e+00 -8.680533e+00 -8.284234e+00 -6.353665e+00 4.372849e+00 1.549246e+00 4.319518e+00 1.152737e+00 3.243693e+00 3.923475e-01 -3.877351e+00 -6.065693e+00 6.809086e-02 -4.623602e-01 3.041589e-02 8.386277e-02 1.899803e-01 2.256529e-01 8.768897e-03 -5.656578e-02 9.484872e-03 -3.452975e-01 -3.174158e-01 1.118613e-01 9.516858e-02
<VARIANCE> 25
 1.580664e+01 4.487142e+01 7.034551e+01 4.137600e+01 6.718541e+01 8.696601e+01 6.514005e+01 4.883941e+01 3.553459e+01 4.415069e+01 4.437081e+01 5.793124e+01 7.206933e-01 1.443669e+00 1.695972e+00 1.570322e+00 1.800433e+00 2.189501e+00 1.800848e+00 1.929720e+00 1.630871e+00 1.756838e+00 1.717080e+00 1.611599e+00 1.078885e+00
<GCONST> 9.821819e+01
<STATE> 3
<MEAN> 25
 4.047260e+00 -8.856705e+00 -5.589767e+00 -4.834121e+00 4.605864e+00 2.269149e+00 1.480371e+00 1.055779e+00 2.019724e+00 -2.631377e+00 -5.673531e+00 -2.084535e+00 -4.350529e-02 7.344420e-02 1.272416e-01 2.437742e-01 -2.101614e-02 -3.929416e-02 -9.881540e-02 1.225026e-01 -7.873946e-02 -8.163201e-02 -5.582621e-03 2.372458e-01 -1.345375e-01
<VARIANCE> 25
 1.242810e+01 4.933480e+01 3.652388e+01 4.573036e+01 5.295781e+01 6.433198e+01 4.279800e+01 4.420359e+01 4.283755e+01 4.440979e+01 4.086168e+01 3.278250e+01 3.498842e-01 7.370214e-01 9.517087e-01 1.126020e+00 1.140804e+00 1.487771e+00 1.353579e+00 1.322710e+00 1.331701e+00 1.378311e+00 1.184654e+00 1.279009e+00 5.927757e-01
<GCONST> 9.054131e+01
<STATE> 4
<MEAN> 25
 -2.968941e+00 -1.546476e+00 -2.729044e+00 1.645281e+00 1.904111e+00 4.161584e+00 4.714802e-02 3.884983e+00 1.970202e+00 9.146450e-01 3.576965e-01 3.050678e+00 -1.343270e-02 3.765108e-02 2.212571e-02 9.235048e-02 -3.702351e-02 -5.096773e-02 -5.115578e-02 3.696943e-02 -1.063036e-02 -7.617491e-03 1.241215e-02 5.063042e-02 -6.662554e-02
<VARIANCE> 25
 2.199472e+01 2.787659e+01 2.503484e+01 2.663841e+01 2.233673e+01 2.689771e+01 2.548567e+01 2.310913e+01 2.417165e+01 2.050597e+01 2.569927e+01 2.103782e+01 2.513530e-01 4.444524e-01 6.579112e-01 8.484751e-01 1.028184e+00 1.221871e+00 1.302291e+00 1.366771e+00 1.475753e+00 1.413159e+00 1.315580e+00 1.233992e+00 1.784222e-01
<GCONST> 8.166929e+01
<TRANSP> 5
 0.000000e+00 1.000000e+00 0.000000e+00 0.000000e+00 0.000000e+00
 0.000000e+00 5.919803e-01 4.080197e-01 0.000000e+00 0.000000e+00
 0.000000e+00 0.000000e+00 6.806479e-01 3.193522e-01 0.000000e+00
 0.000000e+00 0.000000e+00 0.000000e+00 8.549119e-01 1.450881e-01
 0.000000e+00 0.000000e+00 0.000000e+00 0.000000e+00 0.000000e+00
<ENDHMM>
~h "r"
<BEGINHMM>
<NUMSTATES> 5
<STATE> 2
<MEAN> 25
 5.101922e+00 -4.590456e+00 -2.595336e+00 9.638261e-01 -2.850689e+00 -2.176513e+00 -2.949800e+00 5.818324e-01 5.347531e+00 4.202923e-01 -5.143033e-01 -1.759541e+00 9.297035e-02 -1.019050e-02 4.050995e-01 1.170463e+00 -5.142387e-01 -8.594318e-02 -3.626098e-01 1.021115e-01 3.776048e-02 -3.281825e-01 4.325562e-01 5.418877e-01 -6.944011e-01
<VARIANCE> 25
 2.302116e+01 3.361997e+01 5.023562e+01 4.914778e+01 5.541949e+01 5.997282e+01 6.253177e+01 5.822261e+01 5.471778e+01 4.608680e+01 4.787709e+01 3.739732e+01 2.418372e+00 2.803524e+00 3.627770e+00 4.400105e+00 4.930172e+00 5.101392e+00 4.519754e+00 4.725626e+00 4.599619e+00 4.079381e+00 3.947928e+00 3.878190e+00 3.493880e+00
<GCONST> 1.099238e+02
<STATE> 3
<MEAN> 25
 5.249953e+00 -3.927537e+00 -1.229010e+00 2.883436e+00 -3.430044e+00 -2.313628e+00 -3.754085e+00 7.988226e-01 4.622593e+00 3.250382e-02 9.899242e-01 -6.921151e-01 -2.252641e-01 3.779480e-01 6.180110e-01 4.829538e-01 3.375475e-02 -1.281588e-01 1.222534e-01 5.718545e-02 -7.500716e-01 -8.370913e-02 5.221146e-01 5.348759e-01 -7.346773e-01
<VARIANCE> 25
 2.426070e+01 3.431501e+01 5.561886e+01 4.452568e+01 5.762753e+01 5.646851e+01 6.213366e+01 5.638720e+01 5.182408e+01 4.353783e+01 4.509266e+01 3.724837e+01 2.094042e+00 2.690346e+00 3.773252e+00 3.537301e+00 4.478390e+00 4.514406e+00 3.979365e+00 4.219358e+00 4.141094e+00 3.575363e+00 3.774966e+00 3.269272e+00 2.466284e+00
<GCONST> 1.081411e+02
<STATE> 4
<MEAN> 25
 2.662690e+00 -2.334235e+00 -6.093191e-02 3.000135e+00 -1.966607e+00 -2.351430e+00 -1.764922e+00 1.342297e+00 2.178851e+00 -3.635337e-01 1.435957e+00 6.544430e-01 -3.116111e-01 3.992092e-01 3.869286e-01 -4.627959e-02 9.503638e-02 5.804905e-02 3.259097e-01 -9.337949e-02 -6.909221e-01 2.596036e-02 2.227611e-01 1.165277e-01 -4.292195e-01
<VARIANCE> 25
 3.802678e+01 3.872823e+01 6.267982e+01 4.281190e+01 5.584697e+01 6.097561e+01 5.131171e+01 5.370184e+01 4.704679e+01 4.164540e+01 4.489181e+01 3.406980e+01 1.504425e+00 2.123600e+00 2.688400e+00 2.329987e+00 3.326038e+00 2.998651e+00 2.896840e+00 3.082900e+00 3.305345e+00 2.629348e+00 2.707771e+00 2.201807e+00 1.752723e+00
<GCONST> 1.040987e+02
<TRANSP> 5
 0.000000e+00 1.000000e+00 0.000000e+00 0.000000e+00 0.000000e+00
 0.000000e+00 3.376372e-01 6.623628e-01 0.000000e+00 0.000000e+00
 0.000000e+00 0.000000e+00 1.861292e-01 8.138708e-01 0.000000e+00
 0.000000e+00 0.000000e+00 0.000000e+00 5.284476e-01 4.715524e-01
 0.000000e+00 0.000000e+00 0.000000e+00 0.000000e+00 0.000000e+00
<ENDHMM>
~h "s"
<BEGINHMM>
<NUMSTATES> 5
<STATE> 2
<MEAN> 25
 -7.564414e+00 5.117529e+00 5.727927e-01 7.440382e-01 6.348372e+00 -3.889791e+00 3.910428e+00 1.452690e+00 1.939023e+00 -4.398600e-01 -2.844926e-01 1.419102e+00 -4.178363e+00 1.887188e+00 -4.497168e-01 -1.205982e-01 1.671460e+00 -7.911686e-01 1.489924e+00 3.308727e-01 3.644321e-01 -4.187099e-01 8.316382e-01 6.407627e-01 2.723758e-01
<VARIANCE> 25
 7.511245e+01 5.165878e+01 7.706793e+01 4.939366e+01 7.631704e+01 7.678605e+01 8.083057e+01 6.259506e+01 5.224357e+01 4.344574e+01 4.828289e+01 3.439858e+01 3.226558e+00 4.176458e+00 4.711162e+00 4.514458e+00 6.104793e+00 6.789557e+00 6.540113e+00 5.255495e+00 4.384840e+00 3.948188e+00 4.147282e+00 3.080268e+00 2.002426e+00
<GCONST> 1.138156e+02
<STATE> 3
<MEAN> 25
 -1.912381e+01 7.209081e+00 -1.899084e+00 -1.680806e-01 7.933384e+00 -5.261875e+00 6.671621e+00 1.500523e+00 1.950419e+00 -1.275015e+00 2.601958e+00 3.322772e+00 -3.737966e-01 -4.211327e-01 -1.331667e-01 -1.421040e-01 -1.992821e-01 -2.948101e-02 7.721192e-03 7.766028e-02 4.199133e-02 -1.123750e-04 4.399670e-02 6.095582e-02 -3.512040e-01
<VARIANCE> 25
 3.741890e+01 3.997115e+01 5.608300e+01 5.576447e+01 5.996731e+01 7.253363e+01 6.048232e+01 5.329802e+01 3.833474e+01 3.007712e+01 2.952584e+01 2.850280e+01 2.614440e+00 1.713642e+00 1.784248e+00 1.669740e+00 2.066658e+00 2.175204e+00 2.322813e+00 2.334185e+00 2.253488e+00 2.003596e+00 1.932128e+00 1.693495e+00 9.362183e-01
<GCONST> 9.995848e+01
<STATE> 4
<MEAN> 25
 -1.230932e+01 3.897364e+00 -7.611575e-01 -1.154653e+00 5.187622e+00 -5.706904e+00 3.849307e+00 1.248240e+00 2.470133e+00 -9.090394e-01 1.308892e-01 1.831545e+00 4.303403e+00 -8.929739e-01 5.349548e-01 -1.602332e-01 -1.694141e+00 1.429874e-01 -1.698066e+00 -9.066868e-01 -2.258709e-01 2.066709e-01 -1.018481e+00 -8.986432e-01 6.214644e-01
<VARIANCE> 25
 7.793604e+01 4.304070e+01 6.437289e+01 5.098811e+01 5.755348e+01 6.815607e+01 6.891225e+01 5.647999e+01 4.193161e+01 3.308799e+01 4.050479e+01 3.148773e+01 5.101474e+00 4.766123e+00 6.122816e+00 4.954126e+00 5.643620e+00 6.565918e+00 6.008743e+00 6.003438e+00 5.166030e+00 3.648513e+00 3.974624e+00 3.233119e+00 3.439269e+00
<GCONST> 1.136150e+02
<TRANSP> 5
 0.000000e+00 1.000000e+00 0.000000e+00 0.000000e+00 0.000000e+00
 0.000000e+00 7.069556e-01 2.930444e-01 0.000000e+00 0.000000e+00
 0.000000e+00 0.000000e+00 8.185864e-01 1.814136e-01 0.000000e+00
 0.000000e+00 0.000000e+00 0.000000e+00 6.616089e-01 3.383911e-01
 0.000000e+00 0.000000e+00 0.000000e+00 0.000000e+00 0.000000e+00
<ENDHMM>
~h "t"
<BEGINHMM>
<NUMSTATES> 5
<STATE> 2
<MEAN> 25
 -1.303681e+00 4.813166e+00 -2.202175e+00 3.621645e+00 2.411805e+00 -1.319297e+00 6.884929e-01 1.377821e-01 1.502566e+00 1.826069e+00 1.637109e-01 1.460163e+00 -1.359197e+00 -4.150174e-01 -4.795705e-01 -4.540261e-01 4.385411e-01 -5.809947e-01 7.144780e-01 2.764032e-01 -7.274997e-02 -3.212839e-01 3.349079e-01 2.302040e-01 3.044131e-01
<VARIANCE> 25
 4.790457e+01 4.297881e+01 6.135778e+01 3.699178e+01 4.731715e+01 5.694400e+01 4.870688e+01 4.867501e+01 5.092615e+01 3.917506e+01 3.707980e+01 2.885320e+01 3.397695e+00 4.477892e+00 4.539449e+00 5.056711e+00 5.048952e+00 5.764364e+00 4.773234e+00 4.914598e+00 4.431611e+00 3.613971e+00 3.581416e+00 2.757322e+00 6.869627e+00
<GCONST> 1.109205e+02
<STATE> 3
<MEAN> 25
 -6.185890e+00 1.929504e-01 -2.537107e+00 -1.127775e+00 3.462901e+00 -4.982472e+00 3.125352e+00 3.008822e-01 9.617644e-01 2.811706e-02 1.418488e+00 2.234292e+00 -5.586877e-02 -1.627877e+00 1.074475e-01 -2.234481e+00 -2.052936e-01 -1.473651e+00 -3.923485e-01 -4.404698e-01 4.577211e-01 -4.652048e-01 -1.669710e-01 -5.925645e-01 4.130022e+00
<VARIANCE> 25
 3.837196e+01 4.224628e+01 5.067895e+01 5.789279e+01 5.133050e+01 7.455081e+01 5.476206e+01 4.563982e+01 4.374946e+01 3.774313e+01 3.370743e+01 3.097604e+01 6.467831e+00 5.307229e+00 8.158083e+00 6.616285e+00 6.751404e+00 7.775283e+00 7.398462e+00 6.809061e+00 7.492022e+00 5.443409e+00 6.194760e+00 4.773618e+00 6.798810e+00
<GCONST> 1.161721e+02
<STATE> 4
<MEAN> 25
 -2.224129e+00 -1.065822e+00 -1.583697e+00 -3.641880e+00 1.667174e+00 -5.814153e+00 -4.352949e-01 -8.365302e-01 2.741689e+00 -2.072687e-02 -3.254312e-01 -5.439443e-01 2.190797e+00 -7.250984e-01 6.247618e-01 -1.059243e+00 -1.182666e+00 5.198153e-01 -1.799215e+00 -3.445775e-01 1.347750e-02 2.202056e-01 -2.453659e-01 -1.336465e+00 2.784168e+00
<VARIANCE> 25
 3.986361e+01 3.648049e+01 5.158553e+01 4.963474e+01 5.272424e+01 6.616380e+01 6.880817e+01 4.927192e+01 5.041395e+01 4.049801e+01 4.313115e+01 3.966769e+01 5.105532e+00 5.438083e+00 8.979130e+00 6.460557e+00 7.043281e+00 9.505516e+00 8.074037e+00 7.717541e+00 7.628138e+00 5.159188e+00 6.508101e+00 4.828147e+00 5.334393e+00
<GCONST> 1.169440e+02
<TRANSP> 5
 0.000000e+00 1.000000e+00 0.000000e+00 0.000000e+00 0.000000e+00
 0.000000e+00 5.768852e-01 4.231148e-01 0.000000e+00 0.000000e+00
 0.000000e+00 0.000000e+00 3.703401e-01 6.296599e-01 0.000000e+00
 0.000000e+00 0.000000e+00 0.000000e+00 2.395902e-01 7.604098e-01
 0.000000e+00 0.000000e+00 0.000000e+00 0.000000e+00 0.000000e+00
<ENDHMM>
~h "u"
<BEGINHMM>
<NUMSTATES> 5
<STATE> 2
<MEAN> 25
 5.693679e+00 3.793863e+00 -1.878518e+00 -4.111130e+00 -1.656966e+00 1.910156e+00 -5.831790e+00 -5.530725e+00 -2.510791e+00 -8.878582e-02 3.199604e+00 2.748475e-01 1.720107e+00 6.404631e-01 -2.421054e-01 -1.602019e+00 -1.084799e+00 1.662218e+00 -9.090051e-01 -1.398948e+00 -8.376200e-01 3.215183e-02 1.032886e+00 1.930085e-01 8.205633e-01
<VARIANCE> 25
 3.098019e+01 4.482202e+01 5.504266e+01 8.363503e+01 5.583333e+01 6.879166e+01 8.377566e+01 6.659837e+01 6.280837e+01 5.472444e+01 5.214162e+01 3.688631e+01 3.986626e+00 3.753609e+00 5.249701e+00 5.932611e+00 6.146046e+00 7.497613e+00 6.891151e+00 6.362758e+00 5.842657e+00 5.288342e+00 4.799148e+00 3.643281e+00 3.414100e+00
<GCONST> 1.154773e+02
<STATE> 3
<MEAN> 25
 8.611645e+00 4.000789e+00 -1.982249e+00 -8.123055e+00 -4.439628e+00 8.261302e+00 -6.709175e+00 -9.357408e+00 -3.428475e+00 -3.810641e-01 5.936832e+00 1.200629e+00 1.125825e-01 -1.249076e-01 3.351970e-02 -6.936049e-04 2.657459e-01 3.634574e-01 -1.067604e-01 -7.847709e-02 1.897804e-01 4.324102e-01 -1.215055e-01 -1.432882e-01 -1.704919e-01
<VARIANCE> 25
 1.617939e+01 3.733877e+01 4.289228e+01 7.791521e+01 5.678909e+01 8.025668e+01 9.236854e+01 7.734611e+01 7.429948e+01 6.890401e+01 5.859319e+01 4.480799e+01 9.415520e-01 3.465783e+00 2.685067e+00 4.999920e+00 4.267018e+00 4.958134e+00 5.570202e+00 5.181830e+00 5.308015e+00 5.343161e+00 4.502714e+00 3.726479e+00 2.458674e+00
<GCONST> 1.114366e+02
<STATE> 4
<MEAN> 25
 6.460663e+00 5.647283e+00 -1.946809e+00 -5.736254e+00 -9.839913e-01 2.744333e+00 -5.365298e+00 -5.271751e+00 -4.008246e+00 6.550168e-01 3.133497e+00 1.050884e+00 -5.409268e-01 3.265349e-02 2.878360e-01 1.066687e+00 4.251506e-01 -5.940173e-01 5.278615e-01 5.310062e-01 3.793590e-01 1.947280e-02 -5.104550e-01 -1.218516e-02 -8.791999e-01
<VARIANCE> 25
 2.042733e+01 4.136866e+01 5.156609e+01 7.808920e+01 4.694798e+01 6.110472e+01 6.645776e+01 4.818587e+01 5.658510e+01 5.018389e+01 3.886436e+01 3.801883e+01 1.007891e+00 1.791817e+00 2.245819e+00 3.187509e+00 2.854982e+00 3.416363e+00 3.239188e+00 3.108192e+00 3.071224e+00 2.733651e+00 2.867758e+00 2.402505e+00 1.613430e+00
<GCONST> 1.039524e+02
<TRANSP> 5
 0.000000e+00 1.000000e+00 0.000000e+00 0.000000e+00 0.000000e+00
 0.000000e+00 4.665861e-01 5.334139e-01 0.000000e+00 0.000000e+00
 0.000000e+00 0.000000e+00 6.221179e-01 3.778821e-01 0.000000e+00
 0.000000e+00 0.000000e+00 0.000000e+00 7.317131e-01 2.682869e-01
 0.000000e+00 0.000000e+00 0.000000e+00 0.000000e+00 0.000000e+00
<ENDHMM>
~h "w"
<BEGINHMM>
<NUMSTATES> 5
<STATE> 2
<MEAN> 25
 8.689470e+00 2.228011e+00 -5.274760e+00 -1.090933e+01 -2.883470e+00 6.367621e+00 -1.454374e+00 -3.508959e+00 -2.459000e+00 -5.482352e-01 4.512316e+00 2.047090e-01 7.937270e-01 6.579902e-01 -5.840585e-01 -1.518975e+00 -9.632789e-01 7.194648e-01 5.719362e-01 -2.659253e-01 -5.025123e-01 -2.932720e-01 4.002137e-01 6.964754e-01 5.006063e-02
<VARIANCE> 25
 1.877180e+01 5.051974e+01 3.210332e+01 6.388103e+01 5.268602e+01 6.380024e+01 5.470036e+01 5.382107e+01 5.419717e+01 4.774195e+01 4.131552e+01 4.445516e+01 1.442610e+00 2.831254e+00 2.293029e+00 3.020245e+00 3.101127e+00 3.695982e+00 3.814374e+00 3.342991e+00 3.268127e+00 3.535724e+00 3.205152e+00 3.077923e+00 2.235409e+00
<GCONST> 1.057770e+02
<STATE> 3
<MEAN> 25
 8.323017e+00 -9.997162e-01 -8.606901e+00 -1.490306e+01 -1.890755e+00 1.015573e+01 -2.082919e-01 -4.655015e+00 -8.221087e-01 1.738625e+00 5.270939e+00 -2.659759e+00 -6.177534e-01 -1.186990e+00 -3.096303e-01 4.964016e-01 1.116491e+00 3.862837e-02 -5.883464e-02 1.932065e-01 6.834829e-01 5.189664e-01 -3.977379e-01 -1.265395e+00 5.431089e-01
<VARIANCE> 25
 1.742282e+01 3.843491e+01 3.707041e+01 5.770900e+01 5.277610e+01 5.651032e+01 7.007777e+01 4.789723e+01 4.702032e+01 4.423442e+01 3.899957e+01 5.230243e+01 7.805122e-01 2.274404e+00 1.346829e+00 2.947782e+00 2.460784e+00 3.175384e+00 2.886765e+00 3.235731e+00 2.857234e+00 2.951664e+00 3.123288e+00 3.448208e+00 1.502730e+00
<GCONST> 1.026610e+02
<STATE> 4
<MEAN> 25
 -1.627160e+00 -1.746521e+00 -4.687126e+00 -1.084497e+00 2.979775e+00 3.434352e+00 2.093283e-01 2.348220e+00 2.043324e+00 4.086618e-01 7.308954e-01 5.714013e-01 -1.186633e-01 -5.958307e-02 4.648856e-02 1.881905e-01 4.504056e-02 -7.781398e-02 1.417990e-02 1.120517e-01 4.822238e-02 -3.226801e-02 -1.097074e-01 3.177530e-02 -1.167384e-01
<VARIANCE> 25
 3.869851e+01 3.590800e+01 2.137506e+01 5.149002e+01 4.418428e+01 3.341737e+01 3.127521e+01 2.862597e+01 2.980614e+01 2.580818e+01 2.334182e+01 5.082164e+01 2.485575e-01 5.126307e-01 6.789200e-01 9.459733e-01 1.021570e+00 1.378607e+00 1.327696e+00 1.455937e+00 1.331701e+00 1.457653e+00 1.383081e+00 1.110488e+00 2.044740e-01
<GCONST> 8.600938e+01
<TRANSP> 5
 0.000000e+00 1.000000e+00 0.000000e+00 0.000000e+00 0.000000e+00
 0.000000e+00 7.613000e-01 2.387000e-01 0.000000e+00 0.000000e+00
 0.000000e+00 0.000000e+00 7.857435e-01 2.142566e-01 0.000000e+00
 0.000000e+00 0.000000e+00 0.000000e+00 8.929166e-01 1.070834e-01
 0.000000e+00 0.000000e+00 0.000000e+00 0.000000e+00 0.000000e+00
<ENDHMM>
~h "y"
<BEGINHMM>
<NUMSTATES> 5
<STATE> 2
<MEAN> 25
 2.250707e-01 -7.330536e-02 9.929864e+00 -1.463791e+00 -9.334482e+00 -3.229727e+00 -1.327433e+00 1.845450e+00 -3.728739e+00 -1.038075e+00 2.666730e+00 3.165237e-01 -4.441914e-02 -1.168877e-01 1.781466e+00 -7.943445e-01 -1.679828e+00 -3.332470e-01 -2.507663e-01 1.166359e-01 -9.623192e-01 1.878302e-01 1.124035e+00 1.104439e-01 1.017557e+00
<VARIANCE> 25
 3.700039e+01 6.697850e+01 7.989152e+01 5.354575e+01 7.098325e+01 6.577400e+01 8.847213e+01 6.887423e+01 6.773420e+01 4.957223e+01 4.751195e+01 3.919473e+01 2.609636e+00 4.141006e+00 6.018426e+00 3.938103e+00 4.899592e+00 4.822335e+00 5.603776e+00 5.726626e+00 4.684535e+00 3.815807e+00 3.786971e+00 3.109511e+00 3.593601e+00
<GCONST> 1.137409e+02
<STATE> 3
<MEAN> 25
 1.202865e+00 -3.843970e+00 1.238144e+01 -4.864702e+00 -1.400133e+01 -5.544285e+00 -1.466388e+00 3.838919e+00 -4.153754e+00 7.614554e-01 5.603556e+00 -1.943781e-01 1.920350e-01 -9.485254e-01 -1.279659e+00 -3.838951e-02 5.241769e-01 -6.292462e-02 7.563637e-01 1.239877e+00 7.569451e-01 -3.589425e-01 -6.158811e-01 -5.106695e-02 4.222627e-01
<VARIANCE> 25
 9.578068e+00 3.413058e+01 4.827254e+01 3.637886e+01 4.257919e+01 4.959238e+01 6.940639e+01 6.409727e+01 5.100916e+01 5.101379e+01 4.328133e+01 3.060998e+01 4.424277e-01 1.793053e+00 3.560144e+00 1.688687e+00 3.538011e+00 2.075305e+00 2.941835e+00 3.716734e+00 2.837870e+00 2.872125e+00 3.113292e+00 1.516285e+00 5.848442e-01
<GCONST> 9.937757e+01
<STATE> 4
<MEAN> 25
 7.819872e-01 -6.791873e+00 2.562581e+00 -2.063720e+00 -5.169811e+00 -3.268132e+00 1.516052e+00 7.639139e+00 9.961487e-02 -2.445275e+00 1.971810e-01 2.644233e-01 2.080242e-01 -2.507496e-01 -1.064738e+00 2.116583e-01 1.148627e+00 4.934604e-01 -1.780412e-01 1.022390e-02 4.199367e-01 -2.656038e-01 -8.045126e-01 -3.225822e-01 -1.276481e-01
<VARIANCE> 25
 2.345887e+01 3.343787e+01 3.711976e+01 3.069840e+01 5.150404e+01 5.198777e+01 5.376573e+01 4.660158e+01 3.852692e+01 3.505695e+01 3.434283e+01 2.612083e+01 3.013750e-01 6.888021e-01 1.900154e+00 1.207457e+00 2.927470e+00 1.727013e+00 1.968196e+00 1.763418e+00 1.760740e+00 1.887127e+00 2.112508e+00 1.504905e+00 2.241377e-01
<GCONST> 9.236168e+01
<TRANSP> 5
 0.000000e+00 1.000000e+00 0.000000e+00 0.000000e+00 0.000000e+00
 0.000000e+00 6.762865e-01 3.237135e-01 0.000000e+00 0.000000e+00
 0.000000e+00 0.000000e+00 7.468997e-01 2.531002e-01 0.000000e+00
 0.000000e+00 0.000000e+00 0.000000e+00 7.107344e-01 2.892656e-01
 0.000000e+00 0.000000e+00 0.000000e+00 0.000000e+00 0.000000e+00
<ENDHMM>
~h "z"
<BEGINHMM>
<NUMSTATES> 5
<STATE> 2
<MEAN> 25
 -6.209541e+00 -3.965551e-01 -6.271032e-01 2.270686e+00 3.827790e+00 3.206891e+00 3.517917e-01 2.313172e+00 7.715530e-01 1.820077e+00 2.216540e+00 3.789551e+00 -3.712644e-02 -1.706252e-02 -1.830644e-02 -2.172511e-02 2.849726e-03 -9.761586e-05 -1.554718e-02 -2.410753e-02 -3.448057e-02 -2.004011e-02 1.716069e-02 -1.070959e-02 -1.827365e-02
<VARIANCE> 25
 4.387556e+00 1.381173e+01 8.481060e+00 8.047235e+00 9.580038e+00 2.047724e+01 2.227892e+01 1.945114e+01 1.565083e+01 1.241548e+01 1.907396e+01 9.182416e+00 2.116278e-01 3.486966e-01 5.995370e-01 7.194096e-01 8.276242e-01 1.219234e+00 1.383317e+00 1.421931e+00 1.344151e+00 1.391442e+00 1.474261e+00 1.117305e+00 1.204790e-01
<GCONST> 7.230703e+01
<STATE> 3
<MEAN> 25
 -2.113123e+00 5.303727e+00 6.916566e-02 3.025142e+00 1.719057e+00 -2.740934e+00 1.288939e+00 -1.528067e+00 -2.025166e+00 -1.588125e+00 4.783436e-02 5.203344e-01 1.713100e+00 -1.918587e-01 2.324279e-01 3.051553e-01 -6.012756e-01 -1.132602e+00 3.549612e-02 1.107016e-01 -8.851805e-02 -2.500993e-01 -5.103526e-01 -5.278043e-01 1.864241e+00
<VARIANCE> 25
 4.669409e+01 7.266087e+01 1.475119e+01 2.013507e+01 8.083169e+00 7.181751e+01 2.510020e+01 3.574810e+01 3.005971e+01 1.274206e+01 9.227360e+00 1.369634e+01 1.048851e+00 3.800413e+00 2.693417e+00 2.128086e+00 1.334540e+00 3.709892e+00 2.365140e+00 9.322646e-01 3.860998e+00 1.825593e+00 1.066253e+00 1.865753e+00 1.392040e+01
<GCONST> 9.451397e+01
<STATE> 4
<MEAN> 25
 1.237932e-01 6.911051e+00 4.351462e+00 5.760755e+00 -2.767442e+00 -8.070465e+00 3.598350e+00 -4.775249e+00 -2.671107e+00 -1.735204e+00 -1.695640e+00 1.440595e+00 5.019274e-01 -4.351728e-01 1.416628e+00 3.058242e-01 -1.556546e+00 9.544218e-02 9.074760e-02 -8.502666e-01 -3.649559e-01 1.894714e-01 -4.300797e-03 6.631870e-02 -4.380566e-02
<VARIANCE> 25
 5.670322e+01 6.018324e+01 2.876051e+01 1.350471e+01 2.318528e+01 4.425932e+01 3.371350e+01 4.690263e+01 3.068042e+01 8.629060e+00 1.208320e+01 1.009841e+01 3.594073e+00 4.480502e+00 4.417211e+00 3.942946e+00 6.509223e+00 2.059362e+00 2.770697e+00 1.375811e+00 2.727141e+00 6.615853e-01 1.405563e+00 2.342287e+00 4.186601e+00
<GCONST> 9.751051e+01
<TRANSP> 5
 0.000000e+00 1.000000e+00 0.000000e+00 0.000000e+00 0.000000e+00
 0.000000e+00 9.795187e-01 2.048128e-02 0.000000e+00 0.000000e+00
 0.000000e+00 0.000000e+00 6.079018e-01 3.920982e-01 0.000000e+00
 0.000000e+00 0.000000e+00 0.000000e+00 7.196034e-01 2.803965e-01
 0.000000e+00 0.000000e+00 0.000000e+00 0.000000e+00 0.000000e+00
<ENDHMM>
~h "aw"
<BEGINHMM>
<NUMSTATES> 5
<STATE> 2
<MEAN> 25
 6.204995e+00 -5.229417e+00 -6.589251e+00 -1.007608e+01 -1.515338e+00 6.129434e+00 3.360994e+00 -2.316222e+00 5.107646e+00 5.992681e-01 6.504312e-01 -5.344035e+00 5.921239e-01 8.455805e-01 -3.151444e-01 -7.068590e-01 1.639812e-01 1.171723e+00 1.924978e-01 -8.524957e-01 -1.026594e+00 1.960201e-01 3.316133e-01 7.693203e-01 -1.180067e+00
<VARIANCE> 25
 3.025546e+01 4.789384e+01 1.788784e+01 4.189737e+01 2.743233e+01 8.188924e+01 3.033391e+01 5.705862e+01 7.832104e+01 5.125674e+01 7.462954e+01 4.451541e+01 1.310444e+00 1.748288e+00 2.179201e+00 4.401839e+00 3.443604e+00 5.403918e+00 2.182751e+00 5.420975e+00 3.280011e+00 3.445013e+00 3.408421e+00 4.960906e+00 7.973436e-01
<GCONST> 1.049350e+02
<STATE> 3
<MEAN> 25
 6.253562e+00 1.318948e+00 -5.176759e+00 -9.951066e+00 -4.302162e+00 -8.123513e-01 6.253202e+00 2.320481e+00 -2.358104e+00 3.835642e+00 -2.882657e+00 -1.159466e+00 -7.332940e-02 4.410814e-01 4.046026e-01 1.639097e-01 -2.947765e-01 -1.042066e-01 -7.341984e-01 5.637856e-03 -1.368695e-01 -6.107922e-02 -2.457594e-01 -1.155453e-01 -8.240835e-01
<VARIANCE> 25
 3.349821e+01 2.761007e+01 4.255967e+01 6.944853e+01 6.566233e+01 9.223205e+01 6.938326e+01 2.456977e+01 2.266143e+01 5.950131e+01 4.795555e+01 3.183924e+01 9.362170e-01 1.291914e+00 1.599237e+00 1.107384e+00 1.424234e+00 1.836363e+00 2.895399e+00 1.934550e+00 1.602569e+00 2.570589e+00 1.540181e+00 1.522316e+00 3.482721e-01
<GCONST> 9.611501e+01
<STATE> 4
<MEAN> 25
 -1.865473e+00 3.334905e+00 -3.565500e+00 3.018536e+00 1.266178e-01 2.567667e+00 -7.459223e-01 3.940117e+00 2.426381e+00 3.281193e-01 4.270471e+00 4.090631e+00 -4.689801e-02 -5.225088e-02 -6.805180e-02 1.117777e-01 -1.149524e-02 7.872597e-02 -7.324601e-02 6.181555e-02 6.821037e-02 2.573104e-02 1.288477e-01 7.372756e-02 -9.972048e-02
<VARIANCE> 25
 3.871526e+01 1.503490e+01 1.909154e+01 3.909681e+01 3.185103e+01 2.985080e+01 2.111245e+01 1.368000e+01 2.364024e+01 2.288036e+01 2.760446e+01 2.104069e+01 3.994915e-01 5.282233e-01 5.191785e-01 8.268690e-01 9.288578e-01 1.221301e+00 1.170590e+00 8.690088e-01 1.133816e+00 1.348821e+00 1.340068e+00 9.931625e-01 1.326963e-01
<GCONST> 8.054235e+01
<TRANSP> 5
 0.000000e+00 1.000000e+00 0.000000e+00 0.000000e+00 0.000000e+00
 0.000000e+00 8.886179e-01 1.113821e-01 0.000000e+00 0.000000e+00
 0.000000e+00 0.000000e+00 8.410039e-01 1.589961e-01 0.000000e+00
 0.000000e+00 0.000000e+00 0.000000e+00 9.091716e-01 9.082844e-02
 0.000000e+00 0.000000e+00 0.000000e+00 0.000000e+00 0.000000e+00
<ENDHMM>
~h "ay"
<BEGINHMM>
<NUMSTATES> 5
<STATE> 2
<MEAN> 25
 3.417560e+00 -8.496593e+00 1.635423e+00 -4.460257e+00 -7.723767e+00 -5.674844e+00 4.293083e+00 8.153728e+00 9.289353e-01 -2.680922e+00 -2.593051e-01 -1.198453e+00 -2.246971e-01 4.281977e-01 1.396816e+00 2.179780e-01 -8.830962e-01 -3.512738e-01 1.148200e-01 -3.462183e-01 -7.123505e-01 3.382640e-01 4.643665e-01 3.661906e-01 -1.527451e-01
<VARIANCE> 25
 8.811114e+00 2.548965e+01 6.292192e+01 2.828673e+01 4.481593e+01 4.008184e+01 5.622301e+01 5.166888e+01 2.812532e+01 4.333624e+01 3.813279e+01 2.093410e+01 5.866740e-01 1.755389e+00 5.150443e+00 1.689163e+00 4.195827e+00 2.711028e+00 3.157639e+00 5.815917e+00 2.609431e+00 4.699748e+00 3.337288e+00 1.855958e+00 5.220934e-01
<GCONST> 9.931614e+01
<STATE> 3
<MEAN> 25
 1.543940e+00 9.007374e-01 1.132585e+01 3.544205e-02 -1.114462e+01 -6.770137e+00 1.635551e+00 -1.365593e+00 -1.348987e+00 2.638686e+00 2.425364e+00 2.615881e-01 -7.603516e-02 9.876406e-01 -3.356721e-01 9.559946e-01 9.483812e-01 5.628617e-01 1.523647e-01 -1.134062e-01 3.308621e-01 1.021765e-02 -4.045066e-01 3.591602e-01 -1.782533e+00
<VARIANCE> 25
 1.012438e+01 3.140074e+01 4.107561e+01 4.030038e+01 3.906254e+01 3.829439e+01 4.035944e+01 4.445563e+01 3.697725e+01 3.994627e+01 3.492110e+01 2.586300e+01 6.864702e-01 1.359196e+00 4.735337e+00 2.804127e+00 3.402499e+00 2.719793e+00 3.797119e+00 6.054354e+00 3.457740e+00 3.133582e+00 2.942292e+00 2.338453e+00 1.073756e+00
<GCONST> 1.002866e+02
<STATE> 4
<MEAN> 25
 -3.326882e+00 1.430011e+00 6.242482e+00 2.751635e+00 -3.782313e+00 -4.107070e-01 6.003473e+00 4.117183e+00 5.646602e-02 1.575888e-01 5.205219e+00 2.328898e+00 -3.126071e-01 3.720895e-03 -5.424928e-01 2.103085e-01 3.918977e-01 1.826638e-01 -1.862726e-02 2.209292e-01 1.933968e-02 -1.725028e-01 -7.140361e-02 1.439839e-01 -5.023862e-01
<VARIANCE> 25
 1.932606e+01 1.716341e+01 7.169219e+01 2.820523e+01 2.601373e+01 3.487357e+01 4.684408e+01 4.522245e+01 3.732863e+01 5.980066e+01 2.709119e+01 3.075868e+01 4.776829e-01 1.171196e+00 1.922542e+00 1.344763e+00 1.481305e+00 1.523725e+00 1.587563e+00 2.550802e+00 2.180208e+00 2.340311e+00 1.645732e+00 2.282389e+00 7.282050e-01
<GCONST> 9.348569e+01
<TRANSP> 5
 0.000000e+00 1.000000e+00 0.000000e+00 0.000000e+00 0.000000e+00
 0.000000e+00 8.569014e-01 1.430986e-01 0.000000e+00 0.000000e+00
 0.000000e+00 0.000000e+00 8.118945e-01 1.881054e-01 0.000000e+00
 0.000000e+00 0.000000e+00 0.000000e+00 8.183157e-01 1.816843e-01
 0.000000e+00 0.000000e+00 0.000000e+00 0.000000e+00 0.000000e+00
<ENDHMM>
~h "kh"
<BEGINHMM>
<NUMSTATES> 5
<STATE> 2
<MEAN> 25
 3.390743e+00 -3.547856e+00 -1.055479e+01 -4.558758e+00 3.863564e+00 2.995583e+00 8.139027e-03 7.463825e-01 -8.202461e-01 2.862330e+00 2.045840e+00 -5.322559e+00 -1.131928e-01 1.824657e-01 -8.405007e-01 -7.649407e-01 -1.221081e-02 7.104311e-01 1.518990e-01 2.696202e-01 -8.126051e-01 -1.591806e-01 -1.591684e-01 4.350826e-02 -1.955806e-01
<VARIANCE> 25
 4.304763e+01 1.310411e+01 2.880298e+01 5.286479e+01 4.011203e+01 1.513608e+01 2.101693e+01 2.978435e+01 4.456759e+01 1.728165e+01 1.062541e+01 4.886217e+01 3.853110e+00 1.006278e+00 4.134019e+00 3.014381e+00 3.365433e+00 2.856665e+00 1.917206e+00 3.292099e+00 5.866040e+00 1.889835e+00 1.626469e+00 4.560126e+00 7.261774e+00
<GCONST> 9.973279e+01
<STATE> 3
<MEAN> 25
 -1.142415e+00 1.474439e+00 -7.915580e+00 -4.251822e+00 5.616958e-02 7.330695e+00 5.297020e+00 -2.412267e+00 -2.105580e+00 -8.881641e-02 2.847862e+00 6.203700e-01 -3.497759e-01 5.558078e-02 1.427502e+00 -5.649561e-01 -2.037850e+00 -3.224639e-01 -2.594402e-01 -1.063280e+00 -5.660370e-01 -6.655455e-01 2.499395e-01 8.200877e-01 2.184927e+00
<VARIANCE> 25
 5.146804e+01 3.157371e+01 8.885287e+01 9.020242e+01 6.668576e+01 1.042950e+02 6.389122e+01 7.825918e+01 7.408492e+01 4.211195e+01 3.180300e+01 6.262906e+01 9.358985e+00 3.356734e+00 1.090787e+01 7.898601e+00 7.881715e+00 1.230909e+01 5.795234e+00 1.393842e+01 9.980756e+00 3.984925e+00 4.574871e+00 3.739272e+00 1.685101e+00
<GCONST> 1.192505e+02
<STATE> 4
<MEAN> 25
 -1.007640e+01 1.273928e+00 1.931512e+00 -5.055444e-01 -4.249826e+00 9.726970e-01 -1.053785e+01 -4.902059e+00 7.064842e+00 -3.854680e+00 1.123663e+00 8.584271e+00 1.971117e-01 1.036190e-01 2.211610e-01 -2.232243e-02 -6.949100e-02 3.047852e-02 -4.622684e-01 -4.143867e-01 -2.070555e-01 7.979377e-02 7.204263e-02 2.081242e-02 -4.068833e-01
<VARIANCE> 25
 9.806422e+01 1.057570e+01 3.904567e+01 2.227864e+01 3.712144e+01 2.801848e+01 5.294631e+01 7.808537e+01 5.187276e+01 2.115305e+01 2.262787e+01 6.086554e+01 5.959533e+00 1.705900e+00 4.054486e+00 1.411858e+00 2.748634e+00 3.846480e+00 3.161736e+00 7.734350e+00 2.880097e+00 2.050953e+00 2.249011e+00 3.524991e+00 1.623727e+00
<GCONST> 1.031121e+02
<TRANSP> 5
 0.000000e+00 1.000000e+00 0.000000e+00 0.000000e+00 0.000000e+00
 0.000000e+00 8.705767e-01 1.294233e-01 0.000000e+00 0.000000e+00
 0.000000e+00 0.000000e+00 6.945676e-01 3.054324e-01 0.000000e+00
 0.000000e+00 0.000000e+00 0.000000e+00 8.627438e-01 1.372562e-01
 0.000000e+00 0.000000e+00 0.000000e+00 0.000000e+00 0.000000e+00
<ENDHMM>
~h "ng"
<BEGINHMM>
<NUMSTATES> 5
<STATE> 2
<MEAN> 25
 6.973431e+00 -7.784672e-01 1.418260e+00 -1.026023e+00 -2.245117e+00 6.020546e+00 -1.192097e+00 -3.020593e+00 -2.186743e-01 1.056539e+00 -7.082736e-01 -1.458361e+00 2.634477e-01 9.340551e-01 5.967792e-01 6.782104e-01 -6.085883e-01 1.722493e-01 5.960146e-01 -9.548082e-01 -3.642797e-01 3.180918e-01 -4.438612e-01 4.657183e-01 -9.768524e-01
<VARIANCE> 25
 1.330727e+01 3.887115e+01 5.176789e+01 4.213951e+01 5.751780e+01 7.472396e+01 5.631813e+01 4.986821e+01 5.476570e+01 4.562220e+01 4.291991e+01 4.170750e+01 4.628474e-01 1.559213e+00 2.592504e+00 2.392123e+00 3.135075e+00 3.238517e+00 3.896596e+00 3.657648e+00 3.238523e+00 2.904368e+00 2.671637e+00 2.421578e+00 5.921998e-01
<GCONST> 1.015609e+02
<STATE> 3
<MEAN> 25
 6.787118e+00 2.517543e+00 2.487881e+00 -5.277491e-01 -3.469217e+00 4.279256e+00 -1.065871e-01 -5.069039e+00 -1.206645e+00 1.310547e+00 -2.355014e+00 -1.441024e+00 -7.599316e-03 5.356346e-01 1.098566e-01 3.490508e-01 -9.439793e-03 -9.792400e-02 1.777422e-01 -2.180426e-01 -1.472354e-01 3.444697e-02 -1.576482e-01 9.447007e-02 -4.838213e-01
<VARIANCE> 25
 1.115522e+01 3.359264e+01 4.573372e+01 4.196159e+01 4.943607e+01 5.608470e+01 4.468318e+01 4.522391e+01 4.823997e+01 4.324422e+01 4.019071e+01 4.037316e+01 2.684452e-01 9.000895e-01 1.039655e+00 1.147928e+00 1.443856e+00 1.581624e+00 1.754000e+00 1.805787e+00 1.762153e+00 1.638744e+00 1.581572e+00 1.309202e+00 4.166204e-01
<GCONST> 9.165421e+01
<STATE> 4
<MEAN> 25
 2.059697e+00 4.452747e+00 1.218537e+00 2.907516e+00 1.399009e+00 3.625561e+00 2.286935e+00 -2.247514e+00 -5.764279e-01 5.975702e-01 -1.069287e+00 9.960721e-01 -5.487153e-01 3.406044e-02 -2.945006e-01 1.203888e-01 5.916700e-01 -2.187325e-01 5.589359e-02 4.644528e-01 7.994798e-02 -1.312104e-01 2.209132e-01 8.742922e-02 -3.132814e-01
<VARIANCE> 25
 3.928276e+01 3.522462e+01 3.977407e+01 3.408018e+01 5.677299e+01 4.644199e+01 4.123309e+01 4.751531e+01 4.416754e+01 4.042201e+01 3.914922e+01 3.413807e+01 9.128519e-01 1.762309e+00 1.807688e+00 1.967547e+00 2.940652e+00 2.708914e+00 2.608407e+00 3.041297e+00 2.825974e+00 2.497618e+00 2.220199e+00 2.100961e+00 1.068742e+00
<GCONST> 9.998525e+01
<TRANSP> 5
 0.000000e+00 1.000000e+00 0.000000e+00 0.000000e+00 0.000000e+00
 0.000000e+00 4.811401e-01 5.188598e-01 0.000000e+00 0.000000e+00
 0.000000e+00 0.000000e+00 6.554143e-01 3.445857e-01 0.000000e+00
 0.000000e+00 0.000000e+00 0.000000e+00 6.599588e-01 3.400413e-01
 0.000000e+00 0.000000e+00 0.000000e+00 0.000000e+00 0.000000e+00
<ENDHMM>
~h "ny"
<BEGINHMM>
<NUMSTATES> 5
<STATE> 2
<MEAN> 25
 2.633719e+00 1.806383e+00 1.073793e+01 -2.926339e+00 -8.150494e+00 6.702228e-01 -8.219680e-01 5.302665e-01 -4.507174e+00 -1.121829e+00 2.792401e+00 -8.755270e-01 -4.863019e-01 -1.247176e+00 6.782493e-01 -8.097302e-01 -1.096349e+00 5.208452e-01 5.545022e-01 8.939136e-01 -3.678706e-01 -3.317293e-01 4.196393e-01 -9.497514e-02 1.132101e+00
<VARIANCE> 25
 1.859130e+01 4.337450e+01 4.650382e+01 6.116312e+01 5.580482e+01 6.476466e+01 5.435390e+01 4.958265e+01 4.555915e+01 4.659304e+01 4.324248e+01 4.741444e+01 1.468093e+00 3.921461e+00 4.355056e+00 5.367689e+00 4.766308e+00 4.806149e+00 4.489631e+00 4.697208e+00 3.650362e+00 3.900832e+00 3.605075e+00 2.676876e+00 1.596915e+00
<GCONST> 1.084440e+02
<STATE> 3
<MEAN> 25
 3.020773e+00 -8.705952e+00 5.543188e+00 -1.624499e+00 -5.930758e+00 1.147130e+00 -1.476914e-01 7.767626e+00 -2.900677e+00 -7.079806e+00 -1.501522e+00 5.167105e-01 1.487281e-01 -3.468181e-01 -1.153087e+00 6.759992e-01 1.153192e+00 -1.359952e-01 -2.495697e-01 2.357201e-01 5.571821e-01 -4.556257e-01 -8.494409e-01 1.939517e-01 -3.628576e-01
<VARIANCE> 25
 1.120691e+01 3.175530e+01 4.046929e+01 4.783846e+01 5.486473e+01 4.570670e+01 6.679421e+01 4.914146e+01 5.031213e+01 5.313581e+01 4.936950e+01 4.044695e+01 4.841703e-01 1.709437e+00 1.521043e+00 1.668146e+00 2.169803e+00 1.731763e+00 2.117808e+00 2.169138e+00 1.949500e+00 2.061738e+00 1.885025e+00 1.598138e+00 1.027433e+00
<GCONST> 9.691515e+01
<STATE> 4
<MEAN> 25
 -3.572236e+00 -4.810180e-01 -1.581843e+00 3.815459e+00 2.940524e+00 2.643258e+00 1.518994e+00 4.506248e+00 1.621504e+00 -1.236667e+00 2.527401e-01 3.831591e+00 -7.714885e-02 6.257232e-02 -1.380765e-01 2.596351e-02 1.019979e-01 2.196588e-02 -2.005997e-02 -6.818847e-02 5.767995e-02 1.020659e-01 3.496043e-02 -2.747995e-02 -2.476799e-01
<VARIANCE> 25
 2.422343e+01 2.632895e+01 2.502394e+01 2.691781e+01 3.511177e+01 3.473508e+01 3.099079e+01 2.891863e+01 3.065798e+01 3.590904e+01 3.107431e+01 2.337295e+01 3.371058e-01 6.052326e-01 8.658174e-01 9.731725e-01 1.320086e+00 1.484325e+00 1.472502e+00 1.565007e+00 1.688532e+00 1.580336e+00 1.472353e+00 1.381966e+00 3.603836e-01
<GCONST> 8.683186e+01
<TRANSP> 5
 0.000000e+00 1.000000e+00 0.000000e+00 0.000000e+00 0.000000e+00
 0.000000e+00 8.279815e-01 1.720185e-01 0.000000e+00 0.000000e+00
 0.000000e+00 0.000000e+00 8.366905e-01 1.633095e-01 0.000000e+00
 0.000000e+00 0.000000e+00 0.000000e+00 9.157126e-01 8.428741e-02
 0.000000e+00 0.000000e+00 0.000000e+00 0.000000e+00 0.000000e+00
<ENDHMM>
~h "oy"
<BEGINHMM>
<NUMSTATES> 5
<STATE> 2
<MEAN> 25
 -1.266016e-08 6.085643e-09 4.721265e-09 -8.308485e-09 -1.463621e-08 1.307279e-08 -2.750496e-09 -6.683219e-09 -1.380889e-08 -3.351599e-09 1.415116e-08 1.473669e-08 2.548279e-03 -7.284069e-04 1.966011e-03 3.249686e-04 1.698112e-03 -2.328777e-04 5.264792e-04 -2.476147e-04 -7.184849e-04 7.200883e-04 -1.639929e-03 -3.923504e-04 6.718315e-03
<VARIANCE> 25
 6.369320e+01 5.437875e+01 8.050616e+01 5.826715e+01 7.171889e+01 6.936944e+01 6.105562e+01 6.027967e+01 5.528890e+01 4.166891e+01 4.685504e+01 3.910781e+01 2.633578e+00 2.804667e+00 3.170903e+00 3.349051e+00 3.834462e+00 3.765719e+00 3.684584e+00 3.809613e+00 3.444291e+00 2.975416e+00 3.042777e+00 2.563504e+00 3.096067e+00
<GCONST> 1.097144e+02
<STATE> 3
<MEAN> 25
 -1.266016e-08 6.085643e-09 4.721265e-09 -8.308485e-09 -1.463621e-08 1.307279e-08 -2.750496e-09 -6.683219e-09 -1.380889e-08 -3.351599e-09 1.415116e-08 1.473669e-08 2.548279e-03 -7.284069e-04 1.966011e-03 3.249686e-04 1.698112e-03 -2.328777e-04 5.264792e-04 -2.476147e-04 -7.184849e-04 7.200883e-04 -1.639929e-03 -3.923504e-04 6.718315e-03
<VARIANCE> 25
 6.369320e+01 5.437875e+01 8.050616e+01 5.826715e+01 7.171889e+01 6.936944e+01 6.105562e+01 6.027967e+01 5.528890e+01 4.166891e+01 4.685504e+01 3.910781e+01 2.633578e+00 2.804667e+00 3.170903e+00 3.349051e+00 3.834462e+00 3.765719e+00 3.684584e+00 3.809613e+00 3.444291e+00 2.975416e+00 3.042777e+00 2.563504e+00 3.096067e+00
<GCONST> 1.097144e+02
<STATE> 4
<MEAN> 25
 -1.266016e-08 6.085643e-09 4.721265e-09 -8.308485e-09 -1.463621e-08 1.307279e-08 -2.750496e-09 -6.683219e-09 -1.380889e-08 -3.351599e-09 1.415116e-08 1.473669e-08 2.548279e-03 -7.284069e-04 1.966011e-03 3.249686e-04 1.698112e-03 -2.328777e-04 5.264792e-04 -2.476147e-04 -7.184849e-04 7.200883e-04 -1.639929e-03 -3.923504e-04 6.718315e-03
<VARIANCE> 25
 6.369320e+01 5.437875e+01 8.050616e+01 5.826715e+01 7.171889e+01 6.936944e+01 6.105562e+01 6.027967e+01 5.528890e+01 4.166891e+01 4.685504e+01 3.910781e+01 2.633578e+00 2.804667e+00 3.170903e+00 3.349051e+00 3.834462e+00 3.765719e+00 3.684584e+00 3.809613e+00 3.444291e+00 2.975416e+00 3.042777e+00 2.563504e+00 3.096067e+00
<GCONST> 1.097144e+02
<TRANSP> 5
 0.000000e+00 1.000000e+00 0.000000e+00 0.000000e+00 0.000000e+00
 0.000000e+00 6.000000e-01 4.000000e-01 0.000000e+00 0.000000e+00
 0.000000e+00 0.000000e+00 6.000000e-01 4.000000e-01 0.000000e+00
 0.000000e+00 0.000000e+00 0.000000e+00 7.000000e-01 3.000000e-01
 0.000000e+00 0.000000e+00 0.000000e+00 0.000000e+00 0.000000e+00
<ENDHMM>
~h "sp"
<BEGINHMM>
<NUMSTATES> 3
<STATE> 2
~s "silst"
<TRANSP> 3
 0.000000e+00 7.000000e-01 3.000000e-01
 0.000000e+00 9.000000e-01 9.999999e-02
 0.000000e+00 0.000000e+00 0.000000e+00
<ENDHMM>
~h "sy"
<BEGINHMM>
<NUMSTATES> 5
<STATE> 2
<MEAN> 25
 -3.864995e+00 4.329817e+00 -4.675060e+00 1.075739e+00 2.679641e+00 -1.040548e+01 7.018719e-01 8.700964e+00 6.131927e+00 6.116712e+00 8.690331e-01 1.465284e+00 -3.512771e+00 -9.548603e-01 3.069115e+00 -8.719073e-01 1.262197e+00 3.817096e-01 7.554651e-01 5.725954e-01 2.099894e+00 8.373352e-01 5.191442e-01 5.774317e-01 1.801909e+00
<VARIANCE> 25
 1.798092e+00 2.985047e+01 1.491642e+00 2.219385e+01 1.705068e+01 6.320964e+00 3.385188e+01 4.929235e+00 4.775949e+01 7.743883e+00 7.237192e+00 4.378799e+00 2.084888e+00 8.636605e+00 1.706929e+00 1.023131e+01 3.733505e+00 5.121752e+00 2.493252e-01 4.015990e-01 2.582984e+00 1.793116e-01 1.103550e+00 1.598450e+00 2.601814e+00
<GCONST> 7.975040e+01
<STATE> 3
<MEAN> 25
 -1.247324e+01 1.042958e+00 2.812154e+00 2.193617e+00 2.897926e+00 -6.788641e+00 5.649657e+00 7.014655e+00 5.428275e+00 5.316020e+00 8.632003e+00 1.978471e+00 -3.767787e+00 -1.957589e-01 3.123544e+00 -3.915242e-01 3.722879e-01 7.054799e-01 2.279561e+00 -1.223247e-01 -4.563687e-01 -9.846745e-02 1.590919e+00 3.964501e-01 1.357892e+00
<VARIANCE> 25
 1.823241e+01 5.381218e+01 1.384261e+01 8.006102e+01 2.431439e+01 2.781187e+01 7.291599e+01 3.303796e+01 2.053583e+01 8.480662e+00 1.765003e+01 1.243834e+01 2.005015e+00 1.813959e+00 2.450890e+00 5.923524e+00 1.511499e+01 1.885561e+00 3.809257e+00 2.813215e+00 6.454980e+00 1.928650e+00 3.033842e+00 2.282141e+00 9.439006e-01
<GCONST> 9.878825e+01
<STATE> 4
<MEAN> 25
 -1.788142e+01 -1.612731e+00 8.657965e+00 2.590809e-01 -1.312449e+00 -5.213887e+00 9.376919e+00 8.463801e-01 1.996643e+00 1.771645e+00 6.091238e+00 1.570967e+00 1.839289e+00 -1.062440e+00 -2.492469e-01 2.384487e-02 -1.255137e+00 -3.384370e-01 -8.604805e-01 -2.036748e-01 -5.103657e-01 -6.077278e-01 -4.815182e-01 -2.666511e-01 5.428500e-01
<VARIANCE> 25
 1.198318e+02 3.310066e+01 1.226794e+01 1.563821e+02 1.132546e+02 1.874348e+01 9.503745e+01 4.780098e+01 2.430142e+01 2.493249e+01 2.468066e+01 1.197841e+01 1.288441e+01 2.786920e+00 1.705939e+00 3.328506e+00 3.709651e+00 1.728721e+00 1.549354e+00 5.300300e+00 2.872550e+00 2.647926e+00 3.125555e+00 1.747486e+00 1.456129e+00
<GCONST> 1.033535e+02
<TRANSP> 5
 0.000000e+00 1.000000e+00 0.000000e+00 0.000000e+00 0.000000e+00
 0.000000e+00 1.930079e-04 9.998070e-01 0.000000e+00 0.000000e+00
 0.000000e+00 0.000000e+00 6.295979e-01 3.704021e-01 0.000000e+00
 0.000000e+00 0.000000e+00 0.000000e+00 9.019411e-01 9.805889e-02
 0.000000e+00 0.000000e+00 0.000000e+00 0.000000e+00 0.000000e+00
<ENDHMM>
~h "sil"
<BEGINHMM>
<NUMSTATES> 5
<STATE> 2
<MEAN> 25
 -5.756812e+00 1.566649e-01 -3.820877e+00 1.684175e+00 2.697359e+00 9.960525e-01 3.133096e+00 1.716108e+00 -8.916736e-01 -9.440430e-02 -4.040563e-01 2.540118e+00 -1.507031e-02 -3.837766e-04 -1.735840e-02 -1.124569e-03 -6.022202e-03 2.309478e-03 -6.227371e-03 -8.316815e-04 -8.740997e-03 1.231227e-03 6.878426e-03 7.401418e-04 -3.811299e-02
<VARIANCE> 25
 2.115653e+01 1.713904e+01 1.748128e+01 2.427949e+01 2.315653e+01 3.222892e+01 2.677522e+01 2.423816e+01 3.101564e+01 2.095168e+01 2.365830e+01 1.478528e+01 1.501525e-01 2.907026e-01 4.729519e-01 6.830611e-01 8.974067e-01 1.105074e+00 1.251880e+00 1.350657e+00 1.381842e+00 1.360824e+00 1.295680e+00 1.165608e+00 7.895164e-02
<GCONST> 7.807588e+01
<STATE> 3
~s "silst"
<STATE> 4
<MEAN> 25
 -5.252585e+00 -1.036984e+00 -1.028839e+00 6.881516e-01 2.882527e+00 9.232528e-01 1.609263e+00 -3.588581e-02 6.902879e-01 -1.225298e+00 -8.027084e-01 1.791376e+00 -3.986099e-02 2.269790e-02 1.681807e-02 3.517309e-03 5.685393e-02 1.884029e-02 -5.387678e-03 -3.698501e-03 -3.516941e-02 1.718336e-02 -3.270331e-04 -3.123335e-03 -3.281970e-02
<VARIANCE> 25
 3.820911e+01 3.739357e+01 5.232952e+01 4.588097e+01 5.112836e+01 6.795248e+01 5.801926e+01 4.959087e+01 4.637555e+01 3.431044e+01 3.354533e+01 3.377965e+01 9.902551e-01 1.267848e+00 1.831592e+00 2.232075e+00 2.549506e+00 2.939497e+00 2.957744e+00 3.080284e+00 3.007718e+00 2.722500e+00 2.456246e+00 2.176731e+00 8.758200e-01
<GCONST> 1.010236e+02
<TRANSP> 5
 0.000000e+00 1.000000e+00 0.000000e+00 0.000000e+00 0.000000e+00
 0.000000e+00 9.360681e-01 1.465563e-02 4.927628e-02 0.000000e+00
 0.000000e+00 0.000000e+00 8.887121e-01 1.112880e-01 0.000000e+00
 0.000000e+00 1.082085e-01 0.000000e+00 7.878405e-01 1.039509e-01
 0.000000e+00 0.000000e+00 0.000000e+00 0.000000e+00 0.000000e+00
<ENDHMM>
