~o
<STREAMINFO> 1 25
<VECSIZE> 25<NULLD><MFCC_D_N_Z_0><DIAGC>
~h "@"
<BEGINHMM>
<NUMSTATES> 5
<STATE> 2
<MEAN> 25
 3.656231e+00 -7.939758e-01 -1.251905e+00 -1.616258e+00 -3.017702e-01 -1.209948e+00 -3.588933e+00 -1.847104e+00 1.824850e+00 2.063078e+00 7.087675e-01 -1.674614e+00 1.309402e+00 -3.064698e-01 2.716734e-01 -1.195216e-01 -5.981728e-01 3.659495e-01 -7.330287e-01 -2.046045e-01 3.904608e-01 2.981490e-01 -1.178359e-01 -2.883661e-01 6.476493e-01
<VARIANCE> 25
 4.316488e+01 4.457481e+01 4.894075e+01 5.401057e+01 5.202221e+01 7.686526e+01 6.595733e+01 5.674025e+01 5.905698e+01 4.420062e+01 4.471320e+01 3.649908e+01 5.483009e+00 4.964764e+00 4.198528e+00 5.392926e+00 5.635962e+00 6.866938e+00 6.592287e+00 6.556034e+00 6.037564e+00 4.557131e+00 4.485964e+00 3.803962e+00 5.610694e+00
<GCONST> 1.148973e+02
<STATE> 3
<MEAN> 25
 5.048419e+00 -1.134054e+00 -8.972731e-01 -1.392864e+00 -1.006451e+00 -7.083247e-01 -4.300288e+00 -1.841201e+00 2.336559e+00 2.400548e+00 6.658490e-01 -1.703610e+00 5.053641e-01 1.428394e-01 3.444841e-01 4.895485e-01 -2.608498e-01 2.814752e-01 2.447314e-02 -5.403809e-02 7.474150e-02 3.286765e-02 -1.802725e-01 1.533513e-01 -3.529955e-01
<VARIANCE> 25
 3.193205e+01 4.489154e+01 4.723602e+01 5.426088e+01 5.369724e+01 7.462962e+01 6.356700e+01 5.741587e+01 5.845400e+01 4.522438e+01 4.497322e+01 3.620941e+01 3.246534e+00 4.261171e+00 3.735664e+00 4.996988e+00 4.811296e+00 5.623155e+00 5.346128e+00 6.026285e+00 5.199525e+00 4.144960e+00 4.097383e+00 3.473355e+00 4.537446e+00
<GCONST> 1.123999e+02
<STATE> 4
<MEAN> 25
 4.625822e+00 -1.082688e-01 -8.222928e-02 -2.412983e-02 -1.279159e+00 -1.146722e+00 -3.379324e+00 -1.635346e+00 1.676377e+00 2.391334e+00 2.651926e-01 -1.012400e+00 -8.070398e-02 3.997993e-01 2.718474e-01 6.155363e-01 3.436116e-02 1.653383e-01 4.500069e-01 -5.275465e-02 -2.120474e-01 -1.553516e-01 -1.547252e-01 2.735309e-01 -7.125991e-01
<VARIANCE> 25
 3.216989e+01 4.885785e+01 4.854310e+01 5.275459e+01 5.650467e+01 7.289963e+01 6.091944e+01 5.779056e+01 5.778754e+01 4.582632e+01 4.410282e+01 3.573337e+01 1.856873e+00 2.949836e+00 2.909735e+00 3.676151e+00 3.523880e+00 3.836191e+00 3.792680e+00 4.246088e+00 3.823954e+00 3.211158e+00 3.096797e+00 2.690622e+00 2.651434e+00
<GCONST> 1.079458e+02
<TRANSP> 5
 0.000000e+00 1.000000e+00 0.000000e+00 0.000000e+00 0.000000e+00
 0.000000e+00 2.315615e-01 7.684385e-01 0.000000e+00 0.000000e+00
 0.000000e+00 0.000000e+00 2.166294e-01 7.833706e-01 0.000000e+00
 0.000000e+00 0.000000e+00 0.000000e+00 3.938247e-01 6.061753e-01
 0.000000e+00 0.000000e+00 0.000000e+00 0.000000e+00 0.000000e+00
<ENDHMM>
~h "a"
<BEGINHMM>
<NUMSTATES> 5
<STATE> 2
<MEAN> 25
 4.064717e+00 -7.736478e+00 -4.141082e+00 -4.682929e+00 4.877051e-01 9.990026e-02 -7.672665e-01 3.659987e+00 4.021264e+00 -8.160782e-01 -2.884951e+00 -4.805034e+00 2.123065e-01 -8.018087e-01 -3.819854e-01 -1.175827e-01 5.212764e-01 3.434395e-01 2.088540e-01 5.439966e-01 2.204604e-01 -4.060722e-01 -6.674775e-01 -4.920611e-01 4.795469e-01
<VARIANCE> 25
 1.809545e+01 3.666844e+01 4.846478e+01 4.280904e+01 5.566037e+01 8.051719e+01 6.388802e+01 5.726449e+01 4.935310e+01 4.461821e+01 4.906094e+01 4.631431e+01 1.551927e+00 2.602159e+00 2.651161e+00 2.797230e+00 3.703711e+00 4.038931e+00 3.709391e+00 4.152737e+00 3.100675e+00 3.354093e+00 3.202550e+00 3.001267e+00 2.414559e+00
<GCONST> 1.064460e+02
<STATE> 3
<MEAN> 25
 4.434840e+00 -8.099866e+00 -4.500746e+00 -4.221099e+00 1.386802e+00 3.667566e-01 -4.356155e-01 3.886981e+00 3.931467e+00 -1.110712e+00 -3.805146e+00 -4.930468e+00 3.975087e-02 4.847572e-01 1.167585e-01 6.406673e-01 1.746134e-01 4.765332e-02 8.406731e-02 -1.465676e-01 -1.485617e-01 1.095957e-01 -1.435195e-01 3.914930e-01 -8.202205e-01
<VARIANCE> 25
 1.487537e+01 3.601767e+01 4.397543e+01 3.989816e+01 5.099947e+01 7.390822e+01 6.259599e+01 5.235219e+01 4.828180e+01 4.438536e+01 4.745577e+01 4.158380e+01 8.680395e-01 1.893750e+00 2.013617e+00 2.175150e+00 2.797024e+00 3.298187e+00 3.054124e+00 3.321845e+00 2.574275e+00 2.766291e+00 2.716534e+00 2.479764e+00 1.831516e+00
<GCONST> 1.022762e+02
<STATE> 4
<MEAN> 25
 1.846856e+00 -3.910096e+00 -4.021487e+00 -4.759566e-01 2.481023e+00 6.218625e-01 9.697250e-01 3.155520e+00 2.494453e+00 -6.289980e-01 -3.014136e+00 -1.170319e+00 -1.622314e-01 6.914553e-01 2.948889e-01 5.573958e-01 -4.982862e-02 4.857494e-03 1.610624e-02 -3.007934e-01 -1.892761e-01 1.386587e-01 2.040140e-01 3.689467e-01 -9.131777e-01
<VARIANCE> 25
 3.182917e+01 3.784137e+01 3.849220e+01 4.200818e+01 4.450556e+01 5.501529e+01 4.727145e+01 4.360629e+01 4.170846e+01 3.740754e+01 4.236444e+01 3.769997e+01 8.725184e-01 1.607338e+00 1.653254e+00 1.936574e+00 2.250637e+00 2.422270e+00 2.506464e+00 2.681383e+00 2.295753e+00 2.188577e+00 2.173170e+00 1.923330e+00 1.253101e+00
<GCONST> 9.896510e+01
<TRANSP> 5
 0.000000e+00 1.000000e+00 0.000000e+00 0.000000e+00 0.000000e+00
 0.000000e+00 4.981729e-01 5.018271e-01 0.000000e+00 0.000000e+00
 0.000000e+00 0.000000e+00 5.246927e-01 4.753073e-01 0.000000e+00
 0.000000e+00 0.000000e+00 0.000000e+00 7.709683e-01 2.290317e-01
 0.000000e+00 0.000000e+00 0.000000e+00 0.000000e+00 0.000000e+00
<ENDHMM>
~h "b"
<BEGINHMM>
<NUMSTATES> 5
<STATE> 2
<MEAN> 25
 6.732149e+00 8.437526e+00 1.646184e+00 4.943666e+00 1.771354e+00 2.611405e+00 -6.962901e-01 -4.292152e+00 -4.181821e+00 -2.177646e-01 6.016265e-02 -4.237453e-01 4.182241e-01 1.009578e+00 -2.768840e-01 2.284492e-01 5.606793e-01 -2.170950e-01 1.315668e-01 -2.368159e-01 -3.217766e-01 6.746868e-02 1.302942e-01 5.530050e-02 -2.356482e-01
<VARIANCE> 25
 3.185641e+01 4.808393e+01 4.304079e+01 3.930208e+01 4.189612e+01 4.713734e+01 4.939713e+01 4.700645e+01 4.399171e+01 4.078603e+01 4.042041e+01 2.894747e+01 2.317420e+00 4.330290e+00 3.801070e+00 4.713071e+00 3.656240e+00 3.676421e+00 4.793873e+00 4.017159e+00 4.023829e+00 4.015800e+00 3.927084e+00 2.534542e+00 4.551677e+00
<GCONST> 1.079540e+02
<STATE> 3
<MEAN> 25
 7.343509e+00 7.137703e+00 -2.728794e-01 2.334629e+00 1.880318e+00 1.776711e+00 -2.216262e+00 -5.473283e+00 -3.515462e+00 1.923101e+00 2.327346e+00 -6.276976e-01 -2.483991e-02 -2.040682e+00 -1.048975e+00 -1.898846e+00 -5.591928e-01 -6.724750e-01 -1.338063e+00 1.151691e-01 1.470478e+00 1.105518e+00 9.973369e-01 -6.784744e-01 2.464187e+00
<VARIANCE> 25
 2.631850e+01 5.589479e+01 4.277275e+01 5.973173e+01 4.081833e+01 5.272972e+01 5.753539e+01 4.802873e+01 5.026034e+01 6.050458e+01 4.674789e+01 3.105132e+01 3.047588e+00 6.446669e+00 5.171150e+00 7.347972e+00 5.768563e+00 6.433343e+00 7.816291e+00 6.470088e+00 8.085345e+00 7.632759e+00 6.294405e+00 4.762271e+00 5.800716e+00
<GCONST> 1.154189e+02
<STATE> 4
<MEAN> 25
 6.767120e+00 2.035537e+00 -1.619585e+00 -1.644957e+00 -1.009023e-01 7.369656e-02 -5.191525e+00 -3.600667e+00 8.293538e-01 3.186345e+00 2.622431e+00 -3.204434e+00 -3.325692e-01 -1.888671e+00 -5.696454e-02 -1.179228e+00 -8.128613e-01 -4.628545e-01 -5.795751e-01 9.533421e-01 1.289306e+00 -7.841311e-02 -2.009299e-01 -5.833414e-01 1.839966e+00
<VARIANCE> 25
 2.233658e+01 6.181987e+01 4.433970e+01 8.299677e+01 5.211424e+01 6.578355e+01 6.965695e+01 5.144994e+01 6.790796e+01 7.441223e+01 4.925761e+01 4.540748e+01 1.691103e+00 5.214200e+00 4.695354e+00 5.750163e+00 5.899138e+00 5.660107e+00 6.188184e+00 7.267558e+00 7.442933e+00 5.556771e+00 5.883790e+00 4.811055e+00 3.791135e+00
<GCONST> 1.151375e+02
<TRANSP> 5
 0.000000e+00 1.000000e+00 0.000000e+00 0.000000e+00 0.000000e+00
 0.000000e+00 5.769809e-01 4.230191e-01 0.000000e+00 0.000000e+00
 0.000000e+00 0.000000e+00 4.851925e-01 5.148074e-01 0.000000e+00
 0.000000e+00 0.000000e+00 0.000000e+00 4.144665e-01 5.855336e-01
 0.000000e+00 0.000000e+00 0.000000e+00 0.000000e+00 0.000000e+00
<ENDHMM>
~h "c"
<BEGINHMM>
<NUMSTATES> 5
<STATE> 2
<MEAN> 25
 -8.940545e+00 4.680557e+00 2.996479e+00 -2.738038e-01 2.947666e+00 -1.699052e+00 2.217946e+00 -2.799021e-02 9.269220e-01 8.015885e-02 2.401979e+00 1.672856e+00 -3.491471e+00 -1.937230e-01 2.959066e-01 -1.813536e+00 3.452193e-01 8.678671e-02 6.838044e-01 -6.993621e-01 4.211938e-01 -5.521635e-02 7.021891e-01 9.018475e-02 1.846551e+00
<VARIANCE> 25
 7.978500e+01 4.492214e+01 6.467747e+01 5.209702e+01 5.133766e+01 5.410720e+01 4.377665e+01 5.622008e+01 3.813989e+01 3.163029e+01 2.919623e+01 2.787069e+01 5.687704e+00 4.069241e+00 5.378461e+00 5.063389e+00 5.564216e+00 5.562695e+00 4.586103e+00 5.180983e+00 3.762928e+00 3.732560e+00 3.662539e+00 2.532649e+00 6.128837e+00
<GCONST> 1.115179e+02
<STATE> 3
<MEAN> 25
 -1.470626e+01 2.175446e+00 5.174352e+00 -5.139867e+00 -7.982975e-01 -3.356380e+00 3.256892e+00 -8.590190e-01 1.923757e+00 -1.135345e+00 3.455308e+00 2.333256e+00 2.942796e+00 -1.452228e+00 1.757482e-01 3.339656e-01 -1.881285e+00 -1.249859e+00 -5.656378e-01 7.551115e-01 2.050577e-01 -6.110778e-01 -7.864149e-01 -2.249370e-01 1.608751e+00
<VARIANCE> 25
 7.582538e+01 3.208096e+01 5.204251e+01 3.980085e+01 5.633461e+01 6.027121e+01 4.342369e+01 4.733881e+01 3.253539e+01 3.185661e+01 3.293518e+01 2.519887e+01 1.225565e+01 4.157344e+00 4.399552e+00 4.934471e+00 5.511079e+00 4.764061e+00 4.066875e+00 4.837203e+00 4.061976e+00 3.277445e+00 3.780090e+00 2.968157e+00 2.411200e+00
<GCONST> 1.099452e+02
<STATE> 4
<MEAN> 25
 -1.648926e+00 -2.884390e+00 2.649591e+00 -3.872422e+00 -3.582264e+00 -4.554394e+00 4.874639e-01 1.270583e+00 2.593098e+00 -2.205298e+00 -4.088502e-02 7.845293e-01 3.168841e+00 -1.412227e+00 -1.349181e+00 -3.453058e-02 2.394920e-02 1.818031e-01 -6.526504e-01 3.685934e-01 2.724690e-02 7.833447e-02 -8.990388e-01 -8.264483e-01 7.595766e-01
<VARIANCE> 25
 4.366973e+01 2.638711e+01 4.171322e+01 3.489247e+01 3.178621e+01 5.109738e+01 4.719056e+01 5.687618e+01 3.408101e+01 2.327863e+01 3.287677e+01 2.294418e+01 6.570100e+00 3.837337e+00 3.593116e+00 3.188535e+00 4.008322e+00 4.416204e+00 4.306479e+00 3.981236e+00 2.901554e+00 2.836406e+00 3.475336e+00 2.777053e+00 1.507077e+00
<GCONST> 1.050358e+02
<TRANSP> 5
 0.000000e+00 1.000000e+00 0.000000e+00 0.000000e+00 0.000000e+00
 0.000000e+00 7.339619e-01 2.660381e-01 0.000000e+00 0.000000e+00
 0.000000e+00 0.000000e+00 6.634662e-01 3.365337e-01 0.000000e+00
 0.000000e+00 0.000000e+00 0.000000e+00 5.310346e-01 4.689654e-01
 0.000000e+00 0.000000e+00 0.000000e+00 0.000000e+00 0.000000e+00
<ENDHMM>
~h "d"
<BEGINHMM>
<NUMSTATES> 5
<STATE> 2
<MEAN> 25
 5.266197e+00 4.655193e+00 4.110158e+00 6.802041e+00 -9.267858e-01 -2.457720e+00 -2.557663e+00 -3.176133e-01 6.937584e-01 -1.882060e+00 -3.487271e+00 1.859201e-01 7.602883e-02 3.438122e-01 5.123442e-01 2.046740e-01 -2.172571e-02 -6.689985e-01 -9.964691e-02 2.206546e-01 -2.276166e-01 -4.599695e-01 1.319710e-01 3.877873e-01 2.693890e-01
<VARIANCE> 25
 3.241423e+01 5.888251e+01 4.744564e+01 4.422871e+01 5.776430e+01 5.432235e+01 4.931105e+01 5.320255e+01 4.855569e+01 3.686682e+01 4.138563e+01 2.977591e+01 3.575508e+00 6.906973e+00 4.129126e+00 6.017724e+00 5.908084e+00 5.989743e+00 5.306930e+00 5.881500e+00 4.668492e+00 3.869005e+00 4.472120e+00 3.329566e+00 7.544085e+00
<GCONST> 1.127222e+02
<STATE> 3
<MEAN> 25
 3.720260e+00 1.817566e+00 6.044676e+00 4.038802e+00 -2.590832e+00 -5.146058e+00 -3.437054e+00 9.314525e-01 1.711407e-01 -3.049727e+00 -7.874720e-01 2.295601e+00 -6.424126e-01 -2.153704e+00 6.352004e-01 -2.002426e+00 -1.444012e+00 -1.069680e+00 -6.986685e-01 9.767706e-01 2.422218e-01 -1.730192e-01 1.303785e+00 3.703951e-01 2.734873e+00
<VARIANCE> 25
 2.723017e+01 5.437288e+01 4.939596e+01 5.473464e+01 7.364799e+01 6.602040e+01 6.064630e+01 5.498507e+01 5.818119e+01 3.812108e+01 4.452514e+01 3.847323e+01 3.555376e+00 6.256297e+00 6.020849e+00 6.179849e+00 7.999372e+00 7.694804e+00 7.567909e+00 8.372635e+00 7.516285e+00 5.014000e+00 5.340492e+00 4.132582e+00 5.658314e+00
<GCONST> 1.163452e+02
<STATE> 4
<MEAN> 25
 3.334540e+00 -2.865653e+00 6.721724e+00 -6.919876e-01 -6.651769e+00 -6.402087e+00 -4.905608e+00 4.019423e+00 1.350472e+00 -2.514745e+00 1.623474e+00 1.082021e+00 -2.211409e-01 -9.125639e-01 -1.855192e-01 -1.318760e+00 -4.294625e-01 1.093033e-01 2.166146e-01 5.523416e-01 1.381671e-01 4.505015e-01 2.784360e-01 -8.198466e-01 1.260297e+00
<VARIANCE> 25
 1.808787e+01 3.865020e+01 5.148129e+01 5.032184e+01 5.871844e+01 5.479335e+01 6.940910e+01 7.393720e+01 7.503176e+01 3.792553e+01 4.777544e+01 3.744012e+01 1.764371e+00 3.509841e+00 5.478479e+00 4.650766e+00 6.740258e+00 5.225458e+00 5.604222e+00 6.277909e+00 5.512239e+00 3.945514e+00 5.256118e+00 3.858829e+00 3.593035e+00
<GCONST> 1.119705e+02
<TRANSP> 5
 0.000000e+00 1.000000e+00 0.000000e+00 0.000000e+00 0.000000e+00
 0.000000e+00 5.351227e-01 4.648773e-01 0.000000e+00 0.000000e+00
 0.000000e+00 0.000000e+00 4.767171e-01 5.232829e-01 0.000000e+00
 0.000000e+00 0.000000e+00 0.000000e+00 4.753991e-01 5.246009e-01
 0.000000e+00 0.000000e+00 0.000000e+00 0.000000e+00 0.000000e+00
<ENDHMM>
~h "e"
<BEGINHMM>
<NUMSTATES> 5
<STATE> 2
<MEAN> 25
 2.335655e+00 -6.181568e+00 3.113852e+00 -7.696269e-02 -8.414178e+00 -6.985547e+00 2.353072e+00 5.865205e+00 6.652489e-01 -3.573867e-01 1.511065e+00 -1.854995e+00 1.334693e-01 -5.214787e-01 3.485343e-01 -4.179666e-02 -6.475711e-01 -1.969358e-01 5.539234e-01 7.821727e-01 -3.340155e-01 -3.582693e-02 1.728491e-01 -2.144719e-01 4.626919e-01
<VARIANCE> 25
 2.518372e+01 4.978361e+01 5.658572e+01 3.599101e+01 6.654109e+01 6.132174e+01 7.837573e+01 5.265796e+01 4.721169e+01 4.497308e+01 4.880482e+01 3.698092e+01 2.296645e+00 3.010411e+00 2.963789e+00 2.963451e+00 4.660511e+00 3.731897e+00 4.136045e+00 4.462289e+00 3.683578e+00 3.331820e+00 3.449954e+00 2.633131e+00 3.055101e+00
<GCONST> 1.082066e+02
<STATE> 3
<MEAN> 25
 2.496230e+00 -5.876764e+00 3.717402e+00 1.187843e+00 -8.538371e+00 -7.194615e+00 2.798942e+00 6.306960e+00 -1.268272e+00 3.886056e-01 1.773342e+00 -1.892038e+00 -1.454187e-01 7.312119e-01 -3.116237e-01 6.345885e-01 7.378848e-01 3.654126e-01 2.136063e-01 -4.120708e-01 -2.402207e-02 1.964058e-01 -1.619190e-01 2.594934e-01 -1.048567e+00
<VARIANCE> 25
 2.114684e+01 3.764667e+01 5.901148e+01 4.469868e+01 6.229466e+01 5.554370e+01 6.852289e+01 5.500839e+01 5.184837e+01 5.473927e+01 4.870746e+01 3.282683e+01 1.369218e+00 2.017447e+00 2.281607e+00 2.339419e+00 2.989830e+00 2.922271e+00 3.309600e+00 3.396357e+00 3.021867e+00 2.576307e+00 2.878579e+00 2.036816e+00 2.060119e+00
<GCONST> 1.040377e+02
<STATE> 4
<MEAN> 25
 -2.803582e+00 -5.881287e-01 6.096273e-01 3.200973e+00 -1.583765e-02 -2.764551e-01 3.304322e+00 3.639904e+00 5.628424e-01 1.649371e+00 2.150223e+00 2.625583e+00 -1.520342e-01 2.473085e-01 -1.177958e-01 9.489071e-02 3.326969e-01 1.891015e-01 -3.916692e-02 -1.898311e-01 4.087782e-02 -8.565031e-03 -2.809582e-02 1.360099e-01 -4.123284e-01
<VARIANCE> 25
 3.204740e+01 2.786082e+01 3.747549e+01 2.733252e+01 5.503726e+01 5.192319e+01 3.918680e+01 3.904089e+01 3.538852e+01 3.158574e+01 3.024858e+01 2.926798e+01 7.359954e-01 9.809396e-01 1.120029e+00 1.249690e+00 1.807661e+00 1.850210e+00 1.915646e+00 2.135292e+00 1.816655e+00 1.751785e+00 1.679428e+00 1.556326e+00 7.305742e-01
<GCONST> 9.319986e+01
<TRANSP> 5
 0.000000e+00 1.000000e+00 0.000000e+00 0.000000e+00 0.000000e+00
 0.000000e+00 6.289620e-01 3.710380e-01 0.000000e+00 0.000000e+00
 0.000000e+00 0.000000e+00 6.325981e-01 3.674019e-01 0.000000e+00
 0.000000e+00 0.000000e+00 0.000000e+00 8.682942e-01 1.317058e-01
 0.000000e+00 0.000000e+00 0.000000e+00 0.000000e+00 0.000000e+00
<ENDHMM>
~h "f"
<BEGINHMM>
<NUMSTATES> 5
<STATE> 2
<MEAN> 25
 -4.051143e+00 2.695589e+00 4.739963e+00 9.514594e+00 7.282151e-01 -3.264771e+00 1.752033e+00 -2.865870e-01 -8.770951e-02 3.460865e-02 2.725715e+00 2.145357e+00 -1.848336e+00 -2.085492e-01 -1.101303e+00 6.264571e-01 1.171094e+00 -1.153475e-01 2.705452e-01 2.180877e-01 8.938482e-01 4.008955e-02 -2.435234e-01 2.037964e-01 -4.153433e-01
<VARIANCE> 25
 5.000874e+01 2.821666e+01 7.581302e+01 5.435703e+01 6.109438e+01 5.501062e+01 4.325257e+01 4.643924e+01 4.134279e+01 3.315385e+01 2.875002e+01 2.936826e+01 3.878084e+00 2.902855e+00 4.280379e+00 3.856670e+00 7.580238e+00 4.881752e+00 4.048797e+00 4.222908e+00 4.715974e+00 3.346547e+00 3.100607e+00 2.499510e+00 2.111135e+00
<GCONST> 1.084383e+02
<STATE> 3
<MEAN> 25
 -9.210833e+00 6.758590e-01 1.716189e+00 9.216851e+00 2.176432e+00 -3.592746e+00 1.799027e+00 -3.562823e-01 6.980581e-01 -8.978916e-02 2.502772e+00 1.926756e+00 -3.066970e-01 -7.446126e-01 -7.643168e-02 -3.624651e-01 -2.102794e-01 -4.290770e-01 -3.310492e-02 -1.185105e-01 -3.395757e-01 -9.760448e-02 -4.701492e-02 -9.308744e-02 2.847534e-01
<VARIANCE> 25
 3.956527e+01 3.741998e+01 7.197414e+01 6.314221e+01 5.620929e+01 5.184543e+01 4.016964e+01 4.207744e+01 3.976183e+01 3.535173e+01 2.589602e+01 2.906489e+01 5.441299e+00 3.811730e+00 4.182630e+00 2.939223e+00 4.726526e+00 4.527362e+00 4.072408e+00 3.362560e+00 4.054155e+00 2.998884e+00 2.471141e+00 2.155350e+00 2.386272e+00
<GCONST> 1.072124e+02
<STATE> 4
<MEAN> 25
 -7.475741e+00 -6.673537e-01 2.427233e+00 6.233782e+00 1.017705e+00 -4.262690e+00 1.984844e+00 -1.019357e+00 -1.015397e+00 -4.136178e-02 1.932278e+00 1.537127e+00 2.010606e+00 5.227542e-02 1.097966e+00 -1.228747e+00 -1.547680e+00 -5.482050e-02 -5.196654e-01 -4.694028e-01 -1.177913e+00 -1.458092e-01 1.741945e-02 -5.312853e-01 8.446100e-01
<VARIANCE> 25
 5.175038e+01 4.531617e+01 8.912084e+01 7.090308e+01 6.252162e+01 6.963877e+01 4.954054e+01 4.193803e+01 4.420796e+01 3.257623e+01 2.527267e+01 3.115947e+01 6.177057e+00 3.953374e+00 7.090809e+00 4.552052e+00 6.797996e+00 6.668121e+00 4.664860e+00 4.064365e+00 5.121998e+00 3.508160e+00 3.053725e+00 3.032407e+00 2.901775e+00
<GCONST> 1.120232e+02
<TRANSP> 5
 0.000000e+00 1.000000e+00 0.000000e+00 0.000000e+00 0.000000e+00
 0.000000e+00 6.588488e-01 3.411511e-01 0.000000e+00 0.000000e+00
 0.000000e+00 0.000000e+00 5.524189e-01 4.475811e-01 0.000000e+00
 0.000000e+00 0.000000e+00 0.000000e+00 6.374482e-01 3.625518e-01
 0.000000e+00 0.000000e+00 0.000000e+00 0.000000e+00 0.000000e+00
<ENDHMM>
~h "g"
<BEGINHMM>
<NUMSTATES> 5
<STATE> 2
<MEAN> 25
 4.191856e+00 5.519352e+00 3.358521e+00 3.843540e+00 1.018851e+00 -2.093804e+00 -4.021905e+00 -1.825811e+00 -2.089120e+00 1.555904e+00 -8.488730e-01 -1.262592e+00 -8.364453e-01 -1.893257e-01 1.008755e-01 -1.900524e-01 5.464778e-01 -7.835832e-01 -4.003333e-01 3.187795e-01 -5.289816e-01 2.078308e-01 1.044680e-01 7.901578e-02 5.470977e-01
<VARIANCE> 25
 2.917872e+01 5.235073e+01 5.181347e+01 5.062165e+01 6.809441e+01 6.386803e+01 6.640533e+01 5.440075e+01 5.139169e+01 4.586369e+01 4.596044e+01 3.507460e+01 3.810541e+00 6.972768e+00 7.341097e+00 6.799101e+00 7.988103e+00 6.674431e+00 7.251680e+00 6.528548e+00 5.512337e+00 4.931936e+00 4.751863e+00 3.435836e+00 6.170115e+00
<GCONST> 1.158096e+02
<STATE> 3
<MEAN> 25
 1.802029e+00 2.656906e+00 4.354908e+00 1.047380e+00 6.600934e-01 -4.355426e+00 -5.628274e+00 -5.920658e-01 -3.277350e+00 2.620146e+00 7.022163e-01 -1.466498e+00 -4.387458e-01 -1.153407e+00 7.330469e-01 -1.456499e+00 -1.263750e+00 -5.919515e-01 -4.026079e-01 6.135513e-01 1.783050e-01 6.037276e-02 7.220236e-01 -2.813749e-01 1.733769e+00
<VARIANCE> 25
 3.467435e+01 4.691840e+01 6.936524e+01 5.483396e+01 8.216302e+01 6.778178e+01 8.070759e+01 5.977081e+01 5.520821e+01 5.461580e+01 4.815858e+01 4.087303e+01 3.861930e+00 5.012488e+00 7.195219e+00 6.127559e+00 9.615728e+00 6.639051e+00 6.577889e+00 7.420349e+00 7.183062e+00 5.348847e+00 5.235714e+00 3.970374e+00 4.237110e+00
<GCONST> 1.172082e+02
<STATE> 4
<MEAN> 25
 2.442901e+00 6.175582e-01 5.985401e+00 -1.796668e+00 -4.326125e+00 -4.650900e+00 -5.906888e+00 1.138505e+00 -1.998034e+00 1.761461e+00 1.737438e+00 -2.811832e+00 2.690712e-02 -6.542342e-01 -2.044477e-02 -9.815463e-01 -6.307285e-01 2.326467e-01 3.888551e-01 4.705243e-01 3.604755e-01 -2.298840e-01 1.133138e-01 -2.397638e-01 8.040765e-01
<VARIANCE> 25
 2.785957e+01 5.354138e+01 6.495029e+01 5.364759e+01 7.597570e+01 6.158488e+01 7.084351e+01 6.884998e+01 6.308329e+01 6.392322e+01 5.010271e+01 4.022308e+01 1.803398e+00 2.927670e+00 4.969575e+00 4.101956e+00 5.523025e+00 3.878672e+00 4.233652e+00 5.047699e+00 5.184420e+00 3.698976e+00 3.999432e+00 3.171029e+00 2.606818e+00
<GCONST> 1.115217e+02
<TRANSP> 5
 0.000000e+00 1.000000e+00 0.000000e+00 0.000000e+00 0.000000e+00
 0.000000e+00 5.650886e-01 4.349114e-01 0.000000e+00 0.000000e+00
 0.000000e+00 0.000000e+00 4.589226e-01 5.410774e-01 0.000000e+00
 0.000000e+00 0.000000e+00 0.000000e+00 4.933222e-01 5.066777e-01
 0.000000e+00 0.000000e+00 0.000000e+00 0.000000e+00 0.000000e+00
<ENDHMM>
~h "h"
<BEGINHMM>
<NUMSTATES> 5
<STATE> 2
<MEAN> 25
 -1.625810e-01 -3.093483e+00 -1.996100e+00 1.338713e-01 4.980118e+00 1.222657e+00 3.616756e+00 1.789442e+00 1.301067e+00 -4.595063e-01 -2.036773e+00 2.132283e-01 -4.011071e-01 -4.892931e-02 -5.222285e-01 3.734861e-01 9.393553e-01 1.833266e-01 4.551212e-01 1.823162e-01 9.937029e-02 -1.427398e-01 -1.686327e-01 2.336576e-01 -5.075763e-01
<VARIANCE> 25
 3.482836e+01 4.468858e+01 6.946724e+01 5.315245e+01 8.932192e+01 7.310732e+01 7.787236e+01 6.029530e+01 4.688773e+01 4.493531e+01 5.087918e+01 4.418499e+01 1.844730e+00 2.931985e+00 3.449001e+00 3.268186e+00 4.543841e+00 4.171766e+00 4.007586e+00 3.864162e+00 3.508854e+00 3.233826e+00 3.418176e+00 2.863008e+00 2.401291e+00
<GCONST> 1.094987e+02
<STATE> 3
<MEAN> 25
 -5.214616e-01 -3.187140e+00 -3.274922e+00 3.217583e-01 5.908457e+00 1.148435e+00 3.837572e+00 1.725470e+00 1.501775e+00 -5.839480e-01 -2.183936e+00 7.599351e-02 2.064941e-02 1.458878e-01 -3.254243e-01 2.980090e-02 2.171810e-02 6.535251e-02 -3.697537e-02 -5.078028e-02 -6.370407e-02 -1.414740e-02 -2.271225e-02 -4.263182e-02 -3.114081e-01
<VARIANCE> 25
 3.942801e+01 5.175743e+01 7.077605e+01 5.088609e+01 8.652649e+01 6.874013e+01 7.271875e+01 5.999923e+01 4.751443e+01 4.254525e+01 5.137154e+01 4.147808e+01 2.290492e+00 2.754128e+00 3.154952e+00 3.168833e+00 4.154425e+00 4.165462e+00 4.053020e+00 3.594161e+00 3.523560e+00 3.028223e+00 2.933822e+00 2.966663e+00 3.400927e+00
<GCONST> 1.095339e+02
<STATE> 4
<MEAN> 25
 -3.185160e+00 -2.072848e+00 -4.557779e+00 1.412602e+00 5.576415e+00 1.517110e+00 3.388579e+00 2.087512e+00 5.661040e-01 -5.121330e-01 -1.394864e+00 9.017920e-01 1.696811e-01 2.187355e-01 2.857461e-02 -8.002634e-02 -3.642040e-01 -8.373827e-02 -2.070745e-01 -1.255788e-01 -1.149732e-01 1.784683e-04 3.278039e-03 -1.351939e-01 -9.528621e-02
<VARIANCE> 25
 5.117978e+01 5.631444e+01 5.622878e+01 5.660309e+01 5.518349e+01 5.304773e+01 4.907179e+01 4.471426e+01 4.447121e+01 3.477359e+01 4.271356e+01 3.563750e+01 1.784599e+00 1.814523e+00 2.106067e+00 2.316207e+00 2.750863e+00 2.729707e+00 2.764458e+00 2.643481e+00 2.518738e+00 2.192797e+00 2.183330e+00 2.146479e+00 1.750710e+00
<GCONST> 1.029042e+02
<TRANSP> 5
 0.000000e+00 1.000000e+00 0.000000e+00 0.000000e+00 0.000000e+00
 0.000000e+00 3.594395e-01 6.405605e-01 0.000000e+00 0.000000e+00
 0.000000e+00 0.000000e+00 3.359714e-01 6.640285e-01 0.000000e+00
 0.000000e+00 0.000000e+00 0.000000e+00 6.888727e-01 3.111273e-01
 0.000000e+00 0.000000e+00 0.000000e+00 0.000000e+00 0.000000e+00
<ENDHMM>
~h "i"
<BEGINHMM>
<NUMSTATES> 5
<STATE> 2
<MEAN> 25
 2.044406e-02 1.319045e+00 1.462701e+01 -1.933424e-01 -1.035968e+01 -4.797704e+00 -1.924125e+00 -2.987833e+00 -6.334714e+00 -4.639755e-01 3.667180e+00 -6.361437e-01 2.849000e-01 -3.941862e-02 2.474146e+00 -8.286741e-01 -2.168256e+00 2.275038e-01 -9.023245e-01 -6.032031e-01 -1.362379e+00 1.995363e-01 1.000566e+00 -5.369772e-01 1.001060e+00
<VARIANCE> 25
 2.694298e+01 4.309944e+01 6.697629e+01 5.224397e+01 6.665669e+01 6.262059e+01 5.865699e+01 6.610872e+01 5.287032e+01 4.568897e+01 4.520924e+01 3.289415e+01 3.816028e+00 3.245967e+00 5.601224e+00 4.651083e+00 6.053320e+00 5.493327e+00 5.367785e+00 5.548532e+00 4.974566e+00 4.318661e+00 4.156582e+00 2.929168e+00 2.400738e+00
<GCONST> 1.119756e+02
<STATE> 3
<MEAN> 25
 1.678386e-01 2.208753e+00 1.833224e+01 -2.343561e+00 -1.343699e+01 -2.805657e+00 -3.884249e+00 -4.372964e+00 -7.933154e+00 1.972857e-02 4.792669e+00 -2.155126e+00 1.458638e-01 3.230227e-01 -5.320100e-01 3.371748e-01 2.916619e-01 9.867796e-02 2.922910e-01 1.019619e-01 2.631059e-01 1.063882e-01 -2.593063e-01 1.643761e-01 -6.353387e-01
<VARIANCE> 25
 1.502530e+01 3.767662e+01 5.630494e+01 5.971160e+01 5.299066e+01 6.748257e+01 5.831493e+01 5.856358e+01 4.988508e+01 6.082457e+01 5.239196e+01 3.659114e+01 1.102879e+00 2.110211e+00 3.233566e+00 3.011088e+00 3.383157e+00 3.344585e+00 3.353633e+00 3.547124e+00 3.120807e+00 2.769315e+00 2.722778e+00 2.123098e+00 2.082957e+00
<GCONST> 1.049682e+02
<STATE> 4
<MEAN> 25
 -5.299202e-01 4.141214e+00 1.042636e+01 2.078051e+00 -7.247899e+00 -2.591688e+00 -1.013583e-01 -3.429657e+00 -4.403924e+00 1.793849e-01 1.972004e+00 5.273732e-01 -8.661895e-02 1.203042e-01 -1.283416e+00 4.655398e-01 1.094311e+00 1.282979e-01 3.997512e-01 3.679769e-01 5.744953e-01 -6.430022e-02 -3.825114e-01 2.765344e-01 -8.645018e-01
<VARIANCE> 25
 2.756003e+01 4.075493e+01 5.929828e+01 5.172598e+01 6.584592e+01 6.611317e+01 5.276451e+01 5.717892e+01 4.287709e+01 3.790575e+01 3.883263e+01 3.364938e+01 1.230775e+00 1.937990e+00 2.711733e+00 2.393974e+00 3.170322e+00 3.032748e+00 3.058588e+00 3.197599e+00 2.733809e+00 2.521312e+00 2.477397e+00 1.975572e+00 1.501966e+00
<GCONST> 1.031676e+02
<TRANSP> 5
 0.000000e+00 1.000000e+00 0.000000e+00 0.000000e+00 0.000000e+00
 0.000000e+00 6.316279e-01 3.683721e-01 0.000000e+00 0.000000e+00
 0.000000e+00 0.000000e+00 7.245957e-01 2.754042e-01 0.000000e+00
 0.000000e+00 0.000000e+00 0.000000e+00 7.937606e-01 2.062394e-01
 0.000000e+00 0.000000e+00 0.000000e+00 0.000000e+00 0.000000e+00
<ENDHMM>
~h "j"
<BEGINHMM>
<NUMSTATES> 5
<STATE> 2
<MEAN> 25
 -8.602159e-01 8.495096e+00 7.173568e+00 4.749484e+00 9.310733e-01 -2.725850e+00 1.012348e-01 2.900667e-01 -1.552095e+00 -2.507296e+00 -4.147305e-02 1.929623e+00 -1.556475e+00 7.092583e-01 1.032911e+00 -4.466362e-01 2.651834e-01 -1.853758e-01 3.242523e-01 -4.049160e-01 -4.119649e-01 -1.414715e-01 4.376402e-01 2.231092e-01 7.668800e-01
<VARIANCE> 25
 7.620094e+01 4.975703e+01 5.204910e+01 5.373207e+01 6.877262e+01 6.664928e+01 5.516594e+01 4.284543e+01 4.255306e+01 3.363969e+01 3.300621e+01 2.844983e+01 6.903110e+00 5.134891e+00 5.391075e+00 5.839363e+00 7.364401e+00 6.279086e+00 5.295511e+00 4.742792e+00 4.127757e+00 3.922875e+00 3.938074e+00 3.003651e+00 6.260323e+00
<GCONST> 1.135972e+02
<STATE> 3
<MEAN> 25
 -5.433515e+00 6.533964e+00 1.350065e+01 1.651910e+00 -3.723675e+00 -5.490327e+00 -1.201476e+00 -2.633100e+00 -3.493646e+00 -3.016003e+00 3.690388e+00 3.354465e+00 8.924279e-01 -1.913930e+00 1.111994e+00 -2.308914e-01 -2.754909e+00 -1.474595e+00 -1.288053e+00 8.040077e-02 -2.227900e-01 -1.569035e-01 9.764990e-01 3.253122e-01 1.881848e+00
<VARIANCE> 25
 5.006993e+01 4.713185e+01 5.195878e+01 5.709257e+01 8.858073e+01 7.521506e+01 5.868703e+01 4.937059e+01 4.307882e+01 3.923032e+01 3.318270e+01 3.179289e+01 7.446808e+00 5.298986e+00 5.944139e+00 5.257771e+00 8.705718e+00 6.952667e+00 6.920447e+00 6.234073e+00 5.272388e+00 4.510921e+00 3.654486e+00 3.183045e+00 2.772249e+00
<GCONST> 1.145055e+02
<STATE> 4
<MEAN> 25
 8.591210e-01 3.602621e-01 1.109254e+01 1.611991e+00 -9.391261e+00 -7.442596e+00 -5.615540e+00 1.006959e+00 -1.896920e+00 -2.382596e+00 4.095826e+00 2.448951e+00 9.415398e-01 -9.290476e-01 -1.578150e+00 -2.576927e-01 4.070664e-01 2.827316e-01 -4.200803e-01 6.758531e-01 8.085064e-01 4.455667e-01 -3.857616e-01 -7.159160e-01 1.324783e-01
<VARIANCE> 25
 1.981587e+01 3.929700e+01 4.682695e+01 5.890736e+01 5.875963e+01 4.582064e+01 6.210229e+01 6.100808e+01 5.099076e+01 4.045443e+01 3.153224e+01 3.430346e+01 2.372388e+00 3.896401e+00 3.744443e+00 2.810442e+00 5.574233e+00 4.143978e+00 5.596908e+00 5.415792e+00 4.125209e+00 3.065166e+00 3.407973e+00 3.098528e+00 2.278381e+00
<GCONST> 1.081297e+02
<TRANSP> 5
 0.000000e+00 1.000000e+00 0.000000e+00 0.000000e+00 0.000000e+00
 0.000000e+00 7.629246e-01 2.370754e-01 0.000000e+00 0.000000e+00
 0.000000e+00 0.000000e+00 6.286733e-01 3.713267e-01 0.000000e+00
 0.000000e+00 0.000000e+00 0.000000e+00 7.227173e-01 2.772827e-01
 0.000000e+00 0.000000e+00 0.000000e+00 0.000000e+00 0.000000e+00
<ENDHMM>
~h "k"
<BEGINHMM>
<NUMSTATES> 5
<STATE> 2
<MEAN> 25
 -2.699377e+00 2.457843e+00 -3.831776e+00 2.590916e+00 3.631782e+00 1.134315e-01 1.393921e+00 1.026848e+00 -4.272444e-01 2.073799e+00 1.068065e+00 8.900953e-01 -1.176025e+00 -8.680388e-01 -1.178652e+00 -2.800835e-01 1.113021e+00 -6.477421e-01 -2.264748e-01 4.688569e-01 1.287139e-01 2.819683e-01 -1.044614e-01 1.608983e-01 7.203051e-01
<VARIANCE> 25
 5.123119e+01 4.436065e+01 6.991339e+01 5.108382e+01 6.420425e+01 7.286665e+01 5.653286e+01 5.287913e+01 5.331936e+01 4.159960e+01 4.150742e+01 3.736007e+01 3.741288e+00 5.642297e+00 6.333626e+00 5.621933e+00 6.373478e+00 7.022802e+00 5.919927e+00 5.517367e+00 5.057198e+00 4.454553e+00 4.184069e+00 3.786244e+00 7.086281e+00
<GCONST> 1.151061e+02
<STATE> 3
<MEAN> 25
 -4.681372e+00 -2.004901e+00 -6.823119e+00 -7.472904e-01 6.178476e+00 -2.206998e+00 -9.502462e-02 1.788004e+00 7.363386e-01 3.009073e+00 5.670637e-01 2.877690e-01 1.331384e-01 -1.088394e+00 -7.662164e-02 -1.226397e+00 -2.324623e-01 -7.397172e-01 -1.761793e-01 2.348270e-02 2.511663e-01 -1.156873e-02 -3.243072e-01 -7.255533e-01 2.489642e+00
<VARIANCE> 25
 5.218041e+01 4.893110e+01 8.843113e+01 6.398160e+01 8.266064e+01 9.490036e+01 6.738474e+01 6.126200e+01 6.180610e+01 5.034753e+01 4.635592e+01 4.824485e+01 7.172427e+00 5.493692e+00 7.443649e+00 6.586351e+00 8.556166e+00 8.705415e+00 6.976902e+00 6.422757e+00 6.517035e+00 5.645253e+00 5.435401e+00 5.187069e+00 7.230090e+00
<GCONST> 1.200835e+02
<STATE> 4
<MEAN> 25
 -2.451578e+00 -2.972832e+00 -4.381176e+00 -2.218155e+00 2.661756e+00 -2.689778e+00 7.046980e-01 1.606450e+00 9.251097e-01 1.598544e+00 -5.158490e-01 -1.630410e+00 1.545367e+00 -2.880470e-01 9.108608e-01 -5.875664e-01 -1.458376e+00 2.134831e-01 1.025969e-01 -2.181255e-01 -1.610116e-01 -6.281226e-01 -2.111853e-01 -9.483550e-01 1.527889e+00
<VARIANCE> 25
 5.715278e+01 4.518518e+01 7.546667e+01 5.049027e+01 6.569234e+01 7.348711e+01 5.427598e+01 5.149875e+01 5.244415e+01 4.129062e+01 4.518464e+01 4.695715e+01 5.249207e+00 3.980449e+00 4.906513e+00 4.741374e+00 6.347882e+00 6.303679e+00 5.342007e+00 4.709981e+00 5.024646e+00 4.396876e+00 4.188419e+00 4.336019e+00 4.123836e+00
<GCONST> 1.143192e+02
<TRANSP> 5
 0.000000e+00 1.000000e+00 0.000000e+00 0.000000e+00 0.000000e+00
 0.000000e+00 5.162695e-01 4.837305e-01 0.000000e+00 0.000000e+00
 0.000000e+00 0.000000e+00 5.017373e-01 4.982627e-01 0.000000e+00
 0.000000e+00 0.000000e+00 0.000000e+00 5.121229e-01 4.878772e-01
 0.000000e+00 0.000000e+00 0.000000e+00 0.000000e+00 0.000000e+00
<ENDHMM>
~h "l"
<BEGINHMM>
<NUMSTATES> 5
<STATE> 2
<MEAN> 25
 6.581876e+00 -3.727736e+00 -2.037775e+00 -4.240160e+00 -1.482594e+00 1.539856e+00 -5.100003e+00 -5.326444e+00 3.525264e+00 5.080259e+00 1.473691e-01 -3.164728e+00 2.684465e-01 -1.281585e-01 -7.983974e-02 -4.422475e-01 7.951723e-02 2.094820e-01 -4.476164e-01 -3.832361e-01 3.752588e-01 6.407862e-01 -1.314101e-01 -1.759026e-01 1.629598e-02
<VARIANCE> 25
 1.732422e+01 3.027897e+01 4.825762e+01 5.693013e+01 4.771233e+01 8.413147e+01 7.383597e+01 6.845863e+01 6.280709e+01 5.321127e+01 4.900232e+01 3.941528e+01 8.493151e-01 1.695395e+00 2.510230e+00 3.159228e+00 3.353703e+00 3.859312e+00 4.031728e+00 5.190673e+00 3.831882e+00 3.752416e+00 3.101857e+00 2.875968e+00 1.190424e+00
<GCONST> 1.056992e+02
<STATE> 3
<MEAN> 25
 6.716190e+00 -3.979453e+00 -2.502393e+00 -5.636548e+00 -8.562120e-01 2.155818e+00 -5.576124e+00 -5.276323e+00 4.214458e+00 5.555198e+00 -5.444530e-01 -3.546630e+00 -1.466813e-01 -2.000271e-01 -1.601388e-01 -3.003807e-01 3.981289e-01 9.197631e-03 2.152317e-01 6.621659e-01 1.159561e-01 -4.462632e-01 -3.255576e-01 -1.516335e-01 1.448229e-01
<VARIANCE> 25
 1.614507e+01 2.948518e+01 4.572995e+01 5.923975e+01 4.605289e+01 7.887800e+01 8.203679e+01 6.662912e+01 6.307612e+01 5.369909e+01 5.084770e+01 3.955467e+01 6.374739e-01 1.622098e+00 2.171597e+00 2.734568e+00 2.719071e+00 3.403699e+00 3.902255e+00 4.957495e+00 3.395830e+00 3.654513e+00 3.053340e+00 2.508168e+00 9.579528e-01
<GCONST> 1.040689e+02
<STATE> 4
<MEAN> 25
 5.134903e+00 -3.399939e+00 -3.126746e+00 -5.516421e+00 1.070355e+00 1.759385e+00 -2.921855e+00 -2.520839e+00 2.840234e+00 2.685657e+00 -1.151392e+00 -2.752032e+00 -2.514358e-01 -2.754249e-02 7.052977e-02 1.953395e-01 2.080500e-01 -9.534977e-02 4.326776e-01 6.559176e-01 -3.133195e-01 -6.506824e-01 -1.236418e-01 1.088136e-01 -8.177974e-02
<VARIANCE> 25
 2.290578e+01 3.445324e+01 4.537580e+01 6.391305e+01 4.765593e+01 7.688332e+01 7.554089e+01 6.509184e+01 5.599721e+01 4.534051e+01 5.159258e+01 4.312239e+01 5.778333e-01 1.452975e+00 1.783967e+00 2.136702e+00 2.422208e+00 2.853255e+00 3.006829e+00 3.357568e+00 2.781413e+00 2.825528e+00 2.607677e+00 2.090732e+00 9.329593e-01
<GCONST> 1.019408e+02
<TRANSP> 5
 0.000000e+00 1.000000e+00 0.000000e+00 0.000000e+00 0.000000e+00
 0.000000e+00 5.033985e-01 4.966015e-01 0.000000e+00 0.000000e+00
 0.000000e+00 0.000000e+00 4.994578e-01 5.005423e-01 0.000000e+00
 0.000000e+00 0.000000e+00 0.000000e+00 6.415454e-01 3.584546e-01
 0.000000e+00 0.000000e+00 0.000000e+00 0.000000e+00 0.000000e+00
<ENDHMM>
~h "m"
<BEGINHMM>
<NUMSTATES> 5
<STATE> 2
<MEAN> 25
 6.997185e+00 2.315785e+00 5.944579e-01 2.030876e+00 -3.468477e-02 4.628231e+00 -1.004508e+00 -6.841618e+00 -5.054833e+00 4.634824e-01 -3.083102e-01 -9.823824e-01 2.052054e-01 5.668755e-01 5.390436e-01 7.928475e-01 1.092611e-01 4.232413e-01 2.854592e-01 -1.056615e+00 -1.059966e+00 -1.105652e-01 -2.614490e-01 9.727553e-02 -4.937000e-01
<VARIANCE> 25
 2.044008e+01 3.822412e+01 4.061684e+01 4.689656e+01 4.060790e+01 5.010436e+01 4.298148e+01 4.861258e+01 5.212043e+01 4.537798e+01 3.961002e+01 3.052295e+01 1.125730e+00 2.197186e+00 3.143728e+00 3.584639e+00 2.504614e+00 2.916675e+00 3.094603e+00 3.624199e+00 3.494067e+00 2.834991e+00 3.122668e+00 2.285706e+00 1.771698e+00
<GCONST> 1.028529e+02
<STATE> 3
<MEAN> 25
 7.324989e+00 2.602934e+00 1.331052e+00 2.245445e+00 -2.832595e-01 5.887119e+00 -4.983313e-01 -8.249973e+00 -6.503309e+00 1.083908e-02 -6.046802e-01 -9.132060e-01 1.226632e-01 -2.754037e-01 -3.408493e-01 -4.882838e-01 -2.392343e-02 4.018703e-01 1.409055e-02 2.466856e-01 2.795469e-01 -6.165569e-02 8.897869e-02 -1.115183e-01 2.497324e-01
<VARIANCE> 25
 1.769423e+01 3.813073e+01 4.339701e+01 4.554340e+01 4.065614e+01 5.206939e+01 4.787366e+01 5.272375e+01 5.908271e+01 5.335712e+01 4.501387e+01 3.355061e+01 7.060987e-01 2.501990e+00 3.211921e+00 3.625419e+00 2.447197e+00 2.950139e+00 3.156000e+00 3.386626e+00 4.282406e+00 2.958157e+00 2.785703e+00 2.355584e+00 1.720126e+00
<GCONST> 1.032502e+02
<STATE> 4
<MEAN> 25
 7.078292e+00 1.360403e+00 -6.084033e-01 -4.627120e-01 -1.224399e-01 6.396837e+00 -9.347286e-01 -5.202895e+00 -3.606845e+00 -6.807111e-01 -2.552296e-01 -1.562449e+00 -1.155018e-01 -5.678951e-01 -5.743248e-01 -6.319765e-01 6.672189e-02 -4.710913e-02 -1.692599e-01 9.113076e-01 9.822518e-01 2.763115e-02 1.294723e-01 -1.987805e-01 4.504773e-01
<VARIANCE> 25
 2.265785e+01 5.147592e+01 5.342439e+01 6.227419e+01 4.636672e+01 6.306661e+01 5.143932e+01 5.362856e+01 6.035677e+01 4.549508e+01 4.202967e+01 3.497535e+01 7.575363e-01 2.630510e+00 3.237261e+00 3.404655e+00 3.333677e+00 3.090214e+00 3.420283e+00 3.896342e+00 4.429518e+00 3.124468e+00 2.988386e+00 2.643440e+00 1.498042e+00
<GCONST> 1.053425e+02
<TRANSP> 5
 0.000000e+00 1.000000e+00 0.000000e+00 0.000000e+00 0.000000e+00
 0.000000e+00 5.837272e-01 4.162729e-01 0.000000e+00 0.000000e+00
 0.000000e+00 0.000000e+00 5.251017e-01 4.748982e-01 0.000000e+00
 0.000000e+00 0.000000e+00 0.000000e+00 6.505350e-01 3.494650e-01
 0.000000e+00 0.000000e+00 0.000000e+00 0.000000e+00 0.000000e+00
<ENDHMM>
~h "n"
<BEGINHMM>
<NUMSTATES> 5
<STATE> 2
<MEAN> 25
 6.559765e+00 -1.324947e+00 3.131033e+00 3.849320e+00 -3.326337e+00 -2.686679e-01 -2.860328e+00 -2.388564e+00 1.276758e+00 -5.031308e-02 -4.992926e+00 -7.843354e-01 3.032479e-01 1.422495e+00 6.186396e-01 1.219634e+00 -3.272128e-01 6.710987e-02 4.166581e-02 -1.464801e+00 -2.027121e-01 2.843321e-01 -3.700827e-01 4.523150e-01 -1.387454e+00
<VARIANCE> 25
 1.584827e+01 3.786211e+01 4.356924e+01 3.437667e+01 5.109375e+01 5.539116e+01 4.697658e+01 6.229956e+01 5.142434e+01 4.845926e+01 4.495876e+01 3.484880e+01 7.732639e-01 2.195016e+00 3.136995e+00 2.709174e+00 3.495057e+00 3.257755e+00 3.084797e+00 4.737702e+00 3.192803e+00 3.164472e+00 3.117108e+00 2.436246e+00 1.161876e+00
<GCONST> 1.030366e+02
<STATE> 3
<MEAN> 25
 6.555420e+00 2.716284e+00 3.619017e+00 5.434626e+00 -2.926107e+00 -2.577355e-01 -2.152379e+00 -4.995982e+00 -1.902300e-01 7.430202e-01 -5.121755e+00 -2.208939e-01 -1.590405e-01 9.385819e-01 -2.898714e-03 2.512492e-01 4.264088e-01 1.058472e-01 2.133455e-01 -3.495189e-02 -3.768294e-01 5.001260e-04 2.477203e-01 1.507845e-01 -8.905623e-01
<VARIANCE> 25
 1.742402e+01 3.552717e+01 4.222391e+01 3.259344e+01 5.078730e+01 5.465376e+01 4.362693e+01 5.217184e+01 4.909063e+01 5.026747e+01 4.547363e+01 3.593904e+01 7.822998e-01 1.858330e+00 1.995251e+00 2.050355e+00 2.838415e+00 2.728884e+00 2.612431e+00 3.747573e+00 2.886624e+00 2.578076e+00 2.607728e+00 1.994575e+00 1.000819e+00
<GCONST> 1.002394e+02
<STATE> 4
<MEAN> 25
 -1.324949e+00 3.399116e+00 1.082951e-01 5.525901e+00 2.281221e+00 1.718432e+00 1.482794e+00 9.636800e-01 -1.085973e-01 2.776633e-01 -4.252904e-01 2.571984e+00 -3.136691e-01 4.078308e-02 -6.942052e-02 -6.803440e-02 1.654060e-01 6.026062e-02 1.103383e-01 2.253050e-01 -4.612176e-02 -2.804879e-02 2.146503e-01 2.395798e-02 -2.443239e-01
<VARIANCE> 25
 4.585340e+01 3.660641e+01 3.505320e+01 2.886396e+01 3.935855e+01 3.830942e+01 3.371109e+01 4.277807e+01 3.516294e+01 3.081315e+01 3.567709e+01 2.749028e+01 7.658436e-01 1.162858e+00 1.218640e+00 1.467758e+00 1.814986e+00 1.924890e+00 1.898459e+00 2.305353e+00 2.057345e+00 1.860096e+00 1.809579e+00 1.563838e+00 6.453129e-01
<GCONST> 9.389767e+01
<TRANSP> 5
 0.000000e+00 1.000000e+00 0.000000e+00 0.000000e+00 0.000000e+00
 0.000000e+00 6.012655e-01 3.987345e-01 0.000000e+00 0.000000e+00
 0.000000e+00 0.000000e+00 5.451413e-01 4.548587e-01 0.000000e+00
 0.000000e+00 0.000000e+00 0.000000e+00 8.723423e-01 1.276577e-01
 0.000000e+00 0.000000e+00 0.000000e+00 0.000000e+00 0.000000e+00
<ENDHMM>
~h "o"
<BEGINHMM>
<NUMSTATES> 5
<STATE> 2
<MEAN> 25
 5.589212e+00 2.589780e-01 -7.563955e+00 -7.789556e+00 -9.587427e-01 5.770039e+00 -1.223097e+00 -3.167036e+00 1.550342e-01 1.187258e+00 4.441371e+00 -5.362212e-01 1.355761e+00 -1.480958e-01 -6.307051e-01 -2.099550e+00 -3.099641e-01 1.661879e+00 -1.652904e-01 -4.385321e-01 -1.843368e-01 1.419814e-01 6.671710e-01 -4.525614e-01 1.411452e+00
<VARIANCE> 25
 4.318095e+01 3.776344e+01 4.959784e+01 8.474622e+01 5.984112e+01 8.414574e+01 6.865089e+01 5.393768e+01 5.270618e+01 5.324917e+01 5.423815e+01 3.904617e+01 4.467798e+00 3.458962e+00 4.006804e+00 7.251197e+00 6.159416e+00 7.190035e+00 6.024603e+00 5.029950e+00 5.196881e+00 5.116766e+00 4.595990e+00 3.565069e+00 5.213427e+00
<GCONST> 1.150634e+02
<STATE> 3
<MEAN> 25
 7.951709e+00 -7.388024e-01 -8.251517e+00 -1.152188e+01 -1.265081e+00 9.132190e+00 -1.798207e+00 -3.897735e+00 3.403492e-01 1.410050e+00 5.897007e+00 -1.429299e+00 1.647517e-01 -1.246992e-01 9.915163e-02 2.413526e-01 3.588125e-01 2.525074e-01 1.061292e-02 -1.246627e-01 9.688257e-02 3.371895e-01 -3.436473e-01 -2.377160e-01 -1.210459e-01
<VARIANCE> 25
 2.101227e+01 3.528317e+01 4.316042e+01 7.945826e+01 5.745734e+01 8.462422e+01 7.525885e+01 5.185846e+01 5.743744e+01 6.305423e+01 5.531132e+01 5.087957e+01 1.285633e+00 2.891340e+00 2.437228e+00 4.834545e+00 4.089230e+00 4.857633e+00 4.761633e+00 3.821924e+00 4.476801e+00 4.299867e+00 3.733655e+00 3.358738e+00 2.875231e+00
<GCONST> 1.098039e+02
<STATE> 4
<MEAN> 25
 7.358588e+00 8.156487e-02 -7.433089e+00 -9.038228e+00 9.251241e-02 7.550852e+00 -4.273752e-01 -4.165850e+00 5.070422e-02 2.504946e+00 3.431856e+00 -1.016971e+00 -2.883690e-01 1.154775e-01 4.518383e-01 1.202877e+00 2.957072e-01 -7.343071e-01 3.325652e-03 1.023166e-01 1.527949e-01 2.058170e-02 -5.781075e-01 1.038044e-01 -6.566467e-01
<VARIANCE> 25
 2.150329e+01 4.445334e+01 4.178888e+01 7.385339e+01 5.295173e+01 7.950979e+01 6.738087e+01 5.089788e+01 5.167490e+01 4.530322e+01 3.996298e+01 5.228238e+01 8.837888e-01 1.797464e+00 2.044246e+00 3.323547e+00 2.767982e+00 3.740592e+00 2.979393e+00 3.111699e+00 2.873924e+00 2.858746e+00 2.611654e+00 2.454512e+00 1.380456e+00
<GCONST> 1.039622e+02
<TRANSP> 5
 0.000000e+00 1.000000e+00 0.000000e+00 0.000000e+00 0.000000e+00
 0.000000e+00 5.815460e-01 4.184540e-01 0.000000e+00 0.000000e+00
 0.000000e+00 0.000000e+00 5.669180e-01 4.330820e-01 0.000000e+00
 0.000000e+00 0.000000e+00 0.000000e+00 7.906331e-01 2.093669e-01
 0.000000e+00 0.000000e+00 0.000000e+00 0.000000e+00 0.000000e+00
<ENDHMM>
~h "p"
<BEGINHMM>
<NUMSTATES> 5
<STATE> 2
<MEAN> 25
 -5.574703e-01 3.305780e+00 -4.476529e+00 2.894831e+00 2.661429e+00 1.127044e+00 1.786849e+00 3.082705e-01 2.403296e-01 2.113139e+00 1.371919e+00 7.476880e-01 -3.719282e-01 -4.128625e-01 -7.692814e-01 -2.246181e-01 4.500937e-02 -2.135870e-01 2.866045e-01 -8.577485e-02 1.960635e-01 1.338292e-01 2.638299e-01 9.067221e-02 3.870166e-01
<VARIANCE> 25
 5.884949e+01 3.801363e+01 4.876271e+01 4.532484e+01 3.459275e+01 5.201035e+01 4.058479e+01 4.028677e+01 4.362658e+01 3.605789e+01 3.515167e+01 2.892048e+01 4.258512e+00 4.142979e+00 4.019408e+00 4.949204e+00 3.938815e+00 5.159590e+00 4.178133e+00 4.369831e+00 4.145576e+00 3.473047e+00 3.537961e+00 2.884379e+00 8.883739e+00
<GCONST> 1.094914e+02
<STATE> 3
<MEAN> 25
 6.767487e-01 -1.828778e-01 -6.007041e+00 -6.875716e-01 1.835298e+00 6.971848e-01 1.718840e+00 -1.340815e+00 1.023191e+00 1.959064e+00 2.200112e+00 -2.809379e-01 1.306962e+00 -1.870535e+00 -7.355932e-01 -1.931297e+00 -5.712589e-01 5.598151e-01 -5.367464e-01 -6.743066e-01 4.646397e-01 9.568629e-02 2.551122e-01 -1.212660e+00 3.491107e+00
<VARIANCE> 25
 4.920088e+01 3.702966e+01 4.473733e+01 5.511948e+01 3.738280e+01 6.655856e+01 4.599774e+01 4.239797e+01 3.959546e+01 3.666443e+01 3.486218e+01 3.349650e+01 7.040545e+00 5.744536e+00 6.071697e+00 7.035351e+00 5.373699e+00 1.042612e+01 6.143701e+00 5.290403e+00 5.800934e+00 4.757089e+00 5.048284e+00 5.227493e+00 1.029581e+01
<GCONST> 1.148873e+02
<STATE> 4
<MEAN> 25
 3.995072e+00 -3.971506e+00 -7.168782e+00 -4.497363e+00 1.215271e+00 3.124829e+00 1.587666e-02 -2.241817e+00 2.571012e+00 2.003508e+00 1.946231e+00 -3.864017e+00 9.197882e-01 -8.544342e-01 1.947973e-01 -7.309248e-01 -4.813774e-01 2.431147e-01 -5.982482e-01 2.045720e-02 2.369361e-01 -5.890511e-02 -2.284985e-01 -6.961202e-01 1.717580e+00
<VARIANCE> 25
 4.174350e+01 3.814330e+01 4.254012e+01 5.372620e+01 3.970351e+01 7.721365e+01 5.443534e+01 4.552787e+01 4.348372e+01 3.846931e+01 4.104800e+01 4.901538e+01 4.910087e+00 4.727062e+00 4.712345e+00 5.985987e+00 5.291283e+00 8.787522e+00 5.421878e+00 4.940377e+00 5.302302e+00 4.185947e+00 4.509992e+00 4.751462e+00 8.674237e+00
<GCONST> 1.138631e+02
<TRANSP> 5
 0.000000e+00 1.000000e+00 0.000000e+00 0.000000e+00 0.000000e+00
 0.000000e+00 5.303558e-01 4.696443e-01 0.000000e+00 0.000000e+00
 0.000000e+00 0.000000e+00 4.743934e-01 5.256066e-01 0.000000e+00
 0.000000e+00 0.000000e+00 0.000000e+00 5.009143e-01 4.990857e-01
 0.000000e+00 0.000000e+00 0.000000e+00 0.000000e+00 0.000000e+00
<ENDHMM>
~h "q"
<BEGINHMM>
<NUMSTATES> 5
<STATE> 2
<MEAN> 25
 4.074464e+00 -9.549884e+00 -7.129409e+00 -6.425612e+00 3.438835e+00 2.389188e+00 2.774064e+00 1.280385e+00 3.186769e+00 -3.514853e-01 -4.354907e+00 -6.267807e+00 2.047800e-02 -3.513213e-01 -2.474044e-02 9.752082e-02 1.783697e-01 2.065611e-01 3.862407e-02 -6.900853e-02 3.931182e-02 -2.667942e-01 -3.139366e-01 2.660767e-02 4.790521e-02
<VARIANCE> 25
 1.357553e+01 4.627496e+01 5.933881e+01 4.052324e+01 6.002467e+01 8.928123e+01 5.797803e+01 5.079740e+01 3.668724e+01 4.649235e+01 4.540737e+01 5.009626e+01 5.917768e-01 1.343046e+00 1.539108e+00 1.480008e+00 1.698215e+00 2.043263e+00 1.752540e+00 1.899473e+00 1.707808e+00 1.767344e+00 1.646483e+00 1.551037e+00 9.408956e-01
<GCONST> 9.694241e+01
<STATE> 3
<MEAN> 25
 3.983861e+00 -8.921934e+00 -5.915698e+00 -4.278879e+00 3.775707e+00 1.926567e+00 2.039812e+00 5.088917e-01 2.342432e+00 -2.258014e+00 -5.970936e+00 -4.323072e+00 -6.082656e-02 2.558375e-01 1.718804e-01 4.123223e-01 2.976496e-02 -1.053839e-01 -1.494564e-01 4.231200e-02 -1.220759e-01 -5.911118e-02 -9.133069e-02 3.195395e-01 -2.623746e-01
<VARIANCE> 25
 1.337249e+01 5.023782e+01 4.317336e+01 4.324510e+01 5.266421e+01 7.835558e+01 4.986790e+01 5.238168e+01 4.485773e+01 5.057959e+01 4.787627e+01 3.869350e+01 5.321515e-01 1.215075e+00 1.232321e+00 1.344769e+00 1.516623e+00 1.962500e+00 1.654459e+00 1.900756e+00 1.658324e+00 1.810382e+00 1.554494e+00 1.666471e+00 8.878528e-01
<GCONST> 9.567124e+01
<STATE> 4
<MEAN> 25
 -2.024713e+00 -2.281041e+00 -2.841109e+00 9.728256e-01 3.330193e+00 3.177944e+00 7.506372e-01 3.353508e+00 1.315233e+00 2.633686e-02 -8.831137e-01 1.892407e+00 -3.334652e-02 8.170028e-02 4.105275e-02 1.008464e-01 -2.319594e-02 -1.760141e-02 -3.105808e-02 3.830865e-02 -4.025360e-03 1.952765e-02 5.552226e-02 7.794977e-02 -1.351243e-01
<VARIANCE> 25
 3.004293e+01 3.391401e+01 2.592107e+01 3.667924e+01 2.993366e+01 3.677089e+01 2.589927e+01 2.691399e+01 2.804376e+01 2.553403e+01 3.457567e+01 2.757482e+01 3.321054e-01 6.001680e-01 7.587852e-01 9.747747e-01 1.102836e+00 1.311721e+00 1.332087e+00 1.484978e+00 1.475268e+00 1.427204e+00 1.392936e+00 1.215463e+00 3.413943e-01
<GCONST> 8.604834e+01
<TRANSP> 5
 0.000000e+00 1.000000e+00 0.000000e+00 0.000000e+00 0.000000e+00
 0.000000e+00 6.754203e-01 3.245797e-01 0.000000e+00 0.000000e+00
 0.000000e+00 0.000000e+00 6.374708e-01 3.625292e-01 0.000000e+00
 0.000000e+00 0.000000e+00 0.000000e+00 9.121082e-01 8.789174e-02
 0.000000e+00 0.000000e+00 0.000000e+00 0.000000e+00 0.000000e+00
<ENDHMM>
~h "r"
<BEGINHMM>
<NUMSTATES> 5
<STATE> 2
<MEAN> 25
 4.722763e+00 -4.683292e+00 -2.203829e+00 7.211302e-01 -2.874544e+00 -2.116532e+00 -2.944727e+00 1.010935e+00 5.143238e+00 2.586166e-01 -6.166167e-02 -1.690812e+00 9.263211e-02 -2.129604e-02 3.030460e-01 8.123209e-01 -3.896844e-01 -1.344810e-01 -2.440882e-01 1.257146e-01 -5.488725e-02 -2.042574e-01 3.480574e-01 3.700780e-01 -5.042420e-01
<VARIANCE> 25
 2.421712e+01 3.503368e+01 5.021884e+01 4.889616e+01 5.254749e+01 5.773986e+01 6.385517e+01 5.543768e+01 5.418610e+01 4.320033e+01 4.880871e+01 3.844650e+01 1.976100e+00 2.676651e+00 3.267723e+00 4.029333e+00 4.314476e+00 4.453128e+00 4.016248e+00 4.279415e+00 4.203855e+00 3.592140e+00 3.698912e+00 3.573463e+00 3.219875e+00
<GCONST> 1.084902e+02
<STATE> 3
<MEAN> 25
 4.905181e+00 -4.186619e+00 -1.329169e+00 2.027473e+00 -3.346967e+00 -2.378592e+00 -3.261999e+00 1.082803e+00 4.317379e+00 1.092182e-01 8.746330e-01 -1.002831e+00 -9.410551e-02 3.242702e-01 4.609462e-01 3.900927e-01 -4.400615e-02 -2.910458e-02 8.620666e-02 -1.805185e-02 -6.402907e-01 -3.066347e-02 3.633714e-01 3.354178e-01 -6.102617e-01
<VARIANCE> 25
 2.531681e+01 3.715083e+01 5.686348e+01 4.600946e+01 5.458077e+01 5.671933e+01 6.261919e+01 5.609109e+01 5.157645e+01 4.258721e+01 4.770527e+01 3.772234e+01 1.786719e+00 2.532598e+00 3.394812e+00 3.371095e+00 4.189835e+00 4.218641e+00 3.661434e+00 3.983179e+00 3.974957e+00 3.383354e+00 3.531157e+00 3.243540e+00 2.547642e+00
<GCONST> 1.075262e+02
<STATE> 4
<MEAN> 25
 3.397915e+00 -2.628388e+00 -4.167734e-01 2.353144e+00 -2.420005e+00 -2.032934e+00 -2.027885e+00 1.248352e+00 2.258798e+00 1.930956e-01 1.263065e+00 -7.593855e-02 -2.804460e-01 4.243699e-01 3.917998e-01 1.064970e-02 1.323600e-01 7.457359e-02 2.989716e-01 -1.651421e-01 -6.846216e-01 3.146310e-03 1.866570e-01 1.642675e-01 -4.164758e-01
<VARIANCE> 25
 3.407218e+01 3.957422e+01 6.361905e+01 4.404275e+01 6.074963e+01 5.785723e+01 5.637590e+01 5.329417e+01 4.840941e+01 4.051113e+01 4.731031e+01 3.536662e+01 1.521787e+00 2.107345e+00 2.776701e+00 2.551150e+00 3.493608e+00 3.215868e+00 3.000865e+00 3.269232e+00 3.424780e+00 2.820828e+00 2.832139e+00 2.386736e+00 1.904638e+00
<GCONST> 1.049170e+02
<TRANSP> 5
 0.000000e+00 1.000000e+00 0.000000e+00 0.000000e+00 0.000000e+00
 0.000000e+00 3.422141e-01 6.577859e-01 0.000000e+00 0.000000e+00
 0.000000e+00 0.000000e+00 3.084398e-01 6.915602e-01 0.000000e+00
 0.000000e+00 0.000000e+00 0.000000e+00 5.116296e-01 4.883704e-01
 0.000000e+00 0.000000e+00 0.000000e+00 0.000000e+00 0.000000e+00
<ENDHMM>
~h "s"
<BEGINHMM>
<NUMSTATES> 5
<STATE> 2
<MEAN> 25
 -9.899549e+00 6.049143e+00 6.684079e-02 8.065625e-01 7.142209e+00 -4.445503e+00 4.680474e+00 1.646904e+00 1.942968e+00 -6.865326e-01 2.470996e-01 1.938972e+00 -3.756932e+00 1.617301e+00 -5.308137e-01 -1.586865e-01 1.433027e+00 -7.104720e-01 1.304707e+00 3.039714e-01 3.015969e-01 -3.690010e-01 7.720734e-01 5.833502e-01 2.104719e-01
<VARIANCE> 25
 7.579561e+01 5.062769e+01 7.235011e+01 5.044547e+01 7.281217e+01 7.708775e+01 7.697115e+01 6.035672e+01 5.010055e+01 4.078037e+01 4.567532e+01 3.339906e+01 4.115060e+00 4.122667e+00 3.974977e+00 3.859882e+00 5.577392e+00 5.992031e+00 6.001785e+00 4.675781e+00 3.932605e+00 3.630905e+00 3.762631e+00 2.788239e+00 1.793952e+00
<GCONST> 1.124299e+02
<STATE> 3
<MEAN> 25
 -1.956589e+01 7.721701e+00 -2.227015e+00 -5.004200e-01 8.729551e+00 -5.958736e+00 6.791510e+00 1.992466e+00 2.084590e+00 -1.491387e+00 2.606142e+00 3.416153e+00 -1.528989e-01 -5.023683e-01 -9.377839e-02 -1.503299e-01 -3.545875e-01 -3.960245e-02 -1.033168e-01 5.196342e-02 3.518855e-02 7.366889e-03 -3.392660e-02 2.315064e-02 -3.104870e-01
<VARIANCE> 25
 3.758891e+01 3.739906e+01 5.114832e+01 5.550941e+01 5.993687e+01 7.375494e+01 6.452695e+01 5.356908e+01 3.855747e+01 3.046728e+01 3.003089e+01 2.842794e+01 4.073143e+00 2.094771e+00 2.165541e+00 2.096563e+00 2.555287e+00 2.664923e+00 2.855138e+00 2.747973e+00 2.563017e+00 2.236408e+00 2.326728e+00 1.872297e+00 1.328169e+00
<GCONST> 1.026437e+02
<STATE> 4
<MEAN> 25
 -1.206356e+01 3.476526e+00 -8.614917e-01 -4.965623e-01 4.383667e+00 -4.747983e+00 3.829933e+00 9.940555e-01 2.151871e+00 -7.453669e-01 4.860527e-01 2.121910e+00 3.419156e+00 -7.829913e-01 4.677435e-01 -1.480536e-01 -1.366464e+00 2.064450e-01 -1.306492e+00 -7.737418e-01 -2.143299e-01 1.956849e-01 -7.038479e-01 -7.277401e-01 3.874572e-01
<VARIANCE> 25
 7.419630e+01 4.181450e+01 6.352005e+01 5.030010e+01 5.071458e+01 6.508206e+01 5.860523e+01 5.150742e+01 4.049668e+01 3.065526e+01 3.653362e+01 2.922700e+01 6.879791e+00 3.868397e+00 5.057182e+00 3.909825e+00 5.052737e+00 5.193759e+00 5.349614e+00 5.015083e+00 4.285881e+00 3.052388e+00 3.445597e+00 2.824675e+00 3.063707e+00
<GCONST> 1.110570e+02
<TRANSP> 5
 0.000000e+00 1.000000e+00 0.000000e+00 0.000000e+00 0.000000e+00
 0.000000e+00 7.343568e-01 2.656432e-01 0.000000e+00 0.000000e+00
 0.000000e+00 0.000000e+00 7.776545e-01 2.223456e-01 0.000000e+00
 0.000000e+00 0.000000e+00 0.000000e+00 7.242259e-01 2.757741e-01
 0.000000e+00 0.000000e+00 0.000000e+00 0.000000e+00 0.000000e+00
<ENDHMM>
~h "t"
<BEGINHMM>
<NUMSTATES> 5
<STATE> 2
<MEAN> 25
 -1.622231e+00 4.407713e+00 -1.826433e+00 3.158652e+00 2.465401e+00 -1.826417e+00 1.066879e+00 -2.738711e-02 1.164446e+00 1.731516e+00 2.716971e-01 1.488011e+00 -1.236140e+00 -7.219715e-01 -5.073944e-01 -8.934632e-01 4.995086e-01 -8.710380e-01 5.854737e-01 1.840931e-01 1.740160e-01 -3.056887e-01 1.911246e-01 1.771047e-01 1.084604e+00
<VARIANCE> 25
 5.041121e+01 4.240485e+01 5.776937e+01 4.251332e+01 5.017823e+01 6.282828e+01 5.133211e+01 4.687879e+01 4.984787e+01 3.865303e+01 3.613140e+01 2.939989e+01 4.250418e+00 5.254951e+00 5.308908e+00 6.413297e+00 5.691073e+00 6.615048e+00 5.682570e+00 5.604153e+00 5.179696e+00 4.073321e+00 4.152716e+00 3.257741e+00 8.948295e+00
<GCONST> 1.133629e+02
<STATE> 3
<MEAN> 25
 -4.517546e+00 2.188743e-01 -2.563462e+00 -1.530640e+00 3.196980e+00 -4.949483e+00 2.104916e+00 1.007969e-01 1.854159e+00 4.409647e-01 7.405127e-01 1.510105e+00 2.323465e-01 -1.536973e+00 8.702549e-02 -1.916891e+00 -3.489802e-01 -9.588274e-01 -5.765927e-01 -1.698593e-01 4.181031e-01 -3.169188e-01 -1.329075e-01 -7.019299e-01 3.661396e+00
<VARIANCE> 25
 4.716433e+01 4.235751e+01 5.380654e+01 5.607938e+01 5.287890e+01 7.619322e+01 6.089127e+01 4.843053e+01 4.771960e+01 3.955390e+01 3.771493e+01 3.470254e+01 7.615081e+00 5.527590e+00 7.988556e+00 6.971262e+00 6.836192e+00 9.328054e+00 8.373202e+00 6.985053e+00 7.516862e+00 5.513612e+00 6.398063e+00 5.114934e+00 8.423746e+00
<GCONST> 1.178966e+02
<STATE> 4
<MEAN> 25
 -1.489995e+00 -1.612936e+00 -1.838892e+00 -3.640081e+00 1.321906e+00 -4.675725e+00 -5.613215e-01 -2.645644e-01 2.653059e+00 3.832777e-01 -2.067724e-01 -9.011798e-01 1.615413e+00 -6.392549e-01 5.110769e-01 -8.605714e-01 -9.489488e-01 4.906406e-01 -1.243964e+00 -2.601643e-01 -1.701031e-01 6.752760e-02 -6.505817e-02 -9.760135e-01 2.196228e+00
<VARIANCE> 25
 4.389241e+01 4.020593e+01 5.872873e+01 5.233636e+01 5.769851e+01 7.113197e+01 7.010270e+01 5.007282e+01 5.204524e+01 4.112868e+01 4.642004e+01 4.169984e+01 5.343099e+00 4.725097e+00 7.452448e+00 5.694003e+00 6.494728e+00 8.669166e+00 7.500081e+00 6.885751e+00 6.578841e+00 4.677153e+00 5.802205e+00 4.437019e+00 5.951357e+00
<GCONST> 1.165837e+02
<TRANSP> 5
 0.000000e+00 1.000000e+00 0.000000e+00 0.000000e+00 0.000000e+00
 0.000000e+00 4.588312e-01 5.411689e-01 0.000000e+00 0.000000e+00
 0.000000e+00 0.000000e+00 4.087466e-01 5.912534e-01 0.000000e+00
 0.000000e+00 0.000000e+00 0.000000e+00 3.239166e-01 6.760833e-01
 0.000000e+00 0.000000e+00 0.000000e+00 0.000000e+00 0.000000e+00
<ENDHMM>
~h "u"
<BEGINHMM>
<NUMSTATES> 5
<STATE> 2
<MEAN> 25
 6.047616e+00 4.071638e+00 -1.929509e+00 -4.513779e+00 -1.834797e+00 2.920185e+00 -5.798586e+00 -6.072312e+00 -2.768576e+00 -3.993939e-01 3.648754e+00 7.368544e-01 1.396936e+00 5.295140e-01 -2.646896e-01 -1.467469e+00 -8.635224e-01 1.565055e+00 -8.889587e-01 -1.301678e+00 -7.516401e-01 6.796503e-02 1.002995e+00 2.284739e-01 6.906378e-01
<VARIANCE> 25
 3.406299e+01 4.318854e+01 5.381874e+01 8.623335e+01 5.840737e+01 7.500287e+01 8.522962e+01 6.982966e+01 6.773373e+01 5.828378e+01 5.425766e+01 3.833022e+01 4.144750e+00 3.586934e+00 4.688868e+00 6.277865e+00 6.082739e+00 7.019178e+00 7.167243e+00 6.461431e+00 5.815517e+00 5.523370e+00 4.926315e+00 3.579516e+00 3.382799e+00
<GCONST> 1.159095e+02
<STATE> 3
<MEAN> 25
 8.000257e+00 4.441542e+00 -1.932595e+00 -7.378159e+00 -3.011222e+00 6.764441e+00 -7.167373e+00 -8.539819e+00 -3.533576e+00 -2.990120e-03 5.840161e+00 1.073534e+00 1.262117e-01 -3.802130e-02 8.988569e-02 8.805381e-02 1.759274e-01 3.268122e-01 -6.190138e-02 -5.950555e-02 2.040797e-01 3.900194e-01 -1.099289e-01 -1.196155e-01 -2.466168e-01
<VARIANCE> 25
 2.044032e+01 3.823825e+01 4.677629e+01 8.558559e+01 5.848280e+01 8.158321e+01 8.760698e+01 7.584424e+01 7.508552e+01 6.705263e+01 5.700155e+01 4.266838e+01 1.543635e+00 3.538132e+00 3.193920e+00 5.582067e+00 4.763409e+00 5.527022e+00 6.153024e+00 5.367727e+00 5.844597e+00 5.553493e+00 4.688427e+00 3.689944e+00 3.042851e+00
<GCONST> 1.132856e+02
<STATE> 4
<MEAN> 25
 6.517952e+00 5.325186e+00 -1.886393e+00 -5.549935e+00 -1.322132e+00 4.256680e+00 -5.637150e+00 -6.256691e+00 -3.425693e+00 9.698375e-01 3.613837e+00 1.212149e+00 -5.892053e-01 -9.639995e-02 2.620153e-01 1.014099e+00 4.527059e-01 -6.707131e-01 5.575759e-01 5.864423e-01 4.302972e-01 6.227316e-02 -5.729914e-01 -1.062929e-01 -7.106943e-01
<VARIANCE> 25
 2.260202e+01 4.272459e+01 4.916962e+01 8.178632e+01 5.197135e+01 7.173338e+01 7.264304e+01 5.538953e+01 6.086515e+01 5.244374e+01 4.237012e+01 3.928138e+01 1.354956e+00 2.354556e+00 2.599113e+00 3.693264e+00 3.453592e+00 4.040767e+00 3.884244e+00 3.688895e+00 3.593382e+00 3.278210e+00 3.263760e+00 2.828239e+00 1.955775e+00
<GCONST> 1.072079e+02
<TRANSP> 5
 0.000000e+00 1.000000e+00 0.000000e+00 0.000000e+00 0.000000e+00
 0.000000e+00 5.374655e-01 4.625345e-01 0.000000e+00 0.000000e+00
 0.000000e+00 0.000000e+00 5.382263e-01 4.617736e-01 0.000000e+00
 0.000000e+00 0.000000e+00 0.000000e+00 7.511551e-01 2.488449e-01
 0.000000e+00 0.000000e+00 0.000000e+00 0.000000e+00 0.000000e+00
<ENDHMM>
~h "w"
<BEGINHMM>
<NUMSTATES> 5
<STATE> 2
<MEAN> 25
 8.615842e+00 1.356634e+00 -5.738547e+00 -1.127164e+01 -2.935787e+00 7.037057e+00 -1.508258e+00 -3.636518e+00 -2.023650e+00 -1.471680e-01 4.578102e+00 -3.323448e-01 6.261459e-01 3.845125e-01 -5.356526e-01 -1.516832e+00 -6.542858e-01 8.415604e-01 4.184770e-01 -2.145042e-01 -3.160247e-01 -9.728157e-02 5.176476e-01 4.693986e-01 1.606731e-01
<VARIANCE> 25
 1.943171e+01 5.447878e+01 3.291420e+01 5.932113e+01 5.187397e+01 6.319141e+01 6.204456e+01 5.956541e+01 5.672042e+01 4.864940e+01 4.187278e+01 4.885816e+01 1.312749e+00 3.134013e+00 2.017204e+00 3.006514e+00 3.314225e+00 3.435441e+00 3.374064e+00 3.482784e+00 3.202669e+00 3.359817e+00 3.055917e+00 3.787339e+00 2.394481e+00
<GCONST> 1.061558e+02
<STATE> 3
<MEAN> 25
 8.476902e+00 -3.993330e-01 -7.930586e+00 -1.505046e+01 -2.735121e+00 1.001840e+01 -3.466431e-02 -4.756524e+00 -7.991968e-01 1.965364e+00 5.352575e+00 -2.280280e+00 -5.357726e-01 -8.668477e-01 -2.994348e-01 3.630164e-01 1.012447e+00 5.250512e-02 -9.577985e-03 6.406126e-02 5.134765e-01 5.061823e-01 -2.955602e-01 -9.726275e-01 3.672245e-01
<VARIANCE> 25
 1.777445e+01 3.717731e+01 3.644975e+01 5.577310e+01 4.835445e+01 6.209815e+01 6.909549e+01 5.387386e+01 4.277156e+01 4.927803e+01 4.210227e+01 4.725462e+01 9.148839e-01 2.666933e+00 1.310205e+00 2.624954e+00 2.875690e+00 3.052137e+00 3.004385e+00 2.947079e+00 2.769459e+00 2.938071e+00 2.958387e+00 3.772810e+00 1.546383e+00
<GCONST> 1.029611e+02
<STATE> 4
<MEAN> 25
 -4.608439e-02 -2.327610e+00 -5.228270e+00 -3.179493e+00 2.741870e+00 4.009422e+00 1.499190e-01 1.144419e+00 1.787406e+00 1.111017e+00 7.411005e-01 -4.047957e-01 -1.419984e-01 -7.476390e-02 8.123530e-02 2.884237e-01 1.192641e-01 -1.662202e-01 -1.794804e-02 1.675694e-01 6.671681e-02 -3.918294e-02 -1.950500e-01 8.962430e-03 -1.562033e-01
<VARIANCE> 25
 3.917947e+01 3.515422e+01 2.922015e+01 6.644116e+01 4.406148e+01 3.911543e+01 3.412860e+01 3.628391e+01 2.989702e+01 2.589024e+01 2.915890e+01 5.581104e+01 3.730919e-01 7.169097e-01 7.897403e-01 1.255743e+00 1.349476e+00 1.503560e+00 1.431499e+00 1.544194e+00 1.506213e+00 1.534178e+00 1.594069e+00 1.325436e+00 4.427856e-01
<GCONST> 9.031065e+01
<TRANSP> 5
 0.000000e+00 1.000000e+00 0.000000e+00 0.000000e+00 0.000000e+00
 0.000000e+00 7.498938e-01 2.501062e-01 0.000000e+00 0.000000e+00
 0.000000e+00 0.000000e+00 7.706605e-01 2.293395e-01 0.000000e+00
 0.000000e+00 0.000000e+00 0.000000e+00 9.099617e-01 9.003830e-02
 0.000000e+00 0.000000e+00 0.000000e+00 0.000000e+00 0.000000e+00
<ENDHMM>
~h "y"
<BEGINHMM>
<NUMSTATES> 5
<STATE> 2
<MEAN> 25
 4.548169e-01 -8.765495e-01 1.003781e+01 -2.254297e+00 -1.010932e+01 -3.637046e+00 -1.325257e+00 2.618156e+00 -3.753735e+00 -6.166224e-01 3.148354e+00 7.720378e-02 -4.022976e-02 -3.165045e-01 1.558635e+00 -7.394222e-01 -1.536479e+00 -3.558087e-01 -1.100022e-01 3.334223e-01 -8.069843e-01 1.839302e-01 1.088663e+00 1.557962e-01 9.075053e-01
<VARIANCE> 25
 3.214312e+01 6.447688e+01 7.598832e+01 5.116636e+01 6.547289e+01 6.710625e+01 9.400154e+01 6.616639e+01 6.651849e+01 4.894430e+01 4.668940e+01 3.597327e+01 2.037374e+00 3.858388e+00 6.434840e+00 3.388562e+00 4.635346e+00 4.103927e+00 5.325173e+00 5.518290e+00 4.529436e+00 3.608611e+00 3.640572e+00 2.747037e+00 3.356360e+00
<GCONST> 1.122646e+02
<STATE> 3
<MEAN> 25
 1.164733e+00 -3.898283e+00 1.201939e+01 -4.586013e+00 -1.326729e+01 -5.516588e+00 -1.567699e+00 4.075075e+00 -4.055716e+00 6.309286e-01 5.357039e+00 -7.869817e-02 1.199157e-01 -7.610587e-01 -1.028576e+00 -6.621987e-02 4.192711e-01 -4.466769e-02 6.661672e-01 1.011595e+00 6.000937e-01 -2.866279e-01 -4.581770e-01 -4.659259e-02 3.048509e-01
<VARIANCE> 25
 1.087630e+01 3.340451e+01 5.446244e+01 3.907896e+01 4.958414e+01 5.169078e+01 7.181332e+01 6.452724e+01 5.581975e+01 5.380343e+01 4.572478e+01 3.268610e+01 5.385748e-01 2.118755e+00 4.279623e+00 1.779816e+00 3.748160e+00 2.256406e+00 3.321429e+00 4.243473e+00 3.243413e+00 3.104127e+00 3.271963e+00 1.640812e+00 8.720722e-01
<GCONST> 1.019087e+02
<STATE> 4
<MEAN> 25
 9.716705e-02 -5.657866e+00 1.944623e+00 -1.889052e+00 -5.120399e+00 -2.196054e+00 9.506165e-01 6.509215e+00 -1.191968e-01 -1.765265e+00 6.016270e-01 5.189601e-01 1.430795e-01 -1.831643e-01 -8.194950e-01 1.813865e-01 8.365116e-01 3.359376e-01 -3.516098e-02 4.573787e-02 3.299795e-01 -2.005640e-01 -6.032185e-01 -1.917722e-01 -1.485609e-01
<VARIANCE> 25
 2.359125e+01 3.273569e+01 5.072363e+01 2.989029e+01 5.994570e+01 5.082213e+01 5.270817e+01 4.354981e+01 3.708196e+01 3.506103e+01 3.661053e+01 2.725301e+01 3.284388e-01 7.945451e-01 1.789192e+00 1.152147e+00 2.573526e+00 1.644285e+00 1.877682e+00 1.912601e+00 1.735662e+00 1.889392e+00 2.019985e+00 1.406578e+00 3.568692e-01
<GCONST> 9.305893e+01
<TRANSP> 5
 0.000000e+00 1.000000e+00 0.000000e+00 0.000000e+00 0.000000e+00
 0.000000e+00 6.510852e-01 3.489148e-01 0.000000e+00 0.000000e+00
 0.000000e+00 0.000000e+00 6.857262e-01 3.142738e-01 0.000000e+00
 0.000000e+00 0.000000e+00 0.000000e+00 8.481674e-01 1.518326e-01
 0.000000e+00 0.000000e+00 0.000000e+00 0.000000e+00 0.000000e+00
<ENDHMM>
~h "z"
<BEGINHMM>
<NUMSTATES> 5
<STATE> 2
<MEAN> 25
 -5.394355e+00 2.061076e-01 -1.448831e+00 1.601226e+00 4.562283e+00 2.662135e+00 7.306076e-01 2.401026e+00 1.039480e+00 1.062343e+00 1.253909e+00 3.372358e+00 -2.426064e-02 -2.190885e-02 -5.102090e-03 6.084285e-03 3.947312e-02 5.435498e-02 2.374429e-02 3.058553e-02 -8.833967e-04 8.837346e-03 3.288924e-02 1.438488e-02 -6.951826e-02
<VARIANCE> 25
 2.490768e+01 1.300877e+01 9.708667e+00 1.126815e+01 1.403379e+01 2.115109e+01 1.682462e+01 1.956224e+01 1.802063e+01 1.517132e+01 2.082668e+01 1.472743e+01 4.598073e-01 5.066429e-01 6.679628e-01 8.411454e-01 8.829004e-01 1.159674e+00 1.221208e+00 1.341336e+00 1.750822e+00 1.644024e+00 1.505333e+00 1.285890e+00 2.713616e-01
<GCONST> 7.814629e+01
<STATE> 3
<MEAN> 25
 -1.747671e+00 3.932992e+00 5.206492e-01 3.590159e+00 1.952767e+00 -2.176625e+00 1.639413e+00 -3.736523e-01 -7.904368e-01 4.805704e-01 3.747151e-01 2.117681e+00 1.207549e+00 -2.229001e-01 -1.997168e-01 2.466014e-02 -1.282810e+00 -1.017163e+00 -7.433748e-01 -6.781305e-01 -9.981340e-01 -5.550684e-01 -3.019629e-01 -4.986657e-01 1.154809e+00
<VARIANCE> 25
 4.385220e+01 3.760492e+01 2.290244e+01 1.982070e+01 2.483904e+01 4.131016e+01 2.013698e+01 1.500262e+01 2.506507e+01 7.881115e+00 2.394173e+01 9.000110e+00 2.328363e+00 1.145882e+00 1.930821e+00 2.396581e+00 1.917815e+00 4.319202e+00 1.230775e+00 1.850875e+00 1.482919e+00 1.370546e+00 1.446517e+00 7.161965e-01 1.547884e+00
<GCONST> 8.940833e+01
<STATE> 4
<MEAN> 25
 -6.273376e-01 5.093005e+00 8.091067e-01 4.429464e+00 -8.941668e-01 -3.905335e+00 -9.864318e-01 -1.724018e+00 -4.725971e+00 -2.093412e+00 -4.703303e-01 1.152467e+00 6.314347e-01 1.301518e-01 1.287104e+00 6.318330e-01 -4.104045e-01 -1.386875e-01 -4.081161e-02 -4.466441e-01 -9.700058e-01 2.220485e-01 -2.549188e-01 -2.657988e-01 5.896289e-01
<VARIANCE> 25
 5.806959e+01 5.150615e+01 2.961973e+01 2.463249e+01 1.707161e+01 3.565025e+01 2.372595e+01 1.304591e+01 2.265616e+01 1.381103e+01 1.102030e+01 6.739702e+00 1.082875e+00 1.588316e+00 4.085315e+00 1.286017e+00 2.187048e+00 2.486883e+00 2.109105e+00 1.756559e+00 2.075362e+00 1.366813e+00 7.758070e-01 9.908044e-01 1.681345e+00
<GCONST> 8.924622e+01
<TRANSP> 5
 0.000000e+00 1.000000e+00 0.000000e+00 0.000000e+00 0.000000e+00
 0.000000e+00 9.879175e-01 1.208244e-02 0.000000e+00 0.000000e+00
 0.000000e+00 0.000000e+00 5.422253e-01 4.577747e-01 0.000000e+00
 0.000000e+00 0.000000e+00 0.000000e+00 2.550522e-01 7.449479e-01
 0.000000e+00 0.000000e+00 0.000000e+00 0.000000e+00 0.000000e+00
<ENDHMM>
~h "aw"
<BEGINHMM>
<NUMSTATES> 5
<STATE> 2
<MEAN> 25
 4.656146e+00 -2.432417e+00 -6.278883e+00 -7.419661e+00 -1.914210e+00 1.644744e+00 2.098844e+00 -2.583565e+00 -1.005015e+00 5.431799e-01 -1.520525e+00 -6.117111e-01 8.096021e-02 7.730183e-01 -9.776354e-02 -3.702695e-01 2.272856e-02 6.168413e-01 -1.190394e-01 -2.662495e-01 -9.121550e-01 4.457610e-02 4.223641e-01 9.063112e-01 -1.053782e+00
<VARIANCE> 25
 3.706743e+01 6.971807e+01 1.987293e+01 5.142590e+01 3.244703e+01 9.910611e+01 3.898162e+01 4.578339e+01 6.841542e+01 5.415962e+01 6.196701e+01 4.544763e+01 1.615854e+00 2.003771e+00 1.543914e+00 2.761450e+00 3.322136e+00 4.617075e+00 2.365889e+00 4.482758e+00 3.756696e+00 2.707309e+00 2.753646e+00 3.365585e+00 5.155396e-01
<GCONST> 1.040573e+02
<STATE> 3
<MEAN> 25
 3.966369e+00 3.918945e-01 -6.135611e+00 -7.736355e+00 -3.042336e-01 1.180794e+00 5.852225e+00 1.555622e+00 -2.604922e+00 3.182942e+00 -4.532885e-01 3.219916e-01 -1.258972e-01 4.141525e-01 2.440263e-01 -2.135308e-02 -2.850485e-01 2.915306e-02 -7.398236e-01 -2.552910e-01 -2.544326e-01 -1.391813e-01 -2.999719e-02 -2.077662e-01 -9.078165e-01
<VARIANCE> 25
 5.321649e+01 3.686440e+01 3.350111e+01 9.440081e+01 5.924526e+01 1.019649e+02 8.215762e+01 3.819216e+01 4.331099e+01 6.108873e+01 2.950535e+01 2.643309e+01 1.439756e+00 1.573384e+00 1.057590e+00 1.448084e+00 1.403937e+00 2.015348e+00 2.107174e+00 3.052423e+00 2.008661e+00 2.501170e+00 1.020066e+00 1.636719e+00 2.722558e-01
<GCONST> 9.785625e+01
<STATE> 4
<MEAN> 25
 -2.882313e+00 3.318995e+00 -3.911174e+00 3.115356e+00 9.322511e-01 2.176147e+00 -1.973374e-01 3.743275e+00 1.191722e+00 1.990581e-01 3.593642e+00 3.546776e+00 -2.901850e-02 -1.259964e-02 -1.249732e-02 6.882434e-02 -2.239324e-02 9.698578e-02 -1.065102e-01 3.876001e-02 5.874888e-02 -3.789204e-04 1.267586e-01 1.768507e-02 -1.157789e-01
<VARIANCE> 25
 3.604438e+01 1.560897e+01 1.991363e+01 3.466830e+01 2.724560e+01 2.876682e+01 2.140295e+01 1.428978e+01 3.340026e+01 2.350049e+01 3.029977e+01 2.239353e+01 4.073189e-01 5.162405e-01 5.195467e-01 8.488325e-01 9.514341e-01 1.259699e+00 1.074081e+00 9.641864e-01 1.230633e+00 1.345434e+00 1.222739e+00 9.372392e-01 1.393653e-01
<GCONST> 8.089735e+01
<TRANSP> 5
 0.000000e+00 1.000000e+00 0.000000e+00 0.000000e+00 0.000000e+00
 0.000000e+00 8.605297e-01 1.394704e-01 0.000000e+00 0.000000e+00
 0.000000e+00 0.000000e+00 6.839077e-01 3.160923e-01 0.000000e+00
 0.000000e+00 0.000000e+00 0.000000e+00 9.216275e-01 7.837257e-02
 0.000000e+00 0.000000e+00 0.000000e+00 0.000000e+00 0.000000e+00
<ENDHMM>
~h "ay"
<BEGINHMM>
<NUMSTATES> 5
<STATE> 2
<MEAN> 25
 3.360955e+00 -7.244379e+00 5.078335e+00 -4.635015e+00 -8.526109e+00 -4.575339e+00 2.493913e+00 5.259542e+00 4.182490e-01 -5.877969e-01 -5.554509e-01 -1.221685e+00 -1.291831e-01 4.300248e-01 1.231794e+00 1.416532e-01 -6.925943e-01 -2.398446e-01 -6.074279e-03 -4.035733e-01 -6.222715e-01 4.046623e-01 5.314907e-01 3.006741e-01 -1.068177e-01
<VARIANCE> 25
 1.204654e+01 4.043527e+01 1.137381e+02 4.246358e+01 4.409268e+01 4.360239e+01 7.004082e+01 8.871587e+01 3.401476e+01 6.732095e+01 5.065190e+01 1.803234e+01 9.018455e-01 2.169827e+00 6.286320e+00 2.516652e+00 4.101846e+00 2.947785e+00 3.793890e+00 6.155799e+00 3.319246e+00 4.828835e+00 4.127341e+00 1.912151e+00 1.168125e+00
<GCONST> 1.055388e+02
<STATE> 3
<MEAN> 25
 1.812399e+00 -6.485269e-02 1.060847e+01 1.074146e-01 -1.047809e+01 -7.670370e+00 1.804806e+00 -1.985819e-01 -9.356655e-01 1.630539e+00 2.408526e+00 8.537489e-01 -5.549695e-02 9.207226e-01 -2.690170e-01 9.533263e-01 8.536155e-01 4.505742e-01 1.933667e-01 -3.049369e-01 2.323328e-01 1.345758e-01 -3.392200e-01 3.567969e-01 -1.611159e+00
<VARIANCE> 25
 1.199279e+01 3.549417e+01 4.353631e+01 3.482315e+01 4.599712e+01 3.587818e+01 4.248177e+01 4.912485e+01 3.821975e+01 4.913670e+01 3.405010e+01 2.985936e+01 6.984544e-01 1.612538e+00 4.594859e+00 2.627118e+00 3.525746e+00 2.699578e+00 3.667839e+00 5.709751e+00 3.788710e+00 3.730369e+00 3.522396e+00 2.388375e+00 1.444711e+00
<GCONST> 1.018898e+02
<STATE> 4
<MEAN> 25
 -2.814768e+00 1.504448e+00 6.491673e+00 1.870500e+00 -3.067769e+00 -1.143541e+00 3.753263e+00 1.504973e+00 -1.252246e+00 1.382453e+00 4.555134e+00 1.720944e+00 -3.130119e-01 -2.090122e-03 -4.690399e-01 2.615321e-01 4.096001e-01 2.439732e-01 8.512667e-03 2.723165e-01 4.982634e-02 -1.943408e-01 -2.763641e-02 1.052604e-01 -5.215058e-01
<VARIANCE> 25
 1.981054e+01 1.418914e+01 7.385774e+01 3.443761e+01 3.262804e+01 4.176493e+01 6.698455e+01 5.471013e+01 4.632754e+01 3.954507e+01 2.791246e+01 2.518397e+01 5.553303e-01 9.680870e-01 2.808151e+00 1.628497e+00 1.733048e+00 1.663235e+00 1.973548e+00 2.858781e+00 2.440386e+00 2.244748e+00 1.568172e+00 2.099573e+00 1.002286e+00
<GCONST> 9.550221e+01
<TRANSP> 5
 0.000000e+00 1.000000e+00 0.000000e+00 0.000000e+00 0.000000e+00
 0.000000e+00 8.675494e-01 1.324506e-01 0.000000e+00 0.000000e+00
 0.000000e+00 0.000000e+00 7.947657e-01 2.052343e-01 0.000000e+00
 0.000000e+00 0.000000e+00 0.000000e+00 8.635338e-01 1.364662e-01
 0.000000e+00 0.000000e+00 0.000000e+00 0.000000e+00 0.000000e+00
<ENDHMM>
~h "kh"
<BEGINHMM>
<NUMSTATES> 5
<STATE> 2
<MEAN> 25
 4.728231e+00 -3.120096e+00 -1.064199e+01 -1.828450e+00 3.242223e+00 3.668521e+00 1.961604e+00 8.881051e-01 7.054570e-01 2.911700e+00 1.810028e+00 -6.127075e+00 4.160216e-02 2.480316e-02 -6.401181e-01 -7.088400e-01 -3.094442e-01 9.731502e-01 1.637066e-01 -1.154135e-01 -1.203728e-01 -3.319797e-01 1.084627e-01 1.465973e-01 1.805904e-01
<VARIANCE> 25
 4.051507e+01 2.314843e+01 2.949645e+01 6.523444e+01 4.384914e+01 3.530250e+01 2.926361e+01 3.984740e+01 3.300276e+01 2.032154e+01 1.051314e+01 6.651704e+01 4.710168e+00 1.430362e+00 6.226601e+00 5.317924e+00 6.215609e+00 5.651086e+00 2.712875e+00 7.773227e+00 4.077785e+00 2.658378e+00 2.449717e+00 5.682171e+00 8.295970e+00
<GCONST> 1.069648e+02
<STATE> 3
<MEAN> 25
 -3.747887e-01 1.069812e+00 -6.256000e+00 -4.195422e+00 5.664931e-01 7.118705e+00 4.203035e+00 -4.356754e+00 7.981081e-01 3.374691e-01 4.053299e+00 8.477623e-01 -9.966869e-01 -1.019420e-01 8.786888e-01 -4.744136e-01 -1.800537e+00 -8.142375e-01 -2.795414e-01 -2.694612e-01 -8.187315e-01 -2.758662e-01 -1.105496e-01 9.898115e-01 1.689248e+00
<VARIANCE> 25
 5.814006e+01 3.008272e+01 9.540554e+01 5.011606e+01 5.231026e+01 1.183817e+02 7.015261e+01 7.049633e+01 6.789590e+01 4.311216e+01 2.489341e+01 6.247725e+01 9.348401e+00 2.040565e+00 7.632619e+00 7.307575e+00 8.242194e+00 8.067489e+00 4.864115e+00 1.258856e+01 1.148343e+01 3.811977e+00 4.431528e+00 3.770983e+00 3.748909e+00
<GCONST> 1.176529e+02
<STATE> 4
<MEAN> 25
 -8.404552e+00 4.498763e-01 -8.549072e-01 -2.395185e+00 -2.424789e+00 1.642046e+00 -8.914864e+00 -4.026038e+00 5.103765e+00 -2.228759e+00 1.133414e+00 6.590475e+00 -1.743158e-02 9.266741e-02 -8.398525e-02 -2.565034e-01 -1.506788e-01 3.592169e-02 -3.495489e-01 -1.336382e-01 -5.958310e-01 -1.948658e-02 1.882898e-02 4.451580e-02 -1.724741e-01
<VARIANCE> 25
 9.983294e+01 1.292280e+01 7.002229e+01 3.990813e+01 4.616340e+01 2.806134e+01 6.125861e+01 7.174960e+01 7.242568e+01 3.252380e+01 2.059132e+01 7.182780e+01 5.982024e+00 1.585919e+00 3.901390e+00 1.799922e+00 2.726320e+00 3.313232e+00 3.141327e+00 6.962928e+00 5.277831e+00 1.969421e+00 2.036866e+00 3.313619e+00 2.839108e+00
<GCONST> 1.064427e+02
<TRANSP> 5
 0.000000e+00 1.000000e+00 0.000000e+00 0.000000e+00 0.000000e+00
 0.000000e+00 7.797288e-01 2.202712e-01 0.000000e+00 0.000000e+00
 0.000000e+00 0.000000e+00 5.440010e-01 4.559990e-01 0.000000e+00
 0.000000e+00 0.000000e+00 0.000000e+00 8.884879e-01 1.115121e-01
 0.000000e+00 0.000000e+00 0.000000e+00 0.000000e+00 0.000000e+00
<ENDHMM>
~h "ng"
<BEGINHMM>
<NUMSTATES> 5
<STATE> 2
<MEAN> 25
 6.665523e+00 1.706456e-01 1.728577e+00 -1.318784e+00 -2.876258e+00 5.628827e+00 -6.242095e-01 -3.582868e+00 -4.158368e-01 1.177081e+00 -8.660362e-01 -1.398872e+00 2.015663e-01 6.265397e-01 3.753619e-01 4.934072e-01 -3.567691e-01 2.449594e-01 3.663446e-01 -6.604350e-01 -2.115305e-01 2.194567e-01 -3.234898e-01 2.901094e-01 -7.037153e-01
<VARIANCE> 25
 1.574614e+01 3.982790e+01 4.995112e+01 4.467330e+01 5.884521e+01 6.889684e+01 5.516445e+01 5.082170e+01 5.442981e+01 4.535859e+01 4.364103e+01 4.133945e+01 5.643172e-01 1.719390e+00 2.478471e+00 2.291628e+00 2.863721e+00 2.833686e+00 3.329177e+00 3.424417e+00 2.860563e+00 2.666747e+00 2.517220e+00 2.245402e+00 8.562582e-01
<GCONST> 1.014968e+02
<STATE> 3
<MEAN> 25
 6.808660e+00 1.721414e+00 2.323758e+00 -2.562146e-01 -3.347121e+00 5.481099e+00 2.639814e-01 -4.617265e+00 -9.477908e-01 1.554909e+00 -1.794486e+00 -9.508757e-01 -4.338155e-02 4.756069e-01 7.541821e-02 3.780527e-01 9.857272e-02 -1.081075e-01 2.404682e-01 -1.684643e-01 -1.286716e-01 4.548687e-02 -2.044000e-01 9.535960e-02 -4.917827e-01
<VARIANCE> 25
 1.625692e+01 3.827435e+01 4.673376e+01 4.153711e+01 5.748874e+01 6.257494e+01 5.209163e+01 5.196823e+01 5.493424e+01 4.680269e+01 4.402570e+01 4.121300e+01 5.048978e-01 1.633217e+00 1.831590e+00 1.841680e+00 2.425842e+00 2.412231e+00 2.737933e+00 2.883242e+00 2.613695e+00 2.381066e+00 2.239992e+00 1.909349e+00 8.594154e-01
<GCONST> 9.938437e+01
<STATE> 4
<MEAN> 25
 4.676927e+00 3.874087e+00 1.364637e+00 1.620897e+00 -3.389489e-01 4.406504e+00 1.503708e+00 -3.712706e+00 -8.967038e-01 7.276062e-01 -2.161757e+00 -2.309374e-01 -4.775954e-01 1.159399e-01 -2.189012e-01 1.917068e-01 5.774393e-01 -3.903472e-01 4.477053e-02 4.733449e-01 1.927947e-02 -1.717270e-01 1.155484e-01 5.600230e-02 -2.991785e-01
<VARIANCE> 25
 2.686776e+01 4.301608e+01 4.176094e+01 4.041531e+01 6.255391e+01 5.203234e+01 4.686345e+01 5.136893e+01 5.158071e+01 4.424428e+01 4.294873e+01 3.725741e+01 8.736815e-01 2.051334e+00 1.847396e+00 2.035382e+00 3.004943e+00 2.722068e+00 2.812304e+00 3.254476e+00 2.870907e+00 2.512362e+00 2.332469e+00 2.086910e+00 1.181347e+00
<GCONST> 1.013642e+02
<TRANSP> 5
 0.000000e+00 1.000000e+00 0.000000e+00 0.000000e+00 0.000000e+00
 0.000000e+00 4.767781e-01 5.232219e-01 0.000000e+00 0.000000e+00
 0.000000e+00 0.000000e+00 4.728675e-01 5.271325e-01 0.000000e+00
 0.000000e+00 0.000000e+00 0.000000e+00 6.546872e-01 3.453128e-01
 0.000000e+00 0.000000e+00 0.000000e+00 0.000000e+00 0.000000e+00
<ENDHMM>
~h "ny"
<BEGINHMM>
<NUMSTATES> 5
<STATE> 2
<MEAN> 25
 2.442016e+00 -9.678000e-01 1.098305e+01 -3.285075e+00 -9.381284e+00 8.241482e-01 -1.885860e-01 2.505625e+00 -4.520877e+00 -1.731913e+00 2.930717e+00 -1.191586e+00 -1.624019e-01 -1.158275e+00 1.033164e-01 -1.538990e-01 -5.490286e-01 1.836981e-01 4.933695e-01 9.045038e-01 -2.219512e-01 -5.524964e-01 5.455273e-02 4.082300e-02 7.109772e-01
<VARIANCE> 25
 1.487766e+01 4.369376e+01 4.121492e+01 5.040138e+01 4.948165e+01 5.740439e+01 5.523979e+01 5.126535e+01 4.272489e+01 4.634579e+01 4.282826e+01 4.659752e+01 9.156483e-01 3.660739e+00 3.701552e+00 3.996862e+00 4.139540e+00 3.628306e+00 3.504248e+00 3.993059e+00 2.984490e+00 3.358994e+00 3.259101e+00 2.328047e+00 1.554746e+00
<GCONST> 1.051774e+02
<STATE> 3
<MEAN> 25
 3.087130e+00 -8.499313e+00 5.919870e+00 -1.543577e+00 -6.574491e+00 4.807209e-01 -4.858502e-02 7.908031e+00 -3.033912e+00 -6.608719e+00 -8.990533e-01 7.134530e-02 1.678065e-01 -3.464991e-01 -1.171096e+00 6.168387e-01 1.207004e+00 -1.251566e-01 -3.301246e-01 2.286175e-01 5.891203e-01 -4.159979e-01 -8.769721e-01 1.417280e-01 -3.686267e-01
<VARIANCE> 25
 1.231032e+01 3.926332e+01 3.757659e+01 4.535223e+01 4.865926e+01 4.935863e+01 6.298626e+01 5.675433e+01 5.119339e+01 5.260906e+01 4.249544e+01 4.405650e+01 5.155436e-01 1.751621e+00 1.674753e+00 1.979292e+00 2.541954e+00 2.037130e+00 2.334495e+00 2.304202e+00 2.194503e+00 2.306482e+00 2.143287e+00 1.716758e+00 1.185041e+00
<GCONST> 9.848510e+01
<STATE> 4
<MEAN> 25
 -2.573891e+00 -1.935173e+00 -1.382674e+00 3.164109e+00 2.705435e+00 1.930709e+00 1.287610e+00 4.395928e+00 1.079463e+00 -2.535592e+00 -9.502368e-01 2.937365e+00 -8.827512e-02 1.182337e-01 -1.534350e-01 8.046206e-02 1.729034e-01 4.101384e-02 -5.759825e-03 -9.941833e-02 7.426317e-02 9.930489e-02 -6.403074e-03 -5.953479e-03 -3.375275e-01
<VARIANCE> 25
 3.204617e+01 3.474473e+01 2.633079e+01 3.340601e+01 3.777423e+01 3.949803e+01 3.806924e+01 3.508108e+01 3.595990e+01 4.364256e+01 4.000045e+01 2.826050e+01 3.890847e-01 7.605525e-01 9.379985e-01 1.105757e+00 1.452218e+00 1.552810e+00 1.599500e+00 1.637053e+00 1.720219e+00 1.637212e+00 1.521634e+00 1.436882e+00 4.920863e-01
<GCONST> 9.033855e+01
<TRANSP> 5
 0.000000e+00 1.000000e+00 0.000000e+00 0.000000e+00 0.000000e+00
 0.000000e+00 8.235307e-01 1.764694e-01 0.000000e+00 0.000000e+00
 0.000000e+00 0.000000e+00 7.519760e-01 2.480240e-01 0.000000e+00
 0.000000e+00 0.000000e+00 0.000000e+00 9.406300e-01 5.937003e-02
 0.000000e+00 0.000000e+00 0.000000e+00 0.000000e+00 0.000000e+00
<ENDHMM>
~h "oy"
<BEGINHMM>
<NUMSTATES> 5
<STATE> 2
<MEAN> 25
 -1.266016e-08 6.085643e-09 4.721265e-09 -8.308485e-09 -1.463621e-08 1.307279e-08 -2.750496e-09 -6.683219e-09 -1.380889e-08 -3.351599e-09 1.415116e-08 1.473669e-08 2.548279e-03 -7.284069e-04 1.966011e-03 3.249686e-04 1.698112e-03 -2.328777e-04 5.264792e-04 -2.476147e-04 -7.184849e-04 7.200883e-04 -1.639929e-03 -3.923504e-04 6.718315e-03
<VARIANCE> 25
 6.369320e+01 5.437875e+01 8.050616e+01 5.826715e+01 7.171889e+01 6.936944e+01 6.105562e+01 6.027967e+01 5.528890e+01 4.166891e+01 4.685504e+01 3.910781e+01 2.633578e+00 2.804667e+00 3.170903e+00 3.349051e+00 3.834462e+00 3.765719e+00 3.684584e+00 3.809613e+00 3.444291e+00 2.975416e+00 3.042777e+00 2.563504e+00 3.096067e+00
<GCONST> 1.097144e+02
<STATE> 3
<MEAN> 25
 -1.266016e-08 6.085643e-09 4.721265e-09 -8.308485e-09 -1.463621e-08 1.307279e-08 -2.750496e-09 -6.683219e-09 -1.380889e-08 -3.351599e-09 1.415116e-08 1.473669e-08 2.548279e-03 -7.284069e-04 1.966011e-03 3.249686e-04 1.698112e-03 -2.328777e-04 5.264792e-04 -2.476147e-04 -7.184849e-04 7.200883e-04 -1.639929e-03 -3.923504e-04 6.718315e-03
<VARIANCE> 25
 6.369320e+01 5.437875e+01 8.050616e+01 5.826715e+01 7.171889e+01 6.936944e+01 6.105562e+01 6.027967e+01 5.528890e+01 4.166891e+01 4.685504e+01 3.910781e+01 2.633578e+00 2.804667e+00 3.170903e+00 3.349051e+00 3.834462e+00 3.765719e+00 3.684584e+00 3.809613e+00 3.444291e+00 2.975416e+00 3.042777e+00 2.563504e+00 3.096067e+00
<GCONST> 1.097144e+02
<STATE> 4
<MEAN> 25
 -1.266016e-08 6.085643e-09 4.721265e-09 -8.308485e-09 -1.463621e-08 1.307279e-08 -2.750496e-09 -6.683219e-09 -1.380889e-08 -3.351599e-09 1.415116e-08 1.473669e-08 2.548279e-03 -7.284069e-04 1.966011e-03 3.249686e-04 1.698112e-03 -2.328777e-04 5.264792e-04 -2.476147e-04 -7.184849e-04 7.200883e-04 -1.639929e-03 -3.923504e-04 6.718315e-03
<VARIANCE> 25
 6.369320e+01 5.437875e+01 8.050616e+01 5.826715e+01 7.171889e+01 6.936944e+01 6.105562e+01 6.027967e+01 5.528890e+01 4.166891e+01 4.685504e+01 3.910781e+01 2.633578e+00 2.804667e+00 3.170903e+00 3.349051e+00 3.834462e+00 3.765719e+00 3.684584e+00 3.809613e+00 3.444291e+00 2.975416e+00 3.042777e+00 2.563504e+00 3.096067e+00
<GCONST> 1.097144e+02
<TRANSP> 5
 0.000000e+00 1.000000e+00 0.000000e+00 0.000000e+00 0.000000e+00
 0.000000e+00 6.000000e-01 4.000000e-01 0.000000e+00 0.000000e+00
 0.000000e+00 0.000000e+00 6.000000e-01 4.000000e-01 0.000000e+00
 0.000000e+00 0.000000e+00 0.000000e+00 7.000000e-01 3.000000e-01
 0.000000e+00 0.000000e+00 0.000000e+00 0.000000e+00 0.000000e+00
<ENDHMM>
~h "sy"
<BEGINHMM>
<NUMSTATES> 5
<STATE> 2
<MEAN> 25
 -4.578753e+00 2.731428e+00 -3.427037e+00 2.578854e+00 1.483829e+00 -9.645329e+00 7.488807e-01 8.604179e+00 5.680612e+00 4.752206e+00 2.700580e+00 8.725163e-01 -3.416899e+00 -8.168362e-01 2.061105e+00 -9.063879e-01 1.105302e+00 -2.549414e-01 4.393811e-01 7.113659e-01 1.474410e+00 5.058499e-01 1.098105e+00 7.397502e-01 1.412466e+00
<VARIANCE> 25
 1.219677e+01 1.978671e+01 1.334104e+01 1.865743e+01 3.166479e+01 8.794368e+00 3.003728e+01 8.101007e+00 7.028667e+01 7.731247e+00 2.207977e+01 1.240924e+01 1.801567e+00 8.558001e+00 5.214515e+00 1.040771e+01 4.698471e+00 3.456080e+00 1.430738e+00 9.773785e-01 2.742250e+00 8.152158e-01 2.204478e+00 1.504998e+00 3.840687e+00
<GCONST> 9.318649e+01
<STATE> 3
<MEAN> 25
 -1.093315e+01 3.847506e-02 5.829484e-01 3.629934e+00 9.380099e-01 -8.443419e+00 4.886231e+00 5.725239e+00 4.867666e+00 5.054717e+00 8.931740e+00 1.817565e+00 -3.731287e+00 -3.437562e-01 2.592814e+00 2.017188e-02 -9.924443e-02 2.488298e-01 2.643201e+00 1.113674e-01 -9.702354e-01 2.682211e-01 1.715385e+00 4.361386e-01 1.491444e+00
<VARIANCE> 25
 2.245573e+01 5.030751e+01 1.781918e+01 5.930096e+01 2.683564e+01 1.533282e+01 5.210584e+01 3.995063e+01 1.708256e+01 9.565968e+00 1.667073e+01 1.672948e+01 3.064816e+00 3.613448e+00 2.841013e+00 9.275760e+00 1.132790e+01 2.643250e+00 4.502975e+00 1.571712e+00 9.910495e+00 1.653120e+00 3.432974e+00 2.833589e+00 1.788012e+00
<GCONST> 1.010120e+02
<STATE> 4
<MEAN> 25
 -1.471029e+01 -2.151474e+00 7.307812e+00 -3.803541e-01 -1.778055e+00 -5.522283e+00 8.074841e+00 2.690977e+00 2.137558e+00 1.990449e+00 5.909340e+00 1.359364e+00 1.205282e+00 -9.603763e-01 -2.135600e-02 -2.084444e-01 -7.260792e-01 3.488313e-02 -5.735271e-01 -1.137730e-01 -2.131722e-01 -4.521453e-01 -4.196513e-01 -2.762038e-01 5.824164e-01
<VARIANCE> 25
 1.536551e+02 4.884473e+01 1.921902e+01 1.373114e+02 1.016560e+02 2.189562e+01 9.577383e+01 5.694571e+01 2.403955e+01 2.201484e+01 2.356891e+01 1.091728e+01 1.292129e+01 2.631972e+00 2.936494e+00 3.317156e+00 6.013502e+00 2.092839e+00 2.222762e+00 4.894295e+00 3.117650e+00 2.510486e+00 2.941724e+00 1.974786e+00 1.229737e+00
<GCONST> 1.056282e+02
<TRANSP> 5
 0.000000e+00 1.000000e+00 0.000000e+00 0.000000e+00 0.000000e+00
 0.000000e+00 9.125854e-04 9.990874e-01 0.000000e+00 0.000000e+00
 0.000000e+00 0.000000e+00 3.410410e-01 6.589590e-01 0.000000e+00
 0.000000e+00 0.000000e+00 0.000000e+00 9.224263e-01 7.757374e-02
 0.000000e+00 0.000000e+00 0.000000e+00 0.000000e+00 0.000000e+00
<ENDHMM>
~h "sil"
<BEGINHMM>
<NUMSTATES> 5
<STATE> 2
<MEAN> 25
 -5.918102e+00 3.432112e-01 -3.679925e+00 1.832065e+00 2.937914e+00 7.736455e-01 3.407252e+00 1.535562e+00 -9.519677e-01 -2.484500e-01 -3.710411e-01 2.477476e+00 -2.915163e-02 -3.157687e-03 -1.975107e-02 -4.077999e-03 1.171385e-03 -6.002713e-04 -2.664414e-03 2.623825e-03 -8.837845e-03 3.102033e-03 1.360749e-02 5.847449e-03 -4.935786e-02
<VARIANCE> 25
 2.445628e+01 1.894548e+01 1.968016e+01 2.645217e+01 2.467052e+01 3.498968e+01 2.900286e+01 2.560092e+01 3.215712e+01 2.178721e+01 2.490258e+01 1.543456e+01 2.098081e-01 3.576337e-01 5.529066e-01 7.723541e-01 9.922681e-01 1.213013e+00 1.357669e+00 1.452208e+00 1.475549e+00 1.440399e+00 1.351570e+00 1.211434e+00 1.307148e-01
<GCONST> 8.085036e+01
<STATE> 3
<MEAN> 25
 -8.815359e+00 3.658676e+00 -2.741643e+00 5.620023e+00 4.181768e+00 4.994841e+00 3.477555e+00 1.812968e+00 1.585450e+00 -1.269170e+00 1.297843e+00 3.622807e+00 -3.889893e-02 3.239325e-02 5.697572e-02 -3.273952e-02 4.804656e-02 -6.069056e-02 -2.470772e-02 -4.336304e-02 1.461455e-03 2.136243e-02 3.526262e-03 -1.728315e-02 3.104431e-01
<VARIANCE> 25
 4.662695e+01 4.186890e+01 4.063881e+01 3.312402e+01 4.885435e+01 5.177636e+01 3.557141e+01 3.079418e+01 3.749513e+01 2.885667e+01 4.128514e+01 2.350961e+01 1.700991e+00 1.404320e+00 1.792579e+00 1.692284e+00 2.138815e+00 2.457416e+00 2.284007e+00 2.352826e+00 2.260191e+00 2.199915e+00 2.136216e+00 1.742718e+00 3.672804e+00
<GCONST> 9.896845e+01
<STATE> 4
<MEAN> 25
 -2.691945e+00 -5.458307e-01 -1.194248e+00 3.997794e-01 1.333196e+00 1.197125e+00 3.353720e-01 8.372986e-01 7.249317e-01 -2.415007e-01 -3.162360e-02 1.326644e+00 9.539036e-03 1.087066e-02 1.407981e-02 -1.109089e-02 3.820542e-03 2.044830e-04 -1.129691e-02 -9.178612e-03 -1.917623e-02 7.415007e-03 -8.725075e-04 -1.186171e-02 2.646376e-02
<VARIANCE> 25
 4.248828e+01 3.248291e+01 4.963421e+01 4.283862e+01 4.513686e+01 5.129659e+01 4.180013e+01 4.533249e+01 3.859441e+01 2.911134e+01 3.034576e+01 3.228012e+01 1.187861e+00 1.132004e+00 1.641348e+00 1.952132e+00 2.035240e+00 2.329597e+00 2.229576e+00 2.386648e+00 2.321037e+00 2.024745e+00 1.977214e+00 1.793571e+00 1.258564e+00
<GCONST> 9.777650e+01
<TRANSP> 5
 0.000000e+00 1.000000e+00 0.000000e+00 0.000000e+00 0.000000e+00
 0.000000e+00 9.677957e-01 3.220430e-02 0.000000e+00 0.000000e+00
 0.000000e+00 0.000000e+00 8.288682e-01 1.711318e-01 0.000000e+00
 0.000000e+00 0.000000e+00 0.000000e+00 9.301072e-01 6.989279e-02
 0.000000e+00 0.000000e+00 0.000000e+00 0.000000e+00 0.000000e+00
<ENDHMM>
