~o
<STREAMINFO> 1 25
<VECSIZE> 25<NULLD><MFCC_D_N_Z_0><DIAGC>
~s "silst"
<MEAN> 25
 -8.459756e+00 6.072255e+00 -2.928768e+00 6.234733e+00 2.299750e+00 6.126361e+00 2.711167e+00 2.181357e+00 2.267053e+00 -8.153883e-01 3.237171e+00 2.710177e+00 1.710588e-01 -1.375314e-01 1.131876e-01 -1.470439e-01 2.009264e-02 -1.371078e-01 -2.912558e-02 -6.592902e-02 9.276347e-04 -5.508265e-03 -4.251448e-02 -9.293807e-02 9.095522e-01
<VARIANCE> 25
 1.085601e+02 4.576117e+01 4.626830e+01 3.877691e+01 5.920670e+01 4.879064e+01 3.526521e+01 2.877571e+01 3.204412e+01 2.390355e+01 3.676638e+01 1.950807e+01 3.963880e+00 2.822992e+00 2.685870e+00 2.385448e+00 2.742465e+00 2.982979e+00 2.305948e+00 2.487643e+00 2.305037e+00 2.037040e+00 2.094564e+00 1.684340e+00 7.743326e+00
<GCONST> 1.030327e+02
~h "@"
<BEGINHMM>
<NUMSTATES> 5
<STATE> 2
<MEAN> 25
 4.346450e+00 -1.402809e+00 -1.530358e+00 -2.730268e+00 -8.949940e-01 -5.742664e-01 -4.523729e+00 -2.092234e+00 2.338372e+00 1.831111e+00 6.193649e-01 -2.307283e+00 1.695996e+00 -7.734452e-01 1.986946e-01 -5.803744e-01 -8.415737e-01 4.648385e-01 -1.144473e+00 7.270403e-02 5.579700e-01 3.086964e-01 -9.007899e-02 -7.087173e-01 1.251584e+00
<VARIANCE> 25
 3.671672e+01 4.388216e+01 5.119811e+01 5.391855e+01 5.035761e+01 7.982645e+01 6.186361e+01 5.666474e+01 5.711007e+01 4.436191e+01 4.836686e+01 3.766995e+01 5.307477e+00 4.438376e+00 4.420914e+00 5.134068e+00 5.858167e+00 7.807757e+00 6.440645e+00 7.108867e+00 6.178087e+00 4.817706e+00 4.678752e+00 3.725614e+00 4.123375e+00
<GCONST> 1.146578e+02
<STATE> 3
<MEAN> 25
 5.694492e+00 -2.555159e+00 -1.330875e+00 -3.054199e+00 -1.471367e+00 -1.548053e-01 -5.478807e+00 -1.526928e+00 2.883052e+00 2.214028e+00 8.866637e-01 -2.807819e+00 7.823670e-01 4.436561e-02 4.326454e-01 4.960275e-01 -2.231160e-01 3.503045e-01 -2.069682e-01 1.332866e-02 -2.291964e-03 2.126147e-01 -2.052454e-01 -2.271089e-02 -2.726077e-01
<VARIANCE> 25
 2.736552e+01 4.379024e+01 5.222930e+01 5.576582e+01 5.336807e+01 8.254205e+01 6.583092e+01 5.981230e+01 6.460168e+01 4.754506e+01 5.131466e+01 4.031433e+01 2.597409e+00 2.852542e+00 3.257919e+00 4.017180e+00 4.210419e+00 5.496254e+00 4.240840e+00 5.344698e+00 4.443987e+00 4.047147e+00 3.971015e+00 2.983960e+00 2.705592e+00
<GCONST> 1.105399e+02
<STATE> 4
<MEAN> 25
 5.243413e+00 -1.067213e+00 2.566694e-01 -1.671885e+00 -1.249313e+00 -1.352378e+00 -5.007663e+00 -1.657625e+00 1.596679e+00 2.357414e+00 1.492486e-01 -1.897114e+00 -3.689590e-02 7.240102e-01 2.807720e-01 9.155951e-01 2.581474e-01 1.367510e-01 4.828919e-01 -2.010006e-01 -2.629034e-01 -4.339576e-02 -1.830601e-01 4.260463e-01 -1.116065e+00
<VARIANCE> 25
 2.564115e+01 4.384662e+01 5.921960e+01 5.659609e+01 6.106841e+01 7.680506e+01 6.148680e+01 6.009848e+01 6.154546e+01 5.104071e+01 4.985872e+01 3.703536e+01 1.315519e+00 2.585417e+00 2.761952e+00 3.389125e+00 3.304394e+00 3.582700e+00 3.450918e+00 3.782363e+00 3.525039e+00 3.066128e+00 3.053627e+00 2.512582e+00 2.311227e+00
<GCONST> 1.070873e+02
<TRANSP> 5
 0.000000e+00 1.000000e+00 0.000000e+00 0.000000e+00 0.000000e+00
 0.000000e+00 1.696768e-01 8.303232e-01 0.000000e+00 0.000000e+00
 0.000000e+00 0.000000e+00 8.026758e-02 9.197324e-01 0.000000e+00
 0.000000e+00 0.000000e+00 0.000000e+00 5.027806e-01 4.972194e-01
 0.000000e+00 0.000000e+00 0.000000e+00 0.000000e+00 0.000000e+00
<ENDHMM>
~h "a"
<BEGINHMM>
<NUMSTATES> 5
<STATE> 2
<MEAN> 25
 4.268348e+00 -6.831606e+00 -3.746217e+00 -4.122543e+00 -1.001753e-01 -1.579341e-01 -8.257748e-01 2.927221e+00 3.836716e+00 -2.711864e-01 -2.567475e+00 -4.078843e+00 3.057919e-01 -1.233513e+00 -6.220216e-01 -4.849972e-01 6.017590e-01 4.257725e-01 2.289429e-01 8.276027e-01 3.602343e-01 -5.444183e-01 -7.894505e-01 -8.370388e-01 1.000005e+00
<VARIANCE> 25
 1.931618e+01 3.775546e+01 5.318099e+01 4.859246e+01 6.125353e+01 8.053613e+01 6.388217e+01 6.257238e+01 5.171657e+01 4.592483e+01 5.061218e+01 4.552834e+01 2.087821e+00 2.691569e+00 3.341333e+00 3.242024e+00 4.587810e+00 4.773653e+00 4.654395e+00 4.908219e+00 3.746096e+00 3.816289e+00 3.731958e+00 3.169170e+00 2.381126e+00
<GCONST> 1.090306e+02
<STATE> 3
<MEAN> 25
 4.760753e+00 -9.118314e+00 -4.985645e+00 -5.256971e+00 1.527974e+00 7.897493e-01 -8.234764e-01 3.778537e+00 3.517294e+00 -1.380030e+00 -4.119235e+00 -5.958863e+00 5.779431e-02 3.795087e-01 5.289180e-02 4.640939e-01 1.629305e-01 -3.816541e-02 7.728288e-02 -1.375697e-01 -1.027064e-01 9.509414e-02 -1.498519e-01 3.372660e-01 -6.154198e-01
<VARIANCE> 25
 1.041082e+01 2.795935e+01 3.984680e+01 3.390622e+01 5.027495e+01 7.706692e+01 6.122409e+01 5.263533e+01 4.634211e+01 4.321064e+01 4.675962e+01 3.742704e+01 5.162254e-01 1.414361e+00 1.445112e+00 1.660349e+00 2.205689e+00 2.734880e+00 2.448832e+00 2.621939e+00 2.134900e+00 2.334019e+00 2.269758e+00 2.097319e+00 1.258280e+00
<GCONST> 9.785226e+01
<STATE> 4
<MEAN> 25
 1.517776e+00 -3.056294e+00 -4.069615e+00 -2.291328e-01 2.486672e+00 1.243679e-01 1.744097e+00 2.909498e+00 2.430277e+00 -6.199943e-01 -2.603157e+00 -2.729392e-01 -2.367185e-01 7.257792e-01 3.079320e-01 6.478930e-01 2.341253e-02 8.064564e-02 8.752247e-03 -2.445980e-01 -1.745613e-01 1.201986e-01 2.260263e-01 3.911777e-01 -1.050020e+00
<VARIANCE> 25
 3.231178e+01 3.086209e+01 4.072475e+01 4.214231e+01 4.510456e+01 5.475977e+01 4.939566e+01 4.353037e+01 4.564645e+01 3.841595e+01 4.279317e+01 3.301549e+01 9.317100e-01 1.647155e+00 1.718599e+00 2.079690e+00 2.335198e+00 2.575585e+00 2.717039e+00 2.768683e+00 2.480813e+00 2.301595e+00 2.284036e+00 2.027618e+00 1.260250e+00
<GCONST> 9.952822e+01
<TRANSP> 5
 0.000000e+00 1.000000e+00 0.000000e+00 0.000000e+00 0.000000e+00
 0.000000e+00 4.757588e-01 5.242413e-01 0.000000e+00 0.000000e+00
 0.000000e+00 0.000000e+00 7.132984e-01 2.867016e-01 0.000000e+00
 0.000000e+00 0.000000e+00 0.000000e+00 6.808682e-01 3.191318e-01
 0.000000e+00 0.000000e+00 0.000000e+00 0.000000e+00 0.000000e+00
<ENDHMM>
~h "b"
<BEGINHMM>
<NUMSTATES> 5
<STATE> 2
<MEAN> 25
 6.600265e+00 8.581306e+00 1.703333e+00 5.305028e+00 2.072915e+00 2.069307e+00 -8.034071e-01 -3.639636e+00 -3.782750e+00 -5.755814e-01 -3.668704e-01 -5.374662e-01 2.016222e-01 1.029651e+00 -2.943560e-03 4.553878e-01 5.735175e-01 -1.371114e-01 3.479819e-01 -4.914260e-02 -3.610195e-01 -2.011554e-01 -4.766255e-02 1.005408e-01 -5.012743e-01
<VARIANCE> 25
 2.979753e+01 4.485356e+01 4.393823e+01 3.294743e+01 3.734464e+01 4.343526e+01 4.204136e+01 4.081273e+01 3.897886e+01 3.782138e+01 3.528207e+01 2.755528e+01 1.770708e+00 3.393144e+00 3.031180e+00 3.571605e+00 3.144484e+00 3.192849e+00 3.585003e+00 3.393848e+00 3.104421e+00 3.115611e+00 3.056156e+00 2.170788e+00 2.979223e+00
<GCONST> 1.036706e+02
<STATE> 3
<MEAN> 25
 6.500099e+00 8.501245e+00 9.019668e-01 4.152939e+00 2.533253e+00 1.618065e+00 -4.226192e-01 -4.880155e+00 -4.736106e+00 -7.489569e-02 1.241431e+00 2.366593e-01 1.351292e-01 -2.278745e+00 -1.287190e+00 -2.168833e+00 -7.974883e-01 -7.707618e-01 -1.646538e+00 -5.707204e-01 1.204611e+00 1.237376e+00 1.647005e+00 -3.254860e-01 2.978311e+00
<VARIANCE> 25
 2.816903e+01 4.848638e+01 4.089907e+01 4.280294e+01 3.564169e+01 4.956733e+01 4.350979e+01 4.576966e+01 4.410456e+01 4.237110e+01 3.726943e+01 2.913776e+01 3.974681e+00 5.154538e+00 5.944959e+00 6.743973e+00 5.964005e+00 6.676515e+00 7.052574e+00 6.089823e+00 7.379547e+00 7.543567e+00 5.711036e+00 4.427258e+00 3.933954e+00
<GCONST> 1.130054e+02
<STATE> 4
<MEAN> 25
 7.356327e+00 8.276449e-01 -2.706220e+00 -3.393399e+00 -1.948271e-01 8.523738e-01 -6.464097e+00 -5.439194e+00 9.441853e-01 5.487649e+00 4.512548e+00 -2.922843e+00 -2.675424e-01 -2.675372e+00 -3.821299e-01 -1.995151e+00 -1.136361e+00 -4.738427e-01 -1.269414e+00 1.156299e+00 2.138052e+00 6.064910e-01 -1.749032e-02 -1.272009e+00 2.759085e+00
<VARIANCE> 25
 2.292217e+01 3.879362e+01 4.391269e+01 8.027481e+01 4.699824e+01 6.830330e+01 6.838909e+01 4.976852e+01 5.967583e+01 7.876621e+01 5.142455e+01 4.117951e+01 2.235942e+00 5.231933e+00 5.737671e+00 6.433163e+00 6.776113e+00 7.133743e+00 8.142875e+00 8.452785e+00 8.850313e+00 7.049459e+00 7.018368e+00 5.596574e+00 3.088031e+00
<GCONST> 1.163345e+02
<TRANSP> 5
 0.000000e+00 1.000000e+00 0.000000e+00 0.000000e+00 0.000000e+00
 0.000000e+00 6.852534e-01 3.147466e-01 0.000000e+00 0.000000e+00
 0.000000e+00 0.000000e+00 4.052217e-01 5.947783e-01 0.000000e+00
 0.000000e+00 0.000000e+00 0.000000e+00 3.404469e-01 6.595531e-01
 0.000000e+00 0.000000e+00 0.000000e+00 0.000000e+00 0.000000e+00
<ENDHMM>
~h "c"
<BEGINHMM>
<NUMSTATES> 5
<STATE> 2
<MEAN> 25
 -7.009065e+00 4.443297e+00 2.392552e+00 6.218837e-02 2.464018e+00 -1.417273e+00 1.951959e+00 2.001714e-01 1.066556e+00 7.445439e-02 2.152437e+00 1.603576e+00 -3.501693e+00 -6.067887e-02 2.656678e-01 -1.652211e+00 5.209370e-01 1.701085e-01 6.855986e-01 -5.799376e-01 4.217383e-01 -8.827490e-02 7.014905e-01 3.424996e-02 1.577456e+00
<VARIANCE> 25
 8.261044e+01 4.827053e+01 5.666007e+01 5.129311e+01 5.074794e+01 5.435770e+01 4.611276e+01 5.654463e+01 3.906188e+01 3.103579e+01 3.113701e+01 2.516272e+01 4.967934e+00 4.127041e+00 5.529326e+00 5.337929e+00 5.368758e+00 5.390534e+00 4.580534e+00 5.261918e+00 3.806084e+00 3.658354e+00 3.601835e+00 2.668319e+00 7.383081e+00
<GCONST> 1.116138e+02
<STATE> 3
<MEAN> 25
 -1.763389e+01 2.258524e+00 6.156230e+00 -5.778458e+00 5.932349e-02 -1.376183e+00 3.554776e+00 -2.064453e+00 2.293519e+00 -8.412256e-01 4.372584e+00 2.124185e+00 2.722882e+00 -9.528643e-01 3.629535e-01 5.067137e-01 -1.830323e+00 -1.311843e+00 -6.745030e-01 5.951299e-01 -9.032150e-03 -5.177392e-01 -5.814024e-01 -8.518399e-02 1.264675e+00
<VARIANCE> 25
 4.536831e+01 3.198594e+01 5.752890e+01 3.932922e+01 5.432001e+01 6.243278e+01 4.320513e+01 4.538121e+01 3.294452e+01 3.140743e+01 2.960425e+01 2.636470e+01 9.760676e+00 3.554430e+00 3.588822e+00 4.323802e+00 5.979999e+00 3.987517e+00 3.588325e+00 4.099794e+00 3.773007e+00 2.903798e+00 3.142358e+00 2.763020e+00 2.262070e+00
<GCONST> 1.077834e+02
<STATE> 4
<MEAN> 25
 -1.300073e+00 -1.838589e+00 3.936927e+00 -3.358891e+00 -4.628265e+00 -6.725221e+00 -6.437961e-02 1.232732e+00 1.964333e+00 -2.455718e+00 -1.635568e-01 1.163766e+00 4.509048e+00 -2.072894e+00 -1.483930e+00 -2.212460e-02 -5.328049e-01 -2.001832e-01 -8.721153e-01 8.297127e-01 3.107097e-01 -1.484962e-01 -1.308233e+00 -8.606529e-01 1.228085e+00
<VARIANCE> 25
 2.283610e+01 2.657033e+01 3.253645e+01 3.238625e+01 2.961189e+01 3.974746e+01 4.815066e+01 5.672620e+01 3.285585e+01 2.379027e+01 3.071895e+01 2.298569e+01 4.429661e+00 4.501430e+00 4.092490e+00 3.655201e+00 5.166571e+00 5.190923e+00 4.987879e+00 4.882296e+00 3.630459e+00 3.692901e+00 4.060779e+00 3.191381e+00 1.299993e+00
<GCONST> 1.051193e+02
<TRANSP> 5
 0.000000e+00 1.000000e+00 0.000000e+00 0.000000e+00 0.000000e+00
 0.000000e+00 7.670826e-01 2.329174e-01 0.000000e+00 0.000000e+00
 0.000000e+00 0.000000e+00 6.351804e-01 3.648196e-01 0.000000e+00
 0.000000e+00 0.000000e+00 0.000000e+00 4.788754e-01 5.211245e-01
 0.000000e+00 0.000000e+00 0.000000e+00 0.000000e+00 0.000000e+00
<ENDHMM>
~h "d"
<BEGINHMM>
<NUMSTATES> 5
<STATE> 2
<MEAN> 25
 5.813302e+00 4.523648e+00 3.838609e+00 6.777118e+00 -7.043977e-01 -2.170864e+00 -2.955136e+00 -4.932880e-01 1.116054e+00 -1.563793e+00 -3.521138e+00 -2.696004e-01 2.554874e-01 9.579795e-01 4.249651e-01 6.107731e-01 4.173251e-01 -1.288360e-01 1.579232e-01 -2.220600e-02 -3.014779e-01 -2.392547e-01 -1.462395e-01 9.461777e-02 -6.442141e-01
<VARIANCE> 25
 3.188067e+01 5.150803e+01 4.663161e+01 4.132236e+01 5.666747e+01 5.151920e+01 4.860707e+01 5.320824e+01 4.964608e+01 3.721165e+01 4.050050e+01 2.973055e+01 2.522202e+00 4.472719e+00 3.176986e+00 4.427870e+00 4.227911e+00 4.652687e+00 4.344259e+00 4.602604e+00 3.906916e+00 3.364427e+00 3.527566e+00 2.775717e+00 4.762560e+00
<GCONST> 1.088264e+02
<STATE> 3
<MEAN> 25
 3.564050e+00 3.877156e+00 5.368615e+00 5.141999e+00 -5.122688e-01 -3.843032e+00 -1.778651e+00 -1.177341e-01 -6.348659e-01 -2.533104e+00 -1.641155e+00 1.783400e+00 -1.095846e+00 -2.604562e+00 9.825318e-01 -2.235997e+00 -1.698449e+00 -1.544003e+00 -8.481027e-01 6.973919e-01 -3.134698e-02 -4.663410e-01 1.644971e+00 8.924203e-01 3.440830e+00
<VARIANCE> 25
 3.560920e+01 5.209377e+01 4.862356e+01 5.028592e+01 6.652737e+01 6.932169e+01 5.470433e+01 5.148759e+01 5.058179e+01 3.788190e+01 3.974662e+01 3.505435e+01 4.375471e+00 4.835760e+00 6.666583e+00 5.256425e+00 7.770480e+00 7.803793e+00 7.534935e+00 8.653221e+00 7.822766e+00 5.233885e+00 4.839195e+00 3.713828e+00 3.725955e+00
<GCONST> 1.152589e+02
<STATE> 4
<MEAN> 25
 2.880583e+00 -3.268116e+00 7.634204e+00 -8.251007e-01 -7.562853e+00 -6.933790e+00 -5.379053e+00 3.207459e+00 8.740373e-01 -2.679911e+00 2.724068e+00 2.570830e+00 -1.846845e-01 -1.593469e+00 5.907896e-02 -1.908904e+00 -1.292223e+00 -2.901956e-01 -2.587946e-01 1.090272e+00 4.113662e-01 4.411926e-01 7.604603e-01 -8.695343e-01 2.103554e+00
<VARIANCE> 25
 1.851396e+01 2.889679e+01 5.124248e+01 4.230061e+01 5.842782e+01 5.697915e+01 7.014738e+01 7.246039e+01 7.987614e+01 3.770861e+01 4.257469e+01 3.355641e+01 2.107521e+00 3.445960e+00 6.506656e+00 4.763399e+00 7.103596e+00 6.041484e+00 6.422845e+00 7.402091e+00 6.709898e+00 4.426075e+00 5.556345e+00 3.957945e+00 2.601330e+00
<GCONST> 1.123047e+02
<TRANSP> 5
 0.000000e+00 1.000000e+00 0.000000e+00 0.000000e+00 0.000000e+00
 0.000000e+00 6.570121e-01 3.429879e-01 0.000000e+00 0.000000e+00
 0.000000e+00 0.000000e+00 4.484636e-01 5.515363e-01 0.000000e+00
 0.000000e+00 0.000000e+00 0.000000e+00 3.763921e-01 6.236079e-01
 0.000000e+00 0.000000e+00 0.000000e+00 0.000000e+00 0.000000e+00
<ENDHMM>
~h "e"
<BEGINHMM>
<NUMSTATES> 5
<STATE> 2
<MEAN> 25
 2.572881e+00 -6.003113e+00 2.252401e+00 1.423136e-01 -7.632296e+00 -6.149758e+00 1.358741e+00 4.979164e+00 1.273667e+00 -8.635559e-01 8.355162e-01 -1.998824e+00 2.741489e-01 -9.702465e-01 7.719238e-01 -3.990204e-01 -1.172150e+00 -5.349745e-01 5.094360e-01 1.322946e+00 -4.066511e-01 -3.460553e-01 3.670169e-01 -3.155495e-01 1.087796e+00
<VARIANCE> 25
 2.643905e+01 5.238902e+01 5.296327e+01 3.509226e+01 5.846119e+01 6.300891e+01 7.504333e+01 5.425026e+01 5.045688e+01 4.076283e+01 4.710116e+01 3.730471e+01 3.301493e+00 3.584551e+00 3.556230e+00 3.032526e+00 4.976677e+00 4.537320e+00 5.011732e+00 5.227704e+00 4.674881e+00 3.788127e+00 3.924657e+00 2.941086e+00 2.839116e+00
<GCONST> 1.099272e+02
<STATE> 3
<MEAN> 25
 2.425629e+00 -5.052232e+00 5.537733e+00 3.851188e-01 -9.835454e+00 -6.952125e+00 2.186747e+00 5.028615e+00 -2.556511e+00 8.264440e-01 2.541472e+00 -1.814982e+00 -9.964316e-02 6.300848e-01 -3.022202e-01 5.378830e-01 6.220071e-01 3.098123e-01 2.155654e-01 -2.564222e-01 4.736092e-02 1.606186e-01 -2.063400e-01 2.758227e-01 -1.066371e+00
<VARIANCE> 25
 1.357727e+01 3.916888e+01 6.329246e+01 4.480686e+01 6.190612e+01 5.357384e+01 7.411751e+01 5.878032e+01 5.180706e+01 4.592307e+01 4.680122e+01 3.140284e+01 8.444482e-01 1.669558e+00 1.893419e+00 2.142805e+00 2.397807e+00 2.565358e+00 2.899114e+00 2.939423e+00 2.795171e+00 2.320292e+00 2.470145e+00 1.835881e+00 1.803141e+00
<GCONST> 1.014009e+02
<STATE> 4
<MEAN> 25
 -3.433520e+00 -1.213693e-01 -7.041183e-01 3.044739e+00 2.247107e+00 2.169723e+00 2.517347e+00 3.930159e+00 1.473261e+00 8.844558e-01 1.300536e+00 2.947401e+00 -1.158887e-01 1.212794e-01 -9.630492e-02 6.125307e-02 2.179175e-01 1.284320e-01 -1.959393e-02 -6.405235e-02 3.108770e-02 7.857329e-03 -9.488146e-03 8.352670e-02 -2.675560e-01
<VARIANCE> 25
 2.249320e+01 2.752315e+01 2.758722e+01 2.658899e+01 4.347361e+01 4.645595e+01 3.242503e+01 2.785534e+01 2.856239e+01 2.860819e+01 2.818762e+01 2.340375e+01 3.905059e-01 6.844557e-01 7.987561e-01 9.437770e-01 1.448492e+00 1.442777e+00 1.550746e+00 1.705903e+00 1.633152e+00 1.654333e+00 1.509447e+00 1.394262e+00 3.662352e-01
<GCONST> 8.742863e+01
<TRANSP> 5
 0.000000e+00 1.000000e+00 0.000000e+00 0.000000e+00 0.000000e+00
 0.000000e+00 6.209100e-01 3.790900e-01 0.000000e+00 0.000000e+00
 0.000000e+00 0.000000e+00 8.133056e-01 1.866944e-01 0.000000e+00
 0.000000e+00 0.000000e+00 0.000000e+00 8.616248e-01 1.383752e-01
 0.000000e+00 0.000000e+00 0.000000e+00 0.000000e+00 0.000000e+00
<ENDHMM>
~h "f"
<BEGINHMM>
<NUMSTATES> 5
<STATE> 2
<MEAN> 25
 -2.638532e+00 3.188424e+00 4.651671e+00 9.464046e+00 9.528482e-01 -3.063802e+00 1.139759e+00 -5.721813e-01 9.861136e-02 -1.765128e-02 2.365424e+00 1.212080e+00 -2.582548e+00 -1.833691e-01 -1.374117e+00 5.671227e-01 1.561904e+00 2.260835e-01 2.922292e-01 2.309222e-01 1.279416e+00 1.691187e-01 -1.081246e-01 2.816166e-01 -5.224330e-01
<VARIANCE> 25
 3.843338e+01 3.072619e+01 6.951065e+01 5.554746e+01 5.925702e+01 5.883777e+01 4.213268e+01 4.957706e+01 3.444844e+01 3.486504e+01 2.681041e+01 2.995354e+01 2.179135e+00 3.804124e+00 4.265723e+00 4.349702e+00 7.071280e+00 5.374640e+00 4.599669e+00 4.364418e+00 4.156008e+00 3.601719e+00 3.129400e+00 2.712594e+00 1.910458e+00
<GCONST> 1.080251e+02
<STATE> 3
<MEAN> 25
 -8.962790e+00 1.411470e-01 4.271092e-01 5.328253e+00 3.926634e+00 -6.398286e-01 3.411961e+00 4.651442e-01 1.960729e+00 2.217423e-01 2.639710e+00 2.749425e+00 -2.992676e-01 -4.047267e-01 -1.285484e-01 -9.832227e-02 -3.793988e-02 -9.405218e-02 1.307995e-01 9.529517e-02 -8.303098e-02 5.569228e-03 -4.450265e-02 2.403599e-02 -1.287468e-01
<VARIANCE> 25
 2.395747e+01 3.556263e+01 5.158334e+01 5.899767e+01 4.103676e+01 4.783516e+01 4.135928e+01 3.849554e+01 3.139802e+01 3.183878e+01 2.586789e+01 3.254316e+01 1.654668e+00 1.631665e+00 1.534258e+00 1.668898e+00 1.746495e+00 2.287767e+00 2.331707e+00 2.212713e+00 2.182243e+00 1.977380e+00 1.664871e+00 1.542690e+00 7.781500e-01
<GCONST> 9.642725e+01
<STATE> 4
<MEAN> 25
 -6.781299e+00 -1.516578e+00 1.201745e+00 6.380630e+00 1.831828e+00 -3.821415e+00 1.849111e+00 -2.554208e-01 1.644528e-01 3.222579e-01 1.804381e+00 1.559372e+00 3.183097e+00 3.702493e-01 1.323219e+00 -1.313595e+00 -2.076699e+00 -4.801215e-01 -1.003741e+00 -7.218559e-01 -1.622463e+00 -3.466938e-01 -4.138954e-02 -8.194137e-01 1.284673e+00
<VARIANCE> 25
 4.443653e+01 4.201449e+01 6.758998e+01 7.423917e+01 4.888418e+01 6.894884e+01 4.639107e+01 3.952786e+01 3.522008e+01 2.817051e+01 2.509476e+01 2.580972e+01 4.395477e+00 4.653635e+00 8.286005e+00 5.375193e+00 6.183334e+00 8.808117e+00 5.015431e+00 5.032947e+00 5.452127e+00 4.087018e+00 3.841336e+00 3.851457e+00 3.969636e+00
<GCONST> 1.122274e+02
<TRANSP> 5
 0.000000e+00 1.000000e+00 0.000000e+00 0.000000e+00 0.000000e+00
 0.000000e+00 6.497892e-01 3.502108e-01 0.000000e+00 0.000000e+00
 0.000000e+00 0.000000e+00 8.341655e-01 1.658345e-01 0.000000e+00
 0.000000e+00 0.000000e+00 0.000000e+00 5.083071e-01 4.916930e-01
 0.000000e+00 0.000000e+00 0.000000e+00 0.000000e+00 0.000000e+00
<ENDHMM>
~h "g"
<BEGINHMM>
<NUMSTATES> 5
<STATE> 2
<MEAN> 25
 5.545642e+00 6.553234e+00 3.179439e+00 5.121001e+00 3.100654e-01 -2.419843e+00 -3.659218e+00 -1.883204e+00 -1.756145e+00 1.106263e+00 -1.209575e+00 -1.730200e+00 -5.221840e-01 4.803008e-01 -1.568142e-01 4.151134e-01 8.549217e-01 -2.593843e-01 2.505063e-01 1.794894e-01 -3.460224e-01 1.869641e-02 -3.061598e-01 3.053525e-01 -5.110481e-01
<VARIANCE> 25
 1.677432e+01 4.429440e+01 4.127156e+01 3.489979e+01 4.792025e+01 5.199727e+01 5.204040e+01 4.699453e+01 4.431094e+01 3.862478e+01 3.834286e+01 2.947534e+01 2.555156e+00 5.365871e+00 5.446611e+00 4.971869e+00 5.528874e+00 5.458314e+00 5.878465e+00 5.238116e+00 4.412813e+00 4.175221e+00 3.973531e+00 2.730083e+00 4.450889e+00
<GCONST> 1.094704e+02
<STATE> 3
<MEAN> 25
 -2.146574e-01 2.628387e+00 3.093740e+00 1.994985e+00 3.673260e+00 -3.017068e+00 -3.447647e+00 -8.707185e-01 -3.005811e+00 2.081631e+00 -4.961470e-01 -2.332797e-01 -1.182470e+00 -1.634398e+00 9.273819e-01 -1.885042e+00 -9.442302e-01 -1.060733e+00 -7.678834e-01 3.368035e-01 -1.941651e-01 2.122221e-01 9.074114e-01 -1.402287e-01 2.620240e+00
<VARIANCE> 25
 4.847742e+01 4.352253e+01 7.774911e+01 5.241485e+01 7.377882e+01 7.892390e+01 8.363284e+01 5.932822e+01 5.418465e+01 4.516355e+01 4.365375e+01 3.682952e+01 5.781489e+00 5.173455e+00 9.319993e+00 5.679062e+00 1.009113e+01 7.974131e+00 7.328486e+00 8.271025e+00 7.013597e+00 5.695502e+00 4.866714e+00 4.256662e+00 3.111441e+00
<GCONST> 1.179914e+02
<STATE> 4
<MEAN> 25
 1.707560e+00 -1.590364e-01 6.393512e+00 -2.117355e+00 -4.396569e+00 -5.803641e+00 -5.953549e+00 9.292629e-01 -2.672888e+00 1.762821e+00 2.766601e+00 -2.212645e+00 3.798094e-01 -8.751702e-01 2.879940e-01 -1.499460e+00 -1.524653e+00 3.916676e-03 -8.107248e-02 7.007239e-01 5.014914e-01 -1.257885e-01 5.754592e-01 -5.503145e-01 1.368328e+00
<VARIANCE> 25
 2.972959e+01 3.767316e+01 6.561955e+01 4.694093e+01 7.772890e+01 6.362761e+01 7.460053e+01 6.623950e+01 6.259912e+01 6.343110e+01 5.221245e+01 4.269640e+01 1.512976e+00 2.835170e+00 5.207672e+00 3.804101e+00 5.808649e+00 3.933814e+00 4.328335e+00 5.772652e+00 6.140296e+00 4.079482e+00 4.268214e+00 3.216188e+00 1.801788e+00
<GCONST> 1.112273e+02
<TRANSP> 5
 0.000000e+00 1.000000e+00 0.000000e+00 0.000000e+00 0.000000e+00
 0.000000e+00 6.224198e-01 3.775802e-01 0.000000e+00 0.000000e+00
 0.000000e+00 0.000000e+00 5.107283e-01 4.892717e-01 0.000000e+00
 0.000000e+00 0.000000e+00 0.000000e+00 4.493840e-01 5.506160e-01
 0.000000e+00 0.000000e+00 0.000000e+00 0.000000e+00 0.000000e+00
<ENDHMM>
~h "h"
<BEGINHMM>
<NUMSTATES> 5
<STATE> 2
<MEAN> 25
 1.067725e+00 -2.725017e+00 -5.626529e-01 6.392255e-02 3.475316e+00 5.942647e-01 2.989767e+00 1.799448e+00 7.413535e-01 -4.141161e-01 -2.784166e+00 1.737181e-01 -6.366792e-01 2.018030e-01 -4.777878e-01 7.223085e-01 1.354631e+00 1.951099e-01 6.748260e-01 2.848934e-01 1.325082e-01 -8.669493e-02 -2.275219e-01 4.949481e-01 -8.272153e-01
<VARIANCE> 25
 2.701095e+01 4.291155e+01 7.359698e+01 5.097808e+01 9.243731e+01 7.929194e+01 7.703337e+01 6.515028e+01 4.997334e+01 4.800986e+01 5.187600e+01 4.202494e+01 1.890058e+00 3.309092e+00 3.995519e+00 3.669943e+00 4.897219e+00 4.595592e+00 4.342035e+00 4.612527e+00 3.935596e+00 3.852786e+00 3.836449e+00 2.918523e+00 1.978584e+00
<GCONST> 1.105693e+02
<STATE> 3
<MEAN> 25
 -1.373161e+00 -3.009072e+00 -3.790655e+00 7.357820e-01 6.536031e+00 9.052005e-01 3.554888e+00 1.752146e+00 1.792767e+00 -6.398770e-01 -2.680340e+00 2.200150e-01 -1.178922e-01 2.153571e-01 -3.922306e-01 1.193263e-01 -2.230841e-02 1.623398e-01 -1.527801e-02 -3.061490e-02 -3.025949e-02 8.313678e-02 1.073912e-01 7.215576e-02 -5.183553e-01
<VARIANCE> 25
 4.767495e+01 5.484745e+01 7.940530e+01 6.097364e+01 8.899104e+01 7.597650e+01 7.811646e+01 6.811539e+01 4.961164e+01 4.789359e+01 5.178163e+01 4.337874e+01 2.794829e+00 3.327224e+00 3.448801e+00 3.625384e+00 4.403916e+00 4.481175e+00 4.367345e+00 3.952048e+00 3.800193e+00 3.377622e+00 3.237103e+00 3.030296e+00 4.383736e+00
<GCONST> 1.120896e+02
<STATE> 4
<MEAN> 25
 -4.228262e+00 -8.971368e-01 -2.964183e+00 2.690898e+00 4.767165e+00 2.408231e+00 2.249679e+00 2.804239e+00 6.156679e-01 -3.849658e-02 3.038403e-01 2.524483e+00 -1.680122e-02 9.305301e-02 -3.100979e-02 -3.841730e-03 -8.832590e-02 -1.310972e-02 -4.136219e-02 -4.187747e-02 -4.944503e-02 4.037752e-03 2.155103e-02 -4.131563e-02 -1.607631e-01
<VARIANCE> 25
 3.319633e+01 4.120791e+01 3.960231e+01 3.761051e+01 3.949667e+01 4.203839e+01 3.644932e+01 3.405464e+01 3.642179e+01 2.647301e+01 3.462925e+01 2.652769e+01 7.404959e-01 9.044385e-01 1.119365e+00 1.291882e+00 1.573455e+00 1.782278e+00 1.804199e+00 1.834517e+00 1.859532e+00 1.709516e+00 1.635742e+00 1.476406e+00 6.175421e-01
<GCONST> 9.245933e+01
<TRANSP> 5
 0.000000e+00 1.000000e+00 0.000000e+00 0.000000e+00 0.000000e+00
 0.000000e+00 3.601151e-01 6.398848e-01 0.000000e+00 0.000000e+00
 0.000000e+00 0.000000e+00 4.800634e-01 5.199366e-01 0.000000e+00
 0.000000e+00 0.000000e+00 0.000000e+00 8.373464e-01 1.626536e-01
 0.000000e+00 0.000000e+00 0.000000e+00 0.000000e+00 0.000000e+00
<ENDHMM>
~h "i"
<BEGINHMM>
<NUMSTATES> 5
<STATE> 2
<MEAN> 25
 2.106284e-01 1.545056e+00 1.393148e+01 5.621111e-01 -9.973180e+00 -5.051197e+00 -1.626111e+00 -3.137482e+00 -6.061702e+00 -5.424991e-01 3.336117e+00 -4.505044e-01 4.814774e-01 -1.590570e-01 2.770363e+00 -9.377561e-01 -2.569421e+00 1.229380e-01 -1.063878e+00 -4.778412e-01 -1.560613e+00 1.459277e-01 1.167099e+00 -6.605090e-01 1.311713e+00
<VARIANCE> 25
 2.816075e+01 4.351376e+01 6.559786e+01 5.209774e+01 6.698042e+01 6.178907e+01 5.722190e+01 6.540269e+01 5.205293e+01 4.189279e+01 4.351690e+01 3.233624e+01 4.739169e+00 3.628073e+00 5.507626e+00 5.260163e+00 6.005252e+00 6.455669e+00 6.044710e+00 6.450795e+00 5.342655e+00 4.858914e+00 4.427188e+00 3.294976e+00 2.124919e+00
<GCONST> 1.129092e+02
<STATE> 3
<MEAN> 25
 -2.106730e-01 2.606144e+00 1.859268e+01 -3.312326e+00 -1.364621e+01 -1.883777e+00 -4.476733e+00 -5.369175e+00 -7.526735e+00 -1.432859e-01 4.345866e+00 -2.647780e+00 9.593228e-02 1.917458e-01 -1.978559e-01 1.324827e-01 9.023122e-02 3.818457e-02 1.417018e-01 4.794203e-02 7.099932e-02 1.118136e-01 -1.284959e-01 2.265678e-02 -3.342018e-01
<VARIANCE> 25
 1.182550e+01 4.009997e+01 4.816887e+01 5.656408e+01 4.874186e+01 6.514626e+01 5.066834e+01 6.030099e+01 4.850564e+01 6.112122e+01 5.354263e+01 3.451770e+01 6.503717e-01 1.409619e+00 1.983319e+00 2.180158e+00 2.105016e+00 2.390315e+00 2.395319e+00 2.747756e+00 2.242013e+00 2.091386e+00 1.993217e+00 1.641522e+00 9.454532e-01
<GCONST> 9.917477e+01
<STATE> 4
<MEAN> 25
 9.038925e-02 4.185394e+00 1.105239e+01 2.965147e+00 -7.421762e+00 -3.852537e+00 1.377507e-01 -3.106705e+00 -4.857109e+00 2.270026e-01 2.152953e+00 9.604479e-01 -4.892749e-02 3.535502e-01 -1.731903e+00 7.322531e-01 1.460745e+00 2.074621e-01 5.754013e-01 4.218472e-01 8.324688e-01 -3.471521e-02 -5.339859e-01 4.699424e-01 -1.381369e+00
<VARIANCE> 25
 2.547090e+01 3.980717e+01 5.574480e+01 4.448093e+01 5.985901e+01 6.915700e+01 5.626274e+01 5.415909e+01 4.661562e+01 3.780047e+01 4.053789e+01 3.406489e+01 1.680403e+00 2.685797e+00 3.180815e+00 3.195979e+00 4.005496e+00 4.100883e+00 4.114953e+00 4.015110e+00 3.474520e+00 3.327922e+00 3.146388e+00 2.486991e+00 2.153422e+00
<GCONST> 1.064412e+02
<TRANSP> 5
 0.000000e+00 1.000000e+00 0.000000e+00 0.000000e+00 0.000000e+00
 0.000000e+00 5.722320e-01 4.277679e-01 0.000000e+00 0.000000e+00
 0.000000e+00 0.000000e+00 7.723799e-01 2.276201e-01 0.000000e+00
 0.000000e+00 0.000000e+00 0.000000e+00 7.309971e-01 2.690029e-01
 0.000000e+00 0.000000e+00 0.000000e+00 0.000000e+00 0.000000e+00
<ENDHMM>
~h "j"
<BEGINHMM>
<NUMSTATES> 5
<STATE> 2
<MEAN> 25
 -7.222881e-01 8.649203e+00 6.632645e+00 4.868079e+00 1.448726e+00 -2.920135e+00 2.903458e-01 6.738343e-01 -1.338961e+00 -2.191436e+00 -4.485305e-01 1.731731e+00 -1.611577e+00 6.795494e-01 8.037748e-01 -4.266384e-01 5.658284e-01 1.008896e-01 3.867236e-01 -3.666383e-01 -2.010257e-01 -6.889737e-02 2.604968e-01 6.884529e-02 5.621715e-01
<VARIANCE> 25
 7.766559e+01 4.898563e+01 4.609952e+01 4.959874e+01 6.410123e+01 6.242422e+01 5.157477e+01 4.374443e+01 4.150524e+01 3.115932e+01 3.353759e+01 2.813362e+01 6.772561e+00 5.141666e+00 4.841569e+00 5.630854e+00 5.766119e+00 5.849360e+00 5.123493e+00 4.744586e+00 3.919943e+00 3.712908e+00 3.807657e+00 2.900487e+00 6.131069e+00
<GCONST> 1.124141e+02
<STATE> 3
<MEAN> 25
 -6.137616e+00 7.008651e+00 1.415153e+01 1.413535e+00 -3.974690e+00 -4.773720e+00 -8.893961e-01 -3.834911e+00 -3.762554e+00 -3.111214e+00 3.459637e+00 3.288459e+00 1.067494e+00 -1.909024e+00 1.517896e+00 -1.257925e-01 -3.369779e+00 -1.839521e+00 -1.329692e+00 -1.278677e-01 -6.148564e-01 -2.599209e-01 1.250460e+00 5.185094e-01 2.027588e+00
<VARIANCE> 25
 4.173646e+01 4.201436e+01 4.887927e+01 5.869093e+01 8.150953e+01 8.088615e+01 5.755912e+01 4.199598e+01 4.014380e+01 3.803650e+01 3.106949e+01 3.140673e+01 6.398835e+00 4.791348e+00 5.562672e+00 5.102224e+00 6.354874e+00 6.083475e+00 6.174215e+00 5.485353e+00 4.984404e+00 4.421003e+00 3.134628e+00 3.052431e+00 1.989509e+00
<GCONST> 1.121613e+02
<STATE> 4
<MEAN> 25
 1.340059e+00 -1.076953e+00 1.216091e+01 6.164605e-01 -1.099143e+01 -8.459860e+00 -5.676774e+00 1.684958e+00 -1.924248e+00 -2.533754e+00 4.888629e+00 2.575575e+00 1.223128e+00 -1.363190e+00 -1.857250e+00 -4.357773e-01 4.571075e-01 3.202972e-01 -6.803008e-01 1.070656e+00 1.156007e+00 4.888499e-01 -5.558544e-01 -9.672428e-01 3.933657e-01
<VARIANCE> 25
 1.236429e+01 3.045651e+01 4.350025e+01 6.440617e+01 4.657269e+01 4.064119e+01 6.414072e+01 6.383964e+01 5.396421e+01 4.745775e+01 3.048634e+01 3.423258e+01 1.710980e+00 3.094508e+00 3.180436e+00 2.571668e+00 4.827236e+00 3.930738e+00 5.934581e+00 5.277612e+00 3.803032e+00 3.044832e+00 3.305196e+00 2.882811e+00 1.417818e+00
<GCONST> 1.056862e+02
<TRANSP> 5
 0.000000e+00 1.000000e+00 0.000000e+00 0.000000e+00 0.000000e+00
 0.000000e+00 7.820416e-01 2.179585e-01 0.000000e+00 0.000000e+00
 0.000000e+00 0.000000e+00 6.465431e-01 3.534569e-01 0.000000e+00
 0.000000e+00 0.000000e+00 0.000000e+00 6.716650e-01 3.283351e-01
 0.000000e+00 0.000000e+00 0.000000e+00 0.000000e+00 0.000000e+00
<ENDHMM>
~h "k"
<BEGINHMM>
<NUMSTATES> 5
<STATE> 2
<MEAN> 25
 -2.597287e+00 2.670873e+00 -3.038908e+00 2.775740e+00 2.926722e+00 5.012516e-01 1.740973e+00 1.021164e+00 -2.574323e-02 1.746807e+00 1.149547e+00 8.475605e-01 -1.098022e+00 -3.545102e-01 -7.880798e-01 9.591662e-02 8.032015e-01 -2.957648e-01 -7.725435e-02 4.258804e-01 6.855902e-02 1.370805e-01 -4.503154e-02 2.657986e-01 -1.312276e-01
<VARIANCE> 25
 5.465988e+01 4.135340e+01 6.496777e+01 4.549201e+01 5.690838e+01 6.289069e+01 4.862704e+01 4.950386e+01 4.973263e+01 3.788976e+01 3.847546e+01 3.307176e+01 2.790882e+00 4.282984e+00 4.678060e+00 4.078997e+00 4.901945e+00 5.228215e+00 4.507307e+00 4.439919e+00 3.930941e+00 3.455135e+00 3.256397e+00 2.919450e+00 4.797952e+00
<GCONST> 1.104195e+02
<STATE> 3
<MEAN> 25
 -4.975632e+00 -1.812324e+00 -7.255313e+00 -4.178747e-01 6.817974e+00 -1.147059e+00 -5.443745e-01 1.719726e+00 2.445209e-01 2.945225e+00 7.702838e-01 7.822092e-01 -4.270240e-01 -1.320948e+00 -5.982102e-01 -1.441976e+00 4.622622e-01 -1.039227e+00 -4.351285e-01 2.349713e-02 2.489932e-01 2.777610e-01 -3.507476e-01 -5.503621e-01 2.777319e+00
<VARIANCE> 25
 5.023512e+01 5.380798e+01 9.477613e+01 7.368694e+01 8.419475e+01 9.989090e+01 7.417867e+01 6.788969e+01 7.035732e+01 5.377263e+01 4.948374e+01 4.994105e+01 6.680863e+00 5.968615e+00 8.397396e+00 6.980305e+00 8.250850e+00 9.116259e+00 7.362607e+00 6.926344e+00 6.896466e+00 6.028140e+00 5.802884e+00 5.022951e+00 7.180196e+00
<GCONST> 1.213929e+02
<STATE> 4
<MEAN> 25
 -2.833207e+00 -2.447343e+00 -4.236994e+00 -2.701411e+00 3.041231e+00 -3.412294e+00 2.244289e-01 1.119856e+00 8.874805e-01 2.156025e+00 -7.598366e-01 -1.625356e+00 2.177576e+00 -2.155231e-01 1.299095e+00 -7.155185e-01 -2.079904e+00 8.967554e-02 2.422515e-01 -3.023720e-01 -2.278956e-01 -8.138930e-01 -2.564053e-01 -1.396442e+00 2.002581e+00
<VARIANCE> 25
 5.279657e+01 4.216103e+01 7.381738e+01 4.954327e+01 6.621531e+01 7.547970e+01 5.386187e+01 5.379691e+01 5.173779e+01 4.330225e+01 4.349333e+01 4.700573e+01 4.941909e+00 4.764209e+00 5.200193e+00 5.337490e+00 6.312740e+00 7.284126e+00 6.034341e+00 5.495133e+00 5.905234e+00 4.733329e+00 4.770710e+00 4.600631e+00 3.440967e+00
<GCONST> 1.151518e+02
<TRANSP> 5
 0.000000e+00 1.000000e+00 0.000000e+00 0.000000e+00 0.000000e+00
 0.000000e+00 6.357169e-01 3.642831e-01 0.000000e+00 0.000000e+00
 0.000000e+00 0.000000e+00 5.038002e-01 4.961999e-01 0.000000e+00
 0.000000e+00 0.000000e+00 0.000000e+00 4.453427e-01 5.546574e-01
 0.000000e+00 0.000000e+00 0.000000e+00 0.000000e+00 0.000000e+00
<ENDHMM>
~h "l"
<BEGINHMM>
<NUMSTATES> 5
<STATE> 2
<MEAN> 25
 6.719106e+00 -3.109557e+00 -8.421611e-01 -2.636530e+00 -2.024588e+00 5.232223e-01 -5.463469e+00 -6.138613e+00 2.937190e+00 5.017091e+00 2.453458e-02 -2.443429e+00 4.853012e-01 1.589561e-02 2.929629e-02 -1.746542e-01 -1.373376e-01 1.108915e-01 -5.629768e-01 -7.969528e-01 2.833604e-02 9.378878e-01 6.732760e-02 -2.943122e-02 -1.538115e-01
<VARIANCE> 25
 1.587835e+01 2.980227e+01 4.832529e+01 5.995896e+01 4.592657e+01 7.704802e+01 6.747974e+01 6.586623e+01 7.051225e+01 5.612229e+01 4.821768e+01 3.760017e+01 9.481459e-01 1.792621e+00 3.067723e+00 3.711872e+00 3.828874e+00 4.423890e+00 4.466681e+00 4.869363e+00 4.461994e+00 3.816109e+00 3.467572e+00 3.052264e+00 1.307779e+00
<GCONST> 1.067697e+02
<STATE> 3
<MEAN> 25
 7.270442e+00 -3.439665e+00 -1.716756e+00 -4.598433e+00 -2.055475e+00 1.912260e+00 -5.974313e+00 -6.825288e+00 3.522802e+00 6.596067e+00 7.551010e-02 -2.825243e+00 -2.360205e-01 -3.381546e-01 -2.809201e-01 -7.446477e-01 6.083995e-01 1.167982e-01 1.430372e-01 1.075402e+00 3.973693e-01 -5.506944e-01 -3.083320e-01 -4.115230e-01 3.672258e-01
<VARIANCE> 25
 1.403433e+01 2.822984e+01 4.294422e+01 6.053078e+01 4.509147e+01 7.535898e+01 7.611317e+01 6.475318e+01 6.273912e+01 5.025222e+01 4.832586e+01 3.453014e+01 5.259001e-01 1.502713e+00 2.105225e+00 2.980869e+00 2.725035e+00 3.477595e+00 3.798810e+00 4.719873e+00 3.662246e+00 3.461105e+00 3.123853e+00 2.360350e+00 8.072436e-01
<GCONST> 1.029614e+02
<STATE> 4
<MEAN> 25
 5.956375e+00 -2.953622e+00 -3.478740e+00 -5.866124e+00 1.178062e+00 7.027169e-01 -3.104201e+00 -3.213874e+00 2.598507e+00 2.633798e+00 -2.783365e-01 -2.979798e+00 -3.242206e-01 -2.183627e-01 -5.807630e-02 -3.853056e-02 2.695392e-01 -6.033855e-02 5.514448e-01 9.143526e-01 -1.790731e-01 -7.850847e-01 -2.093466e-01 -1.540943e-02 1.169684e-01
<VARIANCE> 25
 1.767537e+01 3.252438e+01 5.613379e+01 7.016051e+01 4.865628e+01 8.959386e+01 9.002257e+01 6.602110e+01 6.796180e+01 5.266880e+01 6.055661e+01 4.652088e+01 5.677124e-01 1.595204e+00 2.075003e+00 2.403526e+00 2.672590e+00 3.188330e+00 3.178635e+00 3.694040e+00 3.123813e+00 2.910026e+00 2.822192e+00 2.283025e+00 9.833741e-01
<GCONST> 1.039431e+02
<TRANSP> 5
 0.000000e+00 1.000000e+00 0.000000e+00 0.000000e+00 0.000000e+00
 0.000000e+00 4.661758e-01 5.338242e-01 0.000000e+00 0.000000e+00
 0.000000e+00 0.000000e+00 4.422769e-01 5.577231e-01 0.000000e+00
 0.000000e+00 0.000000e+00 0.000000e+00 4.789017e-01 5.210983e-01
 0.000000e+00 0.000000e+00 0.000000e+00 0.000000e+00 0.000000e+00
<ENDHMM>
~h "m"
<BEGINHMM>
<NUMSTATES> 5
<STATE> 2
<MEAN> 25
 7.453176e+00 1.415398e+00 6.596298e-02 1.371548e+00 2.469154e-02 4.677577e+00 -1.299783e+00 -6.244568e+00 -4.216409e+00 5.131334e-01 -5.138756e-02 -1.274718e+00 9.243207e-02 9.205827e-01 9.746873e-01 1.420900e+00 1.766156e-01 2.553422e-01 3.739823e-01 -1.500306e+00 -1.440498e+00 -1.519534e-01 -4.242885e-01 1.854690e-01 -8.657867e-01
<VARIANCE> 25
 1.827970e+01 3.741389e+01 4.410084e+01 4.549197e+01 4.099922e+01 5.290621e+01 4.144498e+01 4.375065e+01 4.727501e+01 4.118180e+01 3.829324e+01 2.944361e+01 9.568502e-01 2.130352e+00 2.913524e+00 3.039818e+00 2.819590e+00 3.150608e+00 3.498657e+00 3.622916e+00 3.338151e+00 3.110021e+00 3.540686e+00 2.509792e+00 1.380112e+00
<GCONST> 1.023294e+02
<STATE> 3
<MEAN> 25
 6.889100e+00 3.581069e+00 2.431196e+00 3.802849e+00 -2.897705e-01 4.630477e+00 -8.009486e-01 -7.888657e+00 -6.294726e+00 -4.172560e-01 -1.263389e+00 -1.169543e+00 8.285416e-02 9.308662e-02 -4.613175e-02 -1.199478e-01 -1.256878e-01 9.840243e-02 1.060309e-01 1.214282e-01 -1.505557e-02 -8.426425e-03 5.606157e-02 2.272757e-02 -4.548047e-02
<VARIANCE> 25
 1.377150e+01 3.639245e+01 3.713019e+01 3.362651e+01 3.922006e+01 4.800428e+01 4.641643e+01 5.333549e+01 5.864817e+01 5.270957e+01 4.473668e+01 3.374737e+01 3.897675e-01 9.958361e-01 1.270160e+00 1.555882e+00 1.554579e+00 1.862420e+00 1.690050e+00 2.022462e+00 2.071534e+00 1.814858e+00 1.774469e+00 1.468913e+00 6.210892e-01
<GCONST> 9.383743e+01
<STATE> 4
<MEAN> 25
 7.897573e+00 1.163899e+00 -5.991970e-01 -3.444982e-01 -4.981942e-01 6.239848e+00 -5.729412e-01 -6.236347e+00 -4.416303e+00 4.791267e-02 6.312376e-01 -9.238529e-01 9.845552e-02 -1.286531e+00 -1.386210e+00 -1.622963e+00 6.654686e-02 4.523565e-01 -3.333066e-01 1.273563e+00 1.731608e+00 4.170745e-02 3.364072e-01 -3.598844e-01 1.231894e+00
<VARIANCE> 25
 1.804845e+01 4.414655e+01 5.515412e+01 6.066297e+01 4.486919e+01 6.075728e+01 4.939995e+01 4.907658e+01 5.692292e+01 4.465703e+01 4.254181e+01 3.308871e+01 1.215563e+00 3.684375e+00 4.843412e+00 4.613063e+00 4.744784e+00 4.631704e+00 5.532590e+00 5.190452e+00 6.168137e+00 4.791533e+00 4.261865e+00 3.839963e+00 1.972867e+00
<GCONST> 1.094515e+02
<TRANSP> 5
 0.000000e+00 1.000000e+00 0.000000e+00 0.000000e+00 0.000000e+00
 0.000000e+00 5.552266e-01 4.447734e-01 0.000000e+00 0.000000e+00
 0.000000e+00 0.000000e+00 6.807745e-01 3.192255e-01 0.000000e+00
 0.000000e+00 0.000000e+00 0.000000e+00 5.161769e-01 4.838231e-01
 0.000000e+00 0.000000e+00 0.000000e+00 0.000000e+00 0.000000e+00
<ENDHMM>
~h "n"
<BEGINHMM>
<NUMSTATES> 5
<STATE> 2
<MEAN> 25
 6.530541e+00 -2.423658e+00 1.990874e+00 2.930272e+00 -2.046524e+00 -2.477632e-01 -3.034442e+00 -3.998074e-01 2.040354e+00 -4.040659e-01 -4.738354e+00 -9.398288e-01 5.209632e-01 1.796112e+00 8.720579e-01 1.756140e+00 -6.035165e-01 1.047183e-01 -6.194346e-02 -2.059522e+00 -2.807734e-01 5.492826e-01 -4.000104e-01 5.544184e-01 -1.936191e+00
<VARIANCE> 25
 1.540701e+01 4.237640e+01 4.591024e+01 3.624025e+01 5.193002e+01 5.475842e+01 4.958577e+01 6.430317e+01 5.324163e+01 4.559922e+01 4.253354e+01 3.616830e+01 1.201735e+00 2.352276e+00 4.034464e+00 2.851825e+00 4.496750e+00 4.272365e+00 4.204021e+00 4.692219e+00 3.953020e+00 3.770386e+00 3.845773e+00 3.022076e+00 9.465400e-01
<GCONST> 1.055176e+02
<STATE> 3
<MEAN> 25
 6.329241e+00 3.483153e+00 3.235664e+00 5.739980e+00 -2.212675e+00 -9.616396e-01 -1.864135e+00 -4.547728e+00 -1.048389e+00 3.989198e-01 -5.154355e+00 -7.095474e-01 -2.293652e-01 7.457684e-01 2.978189e-02 2.237079e-01 3.400179e-01 1.688197e-01 1.906228e-01 1.410599e-02 -2.160050e-01 -4.474249e-02 2.507709e-01 1.730094e-01 -8.481225e-01
<VARIANCE> 25
 1.369372e+01 3.726410e+01 3.730439e+01 2.815318e+01 4.795924e+01 5.139023e+01 3.968180e+01 4.697139e+01 4.552979e+01 4.766000e+01 4.213324e+01 3.571853e+01 7.053857e-01 1.368587e+00 1.468415e+00 1.445023e+00 2.149768e+00 2.204777e+00 2.113269e+00 2.766998e+00 2.356015e+00 2.064517e+00 2.197495e+00 1.709837e+00 5.157323e-01
<GCONST> 9.576034e+01
<STATE> 4
<MEAN> 25
 -3.155263e+00 1.916912e+00 -7.819247e-01 4.789421e+00 2.686058e+00 2.736997e+00 1.794996e+00 2.422654e+00 8.448799e-01 6.683871e-01 6.558534e-01 3.411448e+00 -1.722914e-01 8.650668e-03 -5.601556e-02 -2.425673e-02 5.708893e-02 4.110721e-02 4.879824e-02 8.770953e-02 -9.267254e-03 5.575961e-03 1.129836e-01 3.414423e-02 -1.583876e-01
<VARIANCE> 25
 3.148156e+01 2.931897e+01 3.002297e+01 2.502318e+01 3.453183e+01 3.144111e+01 2.989132e+01 3.432583e+01 3.047778e+01 2.579378e+01 2.984985e+01 2.257235e+01 4.219598e-01 6.839066e-01 7.987009e-01 9.945697e-01 1.266333e+00 1.451636e+00 1.540482e+00 1.705439e+00 1.697395e+00 1.574546e+00 1.512843e+00 1.352545e+00 2.850624e-01
<GCONST> 8.704554e+01
<TRANSP> 5
 0.000000e+00 1.000000e+00 0.000000e+00 0.000000e+00 0.000000e+00
 0.000000e+00 5.877205e-01 4.122795e-01 0.000000e+00 0.000000e+00
 0.000000e+00 0.000000e+00 7.411030e-01 2.588970e-01 0.000000e+00
 0.000000e+00 0.000000e+00 0.000000e+00 8.733063e-01 1.266938e-01
 0.000000e+00 0.000000e+00 0.000000e+00 0.000000e+00 0.000000e+00
<ENDHMM>
~h "o"
<BEGINHMM>
<NUMSTATES> 5
<STATE> 2
<MEAN> 25
 5.552819e+00 6.329355e-01 -7.233151e+00 -7.323357e+00 -5.473652e-01 4.519194e+00 -1.449861e+00 -2.728105e+00 -1.401222e-01 1.427694e+00 3.525140e+00 -8.703736e-01 1.682227e+00 -1.331570e-01 -6.341356e-01 -2.244595e+00 -6.077080e-01 1.746277e+00 -1.653370e-01 -5.289409e-01 -1.795673e-01 1.449641e-01 7.630127e-01 -5.791871e-01 1.742012e+00
<VARIANCE> 25
 3.732600e+01 3.679421e+01 5.472793e+01 8.169099e+01 5.778051e+01 8.062294e+01 6.792065e+01 4.861364e+01 5.301356e+01 5.050598e+01 4.938015e+01 3.610780e+01 4.821078e+00 3.794296e+00 4.849170e+00 7.186699e+00 6.513327e+00 7.540276e+00 6.688373e+00 5.630146e+00 5.791522e+00 5.253449e+00 4.985047e+00 3.740161e+00 5.024570e+00
<GCONST> 1.154400e+02
<STATE> 3
<MEAN> 25
 8.208704e+00 -1.253750e+00 -8.275757e+00 -1.198462e+01 -2.347858e+00 9.762361e+00 -1.547301e+00 -3.723155e+00 8.315189e-01 1.306193e-01 6.847366e+00 -1.675722e+00 9.440918e-02 -2.742827e-01 5.314892e-02 4.170283e-02 2.549502e-01 4.000207e-01 -8.900196e-03 -1.788173e-01 1.094725e-01 4.005164e-01 -2.927402e-01 -2.045053e-01 1.101683e-02
<VARIANCE> 25
 1.649264e+01 3.394374e+01 4.052438e+01 7.301928e+01 4.953860e+01 8.090760e+01 7.680907e+01 5.846980e+01 6.116074e+01 6.496333e+01 5.840232e+01 5.128921e+01 8.006481e-01 2.369415e+00 1.968851e+00 4.208361e+00 3.514429e+00 4.389149e+00 4.247297e+00 3.617909e+00 4.160226e+00 4.168578e+00 3.539628e+00 3.205005e+00 1.954245e+00
<GCONST> 1.074401e+02
<STATE> 4
<MEAN> 25
 7.662066e+00 1.400035e-01 -6.909552e+00 -9.820697e+00 -2.300509e-01 6.908031e+00 -3.328479e-01 -4.314297e+00 -6.472716e-01 2.842056e+00 2.963484e+00 -1.195036e+00 -2.431882e-01 2.847782e-01 3.958090e-01 1.188353e+00 3.707466e-01 -7.339629e-01 -1.827282e-02 1.383599e-01 1.282835e-01 -2.876138e-02 -5.469404e-01 1.774989e-01 -7.600947e-01
<VARIANCE> 25
 1.466899e+01 4.324599e+01 4.175647e+01 6.245144e+01 5.247664e+01 7.741411e+01 6.639515e+01 4.887261e+01 5.071144e+01 4.044347e+01 3.711815e+01 4.925488e+01 6.327511e-01 1.402599e+00 1.889814e+00 3.082649e+00 2.432405e+00 3.469556e+00 2.578026e+00 2.664250e+00 2.603511e+00 2.330946e+00 2.414338e+00 2.008271e+00 1.079810e+00
<GCONST> 1.009587e+02
<TRANSP> 5
 0.000000e+00 1.000000e+00 0.000000e+00 0.000000e+00 0.000000e+00
 0.000000e+00 5.315610e-01 4.684390e-01 0.000000e+00 0.000000e+00
 0.000000e+00 0.000000e+00 6.709287e-01 3.290713e-01 0.000000e+00
 0.000000e+00 0.000000e+00 0.000000e+00 7.712346e-01 2.287653e-01
 0.000000e+00 0.000000e+00 0.000000e+00 0.000000e+00 0.000000e+00
<ENDHMM>
~h "p"
<BEGINHMM>
<NUMSTATES> 5
<STATE> 2
<MEAN> 25
 -2.193008e+00 3.524978e+00 -4.281009e+00 3.368647e+00 3.105893e+00 7.957532e-01 1.682504e+00 1.292998e+00 3.729554e-01 1.863604e+00 1.101020e+00 1.243540e+00 -7.236550e-01 -6.422938e-02 -3.549460e-01 1.362878e-01 1.036543e-01 -2.525002e-01 3.736030e-01 1.903645e-01 4.298500e-02 1.325614e-03 1.756838e-01 2.499488e-01 -4.185445e-01
<VARIANCE> 25
 5.806367e+01 4.141610e+01 4.961662e+01 3.616887e+01 3.118474e+01 4.840336e+01 3.693414e+01 3.823309e+01 4.391634e+01 3.285258e+01 3.062458e+01 2.475691e+01 2.251723e+00 2.594764e+00 2.716553e+00 2.877765e+00 2.846833e+00 3.338083e+00 2.937112e+00 3.119064e+00 3.025328e+00 2.528414e+00 2.410912e+00 1.978283e+00 4.066253e+00
<GCONST> 1.029899e+02
<STATE> 3
<MEAN> 25
 -1.639507e+00 1.119526e+00 -4.375525e+00 1.514596e+00 1.852156e+00 -9.704404e-01 2.185452e+00 -6.337937e-01 2.053318e-01 1.216858e+00 1.999847e+00 1.218758e+00 1.576099e+00 -2.066766e+00 -8.232233e-01 -2.331726e+00 -8.165751e-01 4.754621e-01 -5.582043e-01 -1.178738e+00 3.637982e-01 9.309421e-02 4.880633e-01 -1.188056e+00 4.236561e+00
<VARIANCE> 25
 3.810173e+01 3.468999e+01 3.993803e+01 4.713146e+01 3.667996e+01 5.670392e+01 3.931118e+01 3.940799e+01 3.817400e+01 3.271243e+01 3.083112e+01 2.465455e+01 6.786558e+00 5.120272e+00 6.865938e+00 6.474727e+00 5.676307e+00 9.649302e+00 6.290870e+00 5.167632e+00 5.835194e+00 4.787420e+00 5.046129e+00 4.338456e+00 6.563929e+00
<GCONST> 1.125478e+02
<STATE> 4
<MEAN> 25
 5.035879e+00 -3.857590e+00 -6.820480e+00 -5.218433e+00 4.390053e-01 3.868861e+00 1.730181e-01 -3.836094e+00 2.263350e+00 2.008408e+00 2.905176e+00 -3.505353e+00 1.450541e+00 -1.208917e+00 -1.702855e-01 -1.299603e+00 -5.742890e-01 6.160817e-01 -8.002115e-01 -8.658617e-02 3.919277e-01 1.221484e-01 -1.063946e-01 -1.173652e+00 2.385365e+00
<VARIANCE> 25
 4.280586e+01 3.411702e+01 4.309546e+01 5.479618e+01 4.318051e+01 8.175695e+01 5.909296e+01 4.720953e+01 4.420045e+01 4.331884e+01 4.546564e+01 4.597701e+01 5.445336e+00 5.454852e+00 5.832973e+00 7.063407e+00 6.418560e+00 1.123895e+01 6.503678e+00 5.611532e+00 6.186110e+00 5.030181e+00 5.362644e+00 5.492933e+00 9.645368e+00
<GCONST> 1.163783e+02
<TRANSP> 5
 0.000000e+00 1.000000e+00 0.000000e+00 0.000000e+00 0.000000e+00
 0.000000e+00 7.389417e-01 2.610583e-01 0.000000e+00 0.000000e+00
 0.000000e+00 0.000000e+00 4.392132e-01 5.607868e-01 0.000000e+00
 0.000000e+00 0.000000e+00 0.000000e+00 4.401269e-01 5.598731e-01
 0.000000e+00 0.000000e+00 0.000000e+00 0.000000e+00 0.000000e+00
<ENDHMM>
~h "q"
<BEGINHMM>
<NUMSTATES> 5
<STATE> 2
<MEAN> 25
 3.036337e+00 -8.796582e+00 -8.775652e+00 -5.067125e+00 5.646001e+00 4.977241e-01 5.520753e+00 1.296572e+00 3.525161e+00 -5.186546e-01 -4.911422e+00 -4.888993e+00 6.103159e-02 -5.114428e-01 1.145256e-01 6.703430e-02 1.282626e-01 3.692184e-01 -1.058288e-01 -8.906712e-02 -4.422314e-02 -3.334190e-01 -2.821014e-01 1.543247e-01 7.199519e-02
<VARIANCE> 25
 1.628098e+01 4.137047e+01 7.665576e+01 4.041582e+01 7.382678e+01 8.060132e+01 6.331172e+01 4.892795e+01 3.735249e+01 3.955094e+01 4.449221e+01 5.264916e+01 8.618253e-01 1.553341e+00 1.878949e+00 1.575863e+00 1.878137e+00 2.157813e+00 1.849517e+00 2.072770e+00 1.732233e+00 1.720034e+00 1.890644e+00 1.890724e+00 1.170982e+00
<GCONST> 9.892853e+01
<STATE> 3
<MEAN> 25
 3.899422e+00 -9.602879e+00 -5.336312e+00 -4.843812e+00 4.924202e+00 2.557740e+00 1.533390e+00 1.924970e+00 2.037781e+00 -2.936290e+00 -5.976978e+00 -1.750985e+00 -1.919238e-02 -2.167379e-02 1.160491e-01 1.651881e-01 -1.520581e-02 -5.708365e-03 -1.014502e-01 6.735303e-02 -6.797345e-02 -7.302361e-02 4.042445e-03 1.631270e-01 -4.242804e-02
<VARIANCE> 25
 1.064449e+01 4.069066e+01 3.444220e+01 4.264947e+01 4.752824e+01 6.089318e+01 3.976577e+01 3.750126e+01 3.849401e+01 3.611108e+01 3.305150e+01 3.005076e+01 2.766659e-01 5.871602e-01 8.071905e-01 9.260499e-01 9.679487e-01 1.238340e+00 1.143613e+00 1.086031e+00 1.070105e+00 1.167733e+00 9.398540e-01 1.073998e+00 4.793504e-01
<GCONST> 8.651251e+01
<STATE> 4
<MEAN> 25
 -3.324311e+00 -1.757679e+00 -2.692117e+00 1.820793e+00 2.103428e+00 4.203574e+00 -1.671619e-01 4.065446e+00 1.797683e+00 7.150303e-01 3.811396e-01 3.178972e+00 -1.090563e-02 4.246708e-02 2.690234e-02 7.889122e-02 -3.560439e-02 -5.462611e-02 -5.933806e-02 4.030743e-02 -1.028650e-02 -1.018504e-02 9.016823e-04 4.461588e-02 -6.271530e-02
<VARIANCE> 25
 2.088053e+01 2.731417e+01 2.427101e+01 2.223742e+01 2.041401e+01 2.629923e+01 2.433637e+01 2.235287e+01 2.330005e+01 2.008275e+01 2.523709e+01 1.892417e+01 2.258942e-01 4.035287e-01 5.788342e-01 7.619358e-01 9.517453e-01 1.171386e+00 1.211383e+00 1.304006e+00 1.376892e+00 1.326418e+00 1.294432e+00 1.194234e+00 1.547011e-01
<GCONST> 8.000970e+01
<TRANSP> 5
 0.000000e+00 1.000000e+00 0.000000e+00 0.000000e+00 0.000000e+00
 0.000000e+00 5.732355e-01 4.267645e-01 0.000000e+00 0.000000e+00
 0.000000e+00 0.000000e+00 7.522044e-01 2.477957e-01 0.000000e+00
 0.000000e+00 0.000000e+00 0.000000e+00 8.535391e-01 1.464609e-01
 0.000000e+00 0.000000e+00 0.000000e+00 0.000000e+00 0.000000e+00
<ENDHMM>
~h "r"
<BEGINHMM>
<NUMSTATES> 5
<STATE> 2
<MEAN> 25
 5.191555e+00 -4.551623e+00 -2.727683e+00 1.008840e+00 -2.783201e+00 -2.149262e+00 -3.068026e+00 4.961365e-01 5.325145e+00 5.288302e-01 -5.979131e-01 -1.809111e+00 7.589885e-02 2.552066e-02 4.383861e-01 1.230702e+00 -4.658117e-01 -6.688084e-02 -3.637443e-01 6.473920e-02 3.429386e-02 -3.091850e-01 4.120261e-01 6.011728e-01 -7.660936e-01
<VARIANCE> 25
 2.294051e+01 3.363912e+01 5.026284e+01 4.903810e+01 5.676507e+01 6.064273e+01 6.220718e+01 5.850401e+01 5.532258e+01 4.650391e+01 4.780457e+01 3.765218e+01 2.536431e+00 2.888491e+00 3.743556e+00 4.417313e+00 5.078897e+00 5.293087e+00 4.679540e+00 4.765168e+00 4.782058e+00 4.192817e+00 3.983659e+00 3.951458e+00 3.473506e+00
<GCONST> 1.102899e+02
<STATE> 3
<MEAN> 25
 5.161897e+00 -3.759632e+00 -1.172327e+00 2.920860e+00 -3.190421e+00 -2.208944e+00 -3.807610e+00 6.615116e-01 4.622660e+00 7.377926e-02 9.688133e-01 -5.284760e-01 -2.679989e-01 3.398335e-01 6.515079e-01 5.139813e-01 2.536685e-02 -1.132170e-01 1.272650e-01 7.693376e-02 -7.268067e-01 -1.357280e-01 5.447537e-01 5.999160e-01 -7.193090e-01
<VARIANCE> 25
 2.485406e+01 3.344244e+01 5.576403e+01 4.461208e+01 5.759652e+01 5.635882e+01 6.068596e+01 5.532439e+01 5.151495e+01 4.309357e+01 4.477452e+01 3.698801e+01 2.195732e+00 2.767290e+00 3.837437e+00 3.525257e+00 4.543801e+00 4.587653e+00 4.077996e+00 4.213433e+00 4.210309e+00 3.602000e+00 3.746814e+00 3.262891e+00 2.472227e+00
<GCONST> 1.082283e+02
<STATE> 4
<MEAN> 25
 2.860303e+00 -2.488052e+00 -2.239489e-01 3.041209e+00 -1.729381e+00 -2.304493e+00 -2.035719e+00 1.189283e+00 2.360468e+00 -4.577340e-01 1.308015e+00 6.820365e-01 -2.925007e-01 3.733713e-01 3.908421e-01 -6.698459e-02 5.259160e-02 6.515568e-02 3.142473e-01 -7.827771e-02 -6.668250e-01 9.841664e-03 2.309822e-01 1.168018e-01 -4.046537e-01
<VARIANCE> 25
 3.967591e+01 3.819015e+01 6.339561e+01 4.344974e+01 5.356313e+01 6.054346e+01 4.872797e+01 5.295293e+01 4.757167e+01 4.153377e+01 4.434576e+01 3.386744e+01 1.558997e+00 2.190295e+00 2.744813e+00 2.330340e+00 3.349147e+00 3.012964e+00 2.901846e+00 3.095593e+00 3.288912e+00 2.625878e+00 2.718583e+00 2.211108e+00 1.800394e+00
<GCONST> 1.041627e+02
<TRANSP> 5
 0.000000e+00 1.000000e+00 0.000000e+00 0.000000e+00 0.000000e+00
 0.000000e+00 3.427034e-01 6.572966e-01 0.000000e+00 0.000000e+00
 0.000000e+00 0.000000e+00 1.409135e-01 8.590865e-01 0.000000e+00
 0.000000e+00 0.000000e+00 0.000000e+00 5.139195e-01 4.860805e-01
 0.000000e+00 0.000000e+00 0.000000e+00 0.000000e+00 0.000000e+00
<ENDHMM>
~h "s"
<BEGINHMM>
<NUMSTATES> 5
<STATE> 2
<MEAN> 25
 -7.429242e+00 5.122648e+00 4.959101e-01 7.411013e-01 6.387335e+00 -3.915698e+00 3.834966e+00 1.481342e+00 1.952846e+00 -4.272905e-01 -2.939143e-01 1.392154e+00 -4.190128e+00 1.897800e+00 -4.432057e-01 -1.180465e-01 1.677514e+00 -8.042671e-01 1.497565e+00 3.311944e-01 3.710412e-01 -4.205443e-01 8.331434e-01 6.460468e-01 2.770686e-01
<VARIANCE> 25
 7.560561e+01 5.120172e+01 7.610502e+01 4.922095e+01 7.607642e+01 7.619278e+01 8.175282e+01 6.218554e+01 5.210688e+01 4.356781e+01 4.830131e+01 3.445834e+01 3.225233e+00 4.177261e+00 4.698673e+00 4.558846e+00 6.137486e+00 6.798321e+00 6.557765e+00 5.316412e+00 4.411948e+00 3.961761e+00 4.169557e+00 3.083460e+00 2.050463e+00
<GCONST> 1.138608e+02
<STATE> 3
<MEAN> 25
 -1.907396e+01 7.107539e+00 -1.853364e+00 -1.980567e-01 7.764031e+00 -5.246166e+00 6.618944e+00 1.467061e+00 1.943769e+00 -1.276495e+00 2.590632e+00 3.260327e+00 -4.044894e-01 -4.094461e-01 -1.384856e-01 -1.468126e-01 -1.852118e-01 -2.700642e-02 2.033286e-02 7.735176e-02 4.043198e-02 -2.483469e-03 4.923378e-02 6.391960e-02 -3.383106e-01
<VARIANCE> 25
 3.738206e+01 4.057540e+01 5.733262e+01 5.484029e+01 6.068980e+01 7.148451e+01 6.025348e+01 5.356454e+01 3.855747e+01 2.980135e+01 2.952529e+01 2.867306e+01 2.603557e+00 1.714499e+00 1.773263e+00 1.633258e+00 2.028717e+00 2.150314e+00 2.305781e+00 2.325066e+00 2.243522e+00 1.983482e+00 1.920585e+00 1.679635e+00 8.964915e-01
<GCONST> 9.983362e+01
<STATE> 4
<MEAN> 25
 -1.250023e+01 3.992049e+00 -8.031191e-01 -1.156858e+00 5.327283e+00 -5.819279e+00 3.944251e+00 1.292822e+00 2.436975e+00 -9.446126e-01 2.232828e-01 1.895162e+00 4.290484e+00 -8.818876e-01 5.460647e-01 -1.446788e-01 -1.699344e+00 1.368496e-01 -1.695091e+00 -9.010404e-01 -2.238792e-01 2.101178e-01 -1.014358e+00 -8.803606e-01 5.907758e-01
<VARIANCE> 25
 7.809003e+01 4.269735e+01 6.315261e+01 5.107569e+01 5.817465e+01 6.819592e+01 6.961611e+01 5.654747e+01 4.175813e+01 3.306338e+01 4.047000e+01 3.148942e+01 5.123281e+00 4.718941e+00 6.086417e+00 4.936689e+00 5.593887e+00 6.553732e+00 6.008730e+00 6.018249e+00 5.174088e+00 3.650695e+00 3.981616e+00 3.251045e+00 3.471863e+00
<GCONST> 1.136040e+02
<TRANSP> 5
 0.000000e+00 1.000000e+00 0.000000e+00 0.000000e+00 0.000000e+00
 0.000000e+00 7.051426e-01 2.948574e-01 0.000000e+00 0.000000e+00
 0.000000e+00 0.000000e+00 8.195398e-01 1.804603e-01 0.000000e+00
 0.000000e+00 0.000000e+00 0.000000e+00 6.625752e-01 3.374248e-01
 0.000000e+00 0.000000e+00 0.000000e+00 0.000000e+00 0.000000e+00
<ENDHMM>
~h "t"
<BEGINHMM>
<NUMSTATES> 5
<STATE> 2
<MEAN> 25
 -1.046290e+00 4.695280e+00 -2.350405e+00 3.502966e+00 2.402320e+00 -1.119472e+00 5.632580e-01 5.928227e-02 1.811680e+00 1.976675e+00 -2.262002e-02 1.425668e+00 -1.269178e+00 -2.331399e-01 -4.745293e-01 -2.471590e-01 4.182160e-01 -4.538740e-01 6.936250e-01 3.204171e-01 -1.232116e-01 -2.738672e-01 3.432301e-01 2.323979e-01 -4.202526e-02
<VARIANCE> 25
 4.873247e+01 4.369987e+01 6.044936e+01 3.707391e+01 4.684988e+01 5.614725e+01 4.863610e+01 4.947712e+01 5.072180e+01 3.950471e+01 3.783963e+01 2.937700e+01 3.181077e+00 4.143656e+00 4.210740e+00 4.673204e+00 4.818482e+00 5.429895e+00 4.534431e+00 4.623780e+00 4.218884e+00 3.466209e+00 3.459340e+00 2.676320e+00 6.413334e+00
<GCONST> 1.102346e+02
<STATE> 3
<MEAN> 25
 -6.191198e+00 5.003271e-01 -2.411559e+00 -8.084777e-01 3.413723e+00 -4.701548e+00 3.107886e+00 3.499013e-01 7.900785e-01 1.112934e-01 1.522657e+00 2.256391e+00 -2.440336e-01 -1.657914e+00 7.649299e-02 -2.261371e+00 -1.189416e-01 -1.582331e+00 -2.638547e-01 -4.512957e-01 4.073231e-01 -4.957844e-01 -1.229831e-01 -5.022491e-01 4.098306e+00
<VARIANCE> 25
 3.836850e+01 4.473288e+01 5.148848e+01 5.938160e+01 5.138562e+01 7.415577e+01 5.394551e+01 4.550932e+01 4.335181e+01 3.784316e+01 3.330269e+01 3.034268e+01 6.357466e+00 5.365906e+00 8.104605e+00 6.639024e+00 6.773091e+00 7.541603e+00 7.226623e+00 6.791324e+00 7.375670e+00 5.364349e+00 6.067362e+00 4.611730e+00 6.643477e+00
<GCONST> 1.160377e+02
<STATE> 4
<MEAN> 25
 -2.562191e+00 -8.433532e-01 -1.554272e+00 -3.499805e+00 1.825581e+00 -5.981845e+00 -1.959560e-01 -9.486442e-01 2.696800e+00 -1.572910e-01 -2.884457e-01 -2.837655e-01 2.207742e+00 -7.703495e-01 6.138606e-01 -1.114432e+00 -1.179616e+00 4.609539e-01 -1.849016e+00 -3.540336e-01 6.939583e-02 1.988174e-01 -2.806596e-01 -1.360998e+00 2.925130e+00
<VARIANCE> 25
 3.907343e+01 3.574187e+01 5.119994e+01 4.934999e+01 5.197181e+01 6.619089e+01 6.814158e+01 4.995184e+01 4.940030e+01 4.017418e+01 4.145233e+01 3.885556e+01 5.149009e+00 5.591978e+00 9.120438e+00 6.620108e+00 7.086024e+00 9.571802e+00 8.154040e+00 7.844085e+00 7.859433e+00 5.220470e+00 6.632300e+00 4.878252e+00 5.465573e+00
<GCONST> 1.170023e+02
<TRANSP> 5
 0.000000e+00 1.000000e+00 0.000000e+00 0.000000e+00 0.000000e+00
 0.000000e+00 6.156392e-01 3.843608e-01 0.000000e+00 0.000000e+00
 0.000000e+00 0.000000e+00 3.827855e-01 6.172146e-01 0.000000e+00
 0.000000e+00 0.000000e+00 0.000000e+00 2.348793e-01 7.651206e-01
 0.000000e+00 0.000000e+00 0.000000e+00 0.000000e+00 0.000000e+00
<ENDHMM>
~h "u"
<BEGINHMM>
<NUMSTATES> 5
<STATE> 2
<MEAN> 25
 5.590710e+00 3.707292e+00 -1.778321e+00 -4.021044e+00 -1.605699e+00 1.779460e+00 -6.041080e+00 -5.517298e+00 -2.453141e+00 2.669878e-02 3.282407e+00 1.624663e-01 1.771677e+00 6.696418e-01 -2.361402e-01 -1.604918e+00 -1.117210e+00 1.640294e+00 -9.314058e-01 -1.379725e+00 -8.229625e-01 4.010182e-02 9.920486e-01 1.550558e-01 8.162621e-01
<VARIANCE> 25
 3.091751e+01 4.444825e+01 5.552172e+01 8.247205e+01 5.556817e+01 6.891940e+01 8.451736e+01 6.656412e+01 6.309204e+01 5.458076e+01 5.176587e+01 3.687763e+01 3.989131e+00 3.797565e+00 5.320430e+00 5.930380e+00 6.210649e+00 7.615221e+00 7.023415e+00 6.411349e+00 5.947857e+00 5.337182e+00 4.841140e+00 3.703332e+00 3.426794e+00
<GCONST> 1.155951e+02
<STATE> 3
<MEAN> 25
 8.672185e+00 4.031921e+00 -1.958688e+00 -7.985441e+00 -4.499208e+00 8.236506e+00 -6.706534e+00 -9.435926e+00 -3.473611e+00 -3.429268e-01 5.884180e+00 1.196302e+00 1.164275e-01 -8.200725e-02 4.130447e-02 1.970959e-02 2.542748e-01 3.065727e-01 -7.939671e-02 -5.604516e-02 1.727540e-01 4.018457e-01 -1.451431e-01 -1.298479e-01 -1.916776e-01
<VARIANCE> 25
 1.596601e+01 3.757567e+01 4.233027e+01 7.638556e+01 5.612263e+01 7.899683e+01 9.383418e+01 7.659203e+01 7.467421e+01 6.859536e+01 5.834303e+01 4.458018e+01 8.996375e-01 3.337801e+00 2.666761e+00 5.038105e+00 4.219772e+00 5.014355e+00 5.467871e+00 5.218294e+00 5.185385e+00 5.267877e+00 4.462870e+00 3.626887e+00 2.322714e+00
<GCONST> 1.111420e+02
<STATE> 4
<MEAN> 25
 6.447605e+00 5.706514e+00 -1.745673e+00 -5.504268e+00 -9.175143e-01 2.390801e+00 -5.580134e+00 -5.175085e+00 -4.072572e+00 6.201792e-01 3.056590e+00 9.616201e-01 -5.362823e-01 5.521134e-02 3.002978e-01 1.072230e+00 4.142546e-01 -5.763587e-01 5.493253e-01 5.294415e-01 3.763736e-01 4.076357e-03 -5.087186e-01 1.008165e-02 -9.076866e-01
<VARIANCE> 25
 2.005657e+01 4.183761e+01 5.293141e+01 7.487415e+01 4.728601e+01 5.889257e+01 6.498354e+01 4.759488e+01 5.684979e+01 5.063589e+01 3.908224e+01 3.857909e+01 9.938723e-01 1.713124e+00 2.237277e+00 3.184675e+00 2.815101e+00 3.394681e+00 3.217578e+00 3.102212e+00 3.037821e+00 2.701216e+00 2.841052e+00 2.356546e+00 1.594381e+00
<GCONST> 1.037428e+02
<TRANSP> 5
 0.000000e+00 1.000000e+00 0.000000e+00 0.000000e+00 0.000000e+00
 0.000000e+00 4.621076e-01 5.378924e-01 0.000000e+00 0.000000e+00
 0.000000e+00 0.000000e+00 6.368292e-01 3.631708e-01 0.000000e+00
 0.000000e+00 0.000000e+00 0.000000e+00 7.175374e-01 2.824626e-01
 0.000000e+00 0.000000e+00 0.000000e+00 0.000000e+00 0.000000e+00
<ENDHMM>
~h "w"
<BEGINHMM>
<NUMSTATES> 5
<STATE> 2
<MEAN> 25
 8.883487e+00 3.477506e+00 -5.003547e+00 -1.167793e+01 -3.936430e+00 6.343613e+00 -1.313981e+00 -3.213277e+00 -2.457102e+00 -8.952441e-01 3.674541e+00 5.282900e-01 6.629019e-01 3.879801e-01 -5.782019e-01 -1.492968e+00 -8.167034e-01 8.780490e-01 4.595265e-01 -3.111979e-01 -4.407447e-01 -2.623538e-01 4.977504e-01 7.430508e-01 1.618889e-01
<VARIANCE> 25
 1.709819e+01 5.359469e+01 3.186591e+01 6.352941e+01 5.585929e+01 6.289863e+01 5.262100e+01 5.326680e+01 5.244540e+01 4.705096e+01 4.429402e+01 4.379613e+01 1.353285e+00 2.883151e+00 2.067883e+00 2.691825e+00 3.053635e+00 3.753598e+00 3.691758e+00 3.127527e+00 2.988147e+00 3.330078e+00 3.155453e+00 2.811909e+00 1.931096e+00
<GCONST> 1.049669e+02
<STATE> 3
<MEAN> 25
 8.102232e+00 -1.214843e+00 -7.937138e+00 -1.487396e+01 -1.926259e+00 1.100096e+01 -9.736192e-01 -4.959250e+00 -2.480840e-01 1.344787e+00 4.704059e+00 -2.145776e+00 -5.829251e-01 -1.429584e+00 -2.812832e-01 5.897608e-01 1.212150e+00 7.650790e-02 -2.527222e-01 2.257760e-01 7.784367e-01 5.346703e-01 -4.107438e-01 -1.353149e+00 6.402562e-01
<VARIANCE> 25
 1.551796e+01 3.787333e+01 3.464038e+01 5.591468e+01 5.526679e+01 6.320226e+01 6.756696e+01 4.733902e+01 4.650277e+01 4.265816e+01 4.019690e+01 5.542237e+01 6.299121e-01 2.131941e+00 1.279564e+00 2.780823e+00 2.371929e+00 3.310117e+00 2.965722e+00 3.185194e+00 2.807059e+00 2.835898e+00 3.416883e+00 3.471780e+00 1.339714e+00
<GCONST> 1.021333e+02
<STATE> 4
<MEAN> 25
 -1.684081e+00 -1.386523e+00 -4.494431e+00 -1.195351e+00 3.105499e+00 3.373550e+00 -3.730586e-02 2.051948e+00 2.089041e+00 7.875376e-01 9.029990e-01 5.150707e-01 -1.135303e-01 -6.245390e-02 3.497735e-02 1.763927e-01 4.092733e-02 -1.028695e-01 1.147246e-02 1.344562e-01 5.655419e-02 -3.357477e-02 -1.334769e-01 1.692365e-02 -8.858397e-02
<VARIANCE> 25
 3.666438e+01 3.276610e+01 2.187293e+01 5.170881e+01 4.045171e+01 3.494318e+01 2.923892e+01 2.693355e+01 2.898266e+01 2.297431e+01 2.316977e+01 4.548996e+01 2.234853e-01 4.596047e-01 6.208696e-01 9.323651e-01 9.833388e-01 1.273751e+00 1.242352e+00 1.449367e+00 1.311612e+00 1.351202e+00 1.369549e+00 1.056085e+00 1.789812e-01
<GCONST> 8.466478e+01
<TRANSP> 5
 0.000000e+00 1.000000e+00 0.000000e+00 0.000000e+00 0.000000e+00
 0.000000e+00 7.468192e-01 2.531808e-01 0.000000e+00 0.000000e+00
 0.000000e+00 0.000000e+00 8.040867e-01 1.959132e-01 0.000000e+00
 0.000000e+00 0.000000e+00 0.000000e+00 8.837578e-01 1.162423e-01
 0.000000e+00 0.000000e+00 0.000000e+00 0.000000e+00 0.000000e+00
<ENDHMM>
~h "y"
<BEGINHMM>
<NUMSTATES> 5
<STATE> 2
<MEAN> 25
 1.525536e-01 1.577929e-01 1.041008e+01 -1.467365e+00 -9.472925e+00 -3.291989e+00 -1.471620e+00 1.615870e+00 -3.845794e+00 -9.490716e-01 2.755711e+00 2.932901e-01 -3.059220e-02 -1.493825e-01 1.691073e+00 -7.979643e-01 -1.688015e+00 -3.731467e-01 -2.022955e-01 1.331562e-01 -9.285966e-01 2.122011e-01 1.084961e+00 1.323775e-01 1.044286e+00
<VARIANCE> 25
 3.677879e+01 6.670119e+01 8.245133e+01 5.237397e+01 7.223522e+01 6.461826e+01 8.506257e+01 6.809701e+01 6.683066e+01 4.926056e+01 4.928527e+01 3.918066e+01 2.598076e+00 4.194724e+00 6.303833e+00 3.863152e+00 5.016356e+00 4.763515e+00 5.590495e+00 5.739175e+00 4.746743e+00 3.796990e+00 3.849506e+00 3.033118e+00 3.408972e+00
<GCONST> 1.136995e+02
<STATE> 3
<MEAN> 25
 1.200920e+00 -3.857880e+00 1.254244e+01 -4.917116e+00 -1.429540e+01 -5.648944e+00 -1.374164e+00 3.897163e+00 -4.098639e+00 7.617794e-01 5.735219e+00 -4.564467e-02 2.136427e-01 -1.032392e+00 -1.365869e+00 -5.628162e-02 5.380747e-01 -1.012435e-01 8.228055e-01 1.369674e+00 8.118128e-01 -3.936179e-01 -6.301785e-01 -6.087944e-02 4.552000e-01
<VARIANCE> 25
 9.703313e+00 3.387588e+01 4.881873e+01 3.561264e+01 4.178497e+01 4.979906e+01 6.824712e+01 6.157295e+01 5.094382e+01 5.109938e+01 4.293890e+01 3.062535e+01 4.351656e-01 1.772771e+00 3.613000e+00 1.645551e+00 3.477302e+00 2.049252e+00 2.943868e+00 3.651397e+00 2.849138e+00 2.895146e+00 3.102865e+00 1.553921e+00 5.536686e-01
<GCONST> 9.918658e+01
<STATE> 4
<MEAN> 25
 2.096475e+00 -8.452696e+00 3.549055e+00 -2.983838e+00 -6.946489e+00 -4.435315e+00 1.375455e+00 8.842452e+00 2.980308e-01 -3.015554e+00 -1.291879e-01 -2.569427e-01 2.858513e-01 -3.615862e-01 -1.437921e+00 2.879613e-01 1.567580e+00 6.321719e-01 -2.161240e-01 3.743867e-02 5.596713e-01 -3.733776e-01 -1.107124e+00 -4.367948e-01 -1.112088e-01
<VARIANCE> 25
 1.566894e+01 2.986666e+01 3.821906e+01 2.999074e+01 4.564025e+01 5.337634e+01 6.193022e+01 4.746028e+01 4.659963e+01 4.133956e+01 3.773321e+01 2.740911e+01 3.226374e-01 7.838120e-01 2.042190e+00 1.363684e+00 3.002304e+00 1.835420e+00 2.221760e+00 1.889153e+00 1.891601e+00 2.086900e+00 2.218277e+00 1.570336e+00 2.426003e-01
<GCONST> 9.342372e+01
<TRANSP> 5
 0.000000e+00 1.000000e+00 0.000000e+00 0.000000e+00 0.000000e+00
 0.000000e+00 6.804419e-01 3.195582e-01 0.000000e+00 0.000000e+00
 0.000000e+00 0.000000e+00 7.390212e-01 2.609788e-01 0.000000e+00
 0.000000e+00 0.000000e+00 0.000000e+00 6.409703e-01 3.590297e-01
 0.000000e+00 0.000000e+00 0.000000e+00 0.000000e+00 0.000000e+00
<ENDHMM>
~h "z"
<BEGINHMM>
<NUMSTATES> 5
<STATE> 2
<MEAN> 25
 -6.788981e+00 1.923861e-01 -1.312361e+00 2.593378e+00 3.982039e+00 2.397715e+00 1.028723e+00 1.777195e+00 1.106085e+00 1.667427e+00 2.388906e+00 3.730154e+00 -5.169889e-02 -3.073336e-02 -3.926950e-03 -1.561873e-02 2.904474e-03 1.724636e-02 -1.372514e-03 -1.744504e-02 -1.270951e-02 -7.580335e-03 -1.483369e-02 -1.968620e-02 -1.606655e-02
<VARIANCE> 25
 3.565231e+00 1.316556e+01 8.913877e+00 8.453822e+00 9.243488e+00 1.856134e+01 2.300172e+01 1.452805e+01 1.763515e+01 1.256109e+01 2.090109e+01 9.162408e+00 2.347046e-01 3.969352e-01 6.768860e-01 7.132827e-01 7.781714e-01 1.120829e+00 1.339127e+00 1.147256e+00 1.419159e+00 1.413204e+00 1.591399e+00 1.156351e+00 1.431484e-01
<GCONST> 7.228311e+01
<STATE> 3
<MEAN> 25
 -1.809814e+00 5.509126e+00 2.832112e-01 3.514665e+00 1.534617e+00 -2.975296e+00 1.364173e+00 -1.704445e+00 -1.860782e+00 -1.790506e+00 -4.927257e-01 6.868854e-01 1.675976e+00 -4.091000e-01 1.260011e-01 3.308067e-01 -8.238163e-01 -1.222966e+00 8.736932e-02 -8.361612e-02 7.629133e-02 -2.739460e-01 -6.252801e-01 -3.657964e-01 1.647713e+00
<VARIANCE> 25
 5.348042e+01 7.858740e+01 1.839443e+01 2.090339e+01 1.009986e+01 6.782227e+01 2.482962e+01 3.591862e+01 3.110710e+01 1.418183e+01 9.911289e+00 1.341226e+01 1.099813e+00 3.409542e+00 2.213930e+00 2.193597e+00 1.042219e+00 3.139644e+00 2.598681e+00 1.193600e+00 4.053275e+00 1.739806e+00 1.197149e+00 1.928309e+00 1.528409e+01
<GCONST> 9.528053e+01
<STATE> 4
<MEAN> 25
 -5.329601e-01 8.245184e+00 5.393538e+00 6.418580e+00 -4.025398e+00 -9.188358e+00 3.943611e+00 -6.155373e+00 -3.384897e+00 -1.724354e+00 -1.948469e+00 1.392876e+00 6.882901e-01 -8.021010e-01 1.393150e+00 1.093067e-01 -1.988597e+00 1.202531e-01 2.247423e-01 -9.540798e-01 -3.589717e-01 2.844587e-01 1.023740e-01 -1.463609e-01 8.872355e-02
<VARIANCE> 25
 5.284264e+01 5.223197e+01 3.060222e+01 1.386152e+01 2.651197e+01 3.363831e+01 3.464093e+01 4.215034e+01 3.637265e+01 9.446963e+00 9.086530e+00 1.019558e+01 3.783251e+00 4.140431e+00 3.813024e+00 3.177661e+00 6.752345e+00 1.699707e+00 2.781933e+00 1.526830e+00 2.599173e+00 6.563974e-01 1.263371e+00 2.435028e+00 3.063383e+00
<GCONST> 9.627805e+01
<TRANSP> 5
 0.000000e+00 1.000000e+00 0.000000e+00 0.000000e+00 0.000000e+00
 0.000000e+00 9.717318e-01 2.826810e-02 0.000000e+00 0.000000e+00
 0.000000e+00 0.000000e+00 6.323740e-01 3.676260e-01 0.000000e+00
 0.000000e+00 0.000000e+00 0.000000e+00 7.404029e-01 2.595971e-01
 0.000000e+00 0.000000e+00 0.000000e+00 0.000000e+00 0.000000e+00
<ENDHMM>
~h "aw"
<BEGINHMM>
<NUMSTATES> 5
<STATE> 2
<MEAN> 25
 6.375875e+00 -3.894115e+00 -7.354298e+00 -1.112333e+01 -6.951891e-01 5.236196e+00 1.563501e+00 -2.328689e+00 3.608567e+00 1.529213e+00 1.550096e+00 -5.767152e+00 5.403152e-01 7.353358e-01 -3.616247e-01 -6.802825e-01 -6.565563e-02 1.123818e+00 2.596790e-01 -6.225747e-01 -8.493069e-01 1.467402e-01 3.778243e-01 7.040544e-01 -8.885015e-01
<VARIANCE> 25
 2.435690e+01 4.301262e+01 2.461545e+01 4.363747e+01 3.209026e+01 7.824586e+01 3.726511e+01 5.250478e+01 6.310057e+01 5.222794e+01 6.533186e+01 4.576526e+01 1.247659e+00 1.474797e+00 1.951306e+00 2.912179e+00 2.751067e+00 4.091410e+00 2.096331e+00 4.081794e+00 2.852993e+00 3.187659e+00 3.163614e+00 4.538967e+00 1.058473e+00
<GCONST> 1.032349e+02
<STATE> 3
<MEAN> 25
 8.184364e+00 3.193130e+00 -6.430487e+00 -1.231689e+01 -2.668877e+00 2.694419e+00 4.054388e+00 -3.747348e-01 -3.621385e+00 1.826789e-01 -1.261381e-01 -8.157930e-01 -1.505794e-01 3.506336e-01 3.568821e-01 4.251202e-01 -1.269797e-01 -1.174855e-01 -1.764653e-01 2.033149e-01 -8.356343e-02 -1.607717e-01 -1.463287e-01 1.439008e-01 -6.361988e-01
<VARIANCE> 25
 2.004607e+01 3.026361e+01 3.091831e+01 7.117923e+01 5.038890e+01 6.712063e+01 4.813318e+01 3.006703e+01 2.589849e+01 5.010525e+01 3.214495e+01 2.758809e+01 7.111185e-01 8.746264e-01 1.030678e+00 1.408934e+00 1.447159e+00 1.527837e+00 1.964532e+00 1.382195e+00 1.222432e+00 1.921471e+00 1.400149e+00 1.352303e+00 3.827456e-01
<GCONST> 9.163354e+01
<STATE> 4
<MEAN> 25
 -3.329564e+00 1.532449e+00 -2.893570e+00 2.966438e+00 1.340132e+00 3.530297e+00 6.174257e-01 4.258582e+00 2.352620e+00 1.583923e+00 2.731193e+00 4.202728e+00 -8.302139e-02 -2.905198e-02 4.282342e-03 1.029036e-01 1.486576e-02 1.553035e-02 -2.364232e-02 7.427167e-03 2.274812e-02 1.504403e-02 6.119882e-02 3.978836e-02 -8.763358e-02
<VARIANCE> 25
 2.184065e+01 1.371988e+01 1.734852e+01 2.703915e+01 2.276633e+01 2.445368e+01 2.030503e+01 1.745271e+01 2.102321e+01 2.426242e+01 1.970842e+01 1.650705e+01 2.768372e-01 4.449615e-01 5.657607e-01 7.787052e-01 1.029469e+00 1.194345e+00 1.208815e+00 1.166953e+00 1.305490e+00 1.328664e+00 1.259655e+00 1.086608e+00 1.144568e-01
<GCONST> 7.834613e+01
<TRANSP> 5
 0.000000e+00 1.000000e+00 0.000000e+00 0.000000e+00 0.000000e+00
 0.000000e+00 7.777447e-01 2.222553e-01 0.000000e+00 0.000000e+00
 0.000000e+00 0.000000e+00 8.801182e-01 1.198818e-01 0.000000e+00
 0.000000e+00 0.000000e+00 0.000000e+00 9.304212e-01 6.957876e-02
 0.000000e+00 0.000000e+00 0.000000e+00 0.000000e+00 0.000000e+00
<ENDHMM>
~h "ay"
<BEGINHMM>
<NUMSTATES> 5
<STATE> 2
<MEAN> 25
 3.141284e+00 -8.535874e+00 2.657651e+00 -4.197299e+00 -7.589319e+00 -6.649440e+00 2.329391e+00 7.726712e+00 9.155428e-01 -1.645204e+00 -3.390090e-02 -2.127293e+00 -2.905046e-01 3.576894e-01 1.605772e+00 1.889781e-01 -1.398744e+00 -6.251432e-01 2.214305e-01 -1.512775e-01 -1.004249e+00 2.376856e-01 8.191054e-01 5.560757e-01 -1.791476e-01
<VARIANCE> 25
 8.984706e+00 2.416616e+01 6.073319e+01 2.999248e+01 5.787314e+01 4.748007e+01 5.779720e+01 4.092886e+01 4.589096e+01 3.875582e+01 4.776852e+01 2.791483e+01 4.354624e-01 1.248309e+00 2.569000e+00 1.340678e+00 2.775348e+00 2.375436e+00 2.464699e+00 4.069169e+00 2.483936e+00 3.137776e+00 2.861388e+00 1.965788e+00 3.777985e-01
<GCONST> 9.682702e+01
<STATE> 3
<MEAN> 25
 1.578152e+00 -2.894957e-01 1.111558e+01 -5.005996e-01 -1.213245e+01 -6.637203e+00 4.536827e-01 -1.315852e+00 -3.992894e+00 1.875617e+00 2.699445e+00 -1.237343e-01 -4.433884e-02 9.096863e-01 -4.075194e-01 8.800290e-01 7.612789e-01 6.520460e-01 2.323963e-02 -3.552216e-01 1.769682e-01 4.878095e-02 -3.868174e-01 1.856816e-01 -1.625358e+00
<VARIANCE> 25
 1.122150e+01 2.777172e+01 4.730708e+01 4.225742e+01 4.384599e+01 4.447944e+01 4.565040e+01 5.196082e+01 4.311265e+01 4.215756e+01 3.863166e+01 2.587474e+01 7.869503e-01 1.533375e+00 3.338844e+00 2.367834e+00 2.869145e+00 2.884226e+00 3.034823e+00 4.255928e+00 3.256197e+00 2.517770e+00 2.633772e+00 1.965790e+00 1.477758e+00
<GCONST> 1.001150e+02
<STATE> 4
<MEAN> 25
 -3.173007e+00 1.371885e+00 2.608709e+00 2.918419e+00 -1.905962e+00 4.356625e-01 3.304805e+00 1.816589e+00 -5.500817e-01 6.308135e-01 2.312100e+00 2.164396e+00 -1.801165e-01 8.941344e-02 -3.724115e-01 1.315494e-01 4.325730e-01 2.582734e-01 9.592063e-03 1.077148e-01 9.218875e-02 -6.319284e-02 -6.624793e-02 7.160693e-02 -4.616504e-01
<VARIANCE> 25
 1.999266e+01 1.791204e+01 4.657285e+01 2.303789e+01 4.255062e+01 3.962890e+01 3.693628e+01 3.349594e+01 3.476601e+01 3.716547e+01 3.044124e+01 2.422634e+01 4.862567e-01 8.870732e-01 1.481986e+00 1.233752e+00 1.721541e+00 1.739350e+00 1.633791e+00 2.163682e+00 1.837284e+00 2.080065e+00 1.659377e+00 1.578555e+00 6.551854e-01
<GCONST> 9.112690e+01
<TRANSP> 5
 0.000000e+00 1.000000e+00 0.000000e+00 0.000000e+00 0.000000e+00
 0.000000e+00 8.207788e-01 1.792212e-01 0.000000e+00 0.000000e+00
 0.000000e+00 0.000000e+00 8.260106e-01 1.739894e-01 0.000000e+00
 0.000000e+00 0.000000e+00 0.000000e+00 8.224223e-01 1.775777e-01
 0.000000e+00 0.000000e+00 0.000000e+00 0.000000e+00 0.000000e+00
<ENDHMM>
~h "kh"
<BEGINHMM>
<NUMSTATES> 5
<STATE> 2
<MEAN> 25
 2.247277e+00 -2.896228e+00 -9.235130e+00 -3.213475e+00 3.488499e+00 3.053883e+00 1.078705e+00 7.642217e-01 -3.831525e-01 2.412247e+00 1.615527e+00 -5.312441e+00 -2.499760e-01 1.752719e-01 -6.140991e-01 -1.016398e+00 -2.440383e-01 6.601443e-01 1.023657e-01 -5.031502e-02 -6.879641e-01 7.075335e-02 -2.700298e-02 1.029829e-01 -7.075316e-02
<VARIANCE> 25
 4.757565e+01 1.382036e+01 4.685792e+01 5.635582e+01 3.835454e+01 1.655819e+01 2.736824e+01 2.974545e+01 4.663559e+01 1.656764e+01 1.385463e+01 7.331684e+01 3.828015e+00 1.077878e+00 4.673855e+00 3.510778e+00 3.286790e+00 2.692004e+00 1.865814e+00 3.505145e+00 5.576355e+00 2.246724e+00 1.970964e+00 4.165812e+00 6.351274e+00
<GCONST> 1.017986e+02
<STATE> 3
<MEAN> 25
 -2.108505e+00 7.352525e-01 -6.772872e+00 -4.667224e+00 -5.958197e-02 6.574291e+00 5.525223e+00 -1.132918e+00 -1.050745e+00 1.967597e-01 2.332802e+00 4.565395e-01 2.244478e-02 2.370523e-01 1.418483e+00 -1.293624e+00 -1.687400e+00 -4.950809e-01 -3.848295e-01 -1.491714e+00 -8.648653e-01 -9.433435e-02 1.037213e-01 1.090789e+00 1.993972e+00
<VARIANCE> 25
 5.605953e+01 2.440767e+01 1.029641e+02 7.548581e+01 6.400403e+01 7.287707e+01 5.185299e+01 6.779012e+01 6.069231e+01 3.271012e+01 3.289567e+01 7.814715e+01 7.954154e+00 2.632766e+00 1.067880e+01 8.568085e+00 5.959245e+00 1.127429e+01 4.097747e+00 1.023543e+01 6.878877e+00 4.838488e+00 3.942869e+00 5.769757e+00 1.903079e+00
<GCONST> 1.169594e+02
<STATE> 4
<MEAN> 25
 -8.879193e+00 1.379290e+00 2.579570e+00 -1.485575e+00 -3.682447e+00 9.543393e-01 -7.705989e+00 -4.782983e+00 5.992004e+00 -2.719741e+00 8.315824e-01 7.776353e+00 3.169136e-01 3.060529e-01 6.534564e-01 -1.349205e-01 -3.163669e-01 -2.060682e-01 -6.189687e-01 -6.183099e-01 -3.846636e-01 3.854099e-01 5.958951e-02 6.637149e-02 -1.756709e-01
<VARIANCE> 25
 9.781221e+01 1.116072e+01 3.990711e+01 3.078729e+01 4.423140e+01 3.001517e+01 8.322361e+01 6.906110e+01 5.770378e+01 2.950686e+01 1.997682e+01 5.688063e+01 5.688495e+00 1.796476e+00 4.377139e+00 1.860608e+00 3.119363e+00 4.453252e+00 3.024434e+00 7.007439e+00 3.206382e+00 2.404448e+00 2.475827e+00 4.002195e+00 1.729684e+00
<GCONST> 1.053695e+02
<TRANSP> 5
 0.000000e+00 1.000000e+00 0.000000e+00 0.000000e+00 0.000000e+00
 0.000000e+00 7.480786e-01 2.519214e-01 0.000000e+00 0.000000e+00
 0.000000e+00 0.000000e+00 5.988334e-01 4.011666e-01 0.000000e+00
 0.000000e+00 0.000000e+00 0.000000e+00 7.368876e-01 2.631124e-01
 0.000000e+00 0.000000e+00 0.000000e+00 0.000000e+00 0.000000e+00
<ENDHMM>
~h "ng"
<BEGINHMM>
<NUMSTATES> 5
<STATE> 2
<MEAN> 25
 7.020389e+00 -7.742897e-01 1.172886e+00 -7.438860e-01 -2.137348e+00 5.923561e+00 -9.198671e-01 -3.176130e+00 -5.753460e-02 1.248522e+00 -8.249584e-01 -1.460695e+00 2.738175e-01 1.028144e+00 5.852169e-01 7.415704e-01 -5.953951e-01 1.442868e-01 6.334733e-01 -9.913050e-01 -3.803474e-01 3.272223e-01 -4.455422e-01 4.991712e-01 -1.059374e+00
<VARIANCE> 25
 1.311434e+01 3.924199e+01 5.118808e+01 4.102554e+01 5.741954e+01 7.269985e+01 5.595944e+01 5.091643e+01 5.566566e+01 4.517059e+01 4.327299e+01 4.159595e+01 4.768565e-01 1.618813e+00 2.779262e+00 2.456532e+00 3.354442e+00 3.470452e+00 4.109134e+00 3.846977e+00 3.451771e+00 3.125779e+00 2.861923e+00 2.545047e+00 5.862085e-01
<GCONST> 1.021643e+02
<STATE> 3
<MEAN> 25
 6.738369e+00 2.507790e+00 2.136694e+00 -5.499557e-01 -2.943750e+00 3.981594e+00 -1.242210e-01 -4.751419e+00 -1.149851e+00 1.073671e+00 -2.333713e+00 -1.592767e+00 -9.870404e-03 5.176655e-01 1.297830e-01 3.278857e-01 -2.755856e-02 -7.059757e-02 1.582854e-01 -1.874986e-01 -1.350072e-01 2.215507e-02 -1.383148e-01 9.438793e-02 -4.751344e-01
<VARIANCE> 25
 1.054176e+01 3.397757e+01 4.475047e+01 4.231411e+01 5.079979e+01 5.479474e+01 4.338916e+01 4.383929e+01 4.625486e+01 4.303033e+01 3.881364e+01 3.910731e+01 2.515624e-01 8.183005e-01 9.549561e-01 1.087135e+00 1.352711e+00 1.472424e+00 1.607329e+00 1.685734e+00 1.651736e+00 1.534289e+00 1.475171e+00 1.263803e+00 3.693784e-01
<GCONST> 9.047708e+01
<STATE> 4
<MEAN> 25
 1.116415e+00 4.088495e+00 1.207673e+00 3.301296e+00 1.658979e+00 3.452296e+00 2.492310e+00 -1.430149e+00 -3.810937e-01 5.068856e-01 -5.190469e-01 1.216954e+00 -5.044193e-01 2.183575e-02 -2.524310e-01 1.028868e-01 4.905819e-01 -1.754962e-01 5.615512e-02 3.884154e-01 9.407277e-02 -9.309629e-02 2.062018e-01 9.403654e-02 -3.031995e-01
<VARIANCE> 25
 4.406261e+01 3.570945e+01 3.835527e+01 3.502805e+01 5.507215e+01 4.640516e+01 3.934428e+01 4.902779e+01 4.273195e+01 3.858651e+01 3.983981e+01 3.396701e+01 8.806569e-01 1.592683e+00 1.679597e+00 1.830662e+00 2.750439e+00 2.596472e+00 2.463477e+00 2.889716e+00 2.648660e+00 2.429798e+00 2.147727e+00 2.022810e+00 9.750103e-01
<GCONST> 9.923555e+01
<TRANSP> 5
 0.000000e+00 1.000000e+00 0.000000e+00 0.000000e+00 0.000000e+00
 0.000000e+00 4.788377e-01 5.211623e-01 0.000000e+00 0.000000e+00
 0.000000e+00 0.000000e+00 6.786983e-01 3.213017e-01 0.000000e+00
 0.000000e+00 0.000000e+00 0.000000e+00 6.864059e-01 3.135941e-01
 0.000000e+00 0.000000e+00 0.000000e+00 0.000000e+00 0.000000e+00
<ENDHMM>
~h "ny"
<BEGINHMM>
<NUMSTATES> 5
<STATE> 2
<MEAN> 25
 2.667307e+00 2.168116e+00 1.061131e+01 -2.748384e+00 -7.959143e+00 5.675429e-01 -8.068266e-01 2.652374e-01 -4.436824e+00 -1.132240e+00 2.737016e+00 -7.697362e-01 -5.151799e-01 -1.247883e+00 7.578261e-01 -8.771815e-01 -1.167163e+00 5.544948e-01 5.442278e-01 8.868924e-01 -3.921426e-01 -3.123514e-01 4.683063e-01 -1.030158e-01 1.167604e+00
<VARIANCE> 25
 1.920170e+01 4.332931e+01 4.758583e+01 6.241730e+01 5.667762e+01 6.574996e+01 5.385337e+01 4.955827e+01 4.531362e+01 4.685315e+01 4.395016e+01 4.794412e+01 1.534742e+00 3.982074e+00 4.354070e+00 5.394260e+00 4.832148e+00 4.938492e+00 4.597204e+00 4.770060e+00 3.758315e+00 3.925645e+00 3.627049e+00 2.728190e+00 1.612489e+00
<GCONST> 1.087816e+02
<STATE> 3
<MEAN> 25
 2.872967e+00 -8.478773e+00 5.604660e+00 -1.552916e+00 -5.897192e+00 1.269646e+00 -6.514611e-02 7.546021e+00 -2.857174e+00 -7.048088e+00 -1.395866e+00 5.712996e-01 1.311211e-01 -3.780971e-01 -1.124350e+00 6.772181e-01 1.094935e+00 -1.435143e-01 -2.126513e-01 2.751874e-01 5.358050e-01 -4.598469e-01 -8.112233e-01 2.144450e-01 -3.470460e-01
<VARIANCE> 25
 1.137238e+01 3.206638e+01 4.273392e+01 4.801888e+01 5.607175e+01 4.554367e+01 6.659139e+01 4.923984e+01 4.879331e+01 5.363681e+01 4.992066e+01 4.097336e+01 4.776950e-01 1.724902e+00 1.507600e+00 1.643149e+00 2.109224e+00 1.725408e+00 2.144881e+00 2.182960e+00 1.907476e+00 2.099641e+00 1.858653e+00 1.613285e+00 1.044880e+00
<GCONST> 9.698494e+01
<STATE> 4
<MEAN> 25
 -3.724408e+00 -3.475328e-01 -1.430959e+00 3.738086e+00 2.892665e+00 2.674055e+00 1.639587e+00 4.346258e+00 1.487197e+00 -1.018674e+00 6.359331e-01 3.767451e+00 -6.200957e-02 5.144259e-02 -1.364747e-01 1.941958e-02 9.703333e-02 1.747059e-02 -2.758628e-02 -5.950374e-02 5.804551e-02 9.481657e-02 2.939086e-02 -3.160627e-02 -2.143062e-01
<VARIANCE> 25
 2.318373e+01 2.515779e+01 2.444215e+01 2.591315e+01 3.500021e+01 3.315088e+01 2.957517e+01 2.872818e+01 2.959867e+01 3.396209e+01 2.805759e+01 2.300013e+01 3.093738e-01 5.939220e-01 8.554873e-01 9.360682e-01 1.318002e+00 1.459528e+00 1.463889e+00 1.559204e+00 1.657253e+00 1.575218e+00 1.486936e+00 1.382747e+00 3.116288e-01
<GCONST> 8.602811e+01
<TRANSP> 5
 0.000000e+00 1.000000e+00 0.000000e+00 0.000000e+00 0.000000e+00
 0.000000e+00 8.208812e-01 1.791188e-01 0.000000e+00 0.000000e+00
 0.000000e+00 0.000000e+00 8.428188e-01 1.571812e-01 0.000000e+00
 0.000000e+00 0.000000e+00 0.000000e+00 9.107785e-01 8.922160e-02
 0.000000e+00 0.000000e+00 0.000000e+00 0.000000e+00 0.000000e+00
<ENDHMM>
~h "oy"
<BEGINHMM>
<NUMSTATES> 5
<STATE> 2
<MEAN> 25
 -1.266016e-08 6.085643e-09 4.721265e-09 -8.308485e-09 -1.463621e-08 1.307279e-08 -2.750496e-09 -6.683219e-09 -1.380889e-08 -3.351599e-09 1.415116e-08 1.473669e-08 2.548279e-03 -7.284069e-04 1.966011e-03 3.249686e-04 1.698112e-03 -2.328777e-04 5.264792e-04 -2.476147e-04 -7.184849e-04 7.200883e-04 -1.639929e-03 -3.923504e-04 6.718315e-03
<VARIANCE> 25
 6.369320e+01 5.437875e+01 8.050616e+01 5.826715e+01 7.171889e+01 6.936944e+01 6.105562e+01 6.027967e+01 5.528890e+01 4.166891e+01 4.685504e+01 3.910781e+01 2.633578e+00 2.804667e+00 3.170903e+00 3.349051e+00 3.834462e+00 3.765719e+00 3.684584e+00 3.809613e+00 3.444291e+00 2.975416e+00 3.042777e+00 2.563504e+00 3.096067e+00
<GCONST> 1.097144e+02
<STATE> 3
<MEAN> 25
 -1.266016e-08 6.085643e-09 4.721265e-09 -8.308485e-09 -1.463621e-08 1.307279e-08 -2.750496e-09 -6.683219e-09 -1.380889e-08 -3.351599e-09 1.415116e-08 1.473669e-08 2.548279e-03 -7.284069e-04 1.966011e-03 3.249686e-04 1.698112e-03 -2.328777e-04 5.264792e-04 -2.476147e-04 -7.184849e-04 7.200883e-04 -1.639929e-03 -3.923504e-04 6.718315e-03
<VARIANCE> 25
 6.369320e+01 5.437875e+01 8.050616e+01 5.826715e+01 7.171889e+01 6.936944e+01 6.105562e+01 6.027967e+01 5.528890e+01 4.166891e+01 4.685504e+01 3.910781e+01 2.633578e+00 2.804667e+00 3.170903e+00 3.349051e+00 3.834462e+00 3.765719e+00 3.684584e+00 3.809613e+00 3.444291e+00 2.975416e+00 3.042777e+00 2.563504e+00 3.096067e+00
<GCONST> 1.097144e+02
<STATE> 4
<MEAN> 25
 -1.266016e-08 6.085643e-09 4.721265e-09 -8.308485e-09 -1.463621e-08 1.307279e-08 -2.750496e-09 -6.683219e-09 -1.380889e-08 -3.351599e-09 1.415116e-08 1.473669e-08 2.548279e-03 -7.284069e-04 1.966011e-03 3.249686e-04 1.698112e-03 -2.328777e-04 5.264792e-04 -2.476147e-04 -7.184849e-04 7.200883e-04 -1.639929e-03 -3.923504e-04 6.718315e-03
<VARIANCE> 25
 6.369320e+01 5.437875e+01 8.050616e+01 5.826715e+01 7.171889e+01 6.936944e+01 6.105562e+01 6.027967e+01 5.528890e+01 4.166891e+01 4.685504e+01 3.910781e+01 2.633578e+00 2.804667e+00 3.170903e+00 3.349051e+00 3.834462e+00 3.765719e+00 3.684584e+00 3.809613e+00 3.444291e+00 2.975416e+00 3.042777e+00 2.563504e+00 3.096067e+00
<GCONST> 1.097144e+02
<TRANSP> 5
 0.000000e+00 1.000000e+00 0.000000e+00 0.000000e+00 0.000000e+00
 0.000000e+00 6.000000e-01 4.000000e-01 0.000000e+00 0.000000e+00
 0.000000e+00 0.000000e+00 6.000000e-01 4.000000e-01 0.000000e+00
 0.000000e+00 0.000000e+00 0.000000e+00 7.000000e-01 3.000000e-01
 0.000000e+00 0.000000e+00 0.000000e+00 0.000000e+00 0.000000e+00
<ENDHMM>
~h "sp"
<BEGINHMM>
<NUMSTATES> 3
<STATE> 2
~s "silst"
<TRANSP> 3
 0.000000e+00 7.000000e-01 3.000000e-01
 0.000000e+00 9.000000e-01 9.999999e-02
 0.000000e+00 0.000000e+00 0.000000e+00
<ENDHMM>
~h "sy"
<BEGINHMM>
<NUMSTATES> 5
<STATE> 2
<MEAN> 25
 -3.864994e+00 4.329607e+00 -4.674789e+00 1.075184e+00 2.682054e+00 -1.040477e+01 7.009532e-01 8.700396e+00 6.133893e+00 6.117505e+00 8.671783e-01 1.466212e+00 -3.513075e+00 -9.556565e-01 3.069957e+00 -8.712501e-01 1.261522e+00 3.819635e-01 7.555336e-01 5.727171e-01 2.099757e+00 8.373220e-01 5.192621e-01 5.769627e-01 1.802443e+00
<VARIANCE> 25
 1.798449e+00 2.985606e+01 1.491527e+00 2.219676e+01 1.702248e+01 6.319662e+00 3.385344e+01 4.928603e+00 4.774943e+01 7.741830e+00 7.220760e+00 4.375289e+00 2.084794e+00 8.635036e+00 1.703431e+00 1.023115e+01 3.731802e+00 5.122449e+00 2.493507e-01 4.015855e-01 2.583396e+00 1.793429e-01 1.103699e+00 1.597561e+00 2.600842e+00
<GCONST> 7.974234e+01
<STATE> 3
<MEAN> 25
 -1.277920e+01 1.958126e+00 3.447124e+00 1.404553e+00 4.238626e+00 -6.821426e+00 6.153402e+00 6.628679e+00 5.363332e+00 5.030991e+00 8.062243e+00 2.225816e+00 -3.920892e+00 -2.108741e-01 3.162892e+00 -5.596979e-01 6.557056e-01 7.883512e-01 2.065957e+00 -4.350725e-01 -3.591944e-01 -1.485130e-01 1.463764e+00 2.053779e-01 1.357013e+00
<VARIANCE> 25
 1.811826e+01 6.117162e+01 1.795552e+01 8.313449e+01 4.762844e+01 2.580234e+01 7.118221e+01 3.277564e+01 1.913671e+01 8.974051e+00 2.088234e+01 1.235982e+01 2.225932e+00 1.688902e+00 2.316108e+00 5.855999e+00 1.514271e+01 1.840001e+00 4.122094e+00 3.911824e+00 6.106263e+00 1.826343e+00 3.017235e+00 2.622830e+00 8.782637e-01
<GCONST> 1.002237e+02
<STATE> 4
<MEAN> 25
 -1.837147e+01 -1.739289e+00 8.693903e+00 5.422648e-01 -1.628446e+00 -5.075255e+00 9.646115e+00 6.900133e-01 1.941076e+00 1.862363e+00 6.246130e+00 1.551133e+00 2.012614e+00 -1.040028e+00 -3.148849e-01 9.023923e-02 -1.383205e+00 -4.207181e-01 -8.867104e-01 -1.331829e-01 -5.965753e-01 -6.380188e-01 -4.867311e-01 -2.045289e-01 5.128701e-01
<VARIANCE> 25
 1.140990e+02 2.716175e+01 1.212295e+01 1.604561e+02 1.046411e+02 1.882292e+01 9.269225e+01 4.863824e+01 2.511998e+01 2.554135e+01 2.485028e+01 1.192216e+01 1.204839e+01 2.820699e+00 1.409828e+00 3.286299e+00 3.140722e+00 1.612744e+00 1.578284e+00 5.069124e+00 2.737761e+00 2.663934e+00 3.252106e+00 1.696356e+00 1.487107e+00
<GCONST> 1.025661e+02
<TRANSP> 5
 0.000000e+00 1.000000e+00 0.000000e+00 0.000000e+00 0.000000e+00
 0.000000e+00 1.782531e-10 1.000000e+00 0.000000e+00 0.000000e+00
 0.000000e+00 0.000000e+00 6.569545e-01 3.430455e-01 0.000000e+00
 0.000000e+00 0.000000e+00 0.000000e+00 8.977826e-01 1.022174e-01
 0.000000e+00 0.000000e+00 0.000000e+00 0.000000e+00 0.000000e+00
<ENDHMM>
~h "sil"
<BEGINHMM>
<NUMSTATES> 5
<STATE> 2
<MEAN> 25
 -5.765376e+00 1.868915e-01 -3.878970e+00 1.694556e+00 2.630603e+00 1.018420e+00 3.105155e+00 1.734222e+00 -9.610125e-01 -8.343950e-02 -4.358686e-01 2.524420e+00 -1.479958e-02 -5.454805e-04 -1.706191e-02 -1.819829e-03 -6.317373e-03 2.027451e-03 -7.329439e-03 -2.512294e-03 -8.714110e-03 -1.013389e-03 6.195273e-03 -5.577742e-04 -3.576114e-02
<VARIANCE> 25
 2.137074e+01 1.705457e+01 1.727177e+01 2.426097e+01 2.287333e+01 3.155019e+01 2.622332e+01 2.377220e+01 3.089727e+01 2.074658e+01 2.356360e+01 1.459816e+01 1.485940e-01 2.879832e-01 4.710405e-01 6.801647e-01 8.904620e-01 1.100724e+00 1.244307e+00 1.337812e+00 1.373360e+00 1.349434e+00 1.286206e+00 1.159302e+00 7.786622e-02
<GCONST> 7.786732e+01
<STATE> 3
~s "silst"
<STATE> 4
<MEAN> 25
 -6.006235e+00 -9.669662e-01 -1.291646e+00 1.200517e+00 3.900051e+00 1.374800e+00 2.256308e+00 4.027411e-02 9.476267e-01 -1.440494e+00 -1.067564e+00 2.308366e+00 -5.623115e-02 1.706411e-02 7.593325e-03 6.544601e-03 5.955487e-02 1.781050e-02 -4.406961e-03 -2.157688e-03 -3.364263e-02 1.870485e-02 2.456049e-03 -1.961459e-04 -5.105360e-02
<VARIANCE> 25
 3.172749e+01 3.619237e+01 4.851992e+01 4.605301e+01 4.704861e+01 6.997061e+01 5.937787e+01 4.890088e+01 4.661177e+01 3.477110e+01 3.492518e+01 3.409900e+01 8.518109e-01 1.188792e+00 1.743631e+00 2.171118e+00 2.516027e+00 2.936199e+00 3.005901e+00 3.148479e+00 3.039197e+00 2.784703e+00 2.525141e+00 2.210514e+00 7.328039e-01
<GCONST> 1.003863e+02
<TRANSP> 5
 0.000000e+00 1.000000e+00 0.000000e+00 0.000000e+00 0.000000e+00
 0.000000e+00 9.364765e-01 1.337051e-02 5.015304e-02 0.000000e+00
 0.000000e+00 0.000000e+00 8.865663e-01 1.134336e-01 0.000000e+00
 0.000000e+00 9.413172e-02 0.000000e+00 8.080182e-01 9.785009e-02
 0.000000e+00 0.000000e+00 0.000000e+00 0.000000e+00 0.000000e+00
<ENDHMM>
