~o
<STREAMINFO> 1 25
<VECSIZE> 25<NULLD><MFCC_D_N_Z_0><DIAGC>
~s "silst"
<MEAN> 25
 -5.546635e+00 4.411945e+00 -1.994876e-01 5.968570e+00 5.293982e+00 2.979053e+00 3.631025e+00 1.559871e+00 1.311457e+00 -1.425358e+00 1.133878e+00 3.606972e+00 -1.823671e-01 5.794143e-02 4.256219e-02 1.098175e-01 8.195895e-02 4.310542e-02 4.148971e-02 3.285395e-02 -1.196598e-02 -1.335284e-02 5.677807e-02 2.217921e-02 -2.808062e-01
<VARIANCE> 25
 7.088628e+01 4.210360e+01 3.857830e+01 3.320572e+01 4.115697e+01 5.436456e+01 3.809375e+01 3.928847e+01 3.820073e+01 3.129508e+01 4.038881e+01 2.671058e+01 6.892264e-01 1.042569e+00 1.147308e+00 1.362067e+00 1.682225e+00 1.918782e+00 1.922963e+00 2.096889e+00 2.027923e+00 1.895144e+00 1.786316e+00 1.579820e+00 5.127547e-01
<GCONST> 9.459544e+01
~h "'"
<BEGINHMM>
<NUMSTATES> 5
<STATE> 2
<MEAN> 25
 3.806050e+00 -6.134371e+00 -4.825115e+00 -9.050227e+00 5.003741e-01 1.595896e+00 -3.305038e-01 2.339181e+00 4.015348e+00 3.560506e+00 -3.818186e+00 -5.520200e+00 -9.754790e-02 -1.021131e+00 -8.937800e-02 -2.071901e-01 5.820633e-01 9.733176e-01 1.705917e-01 2.437440e-01 -2.700936e-01 -9.281627e-01 -7.585994e-01 2.327339e-01 6.685205e-01
<VARIANCE> 25
 1.704978e+01 3.543824e+01 2.285122e+01 3.990720e+01 4.698975e+01 8.657321e+01 5.773514e+01 3.128687e+01 3.468849e+01 3.564541e+01 3.645327e+01 4.000458e+01 1.461781e+00 1.974241e+00 2.240508e+00 1.797923e+00 2.130949e+00 2.382426e+00 2.619814e+00 2.792978e+00 2.697577e+00 2.384147e+00 2.016164e+00 2.255136e+00 1.726831e+00
<GCONST> 9.937141e+01
<STATE> 3
<MEAN> 25
 2.940805e+00 -1.020130e+01 -1.910798e+00 -9.505538e+00 3.705653e+00 3.650669e+00 4.120241e-01 3.314054e+00 1.496422e+00 1.065637e+00 -6.563397e+00 -1.346055e+00 -5.105186e-02 3.357260e-02 9.928336e-02 3.206573e-01 -3.015696e-02 -1.322480e-01 -1.142633e-01 -1.873290e-02 1.440252e-01 -9.808806e-02 -4.812818e-02 3.037422e-01 -4.250629e-02
<VARIANCE> 25
 7.057903e+00 1.485590e+01 2.473256e+01 3.241866e+01 4.228032e+01 3.490380e+01 2.657164e+01 3.131780e+01 5.059690e+01 3.921191e+01 2.887104e+01 2.437993e+01 2.692021e-01 4.315611e-01 4.710023e-01 1.136498e+00 1.181410e+00 9.082375e-01 1.003885e+00 1.004438e+00 8.449885e-01 1.302653e+00 6.475477e-01 1.051267e+00 2.806086e-01
<GCONST> 8.119853e+01
<STATE> 4
<MEAN> 25
 4.267038e+00 -4.860402e+00 -5.053688e-01 -6.496171e-01 -1.230381e+00 3.858730e+00 -1.257164e+00 5.319980e-01 2.720881e+00 -1.857131e+00 -4.498288e+00 3.861755e-01 8.110158e-02 6.775593e-01 1.213718e-01 6.717869e-01 -4.240983e-01 -3.909583e-01 6.796519e-02 -2.983709e-01 -1.676328e-01 -2.078360e-02 -3.973106e-02 3.007299e-01 -6.542649e-01
<VARIANCE> 25
 9.306656e+00 3.958048e+01 3.544715e+01 4.352435e+01 3.787947e+01 4.685357e+01 4.277959e+01 9.405825e+01 5.022865e+01 2.895978e+01 3.210102e+01 2.605587e+01 2.756920e-01 1.096265e+00 9.677146e-01 1.611903e+00 1.356769e+00 1.633811e+00 1.580506e+00 2.323763e+00 1.287477e+00 1.653994e+00 1.868564e+00 1.424410e+00 3.199820e-01
<GCONST> 9.093070e+01
<TRANSP> 5
 0.000000e+00 1.000000e+00 0.000000e+00 0.000000e+00 0.000000e+00
 0.000000e+00 8.116813e-01 1.883188e-01 0.000000e+00 0.000000e+00
 0.000000e+00 0.000000e+00 8.809470e-01 1.190530e-01 0.000000e+00
 0.000000e+00 0.000000e+00 0.000000e+00 5.757322e-01 4.242678e-01
 0.000000e+00 0.000000e+00 0.000000e+00 0.000000e+00 0.000000e+00
<ENDHMM>
~h "@"
<BEGINHMM>
<NUMSTATES> 5
<STATE> 2
<MEAN> 25
 1.084309e+00 8.460823e-01 -4.540679e-01 -2.161313e+00 1.181855e+00 -6.262861e-01 -1.996106e+00 -1.146957e+00 1.322166e+00 1.031866e+00 1.174679e+00 -3.136861e-01 2.133166e-01 -2.222944e-01 -3.810199e-02 -1.797398e-01 -1.258605e-01 -8.302843e-03 -9.837577e-02 3.501372e-02 7.535342e-02 3.268144e-02 -6.713877e-03 -1.165986e-01 3.486453e-01
<VARIANCE> 25
 9.828830e+01 6.493657e+01 9.599160e+01 7.522328e+01 9.207506e+01 9.290356e+01 7.601734e+01 6.120069e+01 6.413821e+01 4.663810e+01 6.067031e+01 3.549572e+01 7.407456e+00 5.465312e+00 5.770743e+00 5.983230e+00 7.680777e+00 7.238757e+00 6.822427e+00 5.656075e+00 5.696167e+00 4.358199e+00 5.081158e+00 3.494160e+00 7.527291e+00
<GCONST> 1.197914e+02
<STATE> 3
<MEAN> 25
 5.163979e+00 -6.391482e+00 -2.045644e+00 -6.699733e+00 -1.219838e+00 6.026386e-02 -5.018148e+00 5.216575e-01 3.684381e+00 1.311519e+00 4.018208e-01 -6.350181e+00 4.218352e-01 -6.433926e-01 3.706105e-01 1.897723e-01 -3.962429e-01 2.200847e-01 3.080890e-02 3.408186e-01 -1.585939e-01 -1.312943e-01 -2.388252e-01 -1.232843e-01 1.379236e-01
<VARIANCE> 25
 1.511062e+01 3.545862e+01 6.751949e+01 4.486132e+01 6.325375e+01 7.853004e+01 6.887086e+01 7.269202e+01 6.015471e+01 5.023615e+01 6.455165e+01 5.151869e+01 1.592623e+00 2.136413e+00 2.938374e+00 3.233376e+00 4.266086e+00 4.845414e+00 4.475511e+00 5.183662e+00 3.688990e+00 3.878635e+00 3.758487e+00 3.706422e+00 1.662041e+00
<GCONST> 1.088506e+02
<STATE> 4
<MEAN> 25
 4.307774e+00 -2.048899e+00 3.360680e+00 -1.483701e+00 -4.217082e+00 -7.964346e-01 -3.247760e+00 -8.277664e-01 -1.310418e+00 4.170631e-01 1.269995e-01 -1.720315e+00 -4.072268e-03 1.116192e-01 -6.963558e-03 1.229550e-01 4.710384e-02 4.636736e-02 6.129817e-02 -2.522593e-02 -4.813337e-02 -1.072277e-03 -1.312266e-03 4.060245e-02 -1.928633e-01
<VARIANCE> 25
 2.557840e+01 5.542009e+01 9.911069e+01 6.380923e+01 8.114362e+01 7.784410e+01 5.973724e+01 7.217069e+01 6.314375e+01 4.818200e+01 5.674184e+01 4.186883e+01 1.253762e+00 2.755206e+00 3.655071e+00 3.796717e+00 4.098310e+00 3.773469e+00 3.710535e+00 4.318700e+00 3.698153e+00 3.131064e+00 3.367247e+00 2.722839e+00 2.407160e+00
<GCONST> 1.097951e+02
<TRANSP> 5
 0.000000e+00 1.000000e+00 0.000000e+00 0.000000e+00 0.000000e+00
 0.000000e+00 9.097203e-01 9.027971e-02 0.000000e+00 0.000000e+00
 0.000000e+00 0.000000e+00 6.278828e-01 3.721172e-01 0.000000e+00
 0.000000e+00 0.000000e+00 0.000000e+00 9.611878e-01 3.881214e-02
 0.000000e+00 0.000000e+00 0.000000e+00 0.000000e+00 0.000000e+00
<ENDHMM>
~h "a"
<BEGINHMM>
<NUMSTATES> 5
<STATE> 2
<MEAN> 25
 3.562410e+00 -3.346041e+00 -2.953281e+00 -2.749010e+00 -3.785671e-01 -2.440963e-01 -1.111650e+00 4.502117e-01 1.580020e+00 1.426376e+00 -3.829341e-01 -2.596565e+00 1.075699e-01 -4.755150e-01 -2.253057e-01 -2.436524e-01 9.396940e-02 5.058667e-02 8.981131e-02 2.797763e-01 1.967804e-01 -5.802055e-02 -1.949568e-01 -2.677062e-01 4.342535e-01
<VARIANCE> 25
 3.081979e+01 5.338810e+01 7.491595e+01 5.960788e+01 7.281942e+01 8.374536e+01 6.484799e+01 7.111582e+01 5.746360e+01 5.234314e+01 5.649576e+01 5.102014e+01 2.644120e+00 4.502598e+00 4.010111e+00 4.918434e+00 5.178539e+00 5.435635e+00 4.960751e+00 5.525568e+00 4.629046e+00 4.465132e+00 4.531686e+00 4.285058e+00 5.105120e+00
<GCONST> 1.146167e+02
<STATE> 3
<MEAN> 25
 4.609479e+00 -8.716428e+00 -5.208117e+00 -6.044024e+00 1.668733e+00 8.747154e-01 1.760273e-01 2.348578e+00 2.619834e+00 -7.677415e-01 -4.161020e+00 -5.495082e+00 3.863964e-02 1.272753e-01 2.159209e-02 2.610810e-01 1.160207e-01 -2.110198e-03 2.597581e-02 -9.502181e-02 -5.757939e-02 -5.340318e-02 -1.668049e-01 1.824443e-01 -3.027586e-01
<VARIANCE> 25
 9.132330e+00 2.960462e+01 4.240199e+01 3.697025e+01 5.174236e+01 7.211149e+01 5.154872e+01 5.336113e+01 4.824515e+01 4.578156e+01 4.849787e+01 3.877753e+01 3.913954e-01 1.268333e+00 1.243119e+00 1.530361e+00 1.887939e+00 2.006520e+00 1.998953e+00 2.109219e+00 1.843479e+00 1.966502e+00 1.874200e+00 1.751220e+00 8.178093e-01
<GCONST> 9.527654e+01
<STATE> 4
<MEAN> 25
 3.005778e+00 -1.286161e+00 -2.639902e+00 2.059101e+00 2.043016e+00 1.646705e-01 1.050026e+00 1.048809e+00 1.851011e+00 -1.053060e+00 -3.419576e+00 -3.485889e-01 -2.498075e-01 7.500601e-01 2.226604e-01 5.459401e-01 2.804066e-02 8.839969e-02 5.420368e-03 -1.270213e-01 -1.580600e-01 -9.486171e-03 1.598564e-01 3.000760e-01 -9.407517e-01
<VARIANCE> 25
 3.022943e+01 4.290046e+01 5.233636e+01 4.397834e+01 4.954015e+01 5.145068e+01 4.567979e+01 5.264227e+01 4.650134e+01 4.382209e+01 4.218505e+01 3.236052e+01 1.340271e+00 2.425335e+00 2.443926e+00 2.811888e+00 2.947907e+00 3.034817e+00 2.905834e+00 3.418173e+00 2.938500e+00 2.850748e+00 2.653350e+00 2.361570e+00 1.703562e+00
<GCONST> 1.034099e+02
<TRANSP> 5
 0.000000e+00 1.000000e+00 0.000000e+00 0.000000e+00 0.000000e+00
 0.000000e+00 9.159755e-01 8.402448e-02 0.000000e+00 0.000000e+00
 0.000000e+00 0.000000e+00 8.997759e-01 1.002242e-01 0.000000e+00
 0.000000e+00 0.000000e+00 0.000000e+00 8.845802e-01 1.154198e-01
 0.000000e+00 0.000000e+00 0.000000e+00 0.000000e+00 0.000000e+00
<ENDHMM>
~h "b"
<BEGINHMM>
<NUMSTATES> 5
<STATE> 2
<MEAN> 25
 4.704970e+00 6.163283e+00 4.900973e+00 4.466591e+00 -8.685840e-01 1.213337e+00 -1.347742e+00 -2.770281e+00 -4.409905e+00 -9.469354e-01 -5.171863e-01 1.533298e-01 3.757367e-01 6.096803e-01 5.848493e-02 1.991357e-01 1.479313e-01 1.687662e-01 4.773867e-02 -1.942801e-01 -2.679629e-01 2.941931e-02 -9.780669e-02 6.707714e-02 -2.031973e-01
<VARIANCE> 25
 3.531661e+01 4.449904e+01 5.513762e+01 5.828075e+01 7.169422e+01 5.636258e+01 6.046326e+01 5.865637e+01 6.103365e+01 4.829002e+01 5.321698e+01 3.776850e+01 2.419334e+00 2.836504e+00 2.980072e+00 3.593648e+00 4.025673e+00 3.691969e+00 3.798635e+00 4.226805e+00 3.858237e+00 3.040133e+00 3.148261e+00 2.583597e+00 3.882012e+00
<GCONST> 1.091409e+02
<STATE> 3
<MEAN> 25
 2.627431e+00 7.795840e+00 9.983673e-01 2.500912e+00 2.636190e+00 1.031718e+00 -4.143429e-01 -2.907468e+00 -4.508848e+00 -9.813673e-01 1.067988e+00 1.642502e+00 1.085338e+00 -1.870399e+00 -9.762392e-01 -2.070532e+00 -9.635956e-01 -4.457145e-01 -1.538487e+00 -8.863404e-01 7.609147e-01 5.887596e-01 1.620008e+00 -5.753878e-01 3.657351e+00
<VARIANCE> 25
 8.146728e+01 6.728130e+01 6.599258e+01 6.725492e+01 5.328077e+01 8.493634e+01 4.923435e+01 6.548022e+01 6.254508e+01 5.951665e+01 4.737294e+01 3.857907e+01 8.853280e+00 7.184878e+00 6.324792e+00 5.950859e+00 8.704454e+00 9.068561e+00 6.611343e+00 7.740460e+00 9.003750e+00 8.082802e+00 7.309498e+00 5.451214e+00 6.734168e+00
<GCONST> 1.211470e+02
<STATE> 4
<MEAN> 25
 7.381281e+00 -9.607428e-01 -2.178789e+00 -4.857020e+00 -5.971310e-01 4.624321e+00 -6.200726e+00 -3.716492e+00 2.858217e+00 2.142662e+00 5.476022e+00 -3.390910e+00 -9.779649e-02 -8.190247e-01 -3.600527e-02 -3.587487e-01 -1.797598e-01 -2.770815e-01 -2.482973e-02 5.754156e-01 7.831213e-01 1.646542e-01 -3.173700e-01 -5.452258e-01 7.704158e-01
<VARIANCE> 25
 2.814095e+01 5.556846e+01 5.579256e+01 7.982362e+01 7.356952e+01 8.358185e+01 7.708793e+01 8.403828e+01 9.829700e+01 8.132368e+01 8.982664e+01 6.125286e+01 3.291002e+00 5.842481e+00 4.613294e+00 6.320123e+00 6.593083e+00 7.003686e+00 6.684691e+00 7.211475e+00 8.245929e+00 6.479315e+00 7.902293e+00 6.174538e+00 6.797318e+00
<GCONST> 1.206223e+02
<TRANSP> 5
 0.000000e+00 1.000000e+00 0.000000e+00 0.000000e+00 0.000000e+00
 0.000000e+00 8.617954e-01 1.382046e-01 0.000000e+00 0.000000e+00
 0.000000e+00 0.000000e+00 6.545962e-01 3.454038e-01 0.000000e+00
 0.000000e+00 0.000000e+00 0.000000e+00 8.410565e-01 1.589435e-01
 0.000000e+00 0.000000e+00 0.000000e+00 0.000000e+00 0.000000e+00
<ENDHMM>
~h "c"
<BEGINHMM>
<NUMSTATES> 5
<STATE> 2
<MEAN> 25
 -3.235364e+00 3.278394e+00 3.027343e+00 -1.444431e+00 -1.064309e+00 -4.799949e+00 8.732814e-01 -1.915776e+00 -1.377158e+00 -2.191206e+00 2.561726e+00 -2.678379e-01 -5.309508e-01 4.451223e-02 3.968113e-01 -3.172212e-01 -1.152916e-01 -1.059780e-01 -3.371918e-03 -1.529625e-01 1.119995e-01 -8.081824e-02 2.247038e-01 -5.031791e-02 7.756917e-01
<VARIANCE> 25
 1.197052e+02 5.745024e+01 1.302113e+02 6.165184e+01 6.996269e+01 9.938370e+01 5.087281e+01 6.196963e+01 7.030680e+01 3.981028e+01 5.604657e+01 2.746696e+01 1.064209e+01 4.857537e+00 7.209169e+00 6.255024e+00 6.625855e+00 6.017083e+00 6.056571e+00 6.786671e+00 5.795818e+00 4.134155e+00 5.661681e+00 2.834085e+00 1.125431e+01
<GCONST> 1.194810e+02
<STATE> 3
<MEAN> 25
 -9.849213e+00 3.022101e+00 1.431966e+01 -2.689769e+00 -6.479070e+00 -1.977678e+00 -2.060809e+00 -2.906470e+00 -2.161103e+00 -1.693363e+00 5.330660e+00 -2.272604e-01 2.750756e+00 -8.850375e-01 6.611660e-01 2.868006e-01 -1.226883e+00 -1.456280e+00 -9.741378e-01 1.202241e-02 1.252937e-01 2.937941e-01 6.044686e-01 -1.925024e-01 1.254419e+00
<VARIANCE> 25
 1.027014e+02 4.357161e+01 1.019924e+02 2.515009e+01 1.039794e+02 7.728506e+01 7.690918e+01 3.779966e+01 5.864280e+01 3.136553e+01 2.838648e+01 2.323699e+01 9.693932e+00 6.911229e+00 8.423203e+00 2.727152e+00 6.808111e+00 6.378303e+00 3.013247e+00 3.366154e+00 3.252064e+00 2.085389e+00 2.480953e+00 2.404139e+00 2.366723e+00
<GCONST> 1.111666e+02
<STATE> 4
<MEAN> 25
 1.899447e+00 -5.595698e+00 6.769482e+00 -5.874023e+00 -7.031229e+00 -6.756369e+00 -1.066773e+00 3.582303e+00 2.750872e+00 -1.276442e+00 1.764223e+00 2.334859e-01 1.669001e+00 -1.035382e+00 -3.106265e+00 -4.587027e-01 1.596663e+00 -6.228738e-01 9.674404e-01 1.030165e+00 1.095357e+00 -4.131185e-01 -1.250222e+00 -3.593405e-01 7.536926e-01
<VARIANCE> 25
 1.134504e+01 3.641208e+01 8.993167e+01 4.951780e+01 7.384892e+01 2.416252e+01 6.257135e+01 6.949527e+01 4.982743e+01 3.423869e+01 6.864210e+01 2.205815e+01 5.751082e+00 3.029995e+00 2.613331e+00 1.446425e+00 4.764360e+00 3.095263e+00 5.616371e+00 6.572314e+00 2.745228e+00 3.796054e+00 4.935317e+00 2.147570e+00 1.182672e+00
<GCONST> 1.063605e+02
<TRANSP> 5
 0.000000e+00 1.000000e+00 0.000000e+00 0.000000e+00 0.000000e+00
 0.000000e+00 9.412876e-01 5.871242e-02 0.000000e+00 0.000000e+00
 0.000000e+00 0.000000e+00 7.185873e-01 2.814127e-01 0.000000e+00
 0.000000e+00 0.000000e+00 0.000000e+00 6.753950e-01 3.246051e-01
 0.000000e+00 0.000000e+00 0.000000e+00 0.000000e+00 0.000000e+00
<ENDHMM>
~h "d"
<BEGINHMM>
<NUMSTATES> 5
<STATE> 2
<MEAN> 25
 4.282857e+00 1.042796e+00 2.297066e+00 2.333921e+00 -2.713968e+00 -6.753695e-01 -2.367259e+00 -1.090682e+00 -1.595985e-01 4.696707e-01 5.398884e-01 -5.367475e-01 1.023676e-02 1.777552e-01 6.359195e-02 1.518799e-01 4.283814e-02 -4.183128e-02 1.483048e-02 -5.790064e-02 -5.081408e-02 1.782067e-03 4.035475e-02 1.515676e-02 -5.456658e-02
<VARIANCE> 25
 3.435428e+01 6.446262e+01 8.832633e+01 5.709709e+01 6.866900e+01 6.633295e+01 5.753036e+01 6.659090e+01 6.490989e+01 4.578797e+01 5.229854e+01 3.591821e+01 2.778246e+00 4.445252e+00 4.958228e+00 4.720503e+00 5.804457e+00 4.751301e+00 4.557883e+00 5.177056e+00 4.292587e+00 3.588304e+00 3.876871e+00 3.128937e+00 4.939501e+00
<GCONST> 1.133580e+02
<STATE> 3
<MEAN> 25
 -4.613178e+00 5.046272e+00 3.957679e+00 1.999420e+00 2.143872e+00 -4.366957e+00 9.424988e-01 -1.790729e+00 -9.595102e-01 -4.378014e-01 1.794540e+00 2.093678e+00 -2.907058e-01 -1.403668e+00 9.614760e-01 -1.500102e+00 -1.517004e+00 -8.019375e-01 -4.775766e-01 -1.603207e-01 -3.282178e-01 -2.635037e-01 7.640355e-01 1.646352e-01 2.448130e+00
<VARIANCE> 25
 1.324623e+02 5.685805e+01 7.374088e+01 6.517680e+01 9.621574e+01 7.864181e+01 8.113618e+01 6.244317e+01 4.914670e+01 5.041929e+01 4.553284e+01 3.029586e+01 1.249351e+01 6.695205e+00 8.365328e+00 6.245951e+00 1.213005e+01 9.365429e+00 8.825855e+00 7.492936e+00 6.732705e+00 6.153148e+00 6.144073e+00 4.117961e+00 5.498221e+00
<GCONST> 1.218241e+02
<STATE> 4
<MEAN> 25
 1.624091e+00 -1.008003e+00 1.012642e+01 -3.551419e-01 -9.624709e+00 -4.721937e+00 -2.935836e+00 -1.094272e+00 -4.117951e+00 -1.846571e-02 4.411944e+00 -3.362961e-02 1.282960e-01 -2.343555e-01 -2.496644e-01 -2.313017e-01 -4.895388e-03 3.596263e-02 8.779442e-02 1.735191e-01 1.089063e-01 2.306023e-01 -5.550778e-02 -2.107698e-01 1.697659e-01
<VARIANCE> 25
 2.398701e+01 4.189266e+01 8.312267e+01 6.569783e+01 6.979056e+01 6.495223e+01 6.383248e+01 8.084957e+01 8.052694e+01 5.308778e+01 5.693167e+01 4.087096e+01 2.257694e+00 2.966258e+00 5.360984e+00 5.047497e+00 6.106919e+00 5.140462e+00 4.963418e+00 5.377264e+00 5.275260e+00 3.882655e+00 4.497258e+00 3.580712e+00 3.793801e+00
<GCONST> 1.136082e+02
<TRANSP> 5
 0.000000e+00 1.000000e+00 0.000000e+00 0.000000e+00 0.000000e+00
 0.000000e+00 9.348957e-01 6.510431e-02 0.000000e+00 0.000000e+00
 0.000000e+00 0.000000e+00 7.128257e-01 2.871743e-01 0.000000e+00
 0.000000e+00 0.000000e+00 0.000000e+00 8.778123e-01 1.221877e-01
 0.000000e+00 0.000000e+00 0.000000e+00 0.000000e+00 0.000000e+00
<ENDHMM>
~h "e"
<BEGINHMM>
<NUMSTATES> 5
<STATE> 2
<MEAN> 25
 1.205115e+00 -1.961902e+00 3.802480e+00 1.054187e+00 -4.783441e+00 -3.778953e+00 9.831672e-01 2.168639e+00 5.079606e-01 7.925109e-01 1.947539e-01 -8.774294e-01 1.309090e-01 -1.059806e-01 2.238355e-01 -9.478702e-02 -3.421504e-01 -1.963245e-01 8.168305e-02 7.668164e-02 -1.843097e-01 4.402681e-02 1.388344e-01 1.099273e-02 2.192463e-01
<VARIANCE> 25
 5.044163e+01 6.002527e+01 9.536720e+01 5.246491e+01 1.131326e+02 7.341523e+01 7.004846e+01 7.790536e+01 5.147614e+01 4.050754e+01 5.067941e+01 4.268664e+01 4.421766e+00 4.214989e+00 5.635863e+00 3.813613e+00 8.219569e+00 6.209549e+00 5.585955e+00 6.123048e+00 4.173260e+00 4.094495e+00 4.787367e+00 3.750060e+00 5.328357e+00
<GCONST> 1.162887e+02
<STATE> 3
<MEAN> 25
 2.723118e+00 -4.927637e+00 5.924475e+00 -9.974648e-01 -9.891521e+00 -4.670484e+00 2.833127e+00 1.560145e+00 -3.176355e+00 2.004604e+00 -7.812127e-01 -1.893891e+00 5.916249e-02 2.116784e-01 -1.782638e-01 3.181667e-01 2.686746e-01 3.307766e-01 1.212920e-01 -1.317423e-01 1.412052e-01 -1.597703e-01 -2.976485e-01 -1.607371e-02 -5.142415e-01
<VARIANCE> 25
 1.203195e+01 3.925928e+01 5.749746e+01 3.392509e+01 5.363438e+01 4.438729e+01 6.228428e+01 4.715654e+01 4.007199e+01 3.923339e+01 4.635414e+01 3.331835e+01 5.974988e-01 1.608109e+00 1.917869e+00 1.887934e+00 2.265698e+00 2.170633e+00 2.573842e+00 2.599124e+00 2.240808e+00 2.166280e+00 2.216413e+00 1.765563e+00 1.232973e+00
<GCONST> 9.803739e+01
<STATE> 4
<MEAN> 25
 -1.403851e+00 1.097523e+00 1.863246e+00 4.037463e+00 2.458079e-01 -6.235047e-01 9.814735e-01 -8.837237e-01 -6.710321e-01 -2.623294e+00 -1.086861e+00 -1.789401e-01 -3.373041e-01 2.226396e-01 -1.925924e-01 -5.290811e-02 4.664434e-01 1.532851e-01 -2.645969e-01 7.584821e-02 3.115198e-02 -1.364699e-01 2.180631e-01 1.595495e-01 -5.588490e-01
<VARIANCE> 25
 2.750177e+01 2.040280e+01 3.383084e+01 1.442364e+01 4.181952e+01 4.952310e+01 3.652304e+01 4.128920e+01 3.657045e+01 4.188440e+01 3.095546e+01 2.670667e+01 5.473019e-01 7.399372e-01 1.175341e+00 1.152098e+00 1.624090e+00 1.742004e+00 2.115704e+00 2.296822e+00 2.332086e+00 1.962747e+00 1.709282e+00 1.648492e+00 3.166386e-01
<GCONST> 9.090022e+01
<TRANSP> 5
 0.000000e+00 1.000000e+00 0.000000e+00 0.000000e+00 0.000000e+00
 0.000000e+00 9.378263e-01 6.217364e-02 0.000000e+00 0.000000e+00
 0.000000e+00 0.000000e+00 9.374447e-01 6.255537e-02 0.000000e+00
 0.000000e+00 0.000000e+00 0.000000e+00 8.901030e-01 1.098970e-01
 0.000000e+00 0.000000e+00 0.000000e+00 0.000000e+00 0.000000e+00
<ENDHMM>
~h "f"
<BEGINHMM>
<NUMSTATES> 5
<STATE> 2
<MEAN> 25
 2.139715e-01 4.510240e+00 9.245381e+00 5.944239e+00 3.870111e+00 -6.512003e+00 1.630911e+00 1.231857e+00 -2.694859e+00 -1.022533e+00 -5.849412e-01 8.212128e-01 -2.313183e+00 1.276180e+00 -2.248435e-01 -3.888968e-01 1.864971e+00 2.287484e-01 8.519570e-01 -5.135966e-01 2.647143e-01 6.484096e-01 6.432994e-01 4.055680e-01 9.138278e-02
<VARIANCE> 25
 3.117201e+01 2.248853e+01 2.914008e+01 5.363048e+01 5.253239e+01 6.183333e+01 2.981693e+01 2.311456e+01 1.232494e+01 2.525519e+01 4.496286e+01 2.130606e+01 6.044516e+00 2.780440e+00 2.113516e+00 4.933670e+00 3.379734e+00 5.109338e+00 6.071685e+00 3.724682e+00 3.924607e+00 2.991572e+00 4.418845e+00 1.318742e+00 1.561872e+00
<GCONST> 1.028858e+02
<STATE> 3
<MEAN> 25
 -1.196793e+01 2.741283e+00 8.774569e+00 3.351838e+00 6.720490e+00 -1.910017e+00 4.067260e+00 -4.852231e+00 -2.584283e-01 8.623220e-01 -1.023883e+00 1.296879e+00 -1.194430e+00 -6.131563e-01 1.822590e-01 -5.010488e-01 -5.152595e-01 -7.742047e-02 -1.873790e-01 -5.748786e-01 6.499378e-02 -1.750610e-02 -1.890488e-01 4.841456e-02 2.090183e-01
<VARIANCE> 25
 8.015121e+01 2.111783e+01 3.348920e+01 6.960554e+01 3.853098e+01 4.375131e+01 2.852634e+01 8.323395e+01 2.132227e+01 1.269473e+01 4.540084e+01 3.902157e+01 5.052277e+00 1.426791e+00 2.229305e+00 1.934198e+00 1.503824e+00 3.134485e+00 2.755718e+00 2.205739e+00 3.380790e+00 1.803983e+00 2.275206e+00 1.461110e+00 6.973318e-01
<GCONST> 9.885881e+01
<STATE> 4
<MEAN> 25
 -8.669076e+00 1.636747e+00 9.702078e+00 -1.323612e+00 3.850811e+00 -4.751921e+00 -2.075620e+00 8.082754e-01 -2.429034e+00 -3.408933e+00 1.288741e+00 1.627074e+00 2.980572e+00 -6.578085e-02 1.635664e+00 8.116859e-02 -2.176058e+00 -4.724466e-01 -1.409370e+00 -8.526570e-01 -1.278990e+00 -3.953143e-01 -2.897797e-01 -1.203009e+00 5.536645e-01
<VARIANCE> 25
 7.653933e+01 2.641424e+01 2.590706e+01 5.625127e+01 3.804922e+01 5.929361e+01 6.606383e+01 1.238678e+02 2.794114e+01 2.854387e+01 4.346531e+01 2.800351e+01 3.414888e+00 2.068675e+00 5.228720e+00 2.814528e+00 3.959288e+00 4.471717e+00 4.870172e+00 7.662400e+00 2.579051e+00 2.674432e+00 2.950064e+00 1.179681e+00 1.395352e+00
<GCONST> 1.060087e+02
<TRANSP> 5
 0.000000e+00 1.000000e+00 0.000000e+00 0.000000e+00 0.000000e+00
 0.000000e+00 6.507524e-01 3.492476e-01 0.000000e+00 0.000000e+00
 0.000000e+00 0.000000e+00 7.864040e-01 2.135960e-01 0.000000e+00
 0.000000e+00 0.000000e+00 0.000000e+00 6.562766e-01 3.437235e-01
 0.000000e+00 0.000000e+00 0.000000e+00 0.000000e+00 0.000000e+00
<ENDHMM>
~h "g"
<BEGINHMM>
<NUMSTATES> 5
<STATE> 2
<MEAN> 25
 3.819308e+00 3.785330e-01 2.729533e+00 1.648736e+00 -3.125638e+00 -7.657558e-01 -2.464014e+00 -1.891675e+00 2.192061e-01 1.832641e-01 -1.868677e-01 -2.035993e-01 -1.115343e-01 1.784227e-01 5.599207e-02 1.279643e-01 5.149918e-02 -6.484993e-02 3.391116e-02 2.561105e-02 -1.851607e-02 3.806772e-02 -2.068793e-02 5.431775e-02 -1.003441e-01
<VARIANCE> 25
 1.836634e+01 5.624508e+01 6.266710e+01 4.585111e+01 5.569697e+01 5.842043e+01 4.869093e+01 6.320615e+01 6.165059e+01 5.283183e+01 4.309471e+01 2.890879e+01 1.494108e+00 4.361848e+00 4.269352e+00 4.618683e+00 4.957107e+00 4.589694e+00 4.228798e+00 5.097476e+00 5.118896e+00 4.047625e+00 3.423839e+00 2.308803e+00 3.423894e+00
<GCONST> 1.095667e+02
<STATE> 3
<MEAN> 25
 -4.378883e+00 4.054548e+00 1.392913e+00 1.791935e+00 2.275121e+00 -5.596762e+00 8.266510e-01 -1.024626e+00 -2.776893e-01 3.896868e-01 2.506306e+00 3.798546e-01 -1.072040e-01 -1.413404e-01 1.599801e-01 -2.422553e-01 -1.687890e-01 -2.111469e-01 -6.080795e-02 -2.871383e-02 -5.231449e-02 -2.817281e-02 6.704252e-02 7.282955e-02 3.300697e-01
<VARIANCE> 25
 1.325234e+02 6.377940e+01 1.102945e+02 6.982076e+01 1.190968e+02 7.950164e+01 8.950041e+01 7.313154e+01 6.617994e+01 5.398742e+01 5.321186e+01 3.409475e+01 9.583688e+00 5.626715e+00 6.756870e+00 5.572478e+00 8.864481e+00 6.237932e+00 6.700338e+00 6.537540e+00 5.697055e+00 5.128185e+00 5.454463e+00 3.446490e+00 5.658837e+00
<GCONST> 1.210151e+02
<STATE> 4
<MEAN> 25
 2.413640e+00 -2.318062e-01 1.018186e+01 2.029159e-01 -6.955395e+00 -8.048638e+00 -5.895750e-01 3.246787e+00 -4.311735e+00 -7.667714e-01 8.802778e-01 1.819079e+00 2.101078e-01 -9.909409e-02 -1.790670e-01 -1.205485e-01 -4.439140e-02 8.389434e-02 -1.703731e-02 1.803424e-01 1.204433e-01 5.434820e-02 -1.169644e-01 -1.195376e-01 -9.173403e-02
<VARIANCE> 25
 2.815977e+01 5.242961e+01 8.974091e+01 6.943022e+01 6.863097e+01 5.389822e+01 5.131021e+01 7.220914e+01 5.963425e+01 5.638345e+01 5.370116e+01 3.938457e+01 1.945568e+00 4.324639e+00 4.729160e+00 5.089378e+00 4.675352e+00 3.561180e+00 3.905619e+00 4.728178e+00 4.988609e+00 3.847072e+00 3.579813e+00 3.046117e+00 2.711508e+00
<GCONST> 1.115723e+02
<TRANSP> 5
 0.000000e+00 1.000000e+00 0.000000e+00 0.000000e+00 0.000000e+00
 0.000000e+00 9.406149e-01 5.938512e-02 0.000000e+00 0.000000e+00
 0.000000e+00 0.000000e+00 9.506515e-01 4.934857e-02 0.000000e+00
 0.000000e+00 0.000000e+00 0.000000e+00 9.221447e-01 7.785530e-02
 0.000000e+00 0.000000e+00 0.000000e+00 0.000000e+00 0.000000e+00
<ENDHMM>
~h "h"
<BEGINHMM>
<NUMSTATES> 5
<STATE> 2
<MEAN> 25
 2.846097e+00 5.910373e-01 8.981109e+00 6.466109e-01 -7.312942e+00 -2.040916e+00 -2.002067e+00 -7.341167e-01 -1.646412e+00 -4.573928e-01 1.604693e+00 -1.647994e-01 -4.180773e-02 9.244837e-02 6.914668e-02 7.417308e-02 -2.793743e-02 -1.606161e-02 3.762979e-02 -2.674025e-02 -6.941617e-02 9.965910e-03 1.283392e-02 3.287230e-02 -1.271455e-01
<VARIANCE> 25
 2.602372e+01 6.079926e+01 1.069606e+02 6.057167e+01 7.856473e+01 6.824901e+01 6.369761e+01 7.882259e+01 7.312959e+01 5.127419e+01 5.561578e+01 3.631109e+01 1.911291e+00 3.698858e+00 5.487672e+00 4.281212e+00 6.192765e+00 4.443681e+00 4.527369e+00 5.128313e+00 4.657769e+00 3.912043e+00 4.133920e+00 2.961041e+00 3.365052e+00
<GCONST> 1.132314e+02
<STATE> 3
<MEAN> 25
 1.537131e+00 4.485598e-01 -4.050206e-01 -7.411060e-01 8.340499e-01 -1.041165e+00 -9.366400e-02 -5.548242e-01 1.589001e+00 6.456445e-01 2.274010e-01 -1.485125e-01 -2.434121e-02 -1.690580e-02 -6.544864e-02 -4.125157e-02 6.448156e-02 2.812046e-03 9.222890e-04 1.284617e-02 4.025287e-03 -5.591311e-03 -7.121943e-03 -1.270339e-02 1.588892e-02
<VARIANCE> 25
 9.377902e+01 7.945515e+01 9.899351e+01 6.493616e+01 8.565765e+01 9.225526e+01 8.239255e+01 7.336461e+01 7.207064e+01 5.395821e+01 6.421400e+01 4.588858e+01 6.076379e+00 5.452757e+00 5.403291e+00 5.322970e+00 7.000647e+00 6.353379e+00 6.083772e+00 5.765119e+00 5.579220e+00 4.773097e+00 5.105462e+00 3.763031e+00 5.844981e+00
<GCONST> 1.197828e+02
<STATE> 4
<MEAN> 25
 -1.808821e+00 -6.293620e-01 -2.768657e+00 5.775585e-01 4.237188e+00 -3.904519e-01 2.094484e+00 2.388620e+00 3.877192e-01 -1.458733e+00 -1.966959e+00 1.099921e+00 -3.362315e-01 3.357911e-02 -6.768724e-02 2.100199e-01 7.566188e-02 1.533297e-01 5.595294e-02 -2.170059e-03 -4.483486e-02 -4.663714e-02 9.333418e-02 9.653328e-02 -6.059799e-01
<VARIANCE> 25
 5.802605e+01 5.622515e+01 4.376055e+01 5.340282e+01 4.302435e+01 4.636122e+01 4.461174e+01 4.336371e+01 4.204277e+01 3.664289e+01 3.422504e+01 3.858509e+01 8.488082e-01 1.216459e+00 1.394728e+00 1.739554e+00 1.724799e+00 1.948444e+00 2.117371e+00 2.130995e+00 2.126830e+00 1.951650e+00 1.583325e+00 1.660561e+00 6.617013e-01
<GCONST> 9.709967e+01
<TRANSP> 5
 0.000000e+00 1.000000e+00 0.000000e+00 0.000000e+00 0.000000e+00
 0.000000e+00 9.606622e-01 3.933779e-02 0.000000e+00 0.000000e+00
 0.000000e+00 0.000000e+00 9.737662e-01 2.623382e-02 0.000000e+00
 0.000000e+00 0.000000e+00 0.000000e+00 9.024690e-01 9.753095e-02
 0.000000e+00 0.000000e+00 0.000000e+00 0.000000e+00 0.000000e+00
<ENDHMM>
~h "i"
<BEGINHMM>
<NUMSTATES> 5
<STATE> 2
<MEAN> 25
 -1.291451e+00 2.476634e+00 7.899585e+00 1.041799e+00 -4.406392e+00 -3.901066e+00 -6.334705e-01 -2.509784e+00 -2.840805e+00 -7.153051e-01 2.130797e+00 6.023035e-01 2.304179e-01 -8.950736e-02 1.306642e+00 -4.308741e-01 -1.143750e+00 -1.777905e-01 -3.835851e-01 -5.451475e-01 -8.139945e-01 9.568488e-02 5.120282e-01 -1.580142e-01 6.842461e-01
<VARIANCE> 25
 9.605674e+01 5.553202e+01 1.052047e+02 6.906876e+01 1.007057e+02 8.712148e+01 8.308099e+01 8.158264e+01 7.279025e+01 5.139767e+01 5.057780e+01 4.117093e+01 6.676546e+00 4.732604e+00 8.599218e+00 5.782105e+00 9.026434e+00 7.173305e+00 7.135972e+00 6.963919e+00 6.899980e+00 5.285550e+00 4.955777e+00 3.665308e+00 4.300573e+00
<GCONST> 1.205798e+02
<STATE> 3
<MEAN> 25
 3.934016e-01 3.190374e+00 1.634793e+01 -3.920351e+00 -1.164858e+01 -1.609050e+00 -3.692875e+00 -5.835068e+00 -7.077871e+00 1.404790e+00 2.311174e+00 -1.591874e+00 3.823057e-02 1.460003e-01 -6.395882e-02 1.565470e-02 1.015531e-01 1.610033e-01 1.086926e-01 -2.219317e-02 3.719453e-02 4.623008e-02 -1.251587e-01 -3.750116e-04 -2.976883e-01
<VARIANCE> 25
 1.451402e+01 4.225780e+01 6.649221e+01 5.480112e+01 4.185007e+01 6.190001e+01 4.883721e+01 5.645232e+01 4.973706e+01 5.245200e+01 4.659178e+01 3.233658e+01 6.059641e-01 1.409603e+00 2.314958e+00 2.670467e+00 2.068899e+00 2.152756e+00 2.349015e+00 2.766881e+00 2.280223e+00 2.089516e+00 1.966830e+00 1.489511e+00 1.032000e+00
<GCONST> 9.922948e+01
<STATE> 4
<MEAN> 25
 2.426713e-01 3.664367e+00 8.336860e+00 2.485909e+00 -4.893413e+00 -3.198868e+00 3.850425e-01 -2.535968e+00 -4.259870e+00 -5.169735e-01 1.452642e+00 7.114027e-01 -5.824354e-02 -3.556541e-02 -9.691217e-01 3.183403e-01 7.884279e-01 1.070318e-01 1.627051e-01 3.348370e-01 4.990689e-01 -1.163655e-01 -2.281684e-01 1.539054e-01 -5.206146e-01
<VARIANCE> 25
 4.364487e+01 4.533919e+01 6.662669e+01 5.178022e+01 5.727115e+01 6.852638e+01 5.820517e+01 5.480338e+01 5.217665e+01 4.107548e+01 4.344386e+01 3.404864e+01 2.525292e+00 3.405895e+00 4.543892e+00 4.274044e+00 4.536679e+00 4.249765e+00 4.219338e+00 4.319001e+00 4.034551e+00 3.382653e+00 3.395328e+00 2.698318e+00 3.248562e+00
<GCONST> 1.099821e+02
<TRANSP> 5
 0.000000e+00 1.000000e+00 0.000000e+00 0.000000e+00 0.000000e+00
 0.000000e+00 8.592262e-01 1.407738e-01 0.000000e+00 0.000000e+00
 0.000000e+00 0.000000e+00 8.913968e-01 1.086032e-01 0.000000e+00
 0.000000e+00 0.000000e+00 0.000000e+00 8.857217e-01 1.142783e-01
 0.000000e+00 0.000000e+00 0.000000e+00 0.000000e+00 0.000000e+00
<ENDHMM>
~h "j"
<BEGINHMM>
<NUMSTATES> 5
<STATE> 2
<MEAN> 25
 -3.421314e+00 3.876501e+00 3.876566e+00 1.324644e+00 -3.308663e-02 -2.550370e+00 1.926668e+00 -9.442944e-01 -1.960651e+00 6.812862e-02 1.515143e+00 1.116137e+00 -1.633248e-01 1.155741e-01 3.165983e-01 -2.275459e-01 3.746684e-02 -1.045629e-01 1.388601e-02 -1.249170e-01 -4.791872e-02 9.316244e-03 8.864251e-02 1.894048e-02 5.246720e-01
<VARIANCE> 25
 1.181339e+02 7.350935e+01 9.122802e+01 6.578684e+01 1.054079e+02 7.683498e+01 5.729160e+01 6.110695e+01 5.371840e+01 3.850355e+01 3.784257e+01 2.970757e+01 7.490773e+00 5.371388e+00 5.269233e+00 5.444807e+00 7.157061e+00 5.798228e+00 4.517273e+00 5.384889e+00 4.313048e+00 3.540885e+00 3.143619e+00 2.697094e+00 6.911500e+00
<GCONST> 1.163008e+02
<STATE> 3
<MEAN> 25
 -4.628955e+00 5.316692e+00 1.210163e+01 -2.150374e+00 -3.579465e+00 -1.219544e+00 -1.130342e+00 -4.483542e+00 -4.197578e+00 -7.612799e-01 1.891316e+00 1.074151e+00 1.864504e+00 -1.325684e+00 2.143059e+00 -6.805803e-01 -3.529692e+00 -8.331718e-01 -1.407995e+00 -7.737269e-01 -1.531490e+00 5.922043e-01 5.380701e-01 -3.890732e-01 2.351334e+00
<VARIANCE> 25
 5.768888e+01 4.099073e+01 7.863252e+01 5.562928e+01 7.319910e+01 7.172147e+01 5.563807e+01 5.102502e+01 5.469852e+01 3.205264e+01 2.992774e+01 3.654285e+01 6.687276e+00 5.881842e+00 7.934240e+00 6.322091e+00 5.876245e+00 7.972455e+00 4.594103e+00 6.072814e+00 4.690294e+00 5.015522e+00 3.486163e+00 3.142385e+00 2.943321e+00
<GCONST> 1.144767e+02
<STATE> 4
<MEAN> 25
 1.458288e+00 1.455982e-01 1.186978e+01 -1.124869e+00 -1.122121e+01 -3.719912e+00 -3.825098e+00 -1.820956e+00 -6.654445e+00 -1.533817e+00 3.960912e+00 -2.294347e+00 2.233432e-01 -1.372468e-01 -6.248649e-01 1.039351e-01 1.823305e-01 -7.310071e-02 6.454363e-02 2.213615e-01 1.974571e-01 -7.333560e-02 -1.615452e-01 -1.098783e-01 -1.819797e-01
<VARIANCE> 25
 1.620005e+01 3.822286e+01 7.031291e+01 5.457547e+01 4.878971e+01 5.692477e+01 6.524234e+01 5.758152e+01 6.023280e+01 5.590930e+01 4.616595e+01 4.175399e+01 1.287254e+00 2.366577e+00 3.715367e+00 3.992959e+00 4.023082e+00 3.235220e+00 4.243825e+00 3.828456e+00 4.376764e+00 2.855907e+00 3.282096e+00 2.988634e+00 2.796505e+00
<GCONST> 1.074769e+02
<TRANSP> 5
 0.000000e+00 1.000000e+00 0.000000e+00 0.000000e+00 0.000000e+00
 0.000000e+00 9.415241e-01 5.847592e-02 0.000000e+00 0.000000e+00
 0.000000e+00 0.000000e+00 6.755533e-01 3.244468e-01 0.000000e+00
 0.000000e+00 0.000000e+00 0.000000e+00 9.256638e-01 7.433623e-02
 0.000000e+00 0.000000e+00 0.000000e+00 0.000000e+00 0.000000e+00
<ENDHMM>
~h "k"
<BEGINHMM>
<NUMSTATES> 5
<STATE> 2
<MEAN> 25
 8.400272e-01 1.523378e+00 2.908872e+00 8.924069e-01 -1.429388e+00 -2.019854e+00 -4.294979e-01 -7.537131e-01 -3.727934e-01 2.482810e-01 1.176115e+00 6.089957e-01 -1.136587e-01 5.569889e-02 -3.278590e-02 1.383509e-02 6.270082e-02 -2.492954e-02 2.710059e-02 1.093680e-02 2.650665e-04 2.357242e-02 2.931295e-02 2.627007e-02 -3.143451e-02
<VARIANCE> 25
 7.781143e+01 7.299098e+01 1.108851e+02 5.913002e+01 9.163915e+01 8.468901e+01 7.417202e+01 7.232024e+01 6.816496e+01 4.744630e+01 5.435993e+01 3.678393e+01 4.951090e+00 5.072540e+00 5.329785e+00 4.546220e+00 6.230059e+00 5.419074e+00 5.588500e+00 5.432415e+00 4.801077e+00 4.113590e+00 4.321883e+00 3.187867e+00 4.893651e+00
<GCONST> 1.171439e+02
<STATE> 3
<MEAN> 25
 -2.695270e+00 3.261431e+00 -1.624189e+00 -3.580852e+00 4.269721e+00 -6.605039e-01 -8.082132e-01 -9.736676e-01 4.812117e-01 1.006931e+00 2.004471e+00 1.123687e+00 -1.955087e-01 -4.677574e-01 -2.421718e-01 -4.923370e-01 1.440900e-01 -3.337464e-01 -2.076678e-02 9.916280e-02 1.986089e-01 6.719400e-02 1.554119e-02 -1.603308e-01 8.492883e-01
<VARIANCE> 25
 1.473033e+02 7.535404e+01 1.270127e+02 9.380079e+01 1.106129e+02 1.435629e+02 1.278585e+02 8.067155e+01 9.413190e+01 7.369323e+01 6.235477e+01 5.906360e+01 7.878843e+00 5.972032e+00 7.007289e+00 6.935467e+00 7.531959e+00 8.253607e+00 8.248346e+00 6.044112e+00 6.679570e+00 5.609816e+00 5.508214e+00 4.604624e+00 7.735333e+00
<GCONST> 1.252937e+02
<STATE> 4
<MEAN> 25
 7.984293e-01 -2.894856e+00 -3.596015e+00 -2.881865e+00 2.403918e+00 -3.155678e+00 7.637760e-01 6.590779e-01 3.312574e+00 1.096073e+00 -1.522633e+00 -2.109344e+00 1.172280e+00 -3.794500e-01 4.440957e-01 -1.368624e-02 -8.600225e-01 3.348688e-01 -2.563999e-01 -1.338034e-01 -5.333392e-02 -1.564988e-01 -1.569105e-01 -4.086033e-01 5.287551e-01
<VARIANCE> 25
 7.573419e+01 5.159536e+01 7.734393e+01 4.771547e+01 7.228508e+01 7.073114e+01 6.735341e+01 6.260405e+01 5.332211e+01 5.141833e+01 5.489953e+01 4.043564e+01 6.429601e+00 4.422567e+00 5.049027e+00 4.102471e+00 6.785789e+00 6.162574e+00 5.168696e+00 5.933120e+00 4.765072e+00 4.922116e+00 4.785504e+00 4.350211e+00 4.704610e+00
<GCONST> 1.162133e+02
<TRANSP> 5
 0.000000e+00 1.000000e+00 0.000000e+00 0.000000e+00 0.000000e+00
 0.000000e+00 9.663152e-01 3.368482e-02 0.000000e+00 0.000000e+00
 0.000000e+00 0.000000e+00 8.887367e-01 1.112633e-01 0.000000e+00
 0.000000e+00 0.000000e+00 0.000000e+00 7.867437e-01 2.132563e-01
 0.000000e+00 0.000000e+00 0.000000e+00 0.000000e+00 0.000000e+00
<ENDHMM>
~h "l"
<BEGINHMM>
<NUMSTATES> 5
<STATE> 2
<MEAN> 25
 5.381539e+00 -1.834020e-02 3.553231e+00 -9.149270e-02 -4.034716e+00 5.605535e-01 -4.732712e+00 -2.865198e+00 -2.071405e+00 1.784765e+00 1.769058e+00 -1.224156e+00 1.534820e-01 6.489091e-02 -2.239546e-02 -8.404922e-02 -1.260903e-01 4.200964e-02 -8.736196e-02 -2.419600e-01 -8.343931e-02 2.253344e-01 1.224274e-01 -2.758043e-02 4.896913e-02
<VARIANCE> 25
 2.204392e+01 5.001913e+01 7.759531e+01 6.462653e+01 6.636871e+01 6.770104e+01 5.691924e+01 7.575890e+01 7.823279e+01 5.306989e+01 5.371832e+01 4.449163e+01 1.591313e+00 3.375764e+00 4.646839e+00 5.202835e+00 4.682319e+00 4.468789e+00 4.968329e+00 5.610755e+00 5.728753e+00 4.727903e+00 4.334801e+00 3.451055e+00 3.170720e+00
<GCONST> 1.127559e+02
<STATE> 3
<MEAN> 25
 7.569227e+00 -1.270183e-01 -3.954697e-01 -6.112105e+00 -4.392444e+00 5.203724e+00 -4.217348e+00 -7.909992e+00 -6.974447e-01 3.501473e+00 2.526906e+00 -1.395218e+00 -7.186698e-02 -3.843279e-01 -3.477688e-01 -5.885229e-01 3.813611e-01 2.611945e-01 1.457636e-02 4.809080e-01 3.701937e-01 -5.212656e-02 -1.670540e-01 -2.447672e-01 2.497018e-01
<VARIANCE> 25
 1.038141e+01 3.893336e+01 4.639783e+01 7.961475e+01 5.679932e+01 8.398238e+01 7.572899e+01 5.977938e+01 5.487035e+01 5.619985e+01 5.885883e+01 3.809435e+01 3.113544e-01 1.753492e+00 1.571084e+00 3.255425e+00 2.379305e+00 2.707662e+00 2.853631e+00 2.701800e+00 3.203430e+00 2.675157e+00 2.704155e+00 2.362813e+00 7.564897e-01
<GCONST> 1.014564e+02
<STATE> 4
<MEAN> 25
 5.698409e+00 -2.160336e+00 -3.652069e+00 -4.394130e+00 1.663643e+00 2.671172e+00 -1.874088e+00 -1.112098e+00 1.131945e+00 1.403323e+00 -1.604679e+00 -2.891298e+00 -2.537265e-01 2.298566e-01 2.352130e-02 5.078133e-01 2.263223e-01 -3.231598e-01 3.263553e-01 2.960239e-01 -8.613899e-02 -3.254610e-01 -2.507172e-01 2.002698e-01 -4.553089e-01
<VARIANCE> 25
 1.252965e+01 5.810101e+01 5.323235e+01 7.420100e+01 4.019309e+01 7.039280e+01 5.530772e+01 5.877381e+01 5.545275e+01 3.762534e+01 5.682088e+01 3.815556e+01 7.237285e-01 2.574521e+00 2.171195e+00 3.151868e+00 2.845277e+00 2.760361e+00 3.023952e+00 3.517753e+00 3.145736e+00 2.889823e+00 3.094552e+00 2.282786e+00 1.785822e+00
<GCONST> 1.038910e+02
<TRANSP> 5
 0.000000e+00 1.000000e+00 0.000000e+00 0.000000e+00 0.000000e+00
 0.000000e+00 9.119245e-01 8.807544e-02 0.000000e+00 0.000000e+00
 0.000000e+00 0.000000e+00 7.847790e-01 2.152210e-01 0.000000e+00
 0.000000e+00 0.000000e+00 0.000000e+00 8.444997e-01 1.555003e-01
 0.000000e+00 0.000000e+00 0.000000e+00 0.000000e+00 0.000000e+00
<ENDHMM>
~h "m"
<BEGINHMM>
<NUMSTATES> 5
<STATE> 2
<MEAN> 25
 6.681451e+00 -1.468899e+00 -4.147461e-01 -1.624440e+00 -6.875376e-01 2.966397e+00 -2.951554e+00 -3.539228e+00 -4.560731e-01 8.799273e-01 5.869318e-01 -6.193399e-01 2.758690e-01 1.077584e+00 4.749176e-01 1.111553e+00 -9.667861e-02 2.810388e-01 1.535450e-01 -9.667853e-01 -6.115132e-01 4.424825e-02 -3.191609e-01 2.650898e-01 -1.110032e+00
<VARIANCE> 25
 1.481139e+01 4.897179e+01 7.169545e+01 5.636035e+01 4.946640e+01 6.269719e+01 4.510063e+01 5.132760e+01 4.898150e+01 4.782898e+01 5.064208e+01 3.162545e+01 1.032804e+00 2.710005e+00 3.778353e+00 3.759224e+00 3.385772e+00 3.712730e+00 3.715480e+00 4.219728e+00 3.753604e+00 3.847456e+00 4.138984e+00 2.864917e+00 1.826705e+00
<GCONST> 1.064743e+02
<STATE> 3
<MEAN> 25
 6.033848e+00 3.323991e+00 3.732194e+00 1.286288e+00 -2.113688e+00 1.995232e+00 -2.621015e+00 -5.590727e+00 -4.103037e+00 -5.859510e-01 -1.328549e+00 -5.856787e-01 -4.017343e-02 3.185828e-01 6.424662e-02 8.830637e-02 -4.594494e-02 -1.049716e-02 2.978738e-02 5.102664e-03 -9.941171e-02 2.400514e-02 4.959899e-03 2.377830e-02 -3.203045e-01
<VARIANCE> 25
 1.376837e+01 3.504496e+01 4.875217e+01 6.388866e+01 4.465692e+01 5.828816e+01 4.629352e+01 4.316072e+01 5.531369e+01 4.364608e+01 4.217223e+01 3.491225e+01 3.618398e-01 9.129602e-01 1.279128e+00 1.912660e+00 1.729301e+00 1.867120e+00 1.794144e+00 1.827186e+00 2.228043e+00 1.799756e+00 1.745720e+00 1.512115e+00 5.929538e-01
<GCONST> 9.470119e+01
<STATE> 4
<MEAN> 25
 5.954993e+00 2.862164e+00 2.271594e+00 -1.742892e+00 -2.697904e+00 3.314353e+00 -2.781888e+00 -5.058821e+00 -2.586487e+00 4.943674e-01 2.204889e+00 -1.078401e-01 -1.529262e-01 -7.368345e-01 -4.177785e-01 -6.769788e-01 5.089902e-02 -6.076885e-02 -1.034894e-01 4.167346e-01 3.811260e-01 1.772544e-01 3.894131e-01 -2.174063e-01 7.219833e-01
<VARIANCE> 25
 3.174524e+01 5.255423e+01 1.021549e+02 8.327419e+01 6.995916e+01 9.319948e+01 6.661726e+01 6.987463e+01 8.413481e+01 5.952888e+01 7.218117e+01 4.425959e+01 2.056653e+00 4.242072e+00 6.500333e+00 6.485310e+00 6.041276e+00 6.904672e+00 6.151134e+00 6.715313e+00 6.415514e+00 5.919027e+00 6.039096e+00 3.913151e+00 4.043071e+00
<GCONST> 1.177875e+02
<TRANSP> 5
 0.000000e+00 1.000000e+00 0.000000e+00 0.000000e+00 0.000000e+00
 0.000000e+00 7.598765e-01 2.401236e-01 0.000000e+00 0.000000e+00
 0.000000e+00 0.000000e+00 8.549427e-01 1.450573e-01 0.000000e+00
 0.000000e+00 0.000000e+00 0.000000e+00 8.613201e-01 1.386799e-01
 0.000000e+00 0.000000e+00 0.000000e+00 0.000000e+00 0.000000e+00
<ENDHMM>
~h "n"
<BEGINHMM>
<NUMSTATES> 5
<STATE> 2
<MEAN> 25
 4.761876e+00 -4.063754e+00 -1.065053e-01 8.273652e-01 -1.424980e+00 -5.824722e-01 -1.006561e+00 1.204150e+00 1.448327e+00 -5.882080e-02 -3.844850e+00 -1.636195e+00 1.913980e-01 1.353581e+00 4.253828e-01 1.524862e+00 -1.914822e-01 1.564334e-01 -6.833669e-02 -1.139588e+00 -2.757579e-01 2.550081e-02 -1.353889e-01 5.252257e-01 -1.673636e+00
<VARIANCE> 25
 1.919415e+01 4.622669e+01 5.733359e+01 4.210974e+01 5.259531e+01 5.247363e+01 5.157926e+01 6.849290e+01 5.210201e+01 4.315808e+01 4.445048e+01 3.573575e+01 1.261999e+00 2.555610e+00 4.131476e+00 3.104910e+00 4.457006e+00 3.467727e+00 3.964628e+00 5.066493e+00 4.105097e+00 4.027081e+00 3.751575e+00 2.722650e+00 2.059695e+00
<GCONST> 1.070179e+02
<STATE> 3
<MEAN> 25
 4.424137e+00 3.574762e+00 3.334607e+00 4.060314e+00 -3.120998e+00 -8.443516e-01 -1.743109e+00 -4.269500e+00 -2.851074e+00 -1.358648e+00 -2.733307e+00 -1.124674e+00 -2.446164e-01 4.204307e-01 -6.259478e-02 1.772424e-01 3.143569e-01 1.742730e-01 8.924272e-02 1.891868e-01 -5.207547e-03 -1.047687e-01 1.391071e-01 8.419473e-02 -6.516855e-01
<VARIANCE> 25
 2.063087e+01 3.934259e+01 4.634144e+01 3.373845e+01 5.312725e+01 5.262093e+01 3.889280e+01 5.977438e+01 4.032734e+01 4.151825e+01 4.219620e+01 3.210383e+01 7.303220e-01 1.271640e+00 1.513788e+00 1.535877e+00 2.077038e+00 2.213958e+00 1.901203e+00 2.488048e+00 2.148463e+00 1.822026e+00 1.950495e+00 1.484295e+00 7.150972e-01
<GCONST> 9.626423e+01
<STATE> 4
<MEAN> 25
 -3.230424e+00 2.500834e+00 -2.439932e-01 5.274806e+00 3.632171e+00 1.914110e+00 2.171057e+00 1.918717e+00 1.033275e+00 -8.718211e-01 1.060535e+00 2.670810e+00 -3.188817e-01 -5.160890e-02 -1.237035e-01 -3.282050e-02 1.312834e-01 9.886629e-02 1.089935e-01 1.077498e-01 3.201756e-02 5.605647e-02 1.054850e-01 6.069905e-02 -3.158290e-01
<VARIANCE> 25
 2.917734e+01 3.506227e+01 3.082428e+01 2.738396e+01 3.556718e+01 3.500799e+01 3.334120e+01 4.080562e+01 4.044602e+01 3.156007e+01 3.392752e+01 2.341046e+01 5.365824e-01 8.953891e-01 1.038387e+00 1.270010e+00 1.415334e+00 1.759342e+00 1.852172e+00 2.049807e+00 2.055732e+00 1.776298e+00 1.642044e+00 1.488976e+00 3.596741e-01
<GCONST> 9.074427e+01
<TRANSP> 5
 0.000000e+00 1.000000e+00 0.000000e+00 0.000000e+00 0.000000e+00
 0.000000e+00 7.070959e-01 2.929041e-01 0.000000e+00 0.000000e+00
 0.000000e+00 0.000000e+00 8.595780e-01 1.404220e-01 0.000000e+00
 0.000000e+00 0.000000e+00 0.000000e+00 8.414328e-01 1.585672e-01
 0.000000e+00 0.000000e+00 0.000000e+00 0.000000e+00 0.000000e+00
<ENDHMM>
~h "o"
<BEGINHMM>
<NUMSTATES> 5
<STATE> 2
<MEAN> 25
 1.926785e+00 1.803707e+00 -2.243674e+00 -3.303768e+00 1.768114e-01 2.794419e+00 -2.433164e+00 -3.009821e+00 -6.848758e-02 2.218074e-01 3.592521e+00 -5.991125e-01 9.158413e-01 -2.557110e-01 -5.271526e-01 -1.445284e+00 -7.330946e-02 4.904449e-01 -1.724499e-01 -3.354527e-01 -1.999909e-01 3.336707e-01 4.423334e-01 -4.410513e-01 1.474180e+00
<VARIANCE> 25
 8.799545e+01 4.943900e+01 9.766084e+01 1.050570e+02 7.949168e+01 9.233759e+01 6.379196e+01 6.672256e+01 6.840279e+01 5.053889e+01 6.391098e+01 4.486731e+01 6.968355e+00 4.802794e+00 6.032861e+00 9.222503e+00 7.401200e+00 8.350127e+00 6.667809e+00 6.756934e+00 6.789896e+00 5.465225e+00 7.598796e+00 4.977874e+00 8.989560e+00
<GCONST> 1.218317e+02
<STATE> 3
<MEAN> 25
 8.027744e+00 -1.015192e+00 -6.441828e+00 -1.059914e+01 -4.703918e-01 7.054197e+00 -1.985924e+00 -5.231947e+00 -1.293970e+00 2.123569e+00 6.225596e+00 -3.076689e+00 1.105134e-01 -7.748912e-02 -1.124326e-01 -2.697713e-01 1.487449e-01 2.792780e-01 2.576149e-01 -4.134683e-02 1.341579e-01 2.620591e-01 -2.445796e-01 3.279206e-02 7.539207e-02
<VARIANCE> 25
 1.449879e+01 4.566268e+01 3.679598e+01 8.085446e+01 4.056806e+01 7.906312e+01 6.316162e+01 6.716779e+01 7.161312e+01 7.607122e+01 6.428440e+01 6.689197e+01 1.062293e+00 2.076179e+00 2.096129e+00 4.385106e+00 3.078503e+00 3.618227e+00 3.522186e+00 4.498840e+00 4.056635e+00 4.527668e+00 3.697968e+00 3.699184e+00 2.147100e+00
<GCONST> 1.083089e+02
<STATE> 4
<MEAN> 25
 6.920887e+00 1.387392e+00 -6.426305e+00 -8.567410e+00 2.416783e+00 3.328936e+00 4.330221e-01 -2.978748e+00 -1.678978e+00 1.871354e+00 1.702474e+00 -1.446950e+00 -2.713351e-01 1.765431e-01 2.408917e-01 7.776949e-01 9.482934e-02 -3.517157e-01 5.490953e-02 1.807003e-01 1.512361e-01 -1.037426e-01 -2.186405e-01 2.345760e-01 -7.267354e-01
<VARIANCE> 25
 1.810800e+01 4.438005e+01 4.707962e+01 6.487772e+01 4.918888e+01 8.896828e+01 5.992006e+01 5.165966e+01 6.460523e+01 4.485945e+01 4.906416e+01 5.162246e+01 7.626129e-01 1.280389e+00 2.268981e+00 2.548217e+00 2.761934e+00 2.953134e+00 2.698720e+00 2.664504e+00 3.107580e+00 2.629845e+00 2.372313e+00 2.646209e+00 1.423301e+00
<GCONST> 1.029842e+02
<TRANSP> 5
 0.000000e+00 1.000000e+00 0.000000e+00 0.000000e+00 0.000000e+00
 0.000000e+00 8.435330e-01 1.564671e-01 0.000000e+00 0.000000e+00
 0.000000e+00 0.000000e+00 8.268691e-01 1.731309e-01 0.000000e+00
 0.000000e+00 0.000000e+00 0.000000e+00 8.779507e-01 1.220493e-01
 0.000000e+00 0.000000e+00 0.000000e+00 0.000000e+00 0.000000e+00
<ENDHMM>
~h "p"
<BEGINHMM>
<NUMSTATES> 5
<STATE> 2
<MEAN> 25
 -5.522677e+00 5.121323e+00 -1.490370e+00 1.676531e+00 4.213107e+00 -2.560226e+00 2.410402e+00 6.204892e-01 -5.505635e-01 1.782992e-01 8.202323e-01 1.367445e+00 -6.113680e-01 1.739340e-01 -6.359586e-02 -2.034350e-02 1.821308e-01 -1.783823e-01 1.526169e-01 1.054280e-01 -6.905305e-02 -8.815669e-02 1.948759e-01 5.945213e-02 -1.210979e-01
<VARIANCE> 25
 1.320877e+02 4.535914e+01 5.597730e+01 4.118215e+01 6.089286e+01 6.022997e+01 3.926581e+01 5.040358e+01 4.945187e+01 3.607891e+01 3.422276e+01 3.071551e+01 6.302640e+00 3.773831e+00 2.899014e+00 3.301982e+00 4.537208e+00 4.084013e+00 3.644690e+00 3.793295e+00 4.123981e+00 2.860062e+00 2.977624e+00 2.447019e+00 3.937510e+00
<GCONST> 1.094281e+02
<STATE> 3
<MEAN> 25
 -4.718440e+00 2.369434e+00 -2.057122e+00 2.995197e-01 2.951265e+00 -4.759625e+00 2.329943e+00 -4.068027e-02 -1.412335e+00 1.034342e-01 1.496752e+00 1.490189e+00 1.918796e+00 -1.731823e+00 -3.542744e-01 -1.948465e+00 -9.955858e-01 -9.273320e-03 -1.126824e+00 -8.418365e-01 5.893198e-01 1.487329e-01 3.067171e-01 -6.301606e-01 3.387484e+00
<VARIANCE> 25
 8.681896e+01 5.223859e+01 7.593880e+01 5.770790e+01 7.133010e+01 1.054610e+02 4.984951e+01 5.436536e+01 5.763327e+01 3.799813e+01 3.288011e+01 2.755418e+01 1.204903e+01 6.431489e+00 9.090366e+00 7.320272e+00 9.132735e+00 1.138998e+01 6.658495e+00 6.403289e+00 6.760048e+00 5.358328e+00 4.833267e+00 4.765141e+00 9.850060e+00
<GCONST> 1.200423e+02
<STATE> 4
<MEAN> 25
 5.199555e+00 -1.225195e+00 -4.847692e+00 -5.170843e+00 2.029672e+00 5.165632e+00 -1.629100e+00 -4.348185e+00 1.579250e+00 1.021561e+00 2.721272e+00 -2.938672e+00 1.473094e-01 -1.159004e-01 1.259252e-01 1.737555e-03 -3.091918e-02 -4.430683e-02 -9.041895e-02 4.357069e-02 1.908991e-03 3.594676e-02 -1.011455e-01 -1.124795e-01 1.907014e-01
<VARIANCE> 25
 5.762321e+01 5.195803e+01 7.027973e+01 7.148492e+01 7.536835e+01 1.022605e+02 9.837756e+01 7.626208e+01 7.188983e+01 6.552942e+01 6.857771e+01 5.382507e+01 5.191307e+00 3.804685e+00 3.796256e+00 5.188566e+00 6.001942e+00 8.317394e+00 6.321215e+00 5.554321e+00 4.950729e+00 5.126954e+00 5.666214e+00 4.334512e+00 7.666560e+00
<GCONST> 1.189221e+02
<TRANSP> 5
 0.000000e+00 1.000000e+00 0.000000e+00 0.000000e+00 0.000000e+00
 0.000000e+00 8.953310e-01 1.046690e-01 0.000000e+00 0.000000e+00
 0.000000e+00 0.000000e+00 6.516415e-01 3.483585e-01 0.000000e+00
 0.000000e+00 0.000000e+00 0.000000e+00 9.202446e-01 7.975537e-02
 0.000000e+00 0.000000e+00 0.000000e+00 0.000000e+00 0.000000e+00
<ENDHMM>
~h "r"
<BEGINHMM>
<NUMSTATES> 5
<STATE> 2
<MEAN> 25
 3.675923e+00 -3.193063e+00 -2.906162e+00 -1.658049e+00 4.792140e-01 4.764196e-03 1.526746e-02 3.856370e-01 2.990067e+00 4.815736e-01 -5.495255e-01 -2.311957e+00 -1.385170e-02 -2.380133e-01 1.474010e-02 -7.620154e-02 -1.323189e-01 -1.254712e-01 2.186042e-02 1.286714e-01 1.496374e-01 -3.231404e-02 -8.517872e-02 -3.299124e-02 2.820863e-01
<VARIANCE> 25
 4.378939e+01 5.823875e+01 7.879609e+01 5.418044e+01 8.360121e+01 8.455407e+01 6.371556e+01 7.075492e+01 6.584079e+01 5.394530e+01 6.298864e+01 5.411952e+01 3.954596e+00 4.750827e+00 5.006719e+00 5.431218e+00 6.678537e+00 6.493560e+00 5.331709e+00 6.194449e+00 5.222118e+00 4.890746e+00 4.770455e+00 4.499784e+00 6.025381e+00
<GCONST> 1.173424e+02
<STATE> 3
<MEAN> 25
 4.455706e+00 -3.495978e+00 2.144343e+00 1.800216e+00 -3.472786e+00 -2.093493e+00 -2.048575e+00 1.191382e+00 2.174824e+00 -1.224222e+00 -9.605129e-01 -6.463201e-01 -7.071912e-01 1.368552e+00 9.124010e-01 7.031375e-01 3.280799e-02 -2.526713e-01 3.389087e-01 -2.990800e-01 -1.075006e+00 -2.029148e-01 3.657911e-01 5.592239e-01 -8.266000e-01
<VARIANCE> 25
 3.242978e+01 4.419836e+01 6.150441e+01 3.780431e+01 9.581660e+01 6.118181e+01 8.042936e+01 6.195737e+01 6.538969e+01 4.830292e+01 5.345412e+01 4.398347e+01 3.536408e+00 3.084830e+00 4.049229e+00 3.977723e+00 5.890978e+00 4.685688e+00 5.170898e+00 5.928973e+00 5.003757e+00 4.108720e+00 3.996336e+00 3.427530e+00 2.856349e+00
<GCONST> 1.125766e+02
<STATE> 4
<MEAN> 25
 4.617588e-01 8.773349e-01 2.953457e+00 1.970409e+00 -2.508205e+00 -2.468585e+00 1.910267e-01 -6.245254e-01 -1.624880e+00 -1.363124e+00 -5.397736e-01 -1.153345e-01 -1.419344e-01 2.231657e-01 2.144872e-02 9.794568e-02 8.183271e-02 2.842882e-02 1.534133e-02 2.581880e-03 -5.539077e-02 -1.065007e-02 2.082112e-02 3.435735e-02 -3.066526e-01
<VARIANCE> 25
 5.823566e+01 5.540615e+01 7.922304e+01 4.718274e+01 7.548212e+01 6.943954e+01 5.146017e+01 7.031225e+01 5.590260e+01 4.115842e+01 4.671447e+01 3.192690e+01 1.761645e+00 2.267319e+00 2.637062e+00 2.389112e+00 3.121130e+00 3.010180e+00 2.715952e+00 3.365476e+00 2.733840e+00 2.296967e+00 2.424118e+00 1.978727e+00 1.506742e+00
<GCONST> 1.055526e+02
<TRANSP> 5
 0.000000e+00 1.000000e+00 0.000000e+00 0.000000e+00 0.000000e+00
 0.000000e+00 9.322383e-01 6.776170e-02 0.000000e+00 0.000000e+00
 0.000000e+00 0.000000e+00 5.775827e-01 4.224173e-01 0.000000e+00
 0.000000e+00 0.000000e+00 0.000000e+00 9.305419e-01 6.945806e-02
 0.000000e+00 0.000000e+00 0.000000e+00 0.000000e+00 0.000000e+00
<ENDHMM>
~h "s"
<BEGINHMM>
<NUMSTATES> 5
<STATE> 2
<MEAN> 25
 -7.410287e+00 4.185970e+00 8.403916e-01 3.678562e-01 4.935116e+00 -2.814745e+00 3.721409e+00 4.593426e-01 -2.882851e-02 -1.722816e-01 1.029339e+00 9.544485e-01 -2.705837e+00 1.302742e+00 -1.836697e-01 -2.279540e-01 1.456344e+00 -1.052813e+00 1.129982e+00 1.784254e-01 4.236100e-01 -2.497420e-01 6.050742e-01 4.112790e-01 9.462670e-01
<VARIANCE> 25
 1.021218e+02 6.020053e+01 9.955949e+01 5.821591e+01 1.083693e+02 9.985402e+01 7.986189e+01 8.343442e+01 6.326629e+01 4.831232e+01 5.294943e+01 3.408973e+01 6.805623e+00 5.237510e+00 5.290625e+00 5.195751e+00 7.472106e+00 8.380497e+00 7.216639e+00 5.965278e+00 5.092258e+00 4.140852e+00 4.583952e+00 3.239614e+00 5.141823e+00
<GCONST> 1.191235e+02
<STATE> 3
<MEAN> 25
 -1.860474e+01 6.393134e+00 -1.524590e+00 -2.795558e-01 8.045601e+00 -4.973504e+00 6.560274e+00 4.590637e-01 1.238472e+00 -1.257464e+00 2.664545e+00 3.369089e+00 -3.212022e-01 -3.055708e-01 -1.079642e-01 -8.797769e-02 -2.475920e-01 -1.642265e-02 -3.078201e-02 3.163112e-02 6.822266e-02 -2.000087e-02 -7.713075e-02 7.133589e-02 9.607992e-02
<VARIANCE> 25
 4.745089e+01 4.761562e+01 6.976014e+01 5.781535e+01 6.404746e+01 8.511254e+01 4.973885e+01 5.314643e+01 4.097605e+01 3.104946e+01 2.732632e+01 2.843791e+01 2.543228e+00 1.863894e+00 1.722254e+00 1.698462e+00 2.207619e+00 2.097621e+00 2.070828e+00 2.364744e+00 2.212145e+00 1.929242e+00 1.848258e+00 1.674166e+00 1.488732e+00
<GCONST> 1.009891e+02
<STATE> 4
<MEAN> 25
 -8.612422e+00 3.077332e+00 -5.151879e-01 -4.557186e-01 4.144396e+00 -4.890934e+00 2.549839e+00 1.473133e-01 8.945487e-01 -3.895596e-01 8.801231e-01 1.070827e+00 3.217945e+00 -1.018392e+00 5.185603e-01 -5.045443e-01 -1.501194e+00 1.565140e-01 -1.404281e+00 -5.834256e-01 1.280445e-02 2.874747e-01 -5.465740e-01 -7.865301e-01 1.373726e+00
<VARIANCE> 25
 1.074779e+02 4.963842e+01 7.575374e+01 6.345106e+01 9.021217e+01 8.733644e+01 6.796824e+01 6.183417e+01 5.111943e+01 3.955375e+01 4.212237e+01 3.167527e+01 1.040656e+01 6.184122e+00 6.456875e+00 5.974630e+00 7.901019e+00 7.720089e+00 6.810860e+00 6.061728e+00 5.777406e+00 4.498510e+00 4.555432e+00 3.457369e+00 5.847681e+00
<GCONST> 1.185591e+02
<TRANSP> 5
 0.000000e+00 1.000000e+00 0.000000e+00 0.000000e+00 0.000000e+00
 0.000000e+00 7.419456e-01 2.580544e-01 0.000000e+00 0.000000e+00
 0.000000e+00 0.000000e+00 8.168730e-01 1.831270e-01 0.000000e+00
 0.000000e+00 0.000000e+00 0.000000e+00 7.762617e-01 2.237382e-01
 0.000000e+00 0.000000e+00 0.000000e+00 0.000000e+00 0.000000e+00
<ENDHMM>
~h "t"
<BEGINHMM>
<NUMSTATES> 5
<STATE> 2
<MEAN> 25
 -1.788269e-01 2.113633e+00 1.087895e+00 1.189754e+00 -8.214427e-03 -2.676104e+00 7.893285e-01 -3.015110e-01 -5.129123e-02 5.152972e-01 7.356376e-01 1.866985e-01 -1.901082e-01 9.862901e-02 -2.515880e-02 -1.998386e-03 9.962834e-02 -6.597123e-02 7.232008e-02 4.013536e-02 4.970839e-03 -1.490758e-03 6.334480e-02 6.810606e-02 -1.197182e-02
<VARIANCE> 25
 8.703362e+01 6.403751e+01 1.069186e+02 5.637714e+01 9.217058e+01 7.887365e+01 6.968407e+01 7.644897e+01 7.212899e+01 4.479840e+01 5.262497e+01 4.025238e+01 5.476235e+00 4.545043e+00 5.516811e+00 4.346457e+00 6.428736e+00 5.833949e+00 5.350925e+00 5.431047e+00 5.257148e+00 4.066063e+00 4.247697e+00 3.445485e+00 4.678792e+00
<GCONST> 1.171621e+02
<STATE> 3
<MEAN> 25
 -1.161825e+01 3.947482e+00 3.672439e-01 1.676979e-01 5.700294e+00 -6.734195e+00 4.841291e+00 1.361675e+00 -2.221109e-01 -1.008425e+00 2.452098e+00 3.210639e+00 -2.362035e-01 -1.033963e+00 4.742564e-02 -1.317495e+00 -5.790617e-01 -1.198646e+00 -2.929634e-01 -2.707367e-01 4.474517e-02 1.966815e-02 3.025409e-01 -2.140459e-02 1.944098e+00
<VARIANCE> 25
 9.588004e+01 5.617076e+01 7.423399e+01 9.614561e+01 1.085039e+02 1.263864e+02 8.161990e+01 5.614702e+01 5.849989e+01 4.517979e+01 3.758673e+01 3.706067e+01 1.010595e+01 5.501781e+00 7.001589e+00 6.301877e+00 7.387962e+00 8.696245e+00 6.541433e+00 6.191509e+00 5.528301e+00 4.764647e+00 5.180097e+00 3.990249e+00 8.728477e+00
<GCONST> 1.206222e+02
<STATE> 4
<MEAN> 25
 -1.722491e+00 -1.887683e+00 -1.247485e+00 -3.079663e+00 -4.360921e-02 -6.312960e+00 1.548304e+00 9.766279e-01 2.184988e+00 6.011174e-01 1.942470e-02 -9.837252e-01 2.592279e+00 -1.191680e+00 3.210732e-01 -5.739740e-01 -1.343197e+00 6.441126e-01 -1.150260e+00 -2.089787e-01 1.571625e-01 4.035995e-01 -2.388605e-01 -1.170459e+00 1.803076e+00
<VARIANCE> 25
 5.926924e+01 4.439882e+01 8.329538e+01 3.952174e+01 8.010013e+01 7.543594e+01 7.207416e+01 6.807618e+01 5.097672e+01 3.457692e+01 5.379350e+01 4.911262e+01 6.605843e+00 4.948026e+00 7.690112e+00 5.711293e+00 6.800686e+00 8.108888e+00 6.940647e+00 6.629385e+00 5.886285e+00 4.912580e+00 6.474363e+00 5.547750e+00 5.963381e+00
<GCONST> 1.183197e+02
<TRANSP> 5
 0.000000e+00 1.000000e+00 0.000000e+00 0.000000e+00 0.000000e+00
 0.000000e+00 9.588439e-01 4.115606e-02 0.000000e+00 0.000000e+00
 0.000000e+00 0.000000e+00 6.879933e-01 3.120067e-01 0.000000e+00
 0.000000e+00 0.000000e+00 0.000000e+00 5.982265e-01 4.017735e-01
 0.000000e+00 0.000000e+00 0.000000e+00 0.000000e+00 0.000000e+00
<ENDHMM>
~h "u"
<BEGINHMM>
<NUMSTATES> 5
<STATE> 2
<MEAN> 25
 1.757272e+00 7.465743e-01 2.296854e+00 -8.048594e-01 -1.253866e+00 -1.373649e+00 -1.825013e+00 -4.900129e-01 1.214568e-01 2.909923e-01 1.063066e+00 -3.525411e-01 1.337861e-01 -2.854032e-02 -2.309541e-02 -1.789030e-01 -6.697027e-02 1.129395e-01 -9.383639e-02 -1.163650e-01 -8.642920e-02 1.031774e-02 1.116655e-01 -1.535759e-02 1.665692e-01
<VARIANCE> 25
 6.181811e+01 7.190594e+01 1.277150e+02 6.878701e+01 1.010968e+02 8.280405e+01 7.469444e+01 7.831438e+01 7.333166e+01 5.335909e+01 6.269095e+01 4.152845e+01 4.928813e+00 5.281964e+00 6.247199e+00 5.778208e+00 7.343046e+00 6.609335e+00 6.485665e+00 6.526045e+00 5.655844e+00 4.537764e+00 5.449767e+00 3.897278e+00 5.516881e+00
<GCONST> 1.197527e+02
<STATE> 3
<MEAN> 25
 8.233836e+00 6.232811e-01 -1.302052e+00 -5.735797e+00 -2.683053e+00 7.380664e+00 -4.729587e+00 -6.319558e+00 -1.244380e+00 6.367922e-01 3.095865e+00 -8.925511e-01 5.671992e-02 -6.283061e-02 -6.337106e-02 -2.226829e-04 6.365024e-02 1.108051e-01 2.569496e-02 5.201862e-02 7.477088e-02 5.058750e-02 -1.072022e-01 -2.179901e-02 -6.289890e-02
<VARIANCE> 25
 1.333332e+01 6.581088e+01 5.310688e+01 8.854053e+01 5.376408e+01 7.348464e+01 8.601322e+01 7.506385e+01 8.258804e+01 5.756304e+01 6.272635e+01 5.437258e+01 8.490479e-01 3.304069e+00 2.867691e+00 5.137682e+00 4.126083e+00 4.857087e+00 4.909832e+00 5.272304e+00 4.719850e+00 4.223998e+00 4.383874e+00 3.822142e+00 2.155673e+00
<GCONST> 1.113881e+02
<STATE> 4
<MEAN> 25
 5.328020e+00 1.255511e+00 6.805789e-02 -5.523908e+00 -2.129642e+00 8.663842e-01 -2.193029e+00 -3.472405e+00 -3.133590e+00 6.747587e-01 -1.360698e-01 -1.362216e+00 -1.776733e-01 1.235976e-01 9.110293e-02 4.424195e-01 1.251316e-01 -1.504022e-01 2.121798e-01 1.396682e-01 9.130508e-02 -6.596075e-02 -1.861657e-01 1.135957e-01 -4.116682e-01
<VARIANCE> 25
 1.755566e+01 5.126044e+01 9.836177e+01 7.239228e+01 6.514837e+01 5.478779e+01 4.989520e+01 5.263079e+01 6.220716e+01 4.662539e+01 4.442262e+01 3.319288e+01 6.733980e-01 1.428782e+00 2.102336e+00 2.981771e+00 2.312757e+00 2.506235e+00 2.516433e+00 2.640721e+00 2.470120e+00 2.330957e+00 2.295489e+00 1.859948e+00 1.108132e+00
<GCONST> 1.016948e+02
<TRANSP> 5
 0.000000e+00 1.000000e+00 0.000000e+00 0.000000e+00 0.000000e+00
 0.000000e+00 9.608027e-01 3.919727e-02 0.000000e+00 0.000000e+00
 0.000000e+00 0.000000e+00 9.020521e-01 9.794793e-02 0.000000e+00
 0.000000e+00 0.000000e+00 0.000000e+00 9.153806e-01 8.461943e-02
 0.000000e+00 0.000000e+00 0.000000e+00 0.000000e+00 0.000000e+00
<ENDHMM>
~h "w"
<BEGINHMM>
<NUMSTATES> 5
<STATE> 2
<MEAN> 25
 9.700355e+00 -2.377684e+00 -2.531050e+00 -1.150458e-01 -3.755489e+00 2.556680e+00 -9.845551e-01 -3.465769e+00 -2.301763e+00 5.293671e-01 1.596044e+00 3.905749e-02 2.099500e-01 -5.179871e-01 -6.259621e-01 -9.975787e-01 1.416323e-01 5.542857e-01 1.997084e-01 1.943917e-01 -1.568468e-01 -2.109253e-01 3.796737e-01 -3.147869e-01 6.032181e-01
<VARIANCE> 25
 2.087562e+01 3.723513e+01 5.124536e+01 6.050105e+01 5.661031e+01 8.510636e+01 3.608912e+01 7.328111e+01 7.268999e+01 4.020661e+01 4.840046e+01 2.264134e+01 1.084929e+00 4.577042e+00 5.495647e+00 6.672882e+00 5.992270e+00 4.450446e+00 4.062675e+00 7.070555e+00 6.386451e+00 4.619950e+00 4.486014e+00 2.813197e+00 3.098818e+00
<GCONST> 1.108786e+02
<STATE> 3
<MEAN> 25
 8.185223e+00 -6.757901e+00 -7.398911e+00 -7.442022e+00 -1.677972e+00 7.936967e+00 -1.356515e+00 -2.835388e+00 1.228003e+00 -1.301536e+00 4.541794e+00 -5.676916e+00 -3.580121e-01 -1.833980e+00 -4.116976e-01 -4.131846e-02 9.663466e-01 -6.673377e-02 -3.403107e-01 1.082535e+00 1.231623e+00 -2.112475e-01 -9.893169e-01 -1.507886e+00 9.151874e-01
<VARIANCE> 25
 2.134481e+01 2.289395e+01 2.869963e+01 5.590619e+01 5.880141e+01 5.905548e+01 5.124132e+01 7.728522e+01 3.116392e+01 4.462662e+01 5.522484e+01 3.609318e+01 1.117913e+00 1.587684e+00 2.958587e+00 4.305449e+00 3.287982e+00 2.585135e+00 4.391692e+00 6.213416e+00 4.986473e+00 4.828528e+00 4.926043e+00 2.602861e+00 1.021633e+00
<GCONST> 1.051096e+02
<STATE> 4
<MEAN> 25
 6.672365e+00 -7.979384e+00 -1.937580e+00 -4.889186e+00 1.997470e+00 2.518197e+00 -4.038412e+00 5.549549e+00 -2.157982e+00 1.394374e+00 -1.130984e+00 -6.796788e+00 9.210712e-02 2.788875e-01 -2.115701e-02 6.533138e-01 1.007393e-02 -1.652824e-01 1.906547e-01 -2.539483e-01 1.504583e-01 1.070422e-01 -5.534770e-01 1.268334e-01 -3.755334e-01
<VARIANCE> 25
 1.217284e+01 2.341459e+01 3.590469e+01 5.051363e+01 3.133348e+01 2.799475e+01 4.944628e+01 7.792216e+01 4.026578e+01 3.780220e+01 4.031674e+01 2.289401e+01 2.134366e-01 1.003651e+00 5.156977e-01 6.750458e-01 1.481612e+00 1.417027e+00 8.873821e-01 1.440896e+00 9.279200e-01 1.352292e+00 1.402543e+00 7.091393e-01 2.570139e-01
<GCONST> 8.554588e+01
<TRANSP> 5
 0.000000e+00 1.000000e+00 0.000000e+00 0.000000e+00 0.000000e+00
 0.000000e+00 8.451478e-01 1.548523e-01 0.000000e+00 0.000000e+00
 0.000000e+00 0.000000e+00 6.127459e-01 3.872541e-01 0.000000e+00
 0.000000e+00 0.000000e+00 0.000000e+00 8.441055e-01 1.558945e-01
 0.000000e+00 0.000000e+00 0.000000e+00 0.000000e+00 0.000000e+00
<ENDHMM>
~h "y"
<BEGINHMM>
<NUMSTATES> 5
<STATE> 2
<MEAN> 25
 1.791792e+00 2.299114e+00 5.632729e+00 -6.164384e-01 -2.752887e+00 -2.592734e+00 -3.158773e+00 -1.878228e+00 -2.051396e+00 5.065137e-01 1.589927e+00 -1.477155e-01 5.536698e-02 -9.089113e-02 2.687693e-01 -2.275114e-01 -2.496037e-01 -4.121367e-02 -8.379120e-02 -5.176258e-02 -1.124782e-01 3.612919e-02 9.258666e-02 -1.260678e-02 2.235985e-01
<VARIANCE> 25
 7.010975e+01 6.410271e+01 1.414725e+02 7.597336e+01 9.795753e+01 9.484625e+01 9.297758e+01 8.061042e+01 8.077228e+01 6.238632e+01 5.717246e+01 4.387254e+01 4.303488e+00 4.700256e+00 7.341922e+00 5.349118e+00 7.160485e+00 6.028892e+00 6.906075e+00 5.424656e+00 5.115173e+00 4.229294e+00 4.482536e+00 3.538284e+00 4.646745e+00
<GCONST> 1.194914e+02
<STATE> 3
<MEAN> 25
 1.748827e+00 -1.704488e+00 1.241752e+01 -5.954299e+00 -1.204941e+01 -3.007818e+00 -2.697932e+00 1.723144e-01 -5.931480e+00 9.395062e-01 4.844018e+00 -2.344535e+00 1.622599e-01 -5.511987e-01 -9.037918e-01 2.108853e-01 2.111751e-01 -1.186792e-01 5.745841e-01 6.605706e-01 4.737659e-01 -2.456805e-01 -3.117028e-01 2.067691e-02 1.117318e-01
<VARIANCE> 25
 1.057798e+01 3.854174e+01 7.329816e+01 3.649257e+01 4.508746e+01 5.004478e+01 5.149998e+01 5.245872e+01 4.076521e+01 5.256793e+01 3.979918e+01 2.953266e+01 5.208322e-01 2.094714e+00 3.618176e+00 2.212194e+00 3.063348e+00 2.224991e+00 2.869798e+00 3.679771e+00 2.582725e+00 2.897372e+00 2.374909e+00 1.883579e+00 1.180412e+00
<GCONST> 1.003315e+02
<STATE> 4
<MEAN> 25
 3.060403e+00 -4.833288e+00 1.015735e+00 -1.703113e+00 -3.682827e+00 -1.734650e+00 -4.056801e-01 4.236907e+00 -1.013684e+00 -3.465514e+00 -2.368603e+00 1.100420e-01 1.567881e-01 -9.659859e-02 -8.799002e-01 3.092656e-01 8.574386e-01 4.774412e-01 -4.575927e-03 -3.217086e-02 4.712459e-01 -3.121782e-01 -5.891866e-01 -2.450345e-02 -3.202600e-01
<VARIANCE> 25
 2.250279e+01 6.026964e+01 3.725085e+01 4.270180e+01 4.265450e+01 4.537230e+01 5.830116e+01 6.128014e+01 5.644524e+01 3.847195e+01 4.201748e+01 3.600586e+01 3.467416e-01 9.446638e-01 1.358309e+00 1.368198e+00 1.680634e+00 1.830024e+00 1.818541e+00 1.948424e+00 1.834509e+00 1.607801e+00 1.835361e+00 1.712009e+00 3.744588e-01
<GCONST> 9.442187e+01
<TRANSP> 5
 0.000000e+00 1.000000e+00 0.000000e+00 0.000000e+00 0.000000e+00
 0.000000e+00 9.708955e-01 2.910456e-02 0.000000e+00 0.000000e+00
 0.000000e+00 0.000000e+00 8.579117e-01 1.420883e-01 0.000000e+00
 0.000000e+00 0.000000e+00 0.000000e+00 8.111934e-01 1.888066e-01
 0.000000e+00 0.000000e+00 0.000000e+00 0.000000e+00 0.000000e+00
<ENDHMM>
~h "z"
<BEGINHMM>
<NUMSTATES> 5
<STATE> 2
<MEAN> 25
 -6.192896e+00 -3.960896e-01 -5.373151e-01 2.242766e+00 3.838346e+00 3.270036e+00 4.690323e-01 2.499806e+00 8.468854e-01 1.890310e+00 2.188836e+00 3.856380e+00 -4.138710e-02 -1.927934e-02 -1.277013e-02 -1.742480e-02 -6.313140e-03 -6.078333e-04 -2.438471e-02 -2.644277e-02 -2.303805e-02 -1.419400e-02 1.783350e-02 -1.992768e-02 -2.486008e-02
<VARIANCE> 25
 4.589162e+00 1.431021e+01 8.874559e+00 8.074345e+00 9.957451e+00 2.035973e+01 2.197396e+01 2.012080e+01 1.582223e+01 1.282854e+01 1.859617e+01 9.515279e+00 2.129566e-01 3.411544e-01 5.885670e-01 7.064295e-01 8.690413e-01 1.208106e+00 1.360422e+00 1.415427e+00 1.375108e+00 1.430689e+00 1.493983e+00 1.110783e+00 1.203019e-01
<GCONST> 7.256559e+01
<STATE> 3
<MEAN> 25
 5.945945e-01 4.328585e+00 1.519082e+00 4.994460e+00 -1.394053e+00 -3.603141e+00 -4.825360e-01 -1.088483e+00 4.894246e-02 -1.559325e+00 -1.827917e+00 5.225869e-01 1.137478e+00 -1.434236e-01 4.359245e-01 5.674691e-01 -1.006344e+00 -9.925204e-01 -7.129206e-02 -4.858188e-01 1.135407e-01 5.460738e-02 -4.699105e-01 7.351340e-02 1.245771e+00
<VARIANCE> 25
 5.983297e+01 5.674599e+01 2.820236e+01 1.964704e+01 4.682581e+01 5.053553e+01 2.741173e+01 2.739503e+01 2.839235e+01 1.407310e+01 1.425838e+01 1.710339e+01 3.271391e+00 3.626076e+00 3.676116e+00 3.089218e+00 6.531785e+00 5.149234e+00 3.922814e+00 1.463500e+00 3.689907e+00 2.153259e+00 1.511235e+00 2.441952e+00 1.084010e+01
<GCONST> 1.021997e+02
<STATE> 4
<MEAN> 25
 -7.567386e-01 5.052729e+00 2.340097e+00 6.651669e+00 -7.885427e+00 -1.197304e+01 4.773874e+00 -6.535420e+00 5.746843e-01 -7.905676e-01 -7.406559e+00 4.161153e+00 6.899623e-01 -1.026184e+00 1.229235e+00 -1.042705e-01 -1.711100e+00 -4.189247e-02 7.084367e-02 -6.164789e-01 -6.691279e-01 2.956144e-02 2.664649e-02 2.926135e-01 3.695699e-01
<VARIANCE> 25
 4.156626e+01 6.456433e+01 3.357739e+01 2.416266e+01 5.217141e+01 4.384095e+01 4.171582e+01 3.479425e+01 5.032109e+01 1.418865e+01 5.336139e+01 2.088486e+01 1.795617e+00 2.905221e+00 3.428327e+00 1.958025e+00 4.086888e+00 5.436537e+00 5.069325e+00 3.023202e+00 9.994192e-01 1.601439e+00 2.192590e+00 2.622579e+00 2.053331e+00
<GCONST> 1.014683e+02
<TRANSP> 5
 0.000000e+00 1.000000e+00 0.000000e+00 0.000000e+00 0.000000e+00
 0.000000e+00 9.754561e-01 2.454393e-02 0.000000e+00 0.000000e+00
 0.000000e+00 0.000000e+00 7.963816e-01 2.036184e-01 0.000000e+00
 0.000000e+00 0.000000e+00 0.000000e+00 6.822689e-01 3.177311e-01
 0.000000e+00 0.000000e+00 0.000000e+00 0.000000e+00 0.000000e+00
<ENDHMM>
~h "aw"
<BEGINHMM>
<NUMSTATES> 5
<STATE> 2
<MEAN> 25
 6.797556e+00 -3.852508e+00 -6.015532e+00 -1.153764e+01 -2.528161e+00 7.908391e+00 3.229604e+00 -2.922646e+00 5.875662e+00 2.781929e+00 2.522968e+00 -4.835972e+00 7.787280e-01 1.000392e+00 -1.173010e-01 -9.274153e-01 -5.183190e-03 1.105722e+00 7.543769e-02 -8.490020e-01 -1.226656e+00 1.201203e-02 4.015629e-01 8.640949e-01 -1.197705e+00
<VARIANCE> 25
 3.003569e+01 4.616202e+01 2.039811e+01 4.598209e+01 3.266457e+01 6.686379e+01 3.181622e+01 5.330013e+01 6.803789e+01 3.856791e+01 4.754324e+01 5.306852e+01 1.082686e+00 1.788104e+00 2.380962e+00 4.238617e+00 3.777694e+00 5.704392e+00 2.810219e+00 5.567815e+00 3.133403e+00 4.032767e+00 3.647411e+00 4.781581e+00 8.600518e-01
<GCONST> 1.048933e+02
<STATE> 3
<MEAN> 25
 5.333347e+00 -1.739321e+00 -5.800700e+00 -7.118587e+00 -1.119727e+00 -7.664880e-01 5.511675e+00 2.396845e+00 -2.196069e+00 6.479270e-01 -5.511872e+00 7.015699e-02 -2.895640e-01 3.226799e-01 1.004826e-01 4.183954e-01 -8.249926e-02 2.655935e-02 -4.962108e-01 -5.950106e-02 4.275689e-02 -3.021202e-02 -7.492635e-02 -2.039133e-01 -7.902003e-01
<VARIANCE> 25
 3.455137e+01 5.160042e+01 2.451066e+01 6.420830e+01 5.648313e+01 7.188776e+01 7.630115e+01 2.679189e+01 3.029888e+01 8.775614e+01 5.574545e+01 1.847257e+01 9.378157e-01 1.379094e+00 1.034689e+00 1.258218e+00 1.372947e+00 1.852478e+00 2.637288e+00 2.437502e+00 1.887063e+00 2.222583e+00 1.662514e+00 1.290701e+00 3.282755e-01
<GCONST> 9.594730e+01
<STATE> 4
<MEAN> 25
 -3.039470e+00 3.499502e+00 -3.200526e+00 2.323009e+00 2.794936e-02 1.500432e+00 -1.137333e-02 2.580397e+00 1.737723e+00 -1.377415e+00 4.121103e+00 3.579365e+00 -6.743382e-02 -5.648734e-02 -5.795104e-02 7.017944e-02 -3.412807e-02 2.935712e-03 -5.630968e-02 -4.125048e-03 -4.486543e-02 -4.410252e-02 8.841033e-02 5.191473e-02 -8.565716e-02
<VARIANCE> 25
 3.145629e+01 1.158671e+01 1.642168e+01 3.227604e+01 2.377275e+01 2.677564e+01 2.263375e+01 2.176161e+01 2.814563e+01 2.841228e+01 2.152599e+01 2.164456e+01 3.468207e-01 5.101069e-01 6.853949e-01 9.727496e-01 8.440090e-01 1.221768e+00 1.206906e+00 1.174729e+00 1.351635e+00 1.206202e+00 1.229641e+00 1.164038e+00 1.295681e-01
<GCONST> 8.064835e+01
<TRANSP> 5
 0.000000e+00 1.000000e+00 0.000000e+00 0.000000e+00 0.000000e+00
 0.000000e+00 8.723185e-01 1.276815e-01 0.000000e+00 0.000000e+00
 0.000000e+00 0.000000e+00 7.912350e-01 2.087650e-01 0.000000e+00
 0.000000e+00 0.000000e+00 0.000000e+00 9.283566e-01 7.164334e-02
 0.000000e+00 0.000000e+00 0.000000e+00 0.000000e+00 0.000000e+00
<ENDHMM>
~h "ay"
<BEGINHMM>
<NUMSTATES> 5
<STATE> 2
<MEAN> 25
 3.722087e+00 -1.056980e+01 -8.314912e-01 -6.971821e+00 -5.733924e+00 -5.156106e+00 -2.799909e+00 6.461299e+00 2.029659e+00 2.633272e+00 -3.509388e+00 -3.980590e+00 -3.002852e-01 1.399991e-01 1.027444e+00 1.025672e-01 -9.525476e-01 -4.161625e-01 3.971684e-01 -2.961458e-02 -5.145851e-01 -2.702062e-01 6.442716e-01 6.165120e-01 -1.373783e-02
<VARIANCE> 25
 9.886048e+00 2.132557e+01 5.288455e+01 3.164586e+01 8.131025e+01 5.119865e+01 3.911394e+01 3.841228e+01 6.646608e+01 5.096143e+01 3.329067e+01 2.764972e+01 7.463841e-01 1.367753e+00 2.852480e+00 1.556237e+00 3.192507e+00 2.356600e+00 1.959670e+00 4.142498e+00 3.030046e+00 3.180096e+00 2.779757e+00 1.631640e+00 9.638121e-01
<GCONST> 9.868597e+01
<STATE> 3
<MEAN> 25
 1.880574e+00 -3.210177e+00 1.037775e+01 -4.418350e+00 -1.350565e+01 -4.293121e+00 -1.063355e+00 -3.043603e+00 -4.530878e+00 2.398520e+00 2.185290e+00 -1.331820e+00 -9.240974e-02 6.723248e-01 6.373897e-02 5.697092e-01 2.626149e-01 2.143005e-01 2.339126e-01 -5.447334e-01 -2.546898e-01 1.367149e-01 -2.094707e-01 -9.335808e-02 -1.081034e+00
<VARIANCE> 25
 9.355108e+00 2.418948e+01 5.501600e+01 3.915165e+01 3.374639e+01 5.760034e+01 4.280799e+01 4.203269e+01 4.787909e+01 2.297999e+01 3.492832e+01 3.121690e+01 8.308615e-01 1.363300e+00 3.413953e+00 2.383582e+00 2.473663e+00 3.252781e+00 2.695998e+00 4.616401e+00 4.249207e+00 2.216415e+00 2.397905e+00 2.389641e+00 1.515225e+00
<GCONST> 9.934057e+01
<STATE> 4
<MEAN> 25
 -5.926693e-01 2.247696e+00 2.697713e+00 8.250463e-01 -4.662769e+00 -3.196197e+00 2.622281e+00 -1.827286e+00 1.697017e+00 1.919971e+00 -5.447014e-02 -5.690064e-01 -4.222560e-01 1.965529e-01 -1.278996e+00 1.587014e-01 8.703218e-01 3.594359e-01 -1.742218e-02 2.101124e-01 2.820139e-01 -1.819023e-01 -5.895470e-02 3.467441e-01 -1.043076e+00
<VARIANCE> 25
 8.907496e+00 2.011250e+01 2.774065e+01 2.190299e+01 2.896336e+01 4.539321e+01 3.048747e+01 3.079924e+01 4.114606e+01 3.243535e+01 3.203681e+01 2.359680e+01 8.517809e-01 9.841242e-01 2.397877e+00 1.073893e+00 1.555386e+00 2.957544e+00 2.747012e+00 2.504680e+00 3.187687e+00 1.758424e+00 2.022708e+00 1.809897e+00 1.716846e+00
<GCONST> 9.318136e+01
<TRANSP> 5
 0.000000e+00 1.000000e+00 0.000000e+00 0.000000e+00 0.000000e+00
 0.000000e+00 8.913740e-01 1.086260e-01 0.000000e+00 0.000000e+00
 0.000000e+00 0.000000e+00 9.024443e-01 9.755571e-02 0.000000e+00
 0.000000e+00 0.000000e+00 0.000000e+00 8.237949e-01 1.762051e-01
 0.000000e+00 0.000000e+00 0.000000e+00 0.000000e+00 0.000000e+00
<ENDHMM>
~h "kh"
<BEGINHMM>
<NUMSTATES> 5
<STATE> 2
<MEAN> 25
 3.535450e+00 -3.636331e+00 -1.011802e+01 -3.639019e+00 3.420402e+00 2.867597e+00 4.409758e-01 5.864692e-01 -2.802321e-01 2.222209e+00 2.150747e+00 -5.379564e+00 8.326741e-03 2.872188e-01 -5.064777e-01 -4.927351e-01 -1.287261e-01 4.861827e-01 1.283623e-01 1.245848e-01 -3.397315e-01 -5.076828e-03 -2.079429e-01 -2.944886e-02 -6.207369e-01
<VARIANCE> 25
 4.432398e+01 1.322333e+01 2.619428e+01 4.771782e+01 3.928333e+01 1.405233e+01 2.544858e+01 2.899682e+01 3.873427e+01 2.251011e+01 1.158597e+01 5.016286e+01 3.613979e+00 7.920017e-01 3.374873e+00 2.129627e+00 3.373347e+00 2.842278e+00 1.990161e+00 2.393305e+00 4.449430e+00 2.002407e+00 1.927331e+00 4.589210e+00 6.312462e+00
<GCONST> 9.855930e+01
<STATE> 3
<MEAN> 25
 -8.790287e-01 4.375212e-01 -7.471433e+00 -4.803291e+00 2.777615e+00 6.269485e+00 4.162946e+00 -1.210401e+00 -1.720884e+00 3.781363e-01 2.970245e+00 1.572580e-01 -1.328040e+00 -2.116885e-01 -3.514415e-01 -1.130984e+00 -1.612570e+00 3.753504e-01 3.424218e-01 -3.193692e-02 -5.723974e-01 -9.841989e-01 3.081754e-01 8.902299e-01 2.407397e+00
<VARIANCE> 25
 3.783697e+01 2.979282e+01 9.487455e+01 7.762046e+01 5.239011e+01 1.024464e+02 6.412473e+01 6.988396e+01 6.208290e+01 5.501275e+01 2.000299e+01 5.760954e+01 6.428831e+00 3.197044e+00 1.068659e+01 9.639536e+00 8.895888e+00 1.091985e+01 4.556391e+00 1.661416e+01 9.622640e+00 2.804543e+00 4.011682e+00 3.386188e+00 1.695024e+00
<GCONST> 1.170530e+02
<STATE> 4
<MEAN> 25
 -1.033219e+01 1.171882e+00 8.132955e-01 -8.196693e-01 -4.359239e+00 1.267486e+00 -9.975092e+00 -4.512958e+00 7.158138e+00 -3.952202e+00 1.179315e+00 8.316180e+00 2.188199e-01 2.596353e-01 1.347863e-01 -4.360756e-02 -1.421955e-01 -4.061593e-02 -4.692001e-01 -3.408642e-01 -3.733180e-01 2.442300e-02 6.274415e-02 7.442679e-04 -3.613821e-01
<VARIANCE> 25
 9.015469e+01 9.995560e+00 5.858913e+01 3.080843e+01 2.662666e+01 2.975563e+01 6.558418e+01 7.878494e+01 5.069180e+01 2.270818e+01 2.299153e+01 6.425768e+01 5.865237e+00 1.928806e+00 3.256724e+00 1.383208e+00 2.979019e+00 3.087428e+00 3.138288e+00 7.393848e+00 3.572314e+00 2.065742e+00 2.059633e+00 3.217396e+00 1.774080e+00
<GCONST> 1.035778e+02
<TRANSP> 5
 0.000000e+00 1.000000e+00 0.000000e+00 0.000000e+00 0.000000e+00
 0.000000e+00 8.499164e-01 1.500836e-01 0.000000e+00 0.000000e+00
 0.000000e+00 0.000000e+00 6.639595e-01 3.360405e-01 0.000000e+00
 0.000000e+00 0.000000e+00 0.000000e+00 8.480550e-01 1.519450e-01
 0.000000e+00 0.000000e+00 0.000000e+00 0.000000e+00 0.000000e+00
<ENDHMM>
~h "ng"
<BEGINHMM>
<NUMSTATES> 5
<STATE> 2
<MEAN> 25
 6.209917e+00 -5.423069e-01 1.568554e+00 -2.588026e+00 -2.634760e+00 3.053503e+00 -2.300155e+00 -2.093274e+00 -7.115834e-01 4.885882e-01 -5.773642e-01 -7.132079e-01 2.115231e-01 5.575918e-01 3.014385e-01 2.636870e-01 -3.338784e-01 2.134523e-01 -5.896709e-02 -4.836275e-01 -3.727797e-01 1.956519e-01 -1.350201e-01 1.052534e-01 -5.988458e-01
<VARIANCE> 25
 2.001024e+01 5.385839e+01 5.785896e+01 6.009593e+01 5.502937e+01 9.559274e+01 6.423241e+01 7.355505e+01 6.427036e+01 3.951891e+01 8.729923e+01 3.844137e+01 7.452899e-01 2.049971e+00 2.588398e+00 4.166940e+00 3.332654e+00 4.273766e+00 3.668593e+00 4.279719e+00 3.914936e+00 4.043880e+00 3.649900e+00 2.806218e+00 1.514389e+00
<GCONST> 1.077859e+02
<STATE> 3
<MEAN> 25
 5.626993e+00 9.414920e-01 2.394732e+00 -3.353564e+00 -1.657818e+00 -1.948480e-01 -1.340643e+00 -3.112128e+00 -2.350991e+00 -2.582089e-01 -1.771554e+00 -3.265799e+00 -2.296405e-02 2.322264e-01 2.823299e-03 1.623164e-01 2.528019e-02 -2.394189e-02 7.788972e-02 -4.673265e-03 -1.788477e-01 -3.202070e-02 4.553949e-03 5.887848e-02 -2.966878e-01
<VARIANCE> 25
 1.395156e+01 3.476117e+01 5.432318e+01 4.507829e+01 5.702948e+01 7.540807e+01 4.244648e+01 5.632440e+01 4.034614e+01 4.579198e+01 4.218853e+01 3.243002e+01 2.686210e-01 1.013579e+00 1.002740e+00 1.432668e+00 1.425430e+00 1.571645e+00 1.606131e+00 2.042001e+00 1.533595e+00 1.711650e+00 1.707529e+00 1.449526e+00 4.551027e-01
<GCONST> 9.296286e+01
<STATE> 4
<MEAN> 25
 1.422680e+00 5.506749e+00 1.730705e+00 2.638577e+00 7.952569e-01 1.494500e+00 2.110490e+00 -1.286077e+00 -2.686555e+00 -6.799405e-02 -4.114709e-01 9.653161e-01 -6.098191e-01 -1.123630e-01 -1.633653e-01 2.903607e-01 3.678602e-01 3.408956e-02 2.301075e-01 3.746371e-01 1.981736e-01 5.744833e-02 1.068664e-01 6.081934e-02 -3.705747e-01
<VARIANCE> 25
 3.854985e+01 5.325586e+01 4.892371e+01 3.760949e+01 5.100122e+01 4.141338e+01 3.544020e+01 4.426480e+01 3.454335e+01 3.979154e+01 2.573121e+01 2.119205e+01 1.708366e+00 1.732418e+00 2.448859e+00 2.562756e+00 2.968182e+00 2.584811e+00 2.455196e+00 2.858254e+00 2.368970e+00 2.337450e+00 1.920791e+00 1.486741e+00 1.173543e+00
<GCONST> 9.946085e+01
<TRANSP> 5
 0.000000e+00 1.000000e+00 0.000000e+00 0.000000e+00 0.000000e+00
 0.000000e+00 7.950875e-01 2.049125e-01 0.000000e+00 0.000000e+00
 0.000000e+00 0.000000e+00 8.778741e-01 1.221259e-01 0.000000e+00
 0.000000e+00 0.000000e+00 0.000000e+00 8.065701e-01 1.934299e-01
 0.000000e+00 0.000000e+00 0.000000e+00 0.000000e+00 0.000000e+00
<ENDHMM>
~h "ny"
<BEGINHMM>
<NUMSTATES> 5
<STATE> 2
<MEAN> 25
 1.746633e+00 2.978577e+00 8.841511e+00 -2.833328e-01 -5.975222e+00 -1.357272e+00 -1.872911e+00 -3.604454e+00 -2.444106e+00 -3.350642e-01 1.383392e+00 -8.384171e-01 5.065314e-03 -7.492230e-02 7.933871e-02 -5.655210e-02 -2.153104e-01 3.215039e-03 1.806255e-01 1.111216e-01 -1.005457e-01 -6.161540e-03 8.100724e-02 1.132828e-02 1.036622e-01
<VARIANCE> 25
 2.752039e+01 4.651736e+01 9.236752e+01 5.268165e+01 7.001153e+01 5.501837e+01 6.194635e+01 6.364557e+01 5.609576e+01 4.166957e+01 6.268725e+01 4.792556e+01 2.185594e+00 3.913298e+00 5.122284e+00 5.213385e+00 6.217095e+00 4.169572e+00 4.415451e+00 5.434884e+00 4.429252e+00 3.330003e+00 4.488342e+00 3.351515e+00 3.355167e+00
<GCONST> 1.123690e+02
<STATE> 3
<MEAN> 25
 4.036516e+00 -4.943738e+00 2.267276e+00 -1.709258e-01 -5.646121e+00 -2.919653e+00 2.163998e-01 3.238188e+00 -2.110296e+00 -2.680331e+00 -4.256426e+00 -1.619576e+00 2.400236e-02 1.852174e-01 -4.000078e-01 6.497599e-01 5.706821e-01 1.056537e-01 6.576570e-02 3.855715e-02 1.167682e-01 -2.936683e-01 -3.465046e-01 1.897423e-01 -5.846622e-01
<VARIANCE> 25
 1.297961e+01 4.654763e+01 4.680142e+01 4.122205e+01 4.342743e+01 4.720346e+01 8.350255e+01 5.461275e+01 4.055753e+01 5.811680e+01 7.609626e+01 2.977778e+01 4.537315e-01 1.846495e+00 1.914753e+00 1.949244e+00 1.801958e+00 1.945341e+00 2.534913e+00 2.759612e+00 1.914997e+00 2.336550e+00 2.506156e+00 1.639359e+00 8.752643e-01
<GCONST> 9.857516e+01
<STATE> 4
<MEAN> 25
 5.045519e-01 1.968985e+00 1.249675e+00 3.054652e+00 1.987569e-02 -1.284835e+00 2.577165e+00 8.525409e-01 1.289222e+00 -1.739991e+00 -9.777058e-02 2.574067e+00 -1.271106e-01 1.360098e-01 -1.386026e-01 -3.704129e-02 1.715648e-01 2.590731e-01 -2.301490e-03 -3.335484e-02 1.802606e-01 4.740587e-02 1.016484e-01 2.125128e-02 -4.774800e-01
<VARIANCE> 25
 2.301073e+01 4.039127e+01 2.797752e+01 3.580230e+01 4.428073e+01 3.922784e+01 4.976520e+01 3.280980e+01 3.208002e+01 3.130109e+01 3.029090e+01 2.447423e+01 3.744878e-01 8.429564e-01 9.064538e-01 9.448932e-01 1.504866e+00 1.757644e+00 1.726988e+00 1.727831e+00 1.846948e+00 1.886725e+00 1.548135e+00 1.534926e+00 3.501360e-01
<GCONST> 8.989172e+01
<TRANSP> 5
 0.000000e+00 1.000000e+00 0.000000e+00 0.000000e+00 0.000000e+00
 0.000000e+00 9.472805e-01 5.271951e-02 0.000000e+00 0.000000e+00
 0.000000e+00 0.000000e+00 8.613147e-01 1.386853e-01 0.000000e+00
 0.000000e+00 0.000000e+00 0.000000e+00 8.800789e-01 1.199212e-01
 0.000000e+00 0.000000e+00 0.000000e+00 0.000000e+00 0.000000e+00
<ENDHMM>
~h "oy"
<BEGINHMM>
<NUMSTATES> 5
<STATE> 2
<MEAN> 25
 -8.441801e-09 6.022267e-10 7.246499e-09 -5.128669e-09 -1.400236e-08 1.447115e-08 2.655665e-09 -1.497153e-08 -1.753837e-08 -1.393387e-09 1.591103e-08 1.359305e-08 2.471297e-03 -4.769179e-04 1.629721e-03 4.141771e-04 1.519070e-03 -5.172620e-04 8.688348e-04 -6.892727e-04 -7.566307e-04 3.562288e-04 -1.250130e-03 -6.646362e-04 7.982347e-03
<VARIANCE> 25
 6.272872e+01 5.387392e+01 7.917348e+01 5.848112e+01 6.860459e+01 6.665501e+01 5.555848e+01 5.887216e+01 5.468751e+01 4.283523e+01 4.702511e+01 3.920852e+01 2.663090e+00 2.867718e+00 3.171754e+00 3.420456e+00 3.794295e+00 3.736358e+00 3.572752e+00 3.775680e+00 3.459028e+00 3.053382e+00 3.076419e+00 2.570305e+00 3.154739e+00
<GCONST> 1.095565e+02
<STATE> 3
<MEAN> 25
 -8.441801e-09 6.022267e-10 7.246499e-09 -5.128669e-09 -1.400236e-08 1.447115e-08 2.655665e-09 -1.497153e-08 -1.753837e-08 -1.393387e-09 1.591103e-08 1.359305e-08 2.471297e-03 -4.769179e-04 1.629721e-03 4.141771e-04 1.519070e-03 -5.172620e-04 8.688348e-04 -6.892727e-04 -7.566307e-04 3.562288e-04 -1.250130e-03 -6.646362e-04 7.982347e-03
<VARIANCE> 25
 6.272872e+01 5.387392e+01 7.917348e+01 5.848112e+01 6.860459e+01 6.665501e+01 5.555848e+01 5.887216e+01 5.468751e+01 4.283523e+01 4.702511e+01 3.920852e+01 2.663090e+00 2.867718e+00 3.171754e+00 3.420456e+00 3.794295e+00 3.736358e+00 3.572752e+00 3.775680e+00 3.459028e+00 3.053382e+00 3.076419e+00 2.570305e+00 3.154739e+00
<GCONST> 1.095565e+02
<STATE> 4
<MEAN> 25
 -8.441801e-09 6.022267e-10 7.246499e-09 -5.128669e-09 -1.400236e-08 1.447115e-08 2.655665e-09 -1.497153e-08 -1.753837e-08 -1.393387e-09 1.591103e-08 1.359305e-08 2.471297e-03 -4.769179e-04 1.629721e-03 4.141771e-04 1.519070e-03 -5.172620e-04 8.688348e-04 -6.892727e-04 -7.566307e-04 3.562288e-04 -1.250130e-03 -6.646362e-04 7.982347e-03
<VARIANCE> 25
 6.272872e+01 5.387392e+01 7.917348e+01 5.848112e+01 6.860459e+01 6.665501e+01 5.555848e+01 5.887216e+01 5.468751e+01 4.283523e+01 4.702511e+01 3.920852e+01 2.663090e+00 2.867718e+00 3.171754e+00 3.420456e+00 3.794295e+00 3.736358e+00 3.572752e+00 3.775680e+00 3.459028e+00 3.053382e+00 3.076419e+00 2.570305e+00 3.154739e+00
<GCONST> 1.095565e+02
<TRANSP> 5
 0.000000e+00 1.000000e+00 0.000000e+00 0.000000e+00 0.000000e+00
 0.000000e+00 6.000000e-01 4.000000e-01 0.000000e+00 0.000000e+00
 0.000000e+00 0.000000e+00 6.000000e-01 4.000000e-01 0.000000e+00
 0.000000e+00 0.000000e+00 0.000000e+00 7.000000e-01 3.000000e-01
 0.000000e+00 0.000000e+00 0.000000e+00 0.000000e+00 0.000000e+00
<ENDHMM>
~h "sp"
<BEGINHMM>
<NUMSTATES> 3
<STATE> 2
~s "silst"
<TRANSP> 3
 0.000000e+00 7.000000e-01 3.000000e-01
 0.000000e+00 9.000000e-01 9.999999e-02
 0.000000e+00 0.000000e+00 0.000000e+00
<ENDHMM>
~h "sy"
<BEGINHMM>
<NUMSTATES> 5
<STATE> 2
<MEAN> 25
 -7.743396e+00 1.457478e+00 -1.768131e+00 8.859326e+00 9.822503e+00 -8.588998e+00 -2.131480e+00 1.149784e+01 5.687816e+00 1.978567e+00 -5.443409e-01 1.041059e+00 -2.879959e+00 -3.364772e+00 2.387831e+00 -2.253038e+00 2.290635e-01 4.245278e-01 -3.727006e-01 2.121665e-01 1.001492e-01 6.975061e-01 6.966122e-01 5.081027e-01 2.197023e+00
<VARIANCE> 25
 1.181847e+01 1.538639e+01 4.390153e+00 3.401688e+01 1.469258e+01 1.014842e+01 9.288600e+00 1.604661e+01 4.381859e+01 2.944170e+01 1.174091e+01 6.551360e+00 2.067438e+00 6.906750e+00 2.679073e+00 1.006469e+01 7.133246e-01 2.547385e+00 2.082200e+00 7.330731e-01 2.065005e+00 1.436088e+00 2.662129e+00 6.987102e-01 2.386269e+00
<GCONST> 8.722134e+01
<STATE> 3
<MEAN> 25
 -8.041036e+00 -7.986465e+00 1.784819e+00 3.581918e-01 -6.996446e-01 -7.367289e+00 -9.161086e-01 9.863535e+00 3.647665e+00 8.131165e-01 8.218144e+00 3.699538e+00 1.023720e+00 -1.206190e+00 9.702418e-01 1.016733e-01 -3.003927e+00 7.029724e-02 9.823477e-01 -5.029961e-01 -1.221362e+00 -7.677906e-01 5.826114e-01 -7.899758e-01 1.652096e+00
<VARIANCE> 25
 7.187427e+01 6.017833e+01 1.491603e+01 3.594517e+01 5.216513e+01 1.448623e+01 4.900655e+01 3.530888e+01 2.517070e+01 2.576597e+01 1.398331e+01 1.738501e+01 1.368253e+01 3.832842e+00 2.178299e+00 5.471024e+00 1.543679e+00 2.191263e+00 8.061683e+00 3.218612e+00 5.415841e+00 2.268326e+00 3.832214e+00 3.792006e+00 1.175333e+00
<GCONST> 1.029142e+02
<STATE> 4
<MEAN> 25
 -1.140882e+01 -2.206877e+00 6.994920e+00 5.766101e-01 -4.998079e+00 -5.554760e+00 9.491758e+00 2.845511e+00 5.202707e-01 2.896727e+00 4.988046e+00 -7.517697e-01 4.767084e-01 6.178411e-02 -1.348383e-01 -2.605879e-01 -3.278755e-02 -1.317068e-01 -2.272096e-01 -6.656560e-02 3.042737e-02 -3.182594e-02 -2.356165e-01 1.632954e-02 -4.104155e-02
<VARIANCE> 25
 1.778037e+02 6.034233e+01 2.687082e+01 1.276517e+02 1.230121e+02 2.378960e+01 6.685664e+01 4.215527e+01 2.721689e+01 1.875584e+01 1.914749e+01 1.801342e+01 1.113549e+01 3.859212e+00 3.631449e+00 5.083570e+00 6.850745e+00 2.190608e+00 2.602559e+00 3.604022e+00 3.028499e+00 2.123034e+00 2.357370e+00 1.858271e+00 2.268044e+00
<GCONST> 1.071524e+02
<TRANSP> 5
 0.000000e+00 1.000000e+00 0.000000e+00 0.000000e+00 0.000000e+00
 0.000000e+00 4.990501e-01 5.009499e-01 0.000000e+00 0.000000e+00
 0.000000e+00 0.000000e+00 8.038801e-01 1.961199e-01 0.000000e+00
 0.000000e+00 0.000000e+00 0.000000e+00 9.316138e-01 6.838623e-02
 0.000000e+00 0.000000e+00 0.000000e+00 0.000000e+00 0.000000e+00
<ENDHMM>
~h "sil"
<BEGINHMM>
<NUMSTATES> 5
<STATE> 2
<MEAN> 25
 -4.405598e+00 3.373129e-01 -3.083826e+00 2.296333e+00 1.747257e+00 2.203620e+00 1.395633e+00 2.371382e+00 1.184609e-01 -4.563408e-02 7.391860e-02 2.482024e+00 -4.802687e-02 2.115356e-02 -1.751575e-02 2.675215e-02 1.453859e-02 2.995168e-02 1.825204e-02 2.050883e-03 -1.158280e-02 -3.642255e-04 2.606724e-02 2.411025e-02 -7.526064e-02
<VARIANCE> 25
 3.095164e+01 2.030397e+01 2.015249e+01 2.329835e+01 2.152649e+01 2.530718e+01 2.267206e+01 2.607591e+01 3.079972e+01 2.562367e+01 2.605578e+01 1.821466e+01 1.647400e-01 3.218018e-01 5.031488e-01 6.873212e-01 8.827310e-01 1.070687e+00 1.176652e+00 1.279122e+00 1.319729e+00 1.283974e+00 1.221815e+00 1.113186e+00 1.006860e-01
<GCONST> 7.895046e+01
<STATE> 3
~s "silst"
<STATE> 4
<MEAN> 25
 1.422836e+00 -6.270292e-01 6.973588e-01 -1.190179e+00 -8.991188e-01 -9.438196e-01 -6.216804e-01 -7.404794e-01 -1.393378e-01 1.162144e-01 -2.802358e-01 -9.939079e-01 4.639998e-02 -1.839537e-02 6.350238e-03 -3.157906e-02 -1.599222e-02 -1.988637e-02 -1.501075e-02 -8.842224e-03 2.631831e-03 4.597470e-03 -1.705260e-02 -1.441341e-02 9.045154e-02
<VARIANCE> 25
 5.833265e+01 5.895061e+01 9.151154e+01 6.198077e+01 7.537083e+01 7.233672e+01 6.082700e+01 6.498051e+01 5.985121e+01 4.732519e+01 5.050654e+01 4.106917e+01 3.552674e+00 3.672100e+00 3.965968e+00 4.360897e+00 4.573216e+00 4.520292e+00 4.238608e+00 4.509004e+00 4.080406e+00 3.583913e+00 3.579843e+00 2.994247e+00 4.289012e+00
<GCONST> 1.131139e+02
<TRANSP> 5
 0.000000e+00 1.000000e+00 0.000000e+00 0.000000e+00 0.000000e+00
 0.000000e+00 9.108480e-01 3.897665e-02 5.017537e-02 0.000000e+00
 0.000000e+00 0.000000e+00 8.981138e-01 1.018861e-01 0.000000e+00
 0.000000e+00 2.896407e-02 0.000000e+00 9.640638e-01 6.972178e-03
 0.000000e+00 0.000000e+00 0.000000e+00 0.000000e+00 0.000000e+00
<ENDHMM>
