~o
<STREAMINFO> 1 25
<VECSIZE> 25<NULLD><MFCC_D_N_Z_0><DIAGC>
~s "silst"
<MEAN> 25
 -9.568146e+00 4.824102e+00 -2.378561e+00 6.504340e+00 4.231458e+00 6.256904e+00 3.419464e+00 1.974965e+00 2.373417e+00 -1.358174e+00 1.946479e+00 3.742320e+00 -7.760372e-03 -2.939627e-02 8.123366e-02 -5.377528e-02 4.069585e-02 -1.047865e-01 -4.324311e-02 -5.822495e-02 -1.251380e-02 8.196486e-03 -4.671786e-03 -4.870911e-02 4.722156e-01
<VARIANCE> 25
 6.956281e+01 4.342162e+01 4.505609e+01 3.357711e+01 5.755460e+01 5.184089e+01 3.959211e+01 3.206963e+01 3.707375e+01 2.964199e+01 4.588570e+01 2.380160e+01 2.598363e+00 1.930104e+00 2.237728e+00 2.027084e+00 2.636990e+00 2.955930e+00 2.563823e+00 2.660280e+00 2.503119e+00 2.368942e+00 2.319086e+00 1.880803e+00 5.245403e+00
<GCONST> 1.024354e+02
~h "@"
<BEGINHMM>
<NUMSTATES> 5
<STATE> 2
<MEAN> 25
 4.055805e+00 -1.280316e+00 -1.287273e+00 -2.313675e+00 -7.391144e-01 -9.885300e-01 -4.060760e+00 -1.836159e+00 1.949042e+00 1.966686e+00 6.960222e-01 -2.186231e+00 1.510801e+00 -5.439946e-01 2.702875e-01 -3.278914e-01 -7.289447e-01 4.190516e-01 -9.605706e-01 -3.533612e-02 5.121480e-01 2.938202e-01 -1.221714e-01 -5.147315e-01 9.473637e-01
<VARIANCE> 25
 3.879966e+01 4.415392e+01 5.106318e+01 5.392239e+01 5.241640e+01 7.951204e+01 6.421065e+01 5.714634e+01 5.939321e+01 4.452069e+01 4.718814e+01 3.704876e+01 5.541613e+00 4.981782e+00 4.408730e+00 5.285060e+00 5.898520e+00 7.380540e+00 6.594267e+00 7.097273e+00 6.285604e+00 4.818792e+00 4.593981e+00 3.739172e+00 4.959194e+00
<GCONST> 1.151447e+02
<STATE> 3
<MEAN> 25
 5.490098e+00 -2.022204e+00 -1.026791e+00 -2.297986e+00 -1.329726e+00 -5.346093e-01 -5.064302e+00 -1.538765e+00 2.619011e+00 2.327568e+00 8.153721e-01 -2.411151e+00 6.021639e-01 2.018915e-01 4.098694e-01 6.204434e-01 -1.999418e-01 3.064622e-01 -1.180198e-02 -1.332992e-02 3.074225e-02 1.171777e-01 -2.241281e-01 1.698339e-01 -4.757429e-01
<VARIANCE> 25
 2.817145e+01 4.357889e+01 4.975774e+01 5.464030e+01 5.535373e+01 7.899075e+01 6.461586e+01 5.942560e+01 6.170598e+01 4.608195e+01 4.846100e+01 3.829471e+01 2.901595e+00 3.608225e+00 3.631848e+00 4.628013e+00 4.673745e+00 5.637552e+00 4.883383e+00 5.883854e+00 4.834878e+00 4.212764e+00 4.101828e+00 3.338395e+00 3.766744e+00
<GCONST> 1.118398e+02
<STATE> 4
<MEAN> 25
 4.778877e+00 -5.858843e-01 3.316110e-01 -4.727057e-01 -1.507852e+00 -1.746915e+00 -3.803184e+00 -1.332142e+00 1.490595e+00 2.378354e+00 2.540150e-01 -1.363745e+00 -1.083262e-01 6.026195e-01 2.839188e-01 8.065302e-01 1.494206e-01 1.643497e-01 5.184973e-01 -9.843731e-02 -2.272141e-01 -1.200901e-01 -1.729498e-01 3.918580e-01 -9.945407e-01
<VARIANCE> 25
 2.918391e+01 4.706134e+01 5.438459e+01 5.327295e+01 6.162527e+01 7.690877e+01 6.128497e+01 5.993320e+01 5.884790e+01 4.800914e+01 4.527439e+01 3.660979e+01 1.538559e+00 2.619647e+00 2.765737e+00 3.423386e+00 3.351989e+00 3.548719e+00 3.480104e+00 3.848599e+00 3.547606e+00 3.037168e+00 2.991175e+00 2.556097e+00 2.360330e+00
<GCONST> 1.071583e+02
<TRANSP> 5
 0.000000e+00 1.000000e+00 0.000000e+00 0.000000e+00 0.000000e+00
 0.000000e+00 1.841343e-01 8.158656e-01 0.000000e+00 0.000000e+00
 0.000000e+00 0.000000e+00 1.542025e-01 8.457975e-01 0.000000e+00
 0.000000e+00 0.000000e+00 0.000000e+00 4.618003e-01 5.381996e-01
 0.000000e+00 0.000000e+00 0.000000e+00 0.000000e+00 0.000000e+00
<ENDHMM>
~h "a"
<BEGINHMM>
<NUMSTATES> 5
<STATE> 2
<MEAN> 25
 4.268648e+00 -7.438552e+00 -3.928332e+00 -4.559685e+00 1.119943e-01 1.147806e-01 -9.022027e-01 3.296937e+00 3.933434e+00 -5.607069e-01 -2.709285e+00 -4.596643e+00 2.110315e-01 -1.085871e+00 -5.061303e-01 -3.298750e-01 6.067293e-01 3.964746e-01 2.170064e-01 7.286375e-01 2.874117e-01 -5.282316e-01 -7.371380e-01 -6.888739e-01 7.816175e-01
<VARIANCE> 25
 1.781767e+01 3.650802e+01 4.993488e+01 4.531144e+01 5.836770e+01 8.173392e+01 6.401610e+01 6.028897e+01 5.005682e+01 4.520515e+01 4.953738e+01 4.545266e+01 1.724481e+00 2.528274e+00 2.977571e+00 2.953603e+00 4.074589e+00 4.342751e+00 4.144690e+00 4.465343e+00 3.354468e+00 3.540757e+00 3.422433e+00 2.969871e+00 2.255395e+00
<GCONST> 1.073661e+02
<STATE> 3
<MEAN> 25
 4.747478e+00 -8.840871e+00 -4.825434e+00 -4.944004e+00 1.391362e+00 6.348682e-01 -8.870794e-01 3.865119e+00 3.857184e+00 -1.261033e+00 -4.003385e+00 -5.783804e+00 4.986859e-02 5.275100e-01 8.480058e-02 6.241567e-01 1.563760e-01 -2.509905e-02 7.651784e-02 -1.615077e-01 -1.363733e-01 1.471867e-01 -1.411576e-01 4.484586e-01 -8.350496e-01
<VARIANCE> 25
 1.165008e+01 3.179330e+01 4.230244e+01 3.619261e+01 5.108960e+01 7.838707e+01 6.389646e+01 5.321036e+01 4.762873e+01 4.472223e+01 4.771511e+01 3.861326e+01 6.750091e-01 1.632129e+00 1.775907e+00 1.939644e+00 2.514897e+00 3.160580e+00 2.838481e+00 3.018291e+00 2.415280e+00 2.596673e+00 2.549672e+00 2.325356e+00 1.651700e+00
<GCONST> 1.004770e+02
<STATE> 4
<MEAN> 25
 1.529501e+00 -3.224827e+00 -4.144661e+00 -2.143685e-01 2.603773e+00 3.800840e-01 1.409438e+00 2.958425e+00 2.279051e+00 -5.929695e-01 -2.692498e+00 -5.279477e-01 -1.983259e-01 6.522316e-01 2.885336e-01 5.485620e-01 -2.154788e-02 3.401613e-02 1.928959e-02 -2.440606e-01 -1.763415e-01 1.101143e-01 2.191758e-01 3.447327e-01 -9.033379e-01
<VARIANCE> 25
 3.240965e+01 3.430014e+01 3.907323e+01 4.066666e+01 4.398359e+01 5.245758e+01 4.576768e+01 4.210181e+01 4.206565e+01 3.712740e+01 4.186310e+01 3.385832e+01 8.315234e-01 1.503346e+00 1.561803e+00 1.874801e+00 2.134609e+00 2.302827e+00 2.428717e+00 2.524379e+00 2.254853e+00 2.118299e+00 2.082128e+00 1.844344e+00 1.144202e+00
<GCONST> 9.799628e+01
<TRANSP> 5
 0.000000e+00 1.000000e+00 0.000000e+00 0.000000e+00 0.000000e+00
 0.000000e+00 5.027085e-01 4.972916e-01 0.000000e+00 0.000000e+00
 0.000000e+00 0.000000e+00 6.469308e-01 3.530692e-01 0.000000e+00
 0.000000e+00 0.000000e+00 0.000000e+00 7.415421e-01 2.584580e-01
 0.000000e+00 0.000000e+00 0.000000e+00 0.000000e+00 0.000000e+00
<ENDHMM>
~h "b"
<BEGINHMM>
<NUMSTATES> 5
<STATE> 2
<MEAN> 25
 6.668467e+00 8.811444e+00 1.824409e+00 5.263705e+00 1.931078e+00 2.219968e+00 -6.852718e-01 -3.740748e+00 -3.983811e+00 -5.601885e-01 -2.749696e-01 -4.294422e-01 2.970493e-01 1.032427e+00 -1.163699e-01 3.678101e-01 5.728652e-01 -1.627970e-01 2.915914e-01 -1.413758e-01 -3.631598e-01 -1.067176e-01 -1.341569e-02 1.015798e-01 -3.765453e-01
<VARIANCE> 25
 3.041623e+01 4.646317e+01 4.428404e+01 3.496430e+01 3.961335e+01 4.406171e+01 4.483793e+01 4.289440e+01 3.985171e+01 3.845409e+01 3.711398e+01 2.714160e+01 2.158575e+00 3.775937e+00 3.406919e+00 3.894651e+00 3.400858e+00 3.475128e+00 4.061584e+00 3.688996e+00 3.375940e+00 3.414485e+00 3.364784e+00 2.290931e+00 3.663853e+00
<GCONST> 1.054674e+02
<STATE> 3
<MEAN> 25
 7.041391e+00 7.482666e+00 2.311117e-02 2.838958e+00 2.159785e+00 1.769632e+00 -1.475521e+00 -5.476897e+00 -4.238724e+00 1.222910e+00 2.249817e+00 -4.797867e-02 4.351127e-02 -2.495521e+00 -1.335410e+00 -2.291534e+00 -7.718118e-01 -7.600523e-01 -1.696941e+00 -2.391420e-01 1.575497e+00 1.424277e+00 1.495268e+00 -6.398136e-01 3.034364e+00
<VARIANCE> 25
 2.717761e+01 5.065152e+01 4.176179e+01 5.335400e+01 3.670026e+01 5.096411e+01 4.960079e+01 4.605144e+01 4.590300e+01 5.125471e+01 4.398385e+01 2.897362e+01 3.605753e+00 5.294710e+00 5.678709e+00 7.130663e+00 6.024542e+00 6.891722e+00 7.596703e+00 6.392713e+00 7.910862e+00 7.820185e+00 6.022542e+00 4.883082e+00 4.433495e+00
<GCONST> 1.143193e+02
<STATE> 4
<MEAN> 25
 7.066990e+00 7.487031e-01 -2.402595e+00 -2.891681e+00 -1.490952e-01 1.434394e-01 -6.269579e+00 -4.189516e+00 1.640177e+00 5.088129e+00 3.638155e+00 -3.508403e+00 -3.420129e-01 -2.327194e+00 -1.099464e-01 -1.482603e+00 -1.034447e+00 -5.143299e-01 -8.649046e-01 1.237774e+00 1.750878e+00 8.430328e-02 -2.860841e-01 -9.753826e-01 2.315225e+00
<VARIANCE> 25
 2.276003e+01 4.783685e+01 4.506949e+01 8.704829e+01 5.714211e+01 7.275043e+01 7.150168e+01 5.319889e+01 6.370005e+01 8.172342e+01 5.145205e+01 4.648644e+01 1.954329e+00 4.975753e+00 5.225111e+00 6.013105e+00 6.520757e+00 6.524893e+00 7.123013e+00 8.259356e+00 8.306026e+00 6.004604e+00 6.582545e+00 5.341293e+00 3.257617e+00
<GCONST> 1.163258e+02
<TRANSP> 5
 0.000000e+00 1.000000e+00 0.000000e+00 0.000000e+00 0.000000e+00
 0.000000e+00 6.665898e-01 3.334102e-01 0.000000e+00 0.000000e+00
 0.000000e+00 0.000000e+00 4.445512e-01 5.554488e-01 0.000000e+00
 0.000000e+00 0.000000e+00 0.000000e+00 3.304426e-01 6.695575e-01
 0.000000e+00 0.000000e+00 0.000000e+00 0.000000e+00 0.000000e+00
<ENDHMM>
~h "c"
<BEGINHMM>
<NUMSTATES> 5
<STATE> 2
<MEAN> 25
 -8.268131e+00 4.426179e+00 2.725010e+00 -3.448980e-01 2.901875e+00 -1.275814e+00 2.245511e+00 -7.483939e-02 1.086410e+00 -5.907244e-02 2.413704e+00 1.584883e+00 -3.610573e+00 -1.200433e-01 2.901059e-01 -1.752301e+00 4.589387e-01 1.803966e-01 6.785696e-01 -6.603987e-01 4.355105e-01 -8.619667e-02 7.070431e-01 4.416329e-02 1.711698e+00
<VARIANCE> 25
 7.949864e+01 4.602592e+01 6.036947e+01 5.213411e+01 5.007547e+01 5.629625e+01 4.481866e+01 5.730809e+01 3.907207e+01 3.061827e+01 2.975038e+01 2.651416e+01 4.620469e+00 4.033731e+00 5.471394e+00 5.106997e+00 5.323274e+00 5.411857e+00 4.572796e+00 5.114305e+00 3.811807e+00 3.685463e+00 3.630969e+00 2.539200e+00 6.556833e+00
<GCONST> 1.112715e+02
<STATE> 3
<MEAN> 25
 -1.634761e+01 2.428095e+00 5.920213e+00 -5.380454e+00 -6.675632e-01 -2.408729e+00 3.558446e+00 -1.527301e+00 1.907713e+00 -1.059741e+00 4.093355e+00 2.327841e+00 3.047437e+00 -1.288720e+00 3.798724e-01 5.442495e-01 -2.074167e+00 -1.402830e+00 -6.914085e-01 7.287518e-01 1.251156e-01 -6.121363e-01 -7.391399e-01 -1.799531e-01 1.440792e+00
<VARIANCE> 25
 5.872036e+01 3.070041e+01 5.600141e+01 4.057035e+01 5.356831e+01 6.546575e+01 4.254376e+01 4.515289e+01 3.318157e+01 3.215331e+01 3.157599e+01 2.573294e+01 9.945366e+00 3.820080e+00 3.764182e+00 4.535741e+00 5.578177e+00 4.302252e+00 3.778090e+00 4.536208e+00 3.939397e+00 3.082935e+00 3.455989e+00 2.795292e+00 2.164739e+00
<GCONST> 1.085996e+02
<STATE> 4
<MEAN> 25
 -1.283307e+00 -2.684538e+00 3.789368e+00 -3.728561e+00 -4.237700e+00 -5.649858e+00 -5.593526e-03 9.477913e-01 2.411078e+00 -2.428511e+00 -2.245771e-01 8.486225e-01 3.743014e+00 -1.666630e+00 -1.594387e+00 -9.872527e-02 -3.908435e-02 5.173806e-02 -7.230713e-01 6.220878e-01 1.947362e-01 5.784711e-02 -1.102183e+00 -8.148128e-01 9.066148e-01
<VARIANCE> 25
 2.968244e+01 2.436963e+01 3.893741e+01 3.522247e+01 2.961880e+01 4.700322e+01 4.892871e+01 6.044956e+01 3.361860e+01 2.496578e+01 3.451605e+01 2.316613e+01 5.692100e+00 4.389441e+00 3.596928e+00 3.393322e+00 4.199306e+00 4.735405e+00 4.798792e+00 4.276460e+00 3.277607e+00 3.088655e+00 3.766178e+00 3.058510e+00 1.441058e+00
<GCONST> 1.052578e+02
<TRANSP> 5
 0.000000e+00 1.000000e+00 0.000000e+00 0.000000e+00 0.000000e+00
 0.000000e+00 7.543230e-01 2.456770e-01 0.000000e+00 0.000000e+00
 0.000000e+00 0.000000e+00 6.413957e-01 3.586043e-01 0.000000e+00
 0.000000e+00 0.000000e+00 0.000000e+00 5.228175e-01 4.771825e-01
 0.000000e+00 0.000000e+00 0.000000e+00 0.000000e+00 0.000000e+00
<ENDHMM>
~h "d"
<BEGINHMM>
<NUMSTATES> 5
<STATE> 2
<MEAN> 25
 5.636775e+00 5.099506e+00 3.923649e+00 7.111326e+00 -4.989088e-01 -2.219131e+00 -2.583898e+00 -4.273848e-01 9.436150e-01 -1.664527e+00 -3.770751e+00 -1.987732e-01 1.744701e-01 6.675258e-01 4.488961e-01 3.758782e-01 2.341539e-01 -3.876536e-01 5.929252e-02 8.410705e-02 -2.894962e-01 -3.654671e-01 -2.565723e-02 2.394779e-01 -1.922325e-01
<VARIANCE> 25
 3.300124e+01 5.579099e+01 4.609135e+01 4.136409e+01 5.506272e+01 5.222040e+01 4.802028e+01 5.348769e+01 4.805600e+01 3.725766e+01 3.925117e+01 2.878437e+01 3.185309e+00 5.558524e+00 3.683915e+00 5.122752e+00 5.095094e+00 5.344111e+00 4.744315e+00 5.225244e+00 4.244891e+00 3.610098e+00 3.906127e+00 3.022401e+00 6.000915e+00
<GCONST> 1.106694e+02
<STATE> 3
<MEAN> 25
 3.291720e+00 2.466776e+00 5.760798e+00 4.294610e+00 -1.602341e+00 -4.701192e+00 -2.588381e+00 3.426982e-01 -2.483435e-01 -2.985206e+00 -9.797166e-01 2.467466e+00 -9.288714e-01 -2.647257e+00 8.362017e-01 -2.319947e+00 -1.803083e+00 -1.418500e+00 -9.094502e-01 9.494804e-01 1.953953e-01 -3.611613e-01 1.620726e+00 6.960692e-01 3.387318e+00
<VARIANCE> 25
 3.139343e+01 5.230085e+01 4.840017e+01 5.231365e+01 7.294888e+01 6.935823e+01 5.947120e+01 5.224307e+01 5.430153e+01 3.791222e+01 4.044646e+01 3.690763e+01 4.195984e+00 4.998520e+00 6.556614e+00 5.397297e+00 7.737863e+00 7.981145e+00 7.795876e+00 8.728034e+00 7.975591e+00 5.255106e+00 5.022946e+00 3.886124e+00 3.983484e+00
<GCONST> 1.157381e+02
<STATE> 4
<MEAN> 25
 3.092109e+00 -3.444353e+00 7.096771e+00 -1.225583e+00 -7.358014e+00 -6.744811e+00 -5.237895e+00 3.946620e+00 1.282677e+00 -2.586945e+00 2.335371e+00 1.587429e+00 -1.709915e-01 -1.163365e+00 -1.514413e-01 -1.569410e+00 -7.100393e-01 -1.353750e-02 5.302798e-02 8.144229e-01 2.721983e-01 4.875878e-01 4.174857e-01 -9.828071e-01 1.577326e+00
<VARIANCE> 25
 1.808368e+01 3.290891e+01 5.134796e+01 4.363941e+01 5.727086e+01 5.474729e+01 7.191260e+01 7.522977e+01 7.950774e+01 3.754365e+01 4.590714e+01 3.551809e+01 1.841411e+00 3.168054e+00 5.922956e+00 4.502444e+00 7.082258e+00 5.421616e+00 5.826191e+00 6.626383e+00 5.903457e+00 4.139411e+00 5.448421e+00 3.835295e+00 2.948273e+00
<GCONST> 1.117602e+02
<TRANSP> 5
 0.000000e+00 1.000000e+00 0.000000e+00 0.000000e+00 0.000000e+00
 0.000000e+00 6.024972e-01 3.975028e-01 0.000000e+00 0.000000e+00
 0.000000e+00 0.000000e+00 4.504191e-01 5.495809e-01 0.000000e+00
 0.000000e+00 0.000000e+00 0.000000e+00 4.274516e-01 5.725484e-01
 0.000000e+00 0.000000e+00 0.000000e+00 0.000000e+00 0.000000e+00
<ENDHMM>
~h "e"
<BEGINHMM>
<NUMSTATES> 5
<STATE> 2
<MEAN> 25
 2.470840e+00 -6.070136e+00 2.507070e+00 -7.978361e-02 -7.977840e+00 -6.307512e+00 1.857571e+00 5.722999e+00 1.264362e+00 -6.585323e-01 1.133171e+00 -2.025079e+00 1.826818e-01 -7.981259e-01 5.894712e-01 -2.466965e-01 -9.320869e-01 -2.935201e-01 5.474347e-01 9.892297e-01 -3.474741e-01 -1.932999e-01 2.636245e-01 -2.987515e-01 8.251882e-01
<VARIANCE> 25
 2.697735e+01 5.061730e+01 5.435001e+01 3.437099e+01 6.170768e+01 5.751224e+01 8.074644e+01 5.270057e+01 4.636120e+01 4.282318e+01 4.882983e+01 3.732203e+01 2.931002e+00 3.093223e+00 3.174358e+00 2.926886e+00 4.937640e+00 4.167850e+00 4.717625e+00 5.006974e+00 4.068284e+00 3.396316e+00 3.691408e+00 2.762744e+00 2.873305e+00
<GCONST> 1.089543e+02
<STATE> 3
<MEAN> 25
 2.955536e+00 -6.044590e+00 4.517921e+00 7.357125e-01 -9.050168e+00 -6.846378e+00 2.254703e+00 5.827680e+00 -1.721799e+00 7.922167e-01 2.154696e+00 -2.125869e+00 -8.770138e-02 8.167029e-01 -3.857753e-01 7.089776e-01 8.123208e-01 3.926200e-01 1.717511e-01 -4.912055e-01 6.231665e-02 1.793370e-01 -2.726689e-01 3.346909e-01 -1.206740e+00
<VARIANCE> 25
 1.457547e+01 3.558541e+01 6.236841e+01 4.813079e+01 5.769637e+01 5.051538e+01 7.396886e+01 5.373257e+01 5.721243e+01 5.009565e+01 4.818276e+01 3.284021e+01 1.126893e+00 1.817889e+00 2.159780e+00 2.332622e+00 2.750211e+00 2.816994e+00 3.356678e+00 3.384317e+00 3.057498e+00 2.548201e+00 2.836671e+00 1.936191e+00 1.800066e+00
<GCONST> 1.029534e+02
<STATE> 4
<MEAN> 25
 -2.770189e+00 -1.327296e-01 -2.130600e-02 3.095740e+00 1.274061e+00 6.769272e-01 2.649113e+00 3.560490e+00 1.392846e+00 1.329821e+00 2.156270e+00 2.790423e+00 -1.441904e-01 1.863380e-01 -9.793625e-02 5.940070e-02 2.479743e-01 1.540817e-01 -3.938766e-02 -1.227397e-01 2.696581e-02 2.150850e-03 -2.316205e-02 1.067763e-01 -3.318658e-01
<VARIANCE> 25
 2.325616e+01 2.499869e+01 3.522469e+01 2.669785e+01 4.742164e+01 4.833012e+01 3.702114e+01 3.771204e+01 3.126385e+01 3.066563e+01 3.133352e+01 2.613981e+01 5.246966e-01 7.904181e-01 9.222875e-01 1.107683e+00 1.612162e+00 1.559637e+00 1.645532e+00 1.922157e+00 1.680489e+00 1.653847e+00 1.554500e+00 1.437532e+00 4.824217e-01
<GCONST> 9.002312e+01
<TRANSP> 5
 0.000000e+00 1.000000e+00 0.000000e+00 0.000000e+00 0.000000e+00
 0.000000e+00 6.619554e-01 3.380446e-01 0.000000e+00 0.000000e+00
 0.000000e+00 0.000000e+00 7.513408e-01 2.486592e-01 0.000000e+00
 0.000000e+00 0.000000e+00 0.000000e+00 8.480747e-01 1.519253e-01
 0.000000e+00 0.000000e+00 0.000000e+00 0.000000e+00 0.000000e+00
<ENDHMM>
~h "f"
<BEGINHMM>
<NUMSTATES> 5
<STATE> 2
<MEAN> 25
 -3.071979e+00 3.264472e+00 4.810083e+00 9.634598e+00 7.614745e-01 -2.987089e+00 1.419142e+00 -4.843668e-01 1.684829e-01 1.233667e-01 2.688900e+00 1.893388e+00 -2.244981e+00 -1.279738e-01 -1.275668e+00 6.485621e-01 1.387042e+00 1.842377e-01 3.606602e-01 2.653616e-01 1.202177e+00 1.709774e-01 -2.309874e-01 2.223314e-01 -5.334443e-01
<VARIANCE> 25
 3.841773e+01 2.706466e+01 7.005090e+01 5.097235e+01 5.641086e+01 5.363652e+01 4.174230e+01 4.457040e+01 3.441282e+01 3.215880e+01 2.691942e+01 2.972083e+01 2.515252e+00 2.909314e+00 3.951114e+00 3.783228e+00 6.957865e+00 4.845006e+00 4.103185e+00 4.091931e+00 4.146193e+00 3.364765e+00 2.928723e+00 2.492763e+00 1.659328e+00
<GCONST> 1.064749e+02
<STATE> 3
<MEAN> 25
 -1.021710e+01 -5.064095e-02 9.452555e-02 7.169996e+00 3.628430e+00 -1.762328e+00 2.232543e+00 1.814535e-01 1.782489e+00 -1.390972e-01 2.615756e+00 1.862974e+00 -3.710933e-01 -7.416359e-01 -1.326419e-01 -2.584344e-01 -1.199680e-01 -3.035875e-01 9.305462e-02 2.354876e-02 -1.630401e-01 -3.118154e-02 -5.998880e-02 5.338065e-03 2.894979e-03
<VARIANCE> 25
 2.895330e+01 3.382202e+01 6.200024e+01 5.831435e+01 4.778839e+01 4.892662e+01 3.714907e+01 4.018884e+01 3.662309e+01 3.160810e+01 2.577452e+01 3.126607e+01 2.835753e+00 2.571261e+00 2.175660e+00 2.032357e+00 2.483137e+00 2.840451e+00 3.120372e+00 2.579948e+00 2.620666e+00 2.375448e+00 1.924017e+00 1.763417e+00 1.309271e+00
<GCONST> 1.006705e+02
<STATE> 4
<MEAN> 25
 -6.874167e+00 -1.860731e+00 1.544104e+00 5.748779e+00 1.493424e+00 -3.837848e+00 2.017411e+00 -5.841463e-01 1.286271e-02 3.176021e-01 1.698508e+00 1.500981e+00 2.995597e+00 3.621534e-01 1.406040e+00 -1.331726e+00 -2.034498e+00 -3.191122e-01 -8.740698e-01 -6.771439e-01 -1.648790e+00 -3.459371e-01 -1.865639e-02 -7.167301e-01 1.166985e+00
<VARIANCE> 25
 4.706145e+01 4.218559e+01 7.699821e+01 7.630564e+01 5.450652e+01 7.245763e+01 4.860263e+01 3.998742e+01 3.783102e+01 2.862512e+01 2.498056e+01 2.796041e+01 4.799000e+00 4.161561e+00 7.788079e+00 5.123637e+00 6.161877e+00 8.076655e+00 4.729771e+00 4.646195e+00 5.229929e+00 3.782104e+00 3.459412e+00 3.397907e+00 3.441464e+00
<GCONST> 1.119717e+02
<TRANSP> 5
 0.000000e+00 1.000000e+00 0.000000e+00 0.000000e+00 0.000000e+00
 0.000000e+00 6.744733e-01 3.255267e-01 0.000000e+00 0.000000e+00
 0.000000e+00 0.000000e+00 7.364240e-01 2.635759e-01 0.000000e+00
 0.000000e+00 0.000000e+00 0.000000e+00 5.118962e-01 4.881038e-01
 0.000000e+00 0.000000e+00 0.000000e+00 0.000000e+00 0.000000e+00
<ENDHMM>
~h "g"
<BEGINHMM>
<NUMSTATES> 5
<STATE> 2
<MEAN> 25
 5.156239e+00 6.526334e+00 2.951278e+00 4.978066e+00 8.490547e-01 -1.933640e+00 -3.236135e+00 -1.761365e+00 -1.922663e+00 1.393558e+00 -1.136006e+00 -1.416399e+00 -8.653879e-01 -1.547948e-02 -9.005327e-02 2.037805e-02 9.186479e-01 -6.068521e-01 -1.838293e-02 3.450731e-01 -4.524000e-01 1.178441e-01 -1.466960e-01 2.632564e-01 1.644000e-01
<VARIANCE> 25
 2.364707e+01 4.866461e+01 4.713742e+01 4.064978e+01 5.553540e+01 5.900357e+01 5.806241e+01 5.039144e+01 4.806114e+01 4.148472e+01 4.276751e+01 3.203859e+01 3.846087e+00 6.805138e+00 6.869014e+00 6.052015e+00 6.719705e+00 6.699831e+00 7.041083e+00 6.059747e+00 4.985523e+00 4.697104e+00 4.499069e+00 3.280370e+00 5.969676e+00
<GCONST> 1.136343e+02
<STATE> 3
<MEAN> 25
 2.700679e-01 1.880508e+00 3.622217e+00 1.312655e+00 2.422688e+00 -4.336190e+00 -4.661171e+00 -5.280009e-01 -3.263796e+00 2.372269e+00 3.393582e-01 -6.932495e-01 -6.984921e-01 -1.514763e+00 9.834700e-01 -1.827484e+00 -1.523464e+00 -9.189177e-01 -7.150385e-01 5.012596e-01 1.157891e-01 1.150285e-01 9.649013e-01 -2.823775e-01 2.381816e+00
<VARIANCE> 25
 4.285702e+01 4.165768e+01 7.341730e+01 5.089127e+01 7.984940e+01 7.379316e+01 8.561694e+01 5.899950e+01 5.317199e+01 4.739811e+01 4.543607e+01 3.922172e+01 4.955062e+00 4.685263e+00 7.718710e+00 5.713687e+00 9.518056e+00 7.049087e+00 6.626030e+00 7.893748e+00 7.427885e+00 5.652993e+00 4.979549e+00 4.111756e+00 3.351262e+00
<GCONST> 1.172471e+02
<STATE> 4
<MEAN> 25
 2.056011e+00 -2.541341e-01 6.039142e+00 -2.071900e+00 -4.387775e+00 -5.363431e+00 -5.712945e+00 1.509596e+00 -1.939124e+00 1.629200e+00 2.370786e+00 -2.521561e+00 1.697229e-01 -7.621274e-01 3.346793e-02 -1.286031e+00 -8.841159e-01 1.836357e-01 2.100749e-01 5.689523e-01 4.384921e-01 -1.806272e-01 2.430652e-01 -3.781624e-01 1.055405e+00
<VARIANCE> 25
 2.973221e+01 4.336012e+01 6.042113e+01 5.009822e+01 8.114619e+01 6.088218e+01 7.387131e+01 6.639825e+01 6.497043e+01 6.594044e+01 5.194923e+01 3.981690e+01 1.639788e+00 2.791662e+00 5.166052e+00 3.805910e+00 5.400600e+00 3.763869e+00 4.044621e+00 5.203121e+00 5.556197e+00 3.784254e+00 4.040341e+00 3.205029e+00 2.210091e+00
<GCONST> 1.110828e+02
<TRANSP> 5
 0.000000e+00 1.000000e+00 0.000000e+00 0.000000e+00 0.000000e+00
 0.000000e+00 5.782197e-01 4.217803e-01 0.000000e+00 0.000000e+00
 0.000000e+00 0.000000e+00 4.625709e-01 5.374291e-01 0.000000e+00
 0.000000e+00 0.000000e+00 0.000000e+00 4.611704e-01 5.388297e-01
 0.000000e+00 0.000000e+00 0.000000e+00 0.000000e+00 0.000000e+00
<ENDHMM>
~h "h"
<BEGINHMM>
<NUMSTATES> 5
<STATE> 2
<MEAN> 25
 3.210174e-01 -2.842315e+00 -9.146191e-01 3.418486e-01 4.265905e+00 6.953130e-01 3.545841e+00 2.010177e+00 9.907139e-01 -4.723596e-01 -2.351204e+00 3.588398e-01 -5.575439e-01 4.253637e-02 -5.598000e-01 5.514296e-01 1.223837e+00 2.287448e-01 5.873147e-01 2.884646e-01 1.653865e-01 -1.260116e-01 -1.806460e-01 3.999245e-01 -6.694852e-01
<VARIANCE> 25
 2.957706e+01 4.195615e+01 7.179324e+01 5.184913e+01 9.523415e+01 7.798045e+01 8.121969e+01 6.360377e+01 4.903218e+01 4.758427e+01 5.244640e+01 4.317992e+01 1.859403e+00 3.164823e+00 3.851491e+00 3.455149e+00 4.836931e+00 4.496036e+00 4.233368e+00 4.251087e+00 3.856371e+00 3.610707e+00 3.730264e+00 2.932551e+00 2.176823e+00
<GCONST> 1.103696e+02
<STATE> 3
<MEAN> 25
 -6.312770e-01 -2.909714e+00 -3.026726e+00 4.517772e-01 6.200473e+00 8.643018e-01 3.597400e+00 1.692672e+00 1.681210e+00 -6.179931e-01 -2.204465e+00 2.067692e-01 -6.553581e-02 1.878122e-01 -4.329224e-01 5.925113e-02 1.634908e-02 1.735965e-01 -1.779490e-02 -5.680799e-02 -3.644841e-02 6.414811e-02 5.840912e-02 -2.779641e-03 -4.435991e-01
<VARIANCE> 25
 3.803053e+01 5.107607e+01 7.289129e+01 5.096910e+01 8.961237e+01 6.963898e+01 7.468277e+01 6.422830e+01 4.832452e+01 4.320779e+01 5.157275e+01 3.933870e+01 2.542975e+00 3.104536e+00 3.416181e+00 3.454593e+00 4.291435e+00 4.476524e+00 4.390283e+00 3.861120e+00 3.830575e+00 3.258847e+00 3.171241e+00 3.027942e+00 4.463847e+00
<GCONST> 1.108151e+02
<STATE> 4
<MEAN> 25
 -4.403026e+00 -1.477204e+00 -3.668566e+00 2.565461e+00 5.406610e+00 2.178267e+00 3.130995e+00 2.436201e+00 2.529476e-01 -2.689980e-01 -4.033144e-01 1.917109e+00 8.858567e-02 1.721782e-01 -4.625302e-03 -6.251490e-02 -2.255748e-01 -5.493926e-02 -1.018347e-01 -1.034186e-01 -8.950137e-02 -2.100769e-03 3.546447e-03 -1.096213e-01 -1.145458e-01
<VARIANCE> 25
 4.190185e+01 5.116600e+01 4.727985e+01 4.877724e+01 4.559378e+01 4.626859e+01 4.079319e+01 3.949143e+01 4.050708e+01 3.108501e+01 3.880152e+01 3.015089e+01 1.376521e+00 1.353070e+00 1.594249e+00 1.770135e+00 2.112084e+00 2.257483e+00 2.244379e+00 2.255046e+00 2.161760e+00 1.934396e+00 1.906829e+00 1.787786e+00 1.165102e+00
<GCONST> 9.825525e+01
<TRANSP> 5
 0.000000e+00 1.000000e+00 0.000000e+00 0.000000e+00 0.000000e+00
 0.000000e+00 3.625656e-01 6.374344e-01 0.000000e+00 0.000000e+00
 0.000000e+00 0.000000e+00 3.239181e-01 6.760819e-01 0.000000e+00
 0.000000e+00 0.000000e+00 0.000000e+00 7.971630e-01 2.028371e-01
 0.000000e+00 0.000000e+00 0.000000e+00 0.000000e+00 0.000000e+00
<ENDHMM>
~h "i"
<BEGINHMM>
<NUMSTATES> 5
<STATE> 2
<MEAN> 25
 1.940991e-01 1.289573e+00 1.391701e+01 2.868463e-01 -1.001240e+01 -5.064814e+00 -1.583376e+00 -2.873945e+00 -6.011337e+00 -5.247299e-01 3.382926e+00 -4.520699e-01 4.171315e-01 -1.253301e-01 2.731483e+00 -9.304978e-01 -2.485132e+00 1.710933e-01 -1.040535e+00 -5.649790e-01 -1.546651e+00 1.925910e-01 1.164262e+00 -6.232900e-01 1.210007e+00
<VARIANCE> 25
 2.744989e+01 4.437847e+01 6.515611e+01 5.152345e+01 6.564363e+01 6.204606e+01 5.756420e+01 6.735586e+01 5.175275e+01 4.234222e+01 4.345811e+01 3.184871e+01 4.444363e+00 3.514173e+00 5.357554e+00 5.070346e+00 5.903632e+00 6.108779e+00 5.786227e+00 6.167784e+00 5.141681e+00 4.727366e+00 4.322385e+00 3.172431e+00 2.239694e+00
<GCONST> 1.124968e+02
<STATE> 3
<MEAN> 25
 8.888198e-02 2.086660e+00 1.868853e+01 -3.096464e+00 -1.392117e+01 -2.377319e+00 -4.436619e+00 -4.627271e+00 -7.924033e+00 -1.135289e-01 4.723226e+00 -2.572618e+00 1.472465e-01 2.978760e-01 -4.243743e-01 3.012669e-01 2.347216e-01 4.688403e-02 2.577724e-01 6.612364e-02 1.922834e-01 1.149098e-01 -2.571314e-01 1.338949e-01 -5.501468e-01
<VARIANCE> 25
 1.242362e+01 3.771410e+01 4.927290e+01 5.670975e+01 4.699385e+01 6.489154e+01 5.239005e+01 6.066122e+01 4.859368e+01 6.209909e+01 5.279200e+01 3.535682e+01 8.312362e-01 1.808388e+00 2.621345e+00 2.666298e+00 2.677364e+00 2.853176e+00 2.908114e+00 3.209929e+00 2.711612e+00 2.476050e+00 2.381162e+00 1.934705e+00 1.607770e+00
<GCONST> 1.021883e+02
<STATE> 4
<MEAN> 25
 -4.410012e-01 4.377421e+00 9.761557e+00 2.910778e+00 -6.408271e+00 -3.077103e+00 5.260088e-01 -3.252408e+00 -4.102275e+00 3.135185e-01 1.613787e+00 1.026347e+00 -1.078035e-01 1.804612e-01 -1.403982e+00 5.305345e-01 1.230903e+00 1.968547e-01 4.079640e-01 4.009070e-01 6.582139e-01 -7.756487e-02 -3.844461e-01 3.176452e-01 -1.052502e+00
<VARIANCE> 25
 2.684962e+01 4.082774e+01 5.385023e+01 4.515735e+01 6.041463e+01 6.867075e+01 5.200729e+01 5.514275e+01 4.268576e+01 3.542665e+01 3.776137e+01 3.292294e+01 1.325326e+00 2.088591e+00 2.856332e+00 2.564157e+00 3.383723e+00 3.308003e+00 3.318598e+00 3.370110e+00 2.956907e+00 2.709835e+00 2.673393e+00 2.099611e+00 1.676693e+00
<GCONST> 1.036436e+02
<TRANSP> 5
 0.000000e+00 1.000000e+00 0.000000e+00 0.000000e+00 0.000000e+00
 0.000000e+00 5.885624e-01 4.114376e-01 0.000000e+00 0.000000e+00
 0.000000e+00 0.000000e+00 7.693354e-01 2.306647e-01 0.000000e+00
 0.000000e+00 0.000000e+00 0.000000e+00 7.536476e-01 2.463523e-01
 0.000000e+00 0.000000e+00 0.000000e+00 0.000000e+00 0.000000e+00
<ENDHMM>
~h "j"
<BEGINHMM>
<NUMSTATES> 5
<STATE> 2
<MEAN> 25
 -7.778763e-01 8.767286e+00 6.678695e+00 4.850655e+00 1.529284e+00 -2.835790e+00 3.391830e-01 5.785627e-01 -1.402265e+00 -2.302336e+00 -3.367425e-01 1.852047e+00 -1.696123e+00 7.221207e-01 8.883510e-01 -4.681934e-01 4.881850e-01 2.729737e-02 3.970467e-01 -3.975563e-01 -2.822666e-01 -9.711353e-02 3.433886e-01 1.382283e-01 6.764172e-01
<VARIANCE> 25
 7.629195e+01 4.791594e+01 4.932138e+01 5.022163e+01 6.525095e+01 6.397428e+01 5.124336e+01 4.274260e+01 4.216145e+01 3.151447e+01 3.234738e+01 2.793629e+01 6.731723e+00 4.994944e+00 5.093628e+00 5.708476e+00 6.241959e+00 5.973810e+00 5.037134e+00 4.775846e+00 4.056868e+00 3.751837e+00 3.819695e+00 2.930523e+00 6.311107e+00
<GCONST> 1.126573e+02
<STATE> 3
<MEAN> 25
 -6.277605e+00 6.733017e+00 1.409847e+01 1.450034e+00 -3.857983e+00 -5.251900e+00 -8.776292e-01 -3.474794e+00 -3.813385e+00 -3.033860e+00 3.624171e+00 3.399364e+00 1.131563e+00 -2.016636e+00 1.420788e+00 -1.266154e-01 -3.280959e+00 -1.781790e+00 -1.376365e+00 -4.587460e-02 -4.792243e-01 -2.343685e-01 1.155698e+00 4.759525e-01 1.990001e+00
<VARIANCE> 25
 4.509733e+01 4.408784e+01 4.894042e+01 5.830392e+01 8.275797e+01 7.924467e+01 5.761910e+01 4.634816e+01 4.073788e+01 3.853284e+01 3.176895e+01 3.189267e+01 6.465170e+00 4.842247e+00 5.663382e+00 5.246930e+00 6.736407e+00 6.295258e+00 6.382341e+00 5.772608e+00 5.085637e+00 4.491237e+00 3.293003e+00 3.108938e+00 2.123467e+00
<GCONST> 1.128534e+02
<STATE> 4
<MEAN> 25
 1.260023e+00 -7.842011e-01 1.167989e+01 1.040722e+00 -1.045676e+01 -8.034603e+00 -5.880463e+00 1.517763e+00 -1.924273e+00 -2.407943e+00 4.424978e+00 2.414967e+00 1.048901e+00 -1.059282e+00 -1.732780e+00 -3.210434e-01 5.147279e-01 3.418627e-01 -5.236547e-01 8.662478e-01 9.945386e-01 4.780642e-01 -5.075989e-01 -8.536400e-01 1.939951e-01
<VARIANCE> 25
 1.381246e+01 3.195048e+01 4.297442e+01 6.399976e+01 5.161366e+01 4.270974e+01 6.368163e+01 6.320368e+01 5.183135e+01 4.470669e+01 3.224220e+01 3.451954e+01 1.901127e+00 3.477782e+00 3.296031e+00 2.691582e+00 4.768506e+00 3.885934e+00 5.705692e+00 5.204458e+00 3.915378e+00 3.005269e+00 3.355044e+00 2.998749e+00 1.845727e+00
<GCONST> 1.064864e+02
<TRANSP> 5
 0.000000e+00 1.000000e+00 0.000000e+00 0.000000e+00 0.000000e+00
 0.000000e+00 7.734879e-01 2.265121e-01 0.000000e+00 0.000000e+00
 0.000000e+00 0.000000e+00 6.405318e-01 3.594682e-01 0.000000e+00
 0.000000e+00 0.000000e+00 0.000000e+00 7.137127e-01 2.862873e-01
 0.000000e+00 0.000000e+00 0.000000e+00 0.000000e+00 0.000000e+00
<ENDHMM>
~h "k"
<BEGINHMM>
<NUMSTATES> 5
<STATE> 2
<MEAN> 25
 -2.550810e+00 2.943947e+00 -3.224089e+00 3.014852e+00 3.255845e+00 2.069596e-01 1.614891e+00 9.993368e-01 -4.419989e-01 1.840282e+00 1.124378e+00 9.699360e-01 -1.256369e+00 -7.208424e-01 -1.134513e+00 -1.221270e-01 1.115705e+00 -5.080540e-01 -2.123701e-01 4.969612e-01 1.143230e-01 2.237645e-01 -8.457983e-02 2.445644e-01 3.855181e-01
<VARIANCE> 25
 4.932754e+01 4.159801e+01 6.631863e+01 4.759087e+01 6.114244e+01 6.867263e+01 5.278505e+01 5.195354e+01 5.269329e+01 4.014666e+01 4.040174e+01 3.469044e+01 3.272148e+00 5.333364e+00 5.938189e+00 5.044610e+00 5.883263e+00 6.516362e+00 5.493659e+00 5.207982e+00 4.672107e+00 4.066672e+00 3.823760e+00 3.414123e+00 6.034164e+00
<GCONST> 1.133625e+02
<STATE> 3
<MEAN> 25
 -5.166486e+00 -2.336980e+00 -7.445931e+00 -9.095674e-01 6.996643e+00 -1.776950e+00 -6.185387e-01 1.825526e+00 6.384066e-01 3.151380e+00 6.674225e-01 5.736547e-01 -9.365816e-02 -1.205215e+00 -2.265337e-01 -1.441759e+00 -3.140712e-03 -9.462700e-01 -2.666451e-01 -2.433404e-02 2.847935e-01 1.539690e-01 -3.686255e-01 -7.073730e-01 2.760301e+00
<VARIANCE> 25
 4.949779e+01 4.937137e+01 9.259010e+01 6.973872e+01 8.560954e+01 1.014511e+02 7.333936e+01 6.568546e+01 6.685596e+01 5.277679e+01 4.824251e+01 4.979475e+01 6.961226e+00 5.537638e+00 7.694760e+00 6.827726e+00 8.322873e+00 8.952997e+00 7.333864e+00 6.774490e+00 6.862062e+00 5.885026e+00 5.793570e+00 5.188018e+00 7.189986e+00
<GCONST> 1.209276e+02
<STATE> 4
<MEAN> 25
 -2.594071e+00 -2.865604e+00 -4.080598e+00 -2.717460e+00 2.562801e+00 -3.091143e+00 5.088126e-01 1.297356e+00 1.034916e+00 1.708187e+00 -7.995065e-01 -1.698376e+00 1.908343e+00 -2.177512e-01 1.103880e+00 -6.260611e-01 -1.768328e+00 2.045430e-01 1.627986e-01 -2.716243e-01 -2.214686e-01 -7.302017e-01 -2.196002e-01 -1.186002e+00 1.711584e+00
<VARIANCE> 25
 5.634238e+01 4.294229e+01 7.476298e+01 4.902651e+01 6.282709e+01 7.444501e+01 5.479134e+01 5.299066e+01 5.201144e+01 4.103531e+01 4.487634e+01 4.601443e+01 5.141453e+00 4.317177e+00 4.975246e+00 5.001100e+00 6.281552e+00 6.657332e+00 5.716228e+00 4.958862e+00 5.405643e+00 4.516588e+00 4.402741e+00 4.436954e+00 3.800821e+00
<GCONST> 1.145623e+02
<TRANSP> 5
 0.000000e+00 1.000000e+00 0.000000e+00 0.000000e+00 0.000000e+00
 0.000000e+00 5.691361e-01 4.308638e-01 0.000000e+00 0.000000e+00
 0.000000e+00 0.000000e+00 4.741764e-01 5.258236e-01 0.000000e+00
 0.000000e+00 0.000000e+00 0.000000e+00 4.925334e-01 5.074667e-01
 0.000000e+00 0.000000e+00 0.000000e+00 0.000000e+00 0.000000e+00
<ENDHMM>
~h "l"
<BEGINHMM>
<NUMSTATES> 5
<STATE> 2
<MEAN> 25
 6.689795e+00 -3.391850e+00 -1.264708e+00 -3.282291e+00 -2.008714e+00 9.678076e-01 -5.325621e+00 -5.922267e+00 3.131381e+00 5.090240e+00 1.287147e-01 -2.755183e+00 3.896667e-01 -7.863570e-02 -1.549902e-02 -3.917353e-01 -5.757071e-02 2.091756e-01 -5.458927e-01 -6.014296e-01 2.387752e-01 8.709702e-01 -1.309322e-02 -1.218409e-01 -6.039472e-02
<VARIANCE> 25
 1.618400e+01 2.982427e+01 4.953603e+01 5.752627e+01 4.744689e+01 8.144849e+01 7.003163e+01 6.732244e+01 6.654956e+01 5.450188e+01 4.876239e+01 3.762963e+01 8.611531e-01 1.730125e+00 2.812356e+00 3.551233e+00 3.657928e+00 4.266147e+00 4.192888e+00 5.099811e+00 4.257195e+00 3.742180e+00 3.293152e+00 2.969145e+00 1.252692e+00
<GCONST> 1.062941e+02
<STATE> 3
<MEAN> 25
 7.049181e+00 -3.735352e+00 -2.106148e+00 -5.414279e+00 -1.530887e+00 2.283377e+00 -5.949052e+00 -6.154336e+00 4.060791e+00 6.257143e+00 -2.079841e-01 -3.259084e+00 -2.087120e-01 -3.113264e-01 -2.514723e-01 -5.593877e-01 5.774339e-01 3.519579e-02 2.223900e-01 9.888546e-01 2.437441e-01 -5.871913e-01 -3.667303e-01 -3.191730e-01 2.943485e-01
<VARIANCE> 25
 1.458792e+01 2.846483e+01 4.465839e+01 5.988493e+01 4.500380e+01 7.803271e+01 8.085790e+01 6.433571e+01 6.314309e+01 5.192198e+01 5.022012e+01 3.694382e+01 5.523493e-01 1.555567e+00 2.118141e+00 2.791207e+00 2.751486e+00 3.429919e+00 3.851384e+00 4.926811e+00 3.505245e+00 3.502133e+00 3.134759e+00 2.437287e+00 8.346360e-01
<GCONST> 1.033823e+02
<STATE> 4
<MEAN> 25
 5.527363e+00 -3.120335e+00 -3.407270e+00 -6.166454e+00 1.133433e+00 1.336584e+00 -2.694413e+00 -2.590747e+00 2.426557e+00 2.586800e+00 -6.802634e-01 -2.850981e+00 -2.599607e-01 -8.364499e-02 1.648497e-02 1.351872e-01 2.270942e-01 -6.457122e-02 4.602070e-01 6.929408e-01 -2.768735e-01 -6.821398e-01 -1.273271e-01 7.140214e-02 -3.064667e-02
<VARIANCE> 25
 2.038441e+01 3.319977e+01 4.936348e+01 7.034385e+01 5.082040e+01 8.165237e+01 7.963397e+01 6.278953e+01 6.055524e+01 4.525421e+01 5.510620e+01 4.311282e+01 5.257301e-01 1.399250e+00 1.769960e+00 2.110068e+00 2.420106e+00 2.765698e+00 2.836250e+00 3.227921e+00 2.773514e+00 2.658663e+00 2.488958e+00 2.034061e+00 8.871698e-01
<GCONST> 1.017800e+02
<TRANSP> 5
 0.000000e+00 1.000000e+00 0.000000e+00 0.000000e+00 0.000000e+00
 0.000000e+00 4.880144e-01 5.119856e-01 0.000000e+00 0.000000e+00
 0.000000e+00 0.000000e+00 4.648362e-01 5.351638e-01 0.000000e+00
 0.000000e+00 0.000000e+00 0.000000e+00 5.769280e-01 4.230721e-01
 0.000000e+00 0.000000e+00 0.000000e+00 0.000000e+00 0.000000e+00
<ENDHMM>
~h "m"
<BEGINHMM>
<NUMSTATES> 5
<STATE> 2
<MEAN> 25
 7.175184e+00 2.387108e+00 5.527622e-01 2.156980e+00 1.237141e-01 4.372171e+00 -1.144374e+00 -6.842068e+00 -4.952284e+00 5.076981e-01 -3.767459e-01 -1.086018e+00 1.432694e-01 7.387418e-01 7.288890e-01 1.051439e+00 1.403715e-01 3.056102e-01 3.475473e-01 -1.248972e+00 -1.240474e+00 -1.171888e-01 -3.235582e-01 1.411150e-01 -6.450151e-01
<VARIANCE> 25
 1.723281e+01 3.637118e+01 3.984622e+01 4.268298e+01 3.916867e+01 4.880058e+01 4.093834e+01 4.440849e+01 4.774420e+01 4.362120e+01 3.862526e+01 2.919662e+01 1.041486e+00 1.947964e+00 2.767056e+00 3.040274e+00 2.450068e+00 2.877406e+00 3.044127e+00 3.347027e+00 3.076672e+00 2.785409e+00 3.082835e+00 2.203531e+00 1.525629e+00
<GCONST> 1.011548e+02
<STATE> 3
<MEAN> 25
 7.222834e+00 3.298297e+00 2.265315e+00 3.424195e+00 -4.637465e-01 5.348846e+00 -3.597849e-01 -9.090358e+00 -7.387828e+00 -2.264209e-01 -1.091354e+00 -8.403306e-01 1.595713e-01 -1.949056e-01 -3.035589e-01 -4.913352e-01 -1.250584e-01 3.163531e-01 7.763024e-02 2.886196e-01 2.138477e-01 -5.356065e-02 1.372320e-01 -3.011119e-02 1.995145e-01
<VARIANCE> 25
 1.370093e+01 3.604951e+01 3.808677e+01 3.606378e+01 3.915654e+01 4.722828e+01 4.845477e+01 5.095770e+01 5.735285e+01 5.612666e+01 4.711255e+01 3.384800e+01 5.468451e-01 1.700049e+00 2.310601e+00 2.620576e+00 1.961757e+00 2.557957e+00 2.438832e+00 2.498141e+00 2.965817e+00 2.441881e+00 2.316667e+00 1.898604e+00 1.237628e+00
<GCONST> 9.898232e+01
<STATE> 4
<MEAN> 25
 7.799955e+00 9.416522e-01 -8.752100e-01 -1.339526e+00 -7.226787e-01 6.507577e+00 -8.072501e-01 -5.176555e+00 -3.489722e+00 -7.006091e-01 3.006590e-01 -1.438074e+00 -4.533127e-02 -9.113547e-01 -1.006183e+00 -1.137230e+00 9.764665e-02 1.514168e-01 -2.740540e-01 1.154037e+00 1.438192e+00 6.886744e-02 2.349586e-01 -3.065513e-01 8.022326e-01
<VARIANCE> 25
 1.842986e+01 4.711951e+01 6.093631e+01 6.527027e+01 4.760168e+01 6.371553e+01 5.095679e+01 5.032190e+01 5.760159e+01 4.409968e+01 4.189222e+01 3.495153e+01 8.070273e-01 3.036907e+00 3.859571e+00 3.970205e+00 4.056024e+00 3.692202e+00 4.352384e+00 4.284814e+00 5.169023e+00 3.721904e+00 3.436500e+00 3.137784e+00 1.661676e+00
<GCONST> 1.070985e+02
<TRANSP> 5
 0.000000e+00 1.000000e+00 0.000000e+00 0.000000e+00 0.000000e+00
 0.000000e+00 6.244662e-01 3.755337e-01 0.000000e+00 0.000000e+00
 0.000000e+00 0.000000e+00 5.565932e-01 4.434068e-01 0.000000e+00
 0.000000e+00 0.000000e+00 0.000000e+00 5.667506e-01 4.332494e-01
 0.000000e+00 0.000000e+00 0.000000e+00 0.000000e+00 0.000000e+00
<ENDHMM>
~h "n"
<BEGINHMM>
<NUMSTATES> 5
<STATE> 2
<MEAN> 25
 6.680741e+00 -2.304449e+00 2.724127e+00 3.375912e+00 -2.978969e+00 -1.619971e-01 -3.102885e+00 -1.180828e+00 1.789733e+00 -3.684978e-01 -4.791147e+00 -9.506055e-01 4.551800e-01 1.673710e+00 7.979102e-01 1.582588e+00 -5.491158e-01 8.874726e-02 -6.607108e-03 -1.915937e+00 -2.002386e-01 4.550267e-01 -4.381697e-01 5.475501e-01 -1.712541e+00
<VARIANCE> 25
 1.422570e+01 3.883498e+01 4.438863e+01 3.410216e+01 5.069802e+01 5.543172e+01 4.813997e+01 6.410444e+01 5.230138e+01 4.694587e+01 4.335686e+01 3.514917e+01 8.814906e-01 2.203906e+00 3.583210e+00 2.699788e+00 3.947211e+00 3.770627e+00 3.579883e+00 4.498995e+00 3.555891e+00 3.471292e+00 3.471816e+00 2.735127e+00 1.024982e+00
<GCONST> 1.038960e+02
<STATE> 3
<MEAN> 25
 6.664939e+00 3.264603e+00 3.651143e+00 5.672527e+00 -3.046594e+00 -8.033136e-01 -2.186212e+00 -5.492342e+00 -8.432484e-01 6.963124e-01 -5.520912e+00 -6.499192e-01 -2.097035e-01 8.913821e-01 -5.108185e-02 2.021009e-01 4.948069e-01 1.168085e-01 2.281428e-01 7.285178e-02 -3.440064e-01 -3.483154e-02 3.086403e-01 1.377738e-01 -9.006140e-01
<VARIANCE> 25
 1.433913e+01 3.419797e+01 3.923742e+01 2.987774e+01 4.853599e+01 5.597306e+01 4.146972e+01 4.870404e+01 4.834197e+01 5.159224e+01 4.412182e+01 3.695435e+01 7.056220e-01 1.548422e+00 1.649449e+00 1.610882e+00 2.502844e+00 2.479272e+00 2.402511e+00 3.102038e+00 2.645168e+00 2.292493e+00 2.392373e+00 1.860787e+00 7.080007e-01
<GCONST> 9.779515e+01
<STATE> 4
<MEAN> 25
 -2.491329e+00 2.672888e+00 -4.445638e-01 5.085557e+00 2.744014e+00 2.251938e+00 1.842946e+00 1.872897e+00 4.405934e-01 4.945548e-01 3.455421e-01 3.075924e+00 -2.422975e-01 1.088116e-02 -5.715531e-02 -2.546967e-02 9.924307e-02 5.219826e-02 7.787483e-02 1.411004e-01 -1.295689e-02 1.447707e-04 1.452488e-01 3.187959e-02 -2.049370e-01
<VARIANCE> 25
 3.818279e+01 3.342359e+01 3.135826e+01 2.606356e+01 3.509097e+01 3.475947e+01 3.109530e+01 3.660446e+01 3.214044e+01 2.687454e+01 3.121073e+01 2.424796e+01 5.911168e-01 8.357770e-01 9.394668e-01 1.156460e+00 1.456227e+00 1.631923e+00 1.671289e+00 1.908617e+00 1.816491e+00 1.663011e+00 1.604594e+00 1.425056e+00 4.092168e-01
<GCONST> 8.978108e+01
<TRANSP> 5
 0.000000e+00 1.000000e+00 0.000000e+00 0.000000e+00 0.000000e+00
 0.000000e+00 6.143701e-01 3.856299e-01 0.000000e+00 0.000000e+00
 0.000000e+00 0.000000e+00 6.744899e-01 3.255102e-01 0.000000e+00
 0.000000e+00 0.000000e+00 0.000000e+00 8.840599e-01 1.159401e-01
 0.000000e+00 0.000000e+00 0.000000e+00 0.000000e+00 0.000000e+00
<ENDHMM>
~h "o"
<BEGINHMM>
<NUMSTATES> 5
<STATE> 2
<MEAN> 25
 5.566151e+00 4.488828e-01 -7.329953e+00 -7.313814e+00 -6.730188e-01 4.941184e+00 -1.341825e+00 -2.852024e+00 -1.191746e-02 1.328669e+00 3.783861e+00 -7.380328e-01 1.612612e+00 -1.248524e-01 -6.458653e-01 -2.200675e+00 -5.025743e-01 1.764140e+00 -1.843528e-01 -5.163963e-01 -1.680371e-01 9.824849e-02 7.486946e-01 -5.129088e-01 1.622118e+00
<VARIANCE> 25
 3.987144e+01 3.779010e+01 5.298068e+01 8.222029e+01 5.903935e+01 8.235336e+01 6.959815e+01 5.265618e+01 5.303860e+01 5.087805e+01 5.221796e+01 3.759689e+01 4.871258e+00 3.738623e+00 4.609007e+00 7.490865e+00 6.569138e+00 7.509024e+00 6.619765e+00 5.683661e+00 5.720135e+00 5.382770e+00 4.982896e+00 3.739153e+00 5.292061e+00
<GCONST> 1.158107e+02
<STATE> 3
<MEAN> 25
 8.259570e+00 -1.015519e+00 -8.207511e+00 -1.186882e+01 -1.809177e+00 9.364243e+00 -2.057858e+00 -3.654605e+00 5.905476e-01 5.844006e-01 6.729038e+00 -1.476632e+00 1.291338e-01 -1.777688e-01 7.861243e-02 1.631730e-01 3.471426e-01 3.550569e-01 1.051476e-02 -1.722382e-01 8.747609e-02 4.220035e-01 -3.423371e-01 -2.391813e-01 -9.729268e-02
<VARIANCE> 25
 1.761361e+01 3.401895e+01 4.169073e+01 7.823617e+01 5.498269e+01 8.296272e+01 7.785582e+01 5.437734e+01 6.158313e+01 6.673464e+01 5.824714e+01 5.183594e+01 9.426530e-01 2.779760e+00 2.198330e+00 4.410159e+00 3.833695e+00 4.627907e+00 4.615100e+00 3.775714e+00 4.522274e+00 4.373169e+00 3.705729e+00 3.354062e+00 2.442245e+00
<GCONST> 1.089089e+02
<STATE> 4
<MEAN> 25
 7.589832e+00 2.300916e-01 -7.182863e+00 -9.335281e+00 -1.096028e-01 7.408634e+00 -2.878114e-01 -4.355140e+00 -2.331778e-01 2.611439e+00 3.217351e+00 -1.114998e+00 -2.749199e-01 2.177984e-01 4.194392e-01 1.210559e+00 3.356014e-01 -7.492170e-01 1.966405e-03 1.147893e-01 1.525237e-01 1.053213e-02 -5.755897e-01 1.370960e-01 -7.208065e-01
<VARIANCE> 25
 1.724475e+01 4.501609e+01 4.153060e+01 6.694824e+01 5.171357e+01 7.677038e+01 6.766697e+01 4.961116e+01 4.985897e+01 4.266438e+01 3.837908e+01 5.145337e+01 7.056102e-01 1.598314e+00 1.962358e+00 3.182575e+00 2.566797e+00 3.555718e+00 2.743408e+00 2.871719e+00 2.701716e+00 2.550628e+00 2.504385e+00 2.225830e+00 1.170220e+00
<GCONST> 1.022209e+02
<TRANSP> 5
 0.000000e+00 1.000000e+00 0.000000e+00 0.000000e+00 0.000000e+00
 0.000000e+00 5.544732e-01 4.455268e-01 0.000000e+00 0.000000e+00
 0.000000e+00 0.000000e+00 6.156812e-01 3.843188e-01 0.000000e+00
 0.000000e+00 0.000000e+00 0.000000e+00 7.849782e-01 2.150219e-01
 0.000000e+00 0.000000e+00 0.000000e+00 0.000000e+00 0.000000e+00
<ENDHMM>
~h "p"
<BEGINHMM>
<NUMSTATES> 5
<STATE> 2
<MEAN> 25
 -1.813535e+00 3.890211e+00 -4.492759e+00 3.449963e+00 3.033356e+00 7.144188e-01 1.965350e+00 9.198707e-01 2.411933e-01 2.002480e+00 1.291678e+00 1.099815e+00 -6.453391e-01 -2.720879e-01 -5.427697e-01 -2.109510e-02 4.728870e-02 -2.928484e-01 3.542451e-01 4.558090e-02 7.363626e-02 3.703349e-02 2.402639e-01 2.139459e-01 9.468731e-03
<VARIANCE> 25
 6.147489e+01 3.780978e+01 5.009286e+01 3.974693e+01 3.337461e+01 4.839613e+01 3.969709e+01 3.802507e+01 4.439911e+01 3.506105e+01 3.191583e+01 2.619828e+01 3.254839e+00 3.355989e+00 3.386237e+00 3.767860e+00 3.416286e+00 4.191196e+00 3.574820e+00 3.786601e+00 3.634549e+00 3.005848e+00 2.942773e+00 2.288941e+00 6.278987e+00
<GCONST> 1.064201e+02
<STATE> 3
<MEAN> 25
 -5.595783e-01 2.021488e-01 -5.230008e+00 1.495376e-01 1.609370e+00 -4.201979e-01 1.964807e+00 -1.277340e+00 4.642436e-01 1.446992e+00 2.298963e+00 6.045334e-01 1.746483e+00 -2.179157e+00 -8.629639e-01 -2.456110e+00 -7.800168e-01 7.483842e-01 -6.695998e-01 -1.064483e+00 5.026770e-01 1.501078e-01 4.358897e-01 -1.424686e+00 4.301175e+00
<VARIANCE> 25
 4.186786e+01 3.357370e+01 4.091920e+01 5.299232e+01 3.754416e+01 6.103003e+01 4.272760e+01 4.098058e+01 3.812286e+01 3.410385e+01 3.135129e+01 2.756438e+01 6.551212e+00 5.433353e+00 6.853094e+00 6.542408e+00 5.818920e+00 1.042230e+01 6.456892e+00 5.414256e+00 6.087021e+00 4.994129e+00 5.157356e+00 4.753877e+00 7.257863e+00
<GCONST> 1.136441e+02
<STATE> 4
<MEAN> 25
 4.815690e+00 -4.252406e+00 -7.146350e+00 -5.287643e+00 7.918693e-01 3.861526e+00 -5.312907e-02 -3.232899e+00 2.546036e+00 2.037818e+00 2.525629e+00 -4.065969e+00 1.155482e+00 -9.516186e-01 4.161237e-02 -9.208856e-01 -5.016320e-01 3.700035e-01 -7.137632e-01 4.542466e-02 3.144446e-01 5.012507e-02 -2.161505e-01 -9.313933e-01 1.922801e+00
<VARIANCE> 25
 4.252263e+01 3.525806e+01 4.325450e+01 5.420633e+01 4.266733e+01 8.293793e+01 5.864125e+01 4.781963e+01 4.514679e+01 4.270579e+01 4.456801e+01 4.977724e+01 5.141155e+00 4.968231e+00 5.208642e+00 6.303643e+00 6.049237e+00 9.951320e+00 6.066518e+00 5.267493e+00 5.797283e+00 4.662520e+00 5.042499e+00 5.054941e+00 8.873843e+00
<GCONST> 1.154109e+02
<TRANSP> 5
 0.000000e+00 1.000000e+00 0.000000e+00 0.000000e+00 0.000000e+00
 0.000000e+00 6.508045e-01 3.491955e-01 0.000000e+00 0.000000e+00
 0.000000e+00 0.000000e+00 4.330532e-01 5.669468e-01 0.000000e+00
 0.000000e+00 0.000000e+00 0.000000e+00 4.664289e-01 5.335711e-01
 0.000000e+00 0.000000e+00 0.000000e+00 0.000000e+00 0.000000e+00
<ENDHMM>
~h "q"
<BEGINHMM>
<NUMSTATES> 5
<STATE> 2
<MEAN> 25
 3.864714e+00 -9.233866e+00 -7.964073e+00 -6.656108e+00 4.137634e+00 2.154231e+00 3.600212e+00 1.187382e+00 3.088234e+00 2.912643e-01 -3.915637e+00 -6.219440e+00 4.649213e-02 -4.149346e-01 3.685880e-03 3.428743e-02 2.039794e-01 1.680456e-01 2.044654e-02 -6.598717e-02 3.772833e-02 -3.045340e-01 -3.183987e-01 5.564981e-02 1.106679e-01
<VARIANCE> 25
 1.404389e+01 4.393180e+01 6.721007e+01 4.076830e+01 6.361269e+01 8.811158e+01 6.641006e+01 4.874607e+01 3.575121e+01 4.393868e+01 4.288800e+01 5.313082e+01 6.209778e-01 1.279752e+00 1.540923e+00 1.498544e+00 1.722048e+00 2.027386e+00 1.677084e+00 1.799568e+00 1.604097e+00 1.655132e+00 1.601719e+00 1.493351e+00 9.222618e-01
<GCONST> 9.682167e+01
<STATE> 3
<MEAN> 25
 4.061487e+00 -8.568690e+00 -5.628451e+00 -4.307926e+00 4.240951e+00 2.148611e+00 1.806590e+00 3.703903e-01 2.005826e+00 -2.498721e+00 -5.952326e+00 -3.040599e+00 -6.637181e-02 1.714892e-01 1.576052e-01 3.465534e-01 2.483664e-02 -7.761112e-02 -1.153035e-01 1.109248e-01 -1.215052e-01 -7.095450e-02 -2.701762e-02 3.023342e-01 -2.039793e-01
<VARIANCE> 25
 1.258316e+01 5.287996e+01 3.811429e+01 4.609225e+01 5.400602e+01 6.868129e+01 4.751479e+01 4.978977e+01 4.849196e+01 5.055949e+01 4.632053e+01 3.546812e+01 4.548249e-01 9.037228e-01 1.066922e+00 1.288698e+00 1.417509e+00 1.699884e+00 1.483174e+00 1.619802e+00 1.587117e+00 1.615321e+00 1.465817e+00 1.515659e+00 7.239969e-01
<GCONST> 9.371677e+01
<STATE> 4
<MEAN> 25
 -2.908165e+00 -1.691272e+00 -2.708615e+00 1.568393e+00 2.647216e+00 3.969069e+00 6.007981e-01 3.889218e+00 1.655318e+00 5.948852e-01 1.082478e-01 2.848947e+00 -2.581090e-02 4.499573e-02 2.027861e-02 8.622982e-02 -3.923423e-02 -4.367660e-02 -3.013356e-02 4.886576e-02 -1.129493e-02 -1.522264e-03 3.985169e-02 7.034866e-02 -7.952332e-02
<VARIANCE> 25
 2.186365e+01 2.791553e+01 2.518172e+01 2.893806e+01 2.648348e+01 2.827790e+01 2.514440e+01 2.311413e+01 2.511643e+01 2.244847e+01 2.921077e+01 2.200715e+01 2.632147e-01 4.840128e-01 6.882690e-01 8.778275e-01 1.015097e+00 1.247632e+00 1.320265e+00 1.420010e+00 1.497883e+00 1.429539e+00 1.341173e+00 1.241429e+00 2.082188e-01
<GCONST> 8.273899e+01
<TRANSP> 5
 0.000000e+00 1.000000e+00 0.000000e+00 0.000000e+00 0.000000e+00
 0.000000e+00 6.385847e-01 3.614153e-01 0.000000e+00 0.000000e+00
 0.000000e+00 0.000000e+00 6.499894e-01 3.500107e-01 0.000000e+00
 0.000000e+00 0.000000e+00 0.000000e+00 8.747678e-01 1.252321e-01
 0.000000e+00 0.000000e+00 0.000000e+00 0.000000e+00 0.000000e+00
<ENDHMM>
~h "r"
<BEGINHMM>
<NUMSTATES> 5
<STATE> 2
<MEAN> 25
 4.993604e+00 -4.716488e+00 -2.392383e+00 9.173326e-01 -2.967727e+00 -2.157955e+00 -3.004707e+00 8.025579e-01 5.455182e+00 3.460104e-01 -4.473768e-01 -1.770816e+00 1.038312e-01 -3.572677e-02 3.589047e-01 1.063712e+00 -5.017515e-01 -1.131197e-01 -3.523348e-01 1.160108e-01 7.562337e-03 -3.080734e-01 4.167240e-01 4.785495e-01 -6.126652e-01
<VARIANCE> 25
 2.293141e+01 3.371288e+01 4.957401e+01 4.928260e+01 5.350096e+01 5.843701e+01 6.333817e+01 5.632977e+01 5.451977e+01 4.480139e+01 4.835400e+01 3.734742e+01 2.191926e+00 2.745204e+00 3.470741e+00 4.251694e+00 4.621867e+00 4.802421e+00 4.355677e+00 4.565437e+00 4.370801e+00 3.881988e+00 3.874573e+00 3.769581e+00 3.405232e+00
<GCONST> 1.092396e+02
<STATE> 3
<MEAN> 25
 5.231608e+00 -4.105891e+00 -1.251192e+00 2.691900e+00 -3.568668e+00 -2.425294e+00 -3.689411e+00 9.181665e-01 4.589634e+00 1.524875e-02 9.236636e-01 -8.821142e-01 -1.570049e-01 3.775547e-01 5.568503e-01 4.518951e-01 2.022386e-02 -9.018710e-02 8.733357e-02 1.851442e-02 -7.463645e-01 -4.963209e-02 4.710514e-01 4.613037e-01 -7.200604e-01
<VARIANCE> 25
 2.395946e+01 3.536548e+01 5.609760e+01 4.498510e+01 5.603327e+01 5.689932e+01 6.259583e+01 5.654465e+01 5.156609e+01 4.340116e+01 4.631531e+01 3.712709e+01 1.933687e+00 2.624149e+00 3.646537e+00 3.459805e+00 4.355384e+00 4.426743e+00 3.857054e+00 4.154377e+00 4.004553e+00 3.487518e+00 3.686603e+00 3.279283e+00 2.471307e+00
<GCONST> 1.078506e+02
<STATE> 4
<MEAN> 25
 2.945368e+00 -2.285356e+00 5.066741e-02 2.866457e+00 -2.332126e+00 -2.327512e+00 -1.930849e+00 1.406476e+00 2.145545e+00 -1.177416e-01 1.505682e+00 4.130954e-01 -3.066152e-01 4.267121e-01 3.822497e-01 -3.074425e-02 1.393095e-01 7.318166e-02 3.423065e-01 -1.134734e-01 -7.009386e-01 2.357962e-02 2.145579e-01 1.420472e-01 -4.455840e-01
<VARIANCE> 25
 3.584755e+01 3.943277e+01 6.473861e+01 4.261672e+01 6.061708e+01 5.988496e+01 5.427336e+01 5.336145e+01 4.679025e+01 4.192761e+01 4.655602e+01 3.429580e+01 1.486095e+00 2.124802e+00 2.726875e+00 2.377854e+00 3.368685e+00 3.027809e+00 2.904576e+00 3.150256e+00 3.350779e+00 2.683047e+00 2.738870e+00 2.248226e+00 1.772883e+00
<GCONST> 1.043906e+02
<TRANSP> 5
 0.000000e+00 1.000000e+00 0.000000e+00 0.000000e+00 0.000000e+00
 0.000000e+00 3.282284e-01 6.717716e-01 0.000000e+00 0.000000e+00
 0.000000e+00 0.000000e+00 2.366742e-01 7.633258e-01 0.000000e+00
 0.000000e+00 0.000000e+00 0.000000e+00 5.235935e-01 4.764065e-01
 0.000000e+00 0.000000e+00 0.000000e+00 0.000000e+00 0.000000e+00
<ENDHMM>
~h "s"
<BEGINHMM>
<NUMSTATES> 5
<STATE> 2
<MEAN> 25
 -8.063243e+00 5.289144e+00 5.192847e-01 8.337722e-01 6.448577e+00 -3.976232e+00 4.109908e+00 1.499040e+00 1.935033e+00 -5.006630e-01 -2.220086e-01 1.530363e+00 -4.106111e+00 1.855465e+00 -4.884752e-01 -1.399588e-01 1.643390e+00 -7.776309e-01 1.455960e+00 3.300632e-01 3.440849e-01 -4.119797e-01 8.259605e-01 6.380789e-01 2.610222e-01
<VARIANCE> 25
 7.408977e+01 5.173899e+01 7.713742e+01 4.980008e+01 7.545844e+01 7.669749e+01 7.875674e+01 6.256517e+01 5.198017e+01 4.303688e+01 4.754602e+01 3.418127e+01 3.342556e+00 4.128290e+00 4.545310e+00 4.375111e+00 5.948901e+00 6.614861e+00 6.461749e+00 5.114748e+00 4.300530e+00 3.890042e+00 4.044158e+00 3.009026e+00 1.927611e+00
<GCONST> 1.134818e+02
<STATE> 3
<MEAN> 25
 -1.935219e+01 7.411439e+00 -2.078312e+00 -2.665748e-01 8.201099e+00 -5.594983e+00 6.729341e+00 1.655252e+00 1.907435e+00 -1.378715e+00 2.658506e+00 3.375933e+00 -3.148147e-01 -4.574435e-01 -1.203223e-01 -1.421275e-01 -2.396197e-01 -3.051516e-02 -1.509786e-02 7.861403e-02 4.103021e-02 -3.807743e-03 3.246339e-02 5.784975e-02 -3.599415e-01
<VARIANCE> 25
 3.552121e+01 3.799002e+01 5.350450e+01 5.547162e+01 5.991102e+01 7.127274e+01 6.093205e+01 5.285947e+01 3.853809e+01 2.980368e+01 2.940098e+01 2.818065e+01 2.782435e+00 1.747148e+00 1.833941e+00 1.757149e+00 2.127167e+00 2.242357e+00 2.391967e+00 2.389824e+00 2.311522e+00 2.041645e+00 1.996143e+00 1.716763e+00 1.038022e+00
<GCONST> 1.002305e+02
<STATE> 4
<MEAN> 25
 -1.191713e+01 3.700917e+00 -7.141727e-01 -1.056355e+00 4.778877e+00 -5.399055e+00 3.771059e+00 1.152791e+00 2.423390e+00 -8.572218e-01 9.554856e-02 1.873503e+00 4.170235e+00 -8.776324e-01 5.249640e-01 -1.690134e-01 -1.629180e+00 1.759938e-01 -1.622703e+00 -8.998782e-01 -2.295977e-01 2.031593e-01 -9.736587e-01 -8.880578e-01 5.965902e-01
<VARIANCE> 25
 7.661330e+01 4.257179e+01 6.516028e+01 4.999619e+01 5.482131e+01 6.699662e+01 6.507116e+01 5.462795e+01 4.175497e+01 3.236904e+01 3.977894e+01 3.082335e+01 5.539345e+00 4.656946e+00 5.998828e+00 4.712677e+00 5.616785e+00 6.273972e+00 5.886614e+00 5.769222e+00 4.992351e+00 3.527136e+00 3.887981e+00 3.146099e+00 3.388786e+00
<GCONST> 1.131034e+02
<TRANSP> 5
 0.000000e+00 1.000000e+00 0.000000e+00 0.000000e+00 0.000000e+00
 0.000000e+00 7.121518e-01 2.878483e-01 0.000000e+00 0.000000e+00
 0.000000e+00 0.000000e+00 8.140422e-01 1.859578e-01 0.000000e+00
 0.000000e+00 0.000000e+00 0.000000e+00 6.687812e-01 3.312188e-01
 0.000000e+00 0.000000e+00 0.000000e+00 0.000000e+00 0.000000e+00
<ENDHMM>
~h "t"
<BEGINHMM>
<NUMSTATES> 5
<STATE> 2
<MEAN> 25
 -1.502986e+00 4.870020e+00 -1.929577e+00 3.687749e+00 2.435853e+00 -1.476000e+00 8.550461e-01 1.011570e-01 1.233221e+00 1.758718e+00 2.352404e-01 1.525408e+00 -1.394473e+00 -6.039147e-01 -5.053294e-01 -6.765818e-01 4.742869e-01 -7.289794e-01 7.040553e-01 2.260603e-01 2.432915e-02 -3.453241e-01 2.818767e-01 2.241743e-01 7.000164e-01
<VARIANCE> 25
 4.782488e+01 4.189590e+01 6.003184e+01 3.780981e+01 4.826023e+01 5.819899e+01 4.927929e+01 4.747706e+01 5.065609e+01 3.889160e+01 3.631756e+01 2.864927e+01 3.682842e+00 4.812931e+00 4.915664e+00 5.584175e+00 5.339703e+00 6.134783e+00 5.126235e+00 5.243547e+00 4.711835e+00 3.796288e+00 3.771594e+00 2.900167e+00 7.482967e+00
<GCONST> 1.117655e+02
<STATE> 3
<MEAN> 25
 -5.873651e+00 4.525324e-02 -2.625271e+00 -1.398709e+00 3.476253e+00 -5.223054e+00 2.927248e+00 1.849037e-01 1.314534e+00 6.014258e-02 1.179166e+00 2.075455e+00 1.069677e-01 -1.634161e+00 1.093179e-01 -2.188230e+00 -2.858283e-01 -1.328832e+00 -5.033635e-01 -3.638113e-01 4.920215e-01 -4.326207e-01 -1.909942e-01 -6.795498e-01 4.092915e+00
<VARIANCE> 25
 4.060425e+01 4.081622e+01 5.122396e+01 5.666868e+01 5.164976e+01 7.531344e+01 5.675615e+01 4.661272e+01 4.501554e+01 3.804398e+01 3.499198e+01 3.213101e+01 6.864980e+00 5.323218e+00 8.288750e+00 6.667378e+00 6.781854e+00 8.368024e+00 7.809046e+00 6.886876e+00 7.635113e+00 5.536276e+00 6.377793e+00 4.995774e+00 7.052083e+00
<GCONST> 1.167438e+02
<STATE> 4
<MEAN> 25
 -1.879379e+00 -1.449187e+00 -1.699274e+00 -3.814631e+00 1.408753e+00 -5.492518e+00 -6.093408e-01 -6.874889e-01 2.809663e+00 1.036754e-01 -2.990241e-01 -8.779011e-01 2.051922e+00 -6.834732e-01 6.094552e-01 -9.892119e-01 -1.132579e+00 5.557438e-01 -1.644856e+00 -3.100896e-01 -7.858108e-02 1.886263e-01 -1.794400e-01 -1.244346e+00 2.570102e+00
<VARIANCE> 25
 4.122361e+01 3.744807e+01 5.502834e+01 5.061589e+01 5.571254e+01 6.939935e+01 6.974986e+01 4.931833e+01 5.138288e+01 4.095860e+01 4.565747e+01 4.087873e+01 5.165964e+00 5.145023e+00 8.544428e+00 6.186860e+00 6.955456e+00 9.357629e+00 7.932694e+00 7.458572e+00 7.289886e+00 5.013007e+00 6.298023e+00 4.718832e+00 5.337066e+00
<GCONST> 1.169768e+02
<TRANSP> 5
 0.000000e+00 1.000000e+00 0.000000e+00 0.000000e+00 0.000000e+00
 0.000000e+00 5.265960e-01 4.734040e-01 0.000000e+00 0.000000e+00
 0.000000e+00 0.000000e+00 3.682838e-01 6.317161e-01 0.000000e+00
 0.000000e+00 0.000000e+00 0.000000e+00 2.659759e-01 7.340241e-01
 0.000000e+00 0.000000e+00 0.000000e+00 0.000000e+00 0.000000e+00
<ENDHMM>
~h "u"
<BEGINHMM>
<NUMSTATES> 5
<STATE> 2
<MEAN> 25
 5.820428e+00 3.927060e+00 -1.957751e+00 -4.223347e+00 -1.816776e+00 2.205414e+00 -5.742486e+00 -5.681500e+00 -2.618587e+00 -2.214678e-01 3.248503e+00 4.418114e-01 1.653578e+00 6.056699e-01 -2.654714e-01 -1.598739e+00 -1.049280e+00 1.696586e+00 -9.060032e-01 -1.418444e+00 -8.334902e-01 3.630147e-02 1.088399e+00 2.304596e-01 8.126406e-01
<VARIANCE> 25
 3.128331e+01 4.401333e+01 5.424655e+01 8.334515e+01 5.638363e+01 7.044971e+01 8.363588e+01 6.742799e+01 6.340181e+01 5.539911e+01 5.292802e+01 3.744603e+01 4.001032e+00 3.713961e+00 5.111310e+00 5.943691e+00 6.105156e+00 7.272011e+00 6.967139e+00 6.411899e+00 5.748370e+00 5.343116e+00 4.789818e+00 3.611943e+00 3.406436e+00
<GCONST> 1.154776e+02
<STATE> 3
<MEAN> 25
 8.461703e+00 4.106877e+00 -1.958704e+00 -7.967755e+00 -4.047365e+00 7.828058e+00 -6.960258e+00 -9.249778e+00 -3.531319e+00 -2.926086e-01 6.163464e+00 1.105290e+00 1.351857e-01 -9.948681e-02 4.546254e-02 2.206259e-02 2.343092e-01 3.859196e-01 -1.091247e-01 -9.099461e-02 2.048862e-01 4.581538e-01 -1.216954e-01 -1.342426e-01 -2.111463e-01
<VARIANCE> 25
 1.712457e+01 3.689502e+01 4.397861e+01 7.957158e+01 5.782016e+01 8.164004e+01 8.991898e+01 7.846010e+01 7.514977e+01 6.908334e+01 5.849845e+01 4.464039e+01 1.081392e+00 3.563833e+00 2.847553e+00 5.124721e+00 4.435709e+00 5.009154e+00 5.805724e+00 5.206110e+00 5.612851e+00 5.526554e+00 4.584220e+00 3.781880e+00 2.680674e+00
<GCONST> 1.121123e+02
<STATE> 4
<MEAN> 25
 6.531196e+00 5.657948e+00 -1.999985e+00 -5.716745e+00 -1.179101e+00 3.364784e+00 -5.456878e+00 -5.704013e+00 -3.827324e+00 7.780176e-01 3.389990e+00 1.202489e+00 -5.681105e-01 -2.429314e-03 2.765534e-01 1.074125e+00 4.500710e-01 -6.408936e-01 5.406156e-01 5.586854e-01 4.039692e-01 3.316552e-02 -5.407094e-01 -4.813836e-02 -8.379686e-01
<VARIANCE> 25
 2.089171e+01 4.138698e+01 4.950633e+01 7.886755e+01 4.844731e+01 6.528059e+01 6.854604e+01 5.033073e+01 5.726858e+01 5.076487e+01 3.907164e+01 3.795281e+01 1.092894e+00 1.972649e+00 2.365190e+00 3.314054e+00 3.016615e+00 3.581052e+00 3.415441e+00 3.263949e+00 3.212277e+00 2.885242e+00 2.971933e+00 2.530442e+00 1.697602e+00
<GCONST> 1.048528e+02
<TRANSP> 5
 0.000000e+00 1.000000e+00 0.000000e+00 0.000000e+00 0.000000e+00
 0.000000e+00 4.882649e-01 5.117351e-01 0.000000e+00 0.000000e+00
 0.000000e+00 0.000000e+00 5.798091e-01 4.201909e-01 0.000000e+00
 0.000000e+00 0.000000e+00 0.000000e+00 7.445606e-01 2.554394e-01
 0.000000e+00 0.000000e+00 0.000000e+00 0.000000e+00 0.000000e+00
<ENDHMM>
~h "w"
<BEGINHMM>
<NUMSTATES> 5
<STATE> 2
<MEAN> 25
 8.540468e+00 1.883956e+00 -5.335118e+00 -1.071968e+01 -2.833134e+00 6.242228e+00 -1.267489e+00 -3.561604e+00 -2.518624e+00 -4.173810e-01 4.506907e+00 1.667068e-01 7.787305e-01 5.957615e-01 -5.696723e-01 -1.530103e+00 -8.989010e-01 7.640117e-01 5.437129e-01 -2.728517e-01 -4.719726e-01 -2.498421e-01 4.519615e-01 6.426107e-01 8.726744e-02
<VARIANCE> 25
 1.922643e+01 5.289906e+01 3.207659e+01 6.219608e+01 5.099839e+01 6.534003e+01 5.682458e+01 5.532612e+01 5.813564e+01 4.751672e+01 4.097464e+01 4.459012e+01 1.368677e+00 2.892966e+00 2.299322e+00 2.960094e+00 3.097619e+00 3.703779e+00 3.765812e+00 3.399812e+00 3.405761e+00 3.468563e+00 3.193196e+00 3.192766e+00 2.369489e+00
<GCONST> 1.060064e+02
<STATE> 3
<MEAN> 25
 8.470515e+00 -8.584051e-01 -8.431946e+00 -1.500804e+01 -2.267614e+00 1.023694e+01 6.248233e-02 -5.007102e+00 -6.955884e-01 1.950642e+00 5.351198e+00 -2.487001e+00 -6.056682e-01 -1.110304e+00 -3.148119e-01 4.831659e-01 1.129133e+00 1.713377e-02 -6.847107e-02 1.677452e-01 6.883901e-01 5.602829e-01 -3.799699e-01 -1.232323e+00 5.082307e-01
<VARIANCE> 25
 1.711506e+01 3.687630e+01 3.582974e+01 5.635874e+01 5.163349e+01 5.521420e+01 6.825664e+01 5.105408e+01 4.416039e+01 4.764240e+01 3.912721e+01 4.850411e+01 8.203856e-01 2.405563e+00 1.326311e+00 2.810226e+00 2.539797e+00 3.106579e+00 2.841029e+00 3.167363e+00 2.784353e+00 2.898928e+00 3.071260e+00 3.442645e+00 1.485452e+00
<GCONST> 1.024171e+02
<STATE> 4
<MEAN> 25
 -1.267078e+00 -1.761553e+00 -4.567485e+00 -1.399752e+00 2.941111e+00 3.577923e+00 3.128268e-01 2.162819e+00 2.004023e+00 5.120969e-01 6.709019e-01 4.968681e-01 -1.193312e-01 -5.328041e-02 5.775383e-02 2.177244e-01 5.310761e-02 -1.113326e-01 -3.081768e-03 1.374230e-01 4.435433e-02 -3.433047e-02 -1.248359e-01 3.150547e-02 -1.421120e-01
<VARIANCE> 25
 3.715177e+01 3.481789e+01 2.425065e+01 5.337868e+01 4.178172e+01 3.358628e+01 3.313022e+01 2.995526e+01 2.945309e+01 2.571328e+01 2.556058e+01 5.123264e+01 2.760771e-01 5.474681e-01 7.155693e-01 1.061681e+00 1.087773e+00 1.393558e+00 1.373948e+00 1.478125e+00 1.402822e+00 1.454216e+00 1.434289e+00 1.141967e+00 2.803808e-01
<GCONST> 8.712675e+01
<TRANSP> 5
 0.000000e+00 1.000000e+00 0.000000e+00 0.000000e+00 0.000000e+00
 0.000000e+00 7.664399e-01 2.335601e-01 0.000000e+00 0.000000e+00
 0.000000e+00 0.000000e+00 7.866380e-01 2.133620e-01 0.000000e+00
 0.000000e+00 0.000000e+00 0.000000e+00 9.044369e-01 9.556308e-02
 0.000000e+00 0.000000e+00 0.000000e+00 0.000000e+00 0.000000e+00
<ENDHMM>
~h "y"
<BEGINHMM>
<NUMSTATES> 5
<STATE> 2
<MEAN> 25
 2.242206e-01 -2.130477e-01 9.997791e+00 -1.588014e+00 -9.519944e+00 -3.195045e+00 -1.431256e+00 1.992932e+00 -3.706714e+00 -1.050700e+00 2.689726e+00 2.280673e-01 -3.689529e-02 -1.993218e-01 1.793794e+00 -8.225486e-01 -1.692579e+00 -3.700344e-01 -2.497744e-01 1.541439e-01 -9.542217e-01 1.959581e-01 1.159551e+00 1.185986e-01 1.083302e+00
<VARIANCE> 25
 3.646016e+01 6.746334e+01 7.865054e+01 5.351791e+01 6.848991e+01 6.770340e+01 8.923478e+01 6.919120e+01 6.801958e+01 4.900071e+01 4.723218e+01 3.852822e+01 2.544684e+00 4.152496e+00 6.027411e+00 3.832979e+00 4.804453e+00 4.822093e+00 5.596057e+00 5.706781e+00 4.641813e+00 3.788817e+00 3.742433e+00 3.086585e+00 4.026174e+00
<GCONST> 1.136987e+02
<STATE> 3
<MEAN> 25
 1.136256e+00 -3.711241e+00 1.236712e+01 -4.832037e+00 -1.377698e+01 -5.649024e+00 -1.485146e+00 3.666340e+00 -4.176240e+00 8.193763e-01 5.618508e+00 -1.977168e-01 1.709923e-01 -8.870573e-01 -1.238077e+00 -3.449192e-02 5.171176e-01 -5.270637e-02 7.288350e-01 1.169972e+00 7.344165e-01 -3.418559e-01 -5.937675e-01 -4.857852e-02 3.765784e-01
<VARIANCE> 25
 9.559482e+00 3.328376e+01 4.856657e+01 3.699186e+01 4.391095e+01 4.979735e+01 6.944354e+01 6.587061e+01 5.294030e+01 5.194556e+01 4.447473e+01 3.074723e+01 4.629347e-01 1.907710e+00 3.734892e+00 1.703192e+00 3.554935e+00 2.114488e+00 3.074296e+00 3.882537e+00 2.972016e+00 2.956170e+00 3.121386e+00 1.533319e+00 6.880858e-01
<GCONST> 1.000492e+02
<STATE> 4
<MEAN> 25
 -8.207235e-02 -6.142766e+00 2.054670e+00 -1.717751e+00 -4.619083e+00 -2.295109e+00 1.235007e+00 6.990562e+00 -7.090594e-02 -1.999980e+00 2.792239e-01 5.631699e-01 1.689002e-01 -2.021436e-01 -8.909934e-01 1.797826e-01 9.548727e-01 3.968880e-01 -1.359774e-01 1.969133e-02 3.432019e-01 -2.166681e-01 -6.712065e-01 -2.594199e-01 -1.269265e-01
<VARIANCE> 25
 2.623547e+01 3.299974e+01 3.951686e+01 2.901923e+01 5.454755e+01 5.290195e+01 4.935513e+01 4.396646e+01 3.678397e+01 3.376131e+01 3.370884e+01 2.554042e+01 2.941648e-01 6.752602e-01 1.777206e+00 1.125669e+00 2.703619e+00 1.679910e+00 1.813756e+00 1.696162e+00 1.684945e+00 1.806226e+00 2.007335e+00 1.431112e+00 2.346080e-01
<GCONST> 9.172025e+01
<TRANSP> 5
 0.000000e+00 1.000000e+00 0.000000e+00 0.000000e+00 0.000000e+00
 0.000000e+00 6.709670e-01 3.290330e-01 0.000000e+00 0.000000e+00
 0.000000e+00 0.000000e+00 7.492785e-01 2.507215e-01 0.000000e+00
 0.000000e+00 0.000000e+00 0.000000e+00 7.750984e-01 2.249015e-01
 0.000000e+00 0.000000e+00 0.000000e+00 0.000000e+00 0.000000e+00
<ENDHMM>
~h "z"
<BEGINHMM>
<NUMSTATES> 5
<STATE> 2
<MEAN> 25
 -6.603149e+00 -1.808537e-01 -8.105002e-01 2.045560e+00 4.091796e+00 2.938754e+00 7.367972e-01 2.726905e+00 1.087689e+00 1.883600e+00 1.919965e+00 3.985458e+00 -9.005047e-03 -4.852717e-02 1.078403e-03 -1.094233e-02 3.148885e-05 3.806012e-02 -6.922221e-03 5.289531e-03 -2.505498e-02 -1.927920e-03 3.008573e-02 -8.644372e-04 -7.030827e-02
<VARIANCE> 25
 1.028469e+01 1.516032e+01 9.133221e+00 8.777945e+00 1.027159e+01 2.408474e+01 2.177528e+01 2.025266e+01 1.667635e+01 1.314490e+01 2.027508e+01 9.411974e+00 3.038612e-01 3.782899e-01 5.915310e-01 7.239591e-01 8.788378e-01 1.281587e+00 1.314234e+00 1.391484e+00 1.477876e+00 1.496037e+00 1.465357e+00 1.133819e+00 1.741575e-01
<GCONST> 7.488640e+01
<STATE> 3
<MEAN> 25
 -2.980829e+00 6.409306e+00 4.032688e-01 3.222605e+00 2.023630e+00 -2.640818e+00 1.496904e+00 -1.677430e+00 -1.971369e+00 -1.095650e+00 8.255890e-02 8.172249e-01 1.647017e+00 -1.300099e-02 2.395813e-01 5.106518e-02 -5.295403e-01 -1.072530e+00 2.634308e-01 1.526158e-01 -4.387842e-01 -2.237633e-01 -4.209484e-01 -7.470020e-01 2.503764e+00
<VARIANCE> 25
 4.427384e+01 6.551251e+01 1.431374e+01 2.064685e+01 7.346653e+00 8.056108e+01 2.539246e+01 3.601535e+01 3.130778e+01 1.398571e+01 1.031725e+01 1.438230e+01 1.205378e+00 3.802029e+00 2.553061e+00 1.339236e+00 1.194155e+00 3.717703e+00 2.139460e+00 8.588709e-01 3.091032e+00 1.846454e+00 1.055765e+00 1.600452e+00 9.940094e+00
<GCONST> 9.330528e+01
<STATE> 4
<MEAN> 25
 1.104908e+00 5.381874e+00 3.013320e+00 4.817955e+00 -1.717654e+00 -6.703975e+00 2.297954e+00 -1.984242e+00 -2.122368e+00 -2.389299e+00 -1.478697e+00 1.057836e+00 1.325039e-01 -8.851378e-02 9.721518e-01 2.106294e-01 -7.177811e-01 -1.001002e-01 2.251687e-01 -6.924993e-01 -2.258298e-01 1.852802e-01 4.875238e-02 -4.157552e-02 -1.422384e-01
<VARIANCE> 25
 5.574482e+01 5.759335e+01 2.942724e+01 1.771424e+01 2.652215e+01 3.776270e+01 2.500046e+01 2.926653e+01 2.174654e+01 6.872222e+00 1.355570e+01 1.119683e+01 3.358172e+00 4.389118e+00 4.784106e+00 2.526413e+00 4.987517e+00 2.100338e+00 3.145850e+00 1.238442e+00 2.230932e+00 8.250428e-01 1.135330e+00 1.982471e+00 3.021079e+00
<GCONST> 9.523001e+01
<TRANSP> 5
 0.000000e+00 1.000000e+00 0.000000e+00 0.000000e+00 0.000000e+00
 0.000000e+00 9.817836e-01 1.821639e-02 0.000000e+00 0.000000e+00
 0.000000e+00 0.000000e+00 5.424952e-01 4.575049e-01 0.000000e+00
 0.000000e+00 0.000000e+00 0.000000e+00 6.446002e-01 3.553998e-01
 0.000000e+00 0.000000e+00 0.000000e+00 0.000000e+00 0.000000e+00
<ENDHMM>
~h "aw"
<BEGINHMM>
<NUMSTATES> 5
<STATE> 2
<MEAN> 25
 5.594572e+00 -3.908939e+00 -6.467196e+00 -9.192266e+00 -1.685510e+00 4.917621e+00 2.608984e+00 -3.119667e+00 3.536936e+00 6.037007e-01 9.344599e-01 -3.529578e+00 4.677290e-01 7.962632e-01 -1.482671e-01 -5.837783e-01 -3.701787e-03 8.900471e-01 4.037470e-02 -7.874479e-01 -1.041728e+00 1.256876e-01 3.739177e-01 8.406872e-01 -1.135705e+00
<VARIANCE> 25
 3.285212e+01 5.735761e+01 1.737795e+01 4.930608e+01 3.100245e+01 1.016198e+02 3.747497e+01 5.612080e+01 8.868768e+01 4.829891e+01 6.882838e+01 6.245000e+01 1.345435e+00 1.740970e+00 1.750816e+00 4.247834e+00 3.327846e+00 5.714332e+00 2.516101e+00 5.312905e+00 3.451405e+00 3.253740e+00 3.130731e+00 4.116071e+00 7.396921e-01
<GCONST> 1.057455e+02
<STATE> 3
<MEAN> 25
 5.498868e+00 5.043574e-01 -5.217180e+00 -8.256871e+00 -2.556314e+00 8.434708e-01 5.699353e+00 9.200041e-01 -2.503710e+00 3.481786e+00 -2.528860e+00 1.076643e+00 -1.171863e-01 5.439681e-01 4.956221e-01 2.882649e-01 -2.775625e-01 -1.583467e-01 -1.004276e+00 -6.045000e-02 -1.923359e-01 -9.169347e-02 -1.884473e-01 -2.589979e-01 -9.026582e-01
<VARIANCE> 25
 5.182187e+01 2.964762e+01 2.903255e+01 8.719901e+01 6.693788e+01 1.010856e+02 9.260242e+01 3.447705e+01 4.219353e+01 6.425846e+01 5.054327e+01 2.078978e+01 1.155304e+00 1.477740e+00 9.797854e-01 1.130037e+00 1.432362e+00 1.533867e+00 2.657916e+00 2.195329e+00 1.958495e+00 2.211483e+00 1.496550e+00 1.280910e+00 2.969374e-01
<GCONST> 9.696156e+01
<STATE> 4
<MEAN> 25
 -1.790898e+00 3.285329e+00 -3.802101e+00 2.959406e+00 6.038235e-02 2.566011e+00 -1.200996e+00 4.119311e+00 2.723228e+00 3.209098e-01 4.178201e+00 4.457063e+00 -4.840851e-02 -4.406038e-02 -7.662911e-02 8.628695e-02 -2.629109e-02 3.325722e-02 -8.039697e-02 8.068304e-02 4.911629e-02 -4.677054e-03 1.139819e-01 3.693562e-02 -9.968189e-02
<VARIANCE> 25
 3.731649e+01 1.432377e+01 1.861015e+01 3.546997e+01 2.943057e+01 2.904253e+01 2.146455e+01 1.432471e+01 2.781730e+01 2.256860e+01 2.631920e+01 2.198652e+01 3.704320e-01 5.054234e-01 5.297270e-01 7.946634e-01 9.004579e-01 1.160842e+00 1.133332e+00 8.609812e-01 1.132260e+00 1.316634e+00 1.284749e+00 9.694037e-01 1.245382e-01
<GCONST> 8.001756e+01
<TRANSP> 5
 0.000000e+00 1.000000e+00 0.000000e+00 0.000000e+00 0.000000e+00
 0.000000e+00 8.986361e-01 1.013639e-01 0.000000e+00 0.000000e+00
 0.000000e+00 0.000000e+00 7.792255e-01 2.207746e-01 0.000000e+00
 0.000000e+00 0.000000e+00 0.000000e+00 9.170048e-01 8.299518e-02
 0.000000e+00 0.000000e+00 0.000000e+00 0.000000e+00 0.000000e+00
<ENDHMM>
~h "ay"
<BEGINHMM>
<NUMSTATES> 5
<STATE> 2
<MEAN> 25
 3.415196e+00 -8.327278e+00 1.759779e+00 -4.564906e+00 -7.898186e+00 -5.422245e+00 4.083054e+00 7.772509e+00 8.972432e-01 -2.349755e+00 -3.161809e-01 -1.110901e+00 -2.306634e-01 4.183972e-01 1.408740e+00 2.149299e-01 -8.639926e-01 -3.079529e-01 8.445273e-02 -3.626658e-01 -7.175375e-01 3.446403e-01 5.331419e-01 3.337702e-01 -1.384563e-01
<VARIANCE> 25
 9.382714e+00 2.727826e+01 6.621078e+01 3.024815e+01 4.529144e+01 3.988821e+01 5.973595e+01 5.884981e+01 2.841047e+01 4.624796e+01 3.979475e+01 1.976645e+01 6.420448e-01 1.839486e+00 5.310723e+00 1.784276e+00 4.354477e+00 2.702983e+00 3.332195e+00 5.958467e+00 2.659810e+00 4.665924e+00 3.374249e+00 1.862772e+00 5.824567e-01
<GCONST> 1.002922e+02
<STATE> 3
<MEAN> 25
 1.535991e+00 7.567946e-01 1.120173e+01 2.195728e-01 -1.116319e+01 -7.192205e+00 1.693271e+00 -1.080643e+00 -1.225573e+00 2.424447e+00 2.566284e+00 3.398173e-01 -6.169490e-02 9.958906e-01 -3.153894e-01 9.787146e-01 9.374158e-01 5.298033e-01 1.918911e-01 -1.743376e-01 2.794710e-01 4.175477e-02 -4.172522e-01 3.863965e-01 -1.799181e+00
<VARIANCE> 25
 1.062939e+01 3.181368e+01 3.867235e+01 3.757935e+01 3.940064e+01 3.671444e+01 3.978481e+01 4.394855e+01 3.703350e+01 4.045932e+01 3.500734e+01 2.659143e+01 6.934181e-01 1.405929e+00 4.597823e+00 2.768292e+00 3.496094e+00 2.742129e+00 3.818184e+00 6.000719e+00 3.625284e+00 3.211754e+00 2.996372e+00 2.405959e+00 1.067422e+00
<GCONST> 1.003495e+02
<STATE> 4
<MEAN> 25
 -3.211972e+00 1.450059e+00 6.363142e+00 2.732337e+00 -3.785897e+00 -5.198509e-01 5.936233e+00 3.899247e+00 -6.224286e-02 3.272735e-01 5.037321e+00 2.210068e+00 -3.312516e-01 8.361981e-03 -5.779684e-01 2.336767e-01 4.165876e-01 2.070975e-01 2.285642e-03 2.440302e-01 2.329097e-02 -2.006990e-01 -7.658379e-02 1.307867e-01 -5.126104e-01
<VARIANCE> 25
 1.965580e+01 1.592590e+01 7.340729e+01 2.844005e+01 2.624069e+01 3.720258e+01 4.818551e+01 4.648022e+01 3.760011e+01 5.954899e+01 2.763281e+01 3.071318e+01 4.912035e-01 1.158170e+00 2.047787e+00 1.400202e+00 1.523367e+00 1.530763e+00 1.672981e+00 2.590849e+00 2.263249e+00 2.289195e+00 1.630953e+00 2.242389e+00 7.886698e-01
<GCONST> 9.389925e+01
<TRANSP> 5
 0.000000e+00 1.000000e+00 0.000000e+00 0.000000e+00 0.000000e+00
 0.000000e+00 8.592902e-01 1.407099e-01 0.000000e+00 0.000000e+00
 0.000000e+00 0.000000e+00 8.074862e-01 1.925138e-01 0.000000e+00
 0.000000e+00 0.000000e+00 0.000000e+00 8.242567e-01 1.757433e-01
 0.000000e+00 0.000000e+00 0.000000e+00 0.000000e+00 0.000000e+00
<ENDHMM>
~h "kh"
<BEGINHMM>
<NUMSTATES> 5
<STATE> 2
<MEAN> 25
 3.840372e+00 -3.408809e+00 -1.074802e+01 -4.265109e+00 3.615136e+00 3.102505e+00 2.480872e-01 8.180662e-01 -4.870453e-01 2.863730e+00 1.952172e+00 -5.535660e+00 -6.789362e-02 1.748749e-01 -7.987202e-01 -6.978779e-01 -3.950550e-02 8.541564e-01 1.314542e-01 3.503156e-01 -7.260950e-01 -1.490956e-01 -6.956123e-02 4.171556e-02 -2.011415e-01
<VARIANCE> 25
 4.083934e+01 1.344899e+01 2.617626e+01 5.317964e+01 4.201280e+01 1.746813e+01 2.066696e+01 3.212871e+01 4.455040e+01 1.747499e+01 9.956618e+00 5.120861e+01 4.253063e+00 9.586695e-01 4.663136e+00 3.271275e+00 3.881053e+00 3.264257e+00 1.987007e+00 3.641958e+00 5.604430e+00 1.999094e+00 1.697679e+00 4.821028e+00 7.199463e+00
<GCONST> 1.006233e+02
<STATE> 3
<MEAN> 25
 -7.826719e-01 1.468330e+00 -7.346089e+00 -3.890677e+00 8.266327e-01 7.608028e+00 5.362189e+00 -2.953577e+00 -1.261162e+00 4.929771e-01 3.027894e+00 1.085821e+00 -6.427593e-01 -1.336603e-01 9.973100e-01 -7.503039e-01 -2.129795e+00 -4.568461e-01 -8.949189e-02 -1.074286e+00 -7.101129e-01 -5.203462e-01 7.413432e-02 8.332896e-01 2.266315e+00
<VARIANCE> 25
 4.802073e+01 3.358254e+01 9.774860e+01 8.125856e+01 6.203101e+01 1.092532e+02 6.750915e+01 7.345134e+01 7.517645e+01 4.637702e+01 2.586803e+01 5.973656e+01 9.468326e+00 3.153539e+00 1.031187e+01 8.125864e+00 7.549621e+00 1.084978e+01 5.839106e+00 1.450302e+01 1.164450e+01 3.755931e+00 4.634388e+00 3.699954e+00 1.807597e+00
<GCONST> 1.190238e+02
<STATE> 4
<MEAN> 25
 -1.022153e+01 1.141862e+00 1.402139e+00 -7.188671e-01 -4.389779e+00 1.092176e+00 -1.039893e+01 -4.785042e+00 7.002489e+00 -3.756206e+00 9.852081e-01 8.537192e+00 1.547189e-01 1.276883e-01 1.370623e-01 -8.082928e-02 -9.415726e-02 8.611945e-03 -4.434806e-01 -3.684829e-01 -3.012168e-01 3.026689e-03 3.067515e-02 2.234438e-02 -3.646736e-01
<VARIANCE> 25
 9.616976e+01 1.034305e+01 4.852057e+01 2.746840e+01 3.193261e+01 2.748461e+01 5.622773e+01 7.813187e+01 5.304515e+01 2.185608e+01 2.371159e+01 6.269535e+01 5.749771e+00 1.711789e+00 3.730526e+00 1.498393e+00 2.852571e+00 3.395649e+00 3.180743e+00 7.661368e+00 3.150318e+00 2.055512e+00 2.107626e+00 3.410552e+00 1.849966e+00
<GCONST> 1.034966e+02
<TRANSP> 5
 0.000000e+00 1.000000e+00 0.000000e+00 0.000000e+00 0.000000e+00
 0.000000e+00 8.621412e-01 1.378588e-01 0.000000e+00 0.000000e+00
 0.000000e+00 0.000000e+00 6.619713e-01 3.380286e-01 0.000000e+00
 0.000000e+00 0.000000e+00 0.000000e+00 8.634788e-01 1.365212e-01
 0.000000e+00 0.000000e+00 0.000000e+00 0.000000e+00 0.000000e+00
<ENDHMM>
~h "ng"
<BEGINHMM>
<NUMSTATES> 5
<STATE> 2
<MEAN> 25
 6.818531e+00 -4.310213e-01 1.844880e+00 -1.373978e+00 -2.587626e+00 5.926043e+00 -1.181922e+00 -3.178768e+00 -3.330725e-01 1.010770e+00 -6.417367e-01 -1.481119e+00 2.382437e-01 8.021435e-01 5.521310e-01 6.002357e-01 -5.734425e-01 2.202612e-01 5.124581e-01 -8.541688e-01 -3.067406e-01 2.994535e-01 -3.940842e-01 4.187446e-01 -8.655344e-01
<VARIANCE> 25
 1.401331e+01 3.826352e+01 5.173791e+01 4.407891e+01 5.681124e+01 7.389771e+01 5.534167e+01 4.957538e+01 5.356856e+01 4.555232e+01 4.234773e+01 4.104706e+01 4.593734e-01 1.536118e+00 2.425704e+00 2.261481e+00 2.849683e+00 2.915595e+00 3.535778e+00 3.368550e+00 2.947370e+00 2.674495e+00 2.477982e+00 2.274456e+00 6.260458e-01
<GCONST> 1.007572e+02
<STATE> 3
<MEAN> 25
 6.944900e+00 2.263174e+00 2.895953e+00 -2.780546e-01 -3.901613e+00 4.802476e+00 1.887342e-01 -5.212482e+00 -1.205134e+00 1.601129e+00 -2.188523e+00 -1.164958e+00 -9.871428e-03 5.536427e-01 9.651733e-02 3.807523e-01 1.871357e-02 -1.164977e-01 2.225879e-01 -2.344598e-01 -1.550797e-01 5.172681e-02 -1.940007e-01 9.368759e-02 -5.038800e-01
<VARIANCE> 25
 1.285960e+01 3.399216e+01 4.684801e+01 3.999910e+01 5.054036e+01 5.931134e+01 4.719154e+01 4.794085e+01 5.180872e+01 4.410875e+01 4.146400e+01 4.147575e+01 3.232479e-01 1.126231e+00 1.288961e+00 1.362220e+00 1.715764e+00 1.839301e+00 2.085155e+00 2.086063e+00 2.041826e+00 1.897509e+00 1.792193e+00 1.476561e+00 5.498034e-01
<GCONST> 9.437801e+01
<STATE> 4
<MEAN> 25
 3.368884e+00 4.640926e+00 1.383475e+00 2.455409e+00 5.885708e-01 3.681838e+00 2.139441e+00 -3.058019e+00 -9.835609e-01 6.283311e-01 -1.536826e+00 4.798082e-01 -5.465383e-01 6.872109e-02 -2.834415e-01 1.494717e-01 6.436752e-01 -3.007699e-01 3.532300e-02 5.243163e-01 6.496278e-02 -1.643509e-01 2.042619e-01 6.400279e-02 -3.058651e-01
<VARIANCE> 25
 3.296089e+01 3.797079e+01 4.180551e+01 3.542105e+01 5.737555e+01 4.728851e+01 4.316298e+01 4.628976e+01 4.596548e+01 4.160265e+01 3.961361e+01 3.420681e+01 8.706437e-01 1.910913e+00 1.891025e+00 2.032797e+00 2.941912e+00 2.760547e+00 2.658597e+00 3.083800e+00 2.838807e+00 2.476922e+00 2.229248e+00 2.107924e+00 1.146537e+00
<GCONST> 1.003414e+02
<TRANSP> 5
 0.000000e+00 1.000000e+00 0.000000e+00 0.000000e+00 0.000000e+00
 0.000000e+00 5.019228e-01 4.980772e-01 0.000000e+00 0.000000e+00
 0.000000e+00 0.000000e+00 5.780861e-01 4.219139e-01 0.000000e+00
 0.000000e+00 0.000000e+00 0.000000e+00 6.446931e-01 3.553069e-01
 0.000000e+00 0.000000e+00 0.000000e+00 0.000000e+00 0.000000e+00
<ENDHMM>
~h "ny"
<BEGINHMM>
<NUMSTATES> 5
<STATE> 2
<MEAN> 25
 2.504155e+00 9.368438e-01 1.093359e+01 -3.147163e+00 -8.789045e+00 7.786751e-01 -8.086864e-01 1.123752e+00 -4.555501e+00 -1.097494e+00 2.909737e+00 -1.173987e+00 -4.075065e-01 -1.215481e+00 5.128825e-01 -6.468357e-01 -9.366187e-01 3.995552e-01 5.727933e-01 9.004992e-01 -3.221716e-01 -3.816833e-01 3.163108e-01 -5.585416e-02 1.008496e+00
<VARIANCE> 25
 1.719923e+01 4.422129e+01 4.449453e+01 5.798806e+01 5.247144e+01 6.290265e+01 5.508876e+01 5.009429e+01 4.400924e+01 4.666113e+01 4.300969e+01 4.697401e+01 1.302428e+00 3.789183e+00 4.192956e+00 5.085969e+00 4.478412e+00 4.420670e+00 4.139880e+00 4.525568e+00 3.364623e+00 3.759499e+00 3.529044e+00 2.551143e+00 1.585957e+00
<GCONST> 1.074683e+02
<STATE> 3
<MEAN> 25
 3.149541e+00 -8.925688e+00 5.523099e+00 -1.636386e+00 -6.150434e+00 8.521166e-01 -2.851904e-01 8.082197e+00 -2.940776e+00 -7.186509e+00 -1.409232e+00 3.471650e-01 1.724295e-01 -3.188221e-01 -1.201224e+00 6.746425e-01 1.219748e+00 -1.300391e-01 -3.191597e-01 1.960687e-01 6.126175e-01 -4.448977e-01 -9.060578e-01 1.724818e-01 -3.843717e-01
<VARIANCE> 25
 1.118246e+01 3.243923e+01 3.781739e+01 4.786018e+01 5.136659e+01 4.746064e+01 6.659004e+01 4.944331e+01 5.130505e+01 5.257908e+01 4.620620e+01 4.094135e+01 4.899680e-01 1.669484e+00 1.547848e+00 1.748787e+00 2.249069e+00 1.811126e+00 2.145535e+00 2.182278e+00 2.001621e+00 2.103434e+00 1.951819e+00 1.638430e+00 1.036618e+00
<GCONST> 9.706442e+01
<STATE> 4
<MEAN> 25
 -3.232665e+00 -9.753882e-01 -1.539059e+00 3.589592e+00 2.954616e+00 2.262074e+00 1.411158e+00 4.427538e+00 1.514174e+00 -1.713792e+00 -2.241746e-01 3.776225e+00 -8.879615e-02 8.237127e-02 -1.439611e-01 4.154450e-02 1.307595e-01 3.577963e-02 -5.700671e-03 -8.215956e-02 6.176952e-02 1.173118e-01 2.629665e-02 -2.107761e-02 -2.860398e-01
<VARIANCE> 25
 2.730328e+01 2.971117e+01 2.508239e+01 3.011732e+01 3.552235e+01 3.774290e+01 3.359089e+01 3.085079e+01 3.285476e+01 3.987343e+01 3.612040e+01 2.507211e+01 3.667747e-01 6.733060e-01 8.994603e-01 1.022376e+00 1.357911e+00 1.517855e+00 1.505812e+00 1.590901e+00 1.694003e+00 1.598884e+00 1.492143e+00 1.415224e+00 4.234061e-01
<GCONST> 8.840250e+01
<TRANSP> 5
 0.000000e+00 1.000000e+00 0.000000e+00 0.000000e+00 0.000000e+00
 0.000000e+00 8.379206e-01 1.620794e-01 0.000000e+00 0.000000e+00
 0.000000e+00 0.000000e+00 8.202289e-01 1.797711e-01 0.000000e+00
 0.000000e+00 0.000000e+00 0.000000e+00 9.233107e-01 7.668933e-02
 0.000000e+00 0.000000e+00 0.000000e+00 0.000000e+00 0.000000e+00
<ENDHMM>
~h "oy"
<BEGINHMM>
<NUMSTATES> 5
<STATE> 2
<MEAN> 25
 -1.266016e-08 6.085643e-09 4.721265e-09 -8.308485e-09 -1.463621e-08 1.307279e-08 -2.750496e-09 -6.683219e-09 -1.380889e-08 -3.351599e-09 1.415116e-08 1.473669e-08 2.548279e-03 -7.284069e-04 1.966011e-03 3.249686e-04 1.698112e-03 -2.328777e-04 5.264792e-04 -2.476147e-04 -7.184849e-04 7.200883e-04 -1.639929e-03 -3.923504e-04 6.718315e-03
<VARIANCE> 25
 6.369320e+01 5.437875e+01 8.050616e+01 5.826715e+01 7.171889e+01 6.936944e+01 6.105562e+01 6.027967e+01 5.528890e+01 4.166891e+01 4.685504e+01 3.910781e+01 2.633578e+00 2.804667e+00 3.170903e+00 3.349051e+00 3.834462e+00 3.765719e+00 3.684584e+00 3.809613e+00 3.444291e+00 2.975416e+00 3.042777e+00 2.563504e+00 3.096067e+00
<GCONST> 1.097144e+02
<STATE> 3
<MEAN> 25
 -1.266016e-08 6.085643e-09 4.721265e-09 -8.308485e-09 -1.463621e-08 1.307279e-08 -2.750496e-09 -6.683219e-09 -1.380889e-08 -3.351599e-09 1.415116e-08 1.473669e-08 2.548279e-03 -7.284069e-04 1.966011e-03 3.249686e-04 1.698112e-03 -2.328777e-04 5.264792e-04 -2.476147e-04 -7.184849e-04 7.200883e-04 -1.639929e-03 -3.923504e-04 6.718315e-03
<VARIANCE> 25
 6.369320e+01 5.437875e+01 8.050616e+01 5.826715e+01 7.171889e+01 6.936944e+01 6.105562e+01 6.027967e+01 5.528890e+01 4.166891e+01 4.685504e+01 3.910781e+01 2.633578e+00 2.804667e+00 3.170903e+00 3.349051e+00 3.834462e+00 3.765719e+00 3.684584e+00 3.809613e+00 3.444291e+00 2.975416e+00 3.042777e+00 2.563504e+00 3.096067e+00
<GCONST> 1.097144e+02
<STATE> 4
<MEAN> 25
 -1.266016e-08 6.085643e-09 4.721265e-09 -8.308485e-09 -1.463621e-08 1.307279e-08 -2.750496e-09 -6.683219e-09 -1.380889e-08 -3.351599e-09 1.415116e-08 1.473669e-08 2.548279e-03 -7.284069e-04 1.966011e-03 3.249686e-04 1.698112e-03 -2.328777e-04 5.264792e-04 -2.476147e-04 -7.184849e-04 7.200883e-04 -1.639929e-03 -3.923504e-04 6.718315e-03
<VARIANCE> 25
 6.369320e+01 5.437875e+01 8.050616e+01 5.826715e+01 7.171889e+01 6.936944e+01 6.105562e+01 6.027967e+01 5.528890e+01 4.166891e+01 4.685504e+01 3.910781e+01 2.633578e+00 2.804667e+00 3.170903e+00 3.349051e+00 3.834462e+00 3.765719e+00 3.684584e+00 3.809613e+00 3.444291e+00 2.975416e+00 3.042777e+00 2.563504e+00 3.096067e+00
<GCONST> 1.097144e+02
<TRANSP> 5
 0.000000e+00 1.000000e+00 0.000000e+00 0.000000e+00 0.000000e+00
 0.000000e+00 6.000000e-01 4.000000e-01 0.000000e+00 0.000000e+00
 0.000000e+00 0.000000e+00 6.000000e-01 4.000000e-01 0.000000e+00
 0.000000e+00 0.000000e+00 0.000000e+00 7.000000e-01 3.000000e-01
 0.000000e+00 0.000000e+00 0.000000e+00 0.000000e+00 0.000000e+00
<ENDHMM>
~h "sp"
<BEGINHMM>
<NUMSTATES> 3
<STATE> 2
~s "silst"
<TRANSP> 3
 0.000000e+00 7.000000e-01 3.000000e-01
 0.000000e+00 9.000000e-01 9.999999e-02
 0.000000e+00 0.000000e+00 0.000000e+00
<ENDHMM>
~h "sy"
<BEGINHMM>
<NUMSTATES> 5
<STATE> 2
<MEAN> 25
 -4.062396e+00 4.106468e+00 -4.479827e+00 1.316118e+00 2.606224e+00 -1.039875e+01 5.654731e-01 8.840397e+00 6.131032e+00 6.037237e+00 1.125734e+00 1.213860e+00 -3.503440e+00 -8.943141e-01 2.999850e+00 -9.324113e-01 1.263279e+00 2.930017e-01 7.331676e-01 5.740682e-01 2.073890e+00 8.011320e-01 5.926560e-01 5.958452e-01 1.760167e+00
<VARIANCE> 25
 3.290389e+00 2.827246e+01 2.732055e+00 2.085278e+01 2.131554e+01 6.426490e+00 3.288555e+01 5.115013e+00 4.882196e+01 8.036068e+00 9.382491e+00 5.585415e+00 2.004501e+00 8.622434e+00 2.134380e+00 1.008769e+01 3.881838e+00 4.833391e+00 2.375959e-01 4.047917e-01 2.431883e+00 2.200797e-01 1.201517e+00 1.658434e+00 2.654023e+00
<GCONST> 8.204855e+01
<STATE> 3
<MEAN> 25
 -1.231448e+01 9.815801e-01 2.554988e+00 2.286751e+00 2.613664e+00 -6.854764e+00 5.782926e+00 6.929145e+00 5.387756e+00 5.358088e+00 8.649194e+00 1.998462e+00 -3.768790e+00 -1.855895e-01 3.142358e+00 -3.511086e-01 3.935503e-01 7.157698e-01 2.349133e+00 -1.082393e-01 -4.735485e-01 -6.401693e-02 1.598134e+00 4.156824e-01 1.372981e+00
<VARIANCE> 25
 1.849088e+01 5.448598e+01 1.405262e+01 7.963796e+01 2.028107e+01 2.849614e+01 7.125526e+01 3.303917e+01 2.028481e+01 8.550639e+00 1.680538e+01 1.250482e+01 1.978589e+00 1.952008e+00 2.350489e+00 6.194768e+00 1.534039e+01 2.011983e+00 3.787771e+00 2.572222e+00 6.832911e+00 1.937284e+00 3.136116e+00 2.223317e+00 9.838830e-01
<GCONST> 9.875407e+01
<STATE> 4
<MEAN> 25
 -1.699156e+01 -1.926746e+00 8.410673e+00 8.664437e-02 -1.556793e+00 -5.358286e+00 8.865557e+00 1.199322e+00 2.056239e+00 1.728524e+00 6.008577e+00 1.494885e+00 1.745889e+00 -1.080713e+00 -2.555995e-01 -1.767130e-02 -1.184606e+00 -2.492092e-01 -8.163141e-01 -1.617555e-01 -4.254675e-01 -5.543778e-01 -4.686230e-01 -3.085283e-01 5.519809e-01
<VARIANCE> 25
 1.336523e+02 3.692390e+01 1.317577e+01 1.509512e+02 1.125573e+02 1.915726e+01 9.815981e+01 4.946069e+01 2.403577e+01 2.408996e+01 2.467960e+01 1.171780e+01 1.269023e+01 2.727793e+00 1.783302e+00 3.269649e+00 3.815113e+00 1.844970e+00 1.611816e+00 5.261702e+00 2.987874e+00 2.658253e+00 3.013005e+00 1.822665e+00 1.405853e+00
<GCONST> 1.037515e+02
<TRANSP> 5
 0.000000e+00 1.000000e+00 0.000000e+00 0.000000e+00 0.000000e+00
 0.000000e+00 2.882884e-02 9.711712e-01 0.000000e+00 0.000000e+00
 0.000000e+00 0.000000e+00 6.092586e-01 3.907414e-01 0.000000e+00
 0.000000e+00 0.000000e+00 0.000000e+00 9.066887e-01 9.331127e-02
 0.000000e+00 0.000000e+00 0.000000e+00 0.000000e+00 0.000000e+00
<ENDHMM>
~h "sil"
<BEGINHMM>
<NUMSTATES> 5
<STATE> 2
<MEAN> 25
 -5.752893e+00 1.605214e-01 -3.779859e+00 1.710114e+00 2.789485e+00 9.481369e-01 3.199431e+00 1.690760e+00 -8.399232e-01 -1.201869e-01 -4.000802e-01 2.561405e+00 -1.810413e-02 -1.274521e-03 -1.792730e-02 -8.676560e-04 -4.142421e-03 2.708019e-03 -4.162815e-03 1.322036e-03 -9.532993e-03 2.296704e-03 8.767836e-03 3.620146e-03 -4.244342e-02
<VARIANCE> 25
 2.117211e+01 1.718881e+01 1.774655e+01 2.457972e+01 2.353915e+01 3.312049e+01 2.767937e+01 2.476123e+01 3.118151e+01 2.116276e+01 2.368116e+01 1.477720e+01 1.563407e-01 2.959900e-01 4.785161e-01 6.897765e-01 9.053726e-01 1.114084e+00 1.266836e+00 1.365599e+00 1.401928e+00 1.378110e+00 1.306153e+00 1.173645e+00 8.388256e-02
<GCONST> 7.844316e+01
<STATE> 3
~s "silst"
<STATE> 4
<MEAN> 25
 -4.210089e+00 -8.123970e-01 -8.541636e-01 3.704477e-01 2.095577e+00 8.196000e-01 9.117489e-01 1.455509e-01 6.224468e-01 -8.519759e-01 -4.890204e-01 1.410192e+00 -1.643291e-02 1.878383e-02 1.916064e-02 -9.085320e-03 4.068479e-02 1.375050e-02 -2.087661e-03 -5.301550e-03 -2.572551e-02 9.093102e-03 -3.749764e-03 -7.922046e-03 5.074373e-03
<VARIANCE> 25
 4.352879e+01 3.718033e+01 5.349568e+01 4.632447e+01 4.882310e+01 6.186596e+01 5.254715e+01 4.945527e+01 4.445001e+01 3.215433e+01 3.159517e+01 3.304098e+01 1.180894e+00 1.290571e+00 1.877488e+00 2.293591e+00 2.432797e+00 2.833097e+00 2.778534e+00 2.919636e+00 2.816293e+00 2.515334e+00 2.304868e+00 2.087157e+00 1.036307e+00
<GCONST> 1.007125e+02
<TRANSP> 5
 0.000000e+00 1.000000e+00 0.000000e+00 0.000000e+00 0.000000e+00
 0.000000e+00 9.296537e-01 1.579181e-02 5.455451e-02 0.000000e+00
 0.000000e+00 0.000000e+00 8.931121e-01 1.068879e-01 0.000000e+00
 0.000000e+00 1.512891e-01 0.000000e+00 7.341644e-01 1.145465e-01
 0.000000e+00 0.000000e+00 0.000000e+00 0.000000e+00 0.000000e+00
<ENDHMM>
